{
    "_metadata": {
        "best_epoch": 3217,
        "epoch": 3217,
        "loss_validation": 0.08269999921321869,
        "rms_validation": 0.24629999697208405,
        "rms_validation_descaled": 6.384699821472168
    },
    "feature_max": {
        "An": 6.0,
        "Ate": 14.000000376183873,
        "Ati": 14.000000560516176,
        "Ti_Te": 2.500000137650815,
        "Zeff": 3.000000166194867,
        "logNustar": -0.00029399779839579706,
        "q": 15.000000897966627,
        "smag": 4.999999890557629,
        "x": 0.9900000151101787
    },
    "feature_min": {
        "An": -4.9999996823208575,
        "Ate": 2.0,
        "Ati": 2.0000001868387254,
        "Ti_Te": 0.25,
        "Zeff": 1.0,
        "logNustar": -5.000294091667425,
        "q": 0.659999962884046,
        "smag": -1.0,
        "x": 0.0900000013736526
    },
    "feature_names": [
        "Zeff",
        "Ati",
        "Ate",
        "An",
        "q",
        "smag",
        "x",
        "Ti_Te",
        "logNustar"
    ],
    "hidden_activation": [
        "tanh",
        "tanh",
        "tanh"
    ],
    "layer1/biases/Variable:0": [
        1.2008123397827148,
        1.0326125621795654,
        -1.6793409585952759,
        1.4022351503372192,
        -0.718752920627594,
        0.9564956426620483,
        -1.1042466163635254,
        -1.2155596017837524,
        1.4339368343353271,
        2.977738857269287,
        -1.5629135370254517,
        -0.5731186866760254,
        0.7953126430511475,
        -1.267638087272644,
        1.5043436288833618,
        1.174670934677124,
        -1.1151553392410278,
        -2.513638496398926,
        -0.033670857548713684,
        0.40829214453697205,
        -0.037577755749225616,
        -0.5101563334465027,
        -1.9684103727340698,
        -0.1897326409816742,
        1.7356048822402954,
        1.6677368879318237,
        2.3980581760406494,
        -0.5110750198364258,
        -2.602647542953491,
        1.3242384195327759,
        -0.646474301815033,
        -1.5525785684585571,
        -1.8363151550292969,
        -0.3119575083255768,
        -2.1252264976501465,
        0.5581643581390381,
        1.1024566888809204,
        -2.0962796211242676,
        2.521164655685425,
        0.03472224995493889,
        -0.23696795105934143,
        0.27139681577682495,
        1.0596588850021362,
        0.9297531247138977,
        -0.7949789762496948,
        0.4490993320941925,
        2.323125123977661,
        -1.4980868101119995,
        0.37582239508628845,
        0.922706127166748,
        -1.6327683925628662,
        2.1061768531799316,
        -1.1276384592056274,
        1.5307867527008057,
        0.8006599545478821,
        0.32687878608703613,
        0.35944515466690063,
        -0.8769877552986145,
        1.873240351676941,
        0.3813571333885193,
        2.8844046592712402,
        -0.3274400234222412,
        -1.3348827362060547,
        -1.366809368133545,
        -0.09030243754386902,
        -0.19768422842025757,
        0.40712109208106995,
        0.9242312908172607,
        -0.2528088688850403,
        0.2333894670009613,
        0.17679858207702637,
        -0.13137070834636688,
        1.6366490125656128,
        -0.22308187186717987,
        0.34861668944358826,
        1.5144790410995483,
        -0.5013318061828613,
        -0.3304593861103058,
        0.5580877065658569,
        -0.9431804418563843,
        -0.9323772192001343,
        0.37805891036987305,
        1.1114308834075928,
        1.546415090560913,
        0.19409459829330444,
        -0.05756736546754837,
        1.4543514251708984,
        1.7228693962097168,
        0.8973171710968018,
        0.3755095899105072,
        -0.1770298033952713,
        -0.564568042755127,
        0.4451136589050293,
        0.3214963376522064,
        0.8976086974143982,
        -0.21632365882396698,
        -2.045748710632324,
        -0.5102160573005676,
        0.9300364255905151,
        -0.8127502202987671,
        1.5734350681304932,
        -0.1334364265203476,
        0.5054625272750854,
        -0.4627285301685333,
        -1.341300129890442,
        0.68527752161026,
        -0.3103604018688202,
        0.19511295855045319,
        0.7166154980659485,
        -0.667620062828064,
        0.013134202919900417,
        -2.0766701698303223,
        0.763289213180542,
        0.9112945199012756,
        -1.6789929866790771,
        2.680957317352295,
        -1.3101059198379517,
        -0.6381806135177612,
        -1.2919468879699707,
        0.3087460398674011,
        -1.0672345161437988,
        0.12777291238307953,
        0.6985424757003784,
        1.5797297954559326,
        0.7271468639373779,
        1.8929363489151,
        -2.3484387397766113,
        0.18499359488487244
    ],
    "layer1/weights/Variable:0": [
        [
            -0.2308875322341919,
            0.050093840807676315,
            -0.09714926034212112,
            -0.011264554224908352,
            -0.13196870684623718,
            -0.030804704874753952,
            0.07745756208896637,
            0.13125662505626678,
            -0.07691103965044022,
            -0.050605569034814835,
            -0.2732125222682953,
            -0.006670105736702681,
            0.010309514589607716,
            -0.39243537187576294,
            0.012377189472317696,
            -0.011509311385452747,
            0.13128162920475006,
            -0.1929505467414856,
            0.11427052319049835,
            0.17700397968292236,
            0.029144978150725365,
            0.039777904748916626,
            0.057922303676605225,
            -0.009867964312434196,
            0.05317000672221184,
            0.11063902825117111,
            0.24967171251773834,
            0.10432609170675278,
            0.4140538275241852,
            0.08954952657222748,
            -0.050036054104566574,
            -0.06929321587085724,
            -0.10833138972520828,
            -0.1297854334115982,
            0.11838173121213913,
            0.10132534801959991,
            0.009768559597432613,
            0.06186021864414215,
            0.13882149755954742,
            0.08651041984558105,
            0.011541926302015781,
            0.03915262594819069,
            0.05637989565730095,
            0.15593799948692322,
            -0.01635459065437317,
            0.10700035840272903,
            0.11055897921323776,
            -0.07480614632368088,
            -0.03518320247530937,
            0.07247227430343628,
            -0.10193715244531631,
            0.13073186576366425,
            0.21722280979156494,
            0.5420094132423401,
            0.030611496418714523,
            -0.0704028531908989,
            -0.07906605303287506,
            0.48623213171958923,
            -0.05895242840051651,
            -0.0827646479010582,
            -0.0677119791507721,
            0.2102922797203064,
            -0.08941717445850372,
            -0.020779617130756378,
            -0.09884901344776154,
            -0.20099876821041107,
            0.14319823682308197,
            0.011351823806762695,
            0.045545950531959534,
            -0.1424371600151062,
            0.24310895800590515,
            -0.060172513127326965,
            0.15289269387722015,
            -0.008579244837164879,
            0.002835758961737156,
            0.11832376569509506,
            -0.16648134589195251,
            0.08184764534235,
            -0.15279710292816162,
            0.22562916576862335,
            0.09866873919963837,
            0.0805344209074974,
            -0.25699159502983093,
            -0.3062376081943512,
            0.12233323603868484,
            0.09814368188381195,
            -0.42548462748527527,
            -0.07520312070846558,
            -0.062316831201314926,
            -0.02323548123240471,
            -0.0784749835729599,
            -0.030568988993763924,
            -0.07664673775434494,
            -0.05364575237035751,
            0.05502402409911156,
            0.03688566014170647,
            0.8923244476318359,
            -0.03300512209534645,
            0.00482353288680315,
            0.010114469565451145,
            0.07108422368764877,
            -0.4854181110858917,
            0.16515225172042847,
            -0.1884065568447113,
            0.12566711008548737,
            -0.22164089977741241,
            0.6355031132698059,
            0.1413068324327469,
            -0.04553418233990669,
            -0.1014653742313385,
            -0.18709348142147064,
            -0.03432046249508858,
            -0.01521876361221075,
            0.3236994445323944,
            0.0007034768932498991,
            -0.14841008186340332,
            -0.00729388277977705,
            -0.06441206485033035,
            0.15565218031406403,
            -0.205658420920372,
            -0.20835945010185242,
            -0.048448044806718826,
            -0.393600732088089,
            -0.04043887183070183,
            0.10546021908521652,
            0.06712276488542557,
            -0.13713422417640686,
            0.03910970687866211
        ],
        [
            -0.10502256453037262,
            -0.04922442510724068,
            0.04375748708844185,
            -0.11664215475320816,
            -0.07135505229234695,
            -0.12348756939172745,
            -0.19213645160198212,
            -0.6095795631408691,
            0.13591991364955902,
            -0.04803338274359703,
            -0.9820207357406616,
            -1.0575635433197021,
            -0.21971887350082397,
            0.2053717076778412,
            0.0823383629322052,
            0.10387398302555084,
            -0.2323075383901596,
            0.16832959651947021,
            -0.1184430941939354,
            -0.16291506588459015,
            0.2724360525608063,
            -0.8873918056488037,
            -0.30030834674835205,
            -0.038718823343515396,
            -0.0995616540312767,
            0.06618526577949524,
            -0.34873253107070923,
            -0.06811113655567169,
            -0.09650502353906631,
            -0.05397580936551094,
            0.1597784012556076,
            0.05165267363190651,
            0.11699923872947693,
            0.28679245710372925,
            -0.14745080471038818,
            -0.4753505289554596,
            0.6062126755714417,
            -0.2186843752861023,
            -0.03352039307355881,
            -0.07291053235530853,
            -0.3324749171733856,
            0.13785800337791443,
            0.09547220915555954,
            -0.4312317371368408,
            0.13731767237186432,
            0.6151009798049927,
            0.07638117671012878,
            0.42445802688598633,
            0.08282426744699478,
            -0.07576870173215866,
            -0.35447052121162415,
            0.15170064568519592,
            0.1265936642885208,
            -0.257866233587265,
            -0.6012051701545715,
            0.06945404410362244,
            0.29537925124168396,
            -0.027899742126464844,
            0.8643813729286194,
            -0.3145538866519928,
            -0.014422107487916946,
            -0.3505214750766754,
            -0.01702650636434555,
            -0.0805232971906662,
            0.0064031449146568775,
            0.18957695364952087,
            0.5119211673736572,
            -0.08901544660329819,
            -0.0889606922864914,
            0.0786011666059494,
            -0.6712871193885803,
            0.44268953800201416,
            0.6675950884819031,
            -0.028578344732522964,
            -0.44131752848625183,
            -0.22665783762931824,
            0.1880500316619873,
            -0.21208910644054413,
            0.13897095620632172,
            -0.009533670730888844,
            -0.22354641556739807,
            -0.08207815140485764,
            -0.22614939510822296,
            0.8540332913398743,
            -0.3358530104160309,
            -0.12893441319465637,
            0.17983445525169373,
            0.06781630218029022,
            0.06735944002866745,
            0.12952086329460144,
            0.24114547669887543,
            -0.0526563934981823,
            -0.040054697543382645,
            0.06891734153032303,
            -0.4462435245513916,
            0.5552510023117065,
            -0.005078847054392099,
            -0.37993496656417847,
            0.5656137466430664,
            -0.10076532512903214,
            0.6907608509063721,
            0.4443058669567108,
            0.1329583078622818,
            0.2893325090408325,
            -0.07704837620258331,
            0.6959324479103088,
            0.21514421701431274,
            -0.22460155189037323,
            0.35580793023109436,
            0.3825092613697052,
            0.2721332609653473,
            0.008835622109472752,
            0.18015708029270172,
            -0.4398961663246155,
            0.06398063898086548,
            -0.0006104898056946695,
            -0.00027843686984851956,
            -0.12192366272211075,
            -0.07346712797880173,
            0.34116795659065247,
            0.2641776502132416,
            -0.45254799723625183,
            0.0749836266040802,
            -0.0637551099061966,
            -0.1401243805885315,
            -0.024501893669366837,
            0.4988377094268799,
            1.0370591878890991
        ],
        [
            -0.0868302509188652,
            -0.025428855791687965,
            -0.09797058254480362,
            0.34714728593826294,
            -0.009869909845292568,
            0.28282690048217773,
            -0.0707879513502121,
            0.18066926300525665,
            -0.04897411912679672,
            -0.0042474218644201756,
            0.028198707848787308,
            1.5813928842544556,
            -0.268253356218338,
            -0.0743248388171196,
            -0.014984683133661747,
            0.60346519947052,
            0.2995471954345703,
            -0.29081234335899353,
            -0.2497476190328598,
            -0.12628868222236633,
            -0.8230118155479431,
            -0.006228941027075052,
            -0.36739394068717957,
            0.026470260694622993,
            -0.0018792556365951896,
            0.02007608860731125,
            0.1656869351863861,
            0.0025365122128278017,
            -0.00883750431239605,
            0.19015119969844818,
            -0.4749263823032379,
            0.0005726367235183716,
            0.016774190589785576,
            -0.00993768498301506,
            0.04064144194126129,
            -0.40644732117652893,
            -0.13725706934928894,
            -1.249321699142456,
            -0.06531635671854019,
            -0.13583950698375702,
            -0.17978674173355103,
            -0.3179726004600525,
            0.15719258785247803,
            0.14764578640460968,
            0.22735174000263214,
            0.1512523889541626,
            -0.09971582889556885,
            0.12203054875135422,
            0.23572444915771484,
            0.13857941329479218,
            0.09861104935407639,
            0.1508733481168747,
            0.05444806069135666,
            0.054756227880716324,
            0.3982447683811188,
            -0.041321560740470886,
            -0.1670171022415161,
            0.026208428665995598,
            -0.02825053595006466,
            -0.04180208593606949,
            -0.1855679601430893,
            0.2595221698284149,
            0.07754038274288177,
            0.005659651476889849,
            0.020196428522467613,
            0.07535364478826523,
            -0.06125546246767044,
            0.004624947905540466,
            -0.01373465359210968,
            -0.010249682702124119,
            -0.061721641570329666,
            -0.01662624441087246,
            0.14876633882522583,
            0.07723872363567352,
            0.015590406954288483,
            0.49403059482574463,
            0.11365174502134323,
            0.08621840924024582,
            0.2185571789741516,
            0.010427896864712238,
            -0.8606380224227905,
            -0.06944252550601959,
            -0.14155150949954987,
            0.03926540166139603,
            0.3466862738132477,
            0.10822401940822601,
            0.06801299750804901,
            0.016241339966654778,
            0.09812432527542114,
            -0.15197889506816864,
            -0.12902866303920746,
            0.4192677438259125,
            -0.1319863200187683,
            -0.9302363395690918,
            0.002276283921673894,
            0.023382224142551422,
            -0.014659842476248741,
            0.8925804495811462,
            0.07432311028242111,
            -0.042889438569545746,
            0.05967520549893379,
            0.0499923974275589,
            -0.14198729395866394,
            -0.04336763545870781,
            0.2868124842643738,
            -0.025780709460377693,
            0.0023025155533105135,
            0.09226200729608536,
            0.14381980895996094,
            -0.01744578406214714,
            -0.22159725427627563,
            -0.050363097339868546,
            -0.14077387750148773,
            -0.04712666571140289,
            -0.029230313375592232,
            -0.22002160549163818,
            -0.06864146143198013,
            -0.03432883322238922,
            0.18721367418766022,
            -0.11670476198196411,
            -0.30267512798309326,
            -0.22498856484889984,
            -0.17206479609012604,
            -0.043440692126750946,
            0.5855998992919922,
            0.8643674850463867,
            0.026427986100316048,
            -0.35168859362602234
        ],
        [
            0.6800272464752197,
            -0.1824217438697815,
            -0.12414144724607468,
            -0.06808806210756302,
            0.5138797760009766,
            -0.1526532769203186,
            0.3288393020629883,
            0.5530668497085571,
            -0.8428006172180176,
            -0.24197964370250702,
            -0.23373958468437195,
            0.3530788719654083,
            0.05792735889554024,
            0.08361198753118515,
            0.42880260944366455,
            0.6260780692100525,
            0.5622280240058899,
            -0.8238936066627502,
            -0.2838123142719269,
            0.41645100712776184,
            -0.1554664969444275,
            0.41103094816207886,
            1.179813027381897,
            -0.07001165300607681,
            0.06478873640298843,
            -0.4400406777858734,
            0.4048418700695038,
            0.3621254861354828,
            0.3714027404785156,
            0.43075069785118103,
            0.01351324375718832,
            -0.03619280457496643,
            0.03403940424323082,
            0.6918572783470154,
            0.24412405490875244,
            -0.2725570499897003,
            1.1121323108673096,
            -0.9021133184432983,
            -0.07613512873649597,
            -0.804568350315094,
            -0.29474055767059326,
            0.5672646760940552,
            -0.4640498757362366,
            0.202117457985878,
            -0.21151229739189148,
            0.6794555187225342,
            -0.13323675096035004,
            0.03122059442102909,
            0.1263272613286972,
            -0.08060763776302338,
            0.25798285007476807,
            -0.0753725916147232,
            0.31261372566223145,
            -0.46657595038414,
            0.1536867469549179,
            -0.05076543614268303,
            -0.6491227746009827,
            0.4782600998878479,
            0.27234840393066406,
            0.006473725661635399,
            0.03718030825257301,
            -0.10889869183301926,
            -0.15992631018161774,
            1.2683755159378052,
            -0.37801840901374817,
            0.12150779366493225,
            0.15693911910057068,
            -0.0852847620844841,
            -0.008627013303339481,
            -0.1884375512599945,
            -0.3511412739753723,
            -0.12939704954624176,
            0.46080976724624634,
            0.39027494192123413,
            0.16994117200374603,
            -0.06222941726446152,
            -0.7123761177062988,
            0.012443085201084614,
            -1.1614582538604736,
            -0.633874237537384,
            -0.6548715233802795,
            0.1698850393295288,
            -0.009967760182917118,
            -0.2885601222515106,
            0.2615460753440857,
            -0.11284665018320084,
            -0.5512769818305969,
            -0.2098684310913086,
            0.16197428107261658,
            0.5059744715690613,
            0.7001189589500427,
            -0.11050964146852493,
            0.05783572047948837,
            0.654760479927063,
            0.08375146985054016,
            -0.42890703678131104,
            0.47561225295066833,
            0.6968314051628113,
            0.786302924156189,
            -0.43458467721939087,
            0.16412924230098724,
            0.5194404125213623,
            -0.08942388743162155,
            0.020097296684980392,
            -0.031324487179517746,
            -0.7059851288795471,
            0.42971619963645935,
            -0.0008475498761981726,
            -0.5826371312141418,
            0.3032984435558319,
            -0.3357740044593811,
            -0.0211620032787323,
            -0.10406287759542465,
            -0.10922999680042267,
            -0.02993178181350231,
            -0.060369569808244705,
            -0.22520257532596588,
            -0.06777185201644897,
            0.2527555823326111,
            -0.1969713419675827,
            -0.32605037093162537,
            -0.4046773910522461,
            -0.16346704959869385,
            -0.005938026122748852,
            0.12209345400333405,
            0.04030246660113335,
            0.21173129975795746,
            0.9162378907203674
        ],
        [
            -0.013999740593135357,
            1.193999171257019,
            -0.17749974131584167,
            -0.09259896725416183,
            -0.2160450667142868,
            -0.301332950592041,
            0.17433950304985046,
            -0.0352550745010376,
            0.21622972190380096,
            -0.12983013689517975,
            -0.0710267648100853,
            0.010614519938826561,
            -0.3593449592590332,
            -0.000760767434258014,
            -0.1413283348083496,
            -0.17337185144424438,
            0.4284234344959259,
            0.16830234229564667,
            -0.32269734144210815,
            -0.020244987681508064,
            -0.004680168814957142,
            -0.10207203030586243,
            0.050606634467840195,
            0.06535232067108154,
            -0.026758188381791115,
            -0.011371017433702946,
            -0.37079429626464844,
            -0.11074744910001755,
            0.05130964517593384,
            0.037423644214868546,
            -0.1018168106675148,
            -2.0951480865478516,
            0.013362998142838478,
            0.099380724132061,
            -0.10668684542179108,
            -0.024737637490034103,
            -0.013575532473623753,
            0.031300488859415054,
            -0.20362573862075806,
            0.012072782963514328,
            0.6247250437736511,
            -0.24241237342357635,
            -0.058658283203840256,
            -0.05314710736274719,
            0.2286476194858551,
            -0.01104468572884798,
            -0.031686779111623764,
            0.8833098411560059,
            0.17536614835262299,
            0.23541036248207092,
            0.06790977716445923,
            -0.5282823443412781,
            -0.018411198630928993,
            -0.06968268752098083,
            0.1072983369231224,
            -0.11458668112754822,
            0.04282226040959358,
            0.07960599660873413,
            -0.07886173576116562,
            -0.6651918292045593,
            -0.14577201008796692,
            -0.08330828696489334,
            0.492763876914978,
            0.026407556608319283,
            -0.018675915896892548,
            -0.014137395657598972,
            0.30210384726524353,
            0.1357969343662262,
            -0.28191033005714417,
            0.7317917346954346,
            -0.03608398512005806,
            1.4853683710098267,
            -0.28439420461654663,
            0.9834758639335632,
            -1.2063030004501343,
            -0.03354295715689659,
            0.37452027201652527,
            0.8980951309204102,
            0.02259160578250885,
            0.04621248319745064,
            0.002885119989514351,
            -0.8647822141647339,
            0.01706921122968197,
            0.09425529837608337,
            -0.0033234902657568455,
            0.06336839497089386,
            -0.0774112194776535,
            -0.09304480254650116,
            0.47413551807403564,
            0.10625661164522171,
            0.056046392768621445,
            0.032188259065151215,
            -0.15204422175884247,
            -0.01633431389927864,
            -1.1373637914657593,
            0.21874240040779114,
            -0.021228598430752754,
            -0.05407222732901573,
            0.026705631986260414,
            0.05149158090353012,
            -0.4033566415309906,
            0.06363065540790558,
            0.05480426177382469,
            0.8819499611854553,
            0.010629280470311642,
            0.28559085726737976,
            -0.14584341645240784,
            -0.22184129059314728,
            -0.21345838904380798,
            0.48295754194259644,
            0.3571647107601166,
            0.008189835585653782,
            -0.04829690232872963,
            0.5161737203598022,
            -1.9663578271865845,
            -0.1411588340997696,
            0.0454588308930397,
            0.5882782936096191,
            0.7943181991577148,
            -0.07324495911598206,
            0.09632061421871185,
            0.13207685947418213,
            0.08821579813957214,
            0.8885695338249207,
            -0.14800125360488892,
            -0.07539212703704834,
            0.02898055873811245,
            -0.0359683521091938
        ],
        [
            0.01291944831609726,
            -0.11953549832105637,
            -0.07479473203420639,
            0.2254689633846283,
            -0.08309710770845413,
            0.6986654996871948,
            -0.20137649774551392,
            -0.12149950116872787,
            0.31443050503730774,
            -0.3228418529033661,
            0.1417885273694992,
            -0.014104255475103855,
            -0.70564866065979,
            -0.2500840723514557,
            2.2002973556518555,
            -0.22494791448116302,
            0.5608484148979187,
            0.3574145436286926,
            0.030034350231289864,
            -0.5069263577461243,
            -0.0750957727432251,
            -0.18824616074562073,
            -0.3658905029296875,
            -1.8946833610534668,
            -0.03893701359629631,
            0.17036603391170502,
            -0.4491339325904846,
            1.0387924909591675,
            0.7163529396057129,
            1.083655595779419,
            0.4460616707801819,
            -0.11747197806835175,
            0.03535434603691101,
            -1.1736470460891724,
            0.182517409324646,
            -0.09485803544521332,
            -0.6927295923233032,
            0.1255725622177124,
            0.7197176218032837,
            -0.9199870824813843,
            0.3670903146266937,
            -0.023608341813087463,
            0.729009747505188,
            0.322826087474823,
            -0.7518240213394165,
            -0.3242780864238739,
            -0.23824116587638855,
            0.032284852117300034,
            0.6366356611251831,
            0.09360972046852112,
            -0.8124665021896362,
            -0.59918612241745,
            -0.0896960198879242,
            0.021763065829873085,
            -0.08888626843690872,
            -0.058414410799741745,
            1.3959990739822388,
            -0.7927017211914062,
            -1.1543159484863281,
            -0.8520237803459167,
            3.0193469524383545,
            -0.3813649117946625,
            -0.8315642476081848,
            -0.4918442666530609,
            0.1539803445339203,
            -0.13832607865333557,
            -0.5403528809547424,
            2.6511523723602295,
            1.0211873054504395,
            -0.4544226825237274,
            1.0217547416687012,
            0.25563836097717285,
            0.09011689573526382,
            -0.08118259161710739,
            0.1517777293920517,
            0.30528923869132996,
            0.08664914965629578,
            0.5257124900817871,
            0.11769373714923859,
            -0.3055931031703949,
            0.0071241967380046844,
            0.2982763946056366,
            0.3782389163970947,
            -0.9126754999160767,
            0.007124016992747784,
            0.02416077069938183,
            -0.022397560998797417,
            -0.24050681293010712,
            -0.16598129272460938,
            0.002410578541457653,
            -0.29909107089042664,
            0.015282189473509789,
            0.7699661254882812,
            0.9697965383529663,
            -0.043842755258083344,
            -0.4441109299659729,
            0.086524099111557,
            -0.14575839042663574,
            0.23207582533359528,
            0.20698384940624237,
            -0.5159944891929626,
            -0.3420090079307556,
            0.26338985562324524,
            -0.14237911999225616,
            0.26001760363578796,
            -0.1443166434764862,
            0.25569599866867065,
            -0.8787217140197754,
            -0.35181114077568054,
            0.2178608626127243,
            0.599117636680603,
            0.03376702591776848,
            -0.49887731671333313,
            -0.16491545736789703,
            0.31163957715034485,
            0.2677982747554779,
            -1.0586940050125122,
            -0.2609756588935852,
            0.2520242929458618,
            -0.03286026418209076,
            -0.4390105605125427,
            0.317365437746048,
            -0.2234729677438736,
            -0.8461962342262268,
            -0.03907391428947449,
            -0.06682027876377106,
            -1.139428734779358,
            -0.2343374490737915
        ],
        [
            0.0003815082018263638,
            -0.0014273093547672033,
            0.10209541767835617,
            -0.20514212548732758,
            0.22379474341869354,
            -3.689575351017993e-06,
            -0.10743625462055206,
            -0.021731453016400337,
            -0.14511558413505554,
            -0.48150843381881714,
            0.10643407702445984,
            0.004850202240049839,
            0.05235390365123749,
            0.15114256739616394,
            -0.034370969980955124,
            0.029819224029779434,
            0.4425959885120392,
            0.08203858882188797,
            0.09492870420217514,
            0.18639056384563446,
            0.040625978261232376,
            -0.009492547251284122,
            0.08028201758861542,
            -0.14990870654582977,
            0.040428776293992996,
            -0.15414190292358398,
            0.790058434009552,
            -0.22740954160690308,
            -0.5296246409416199,
            -0.05885838717222214,
            0.35655781626701355,
            -0.0030017541721463203,
            0.3060569763183594,
            0.22587065398693085,
            0.2078346610069275,
            -0.215711772441864,
            0.021219680085778236,
            -0.05820254236459732,
            0.6396107077598572,
            0.19211909174919128,
            -0.1054253950715065,
            0.3400912880897522,
            -0.31733348965644836,
            0.6983718872070312,
            0.0801791250705719,
            0.028842147439718246,
            1.222488284111023,
            0.15249720215797424,
            0.20993982255458832,
            -0.31539249420166016,
            0.0788426622748375,
            -0.26712578535079956,
            -0.20745140314102173,
            -0.29895371198654175,
            -0.08091551065444946,
            -0.6769455671310425,
            -0.14212357997894287,
            -0.015559917315840721,
            0.5109829902648926,
            -0.09056809544563293,
            0.2173149436712265,
            -0.544695258140564,
            -0.09879325330257416,
            0.2601054906845093,
            -0.0215549785643816,
            0.6511446833610535,
            0.061832722276449203,
            -0.046494610607624054,
            0.1134565994143486,
            -0.024856261909008026,
            -0.3908040523529053,
            0.07593901455402374,
            -0.03484318405389786,
            0.2290533185005188,
            -0.048442453145980835,
            -0.053460750728845596,
            0.07932884246110916,
            0.4360378384590149,
            0.19246642291545868,
            0.034128520637750626,
            0.12336617708206177,
            -0.24091240763664246,
            -0.11318913847208023,
            0.48172426223754883,
            0.10175368189811707,
            -0.4749545156955719,
            -0.006786526646465063,
            -0.4981198310852051,
            0.4370594024658203,
            -0.04813608154654503,
            -0.5600607395172119,
            -0.1639353632926941,
            0.502426028251648,
            0.08484575152397156,
            0.3775826394557953,
            0.30095216631889343,
            0.05234122276306152,
            -0.06860175728797913,
            0.24692893028259277,
            0.5801624059677124,
            -0.005788237787783146,
            0.08172561228275299,
            -0.17356985807418823,
            -0.04293316602706909,
            0.037148866802453995,
            0.0841694101691246,
            -0.07939402014017105,
            -0.044941700994968414,
            0.2599128186702728,
            0.040789104998111725,
            -0.3847062587738037,
            -1.3088011741638184,
            -0.23981237411499023,
            -0.2562416195869446,
            -0.09707147628068924,
            0.10154633224010468,
            -0.24365119636058807,
            -0.12479744106531143,
            -0.08474665135145187,
            0.06215612217783928,
            -0.17577697336673737,
            -0.06535160541534424,
            0.3617008924484253,
            0.2135610580444336,
            0.306902140378952,
            0.06664607673883438,
            -0.05439389869570732,
            0.08009172976016998
        ],
        [
            -0.09730960428714752,
            -0.1527441442012787,
            -0.7316537499427795,
            -0.4874524176120758,
            -0.06569128483533859,
            0.32153967022895813,
            -0.38380497694015503,
            -0.12181951850652695,
            0.5094096064567566,
            -0.006177700590342283,
            0.1470918506383896,
            -2.620940923690796,
            0.2541320323944092,
            0.434664785861969,
            0.15232998132705688,
            -0.08373318612575531,
            -0.6273735165596008,
            0.11859577894210815,
            0.12218604236841202,
            0.11447008699178696,
            2.28558611869812,
            0.10708017647266388,
            -0.18299192190170288,
            0.08133064955472946,
            2.0257163047790527,
            -0.14300434291362762,
            -0.12294986099004745,
            0.548052191734314,
            0.6166659593582153,
            -0.3644352853298187,
            -0.0012818030081689358,
            -0.020072419196367264,
            -0.46882134675979614,
            0.4130513668060303,
            0.3587731420993805,
            0.029992548748850822,
            0.09518177807331085,
            -0.16601361334323883,
            0.08221130818128586,
            0.2626826763153076,
            0.1726996749639511,
            -0.023098565638065338,
            -0.5524328351020813,
            -0.8592978119850159,
            -0.37123119831085205,
            0.033796388655900955,
            -0.04138663411140442,
            0.08386770635843277,
            0.41114893555641174,
            0.15128324925899506,
            0.07343165576457977,
            -0.15794287621974945,
            0.6484193205833435,
            -0.1428704857826233,
            -0.0038058690261095762,
            -0.5518761873245239,
            0.03453236445784569,
            0.23851583898067474,
            -0.3962816596031189,
            0.08795681595802307,
            -0.11161632835865021,
            0.015088314190506935,
            0.24175536632537842,
            -0.17900794744491577,
            -1.129684329032898,
            -0.20760297775268555,
            -0.3859647810459137,
            0.14730484783649445,
            -0.1627490222454071,
            0.17744429409503937,
            0.02842474728822708,
            0.06102384254336357,
            -0.10247478634119034,
            -0.21117758750915527,
            -0.42604774236679077,
            0.11448609083890915,
            -0.5444987416267395,
            0.07235627621412277,
            -0.5067036747932434,
            -0.3846096098423004,
            -0.2599092125892639,
            0.17451350390911102,
            0.6214503645896912,
            -0.6784095764160156,
            0.6711143851280212,
            -0.06037425622344017,
            -0.10639768838882446,
            -0.41278523206710815,
            -0.40526053309440613,
            0.34046199917793274,
            0.06993213295936584,
            -0.24218672513961792,
            0.3005976676940918,
            -0.026080310344696045,
            0.06512647867202759,
            -0.5372628569602966,
            0.22206734120845795,
            -1.9188899993896484,
            -0.2800402343273163,
            -0.4243513345718384,
            -0.24455170333385468,
            -0.5621728897094727,
            1.2503596544265747,
            0.1259041428565979,
            0.07928580045700073,
            0.05809720233082771,
            -0.0028799755964428186,
            -0.034307852387428284,
            -0.03304404765367508,
            -0.37582558393478394,
            0.4596027731895447,
            0.025622611865401268,
            0.006783589720726013,
            0.3516652584075928,
            -0.008393044583499432,
            -0.3086690902709961,
            0.19139543175697327,
            -0.031789492815732956,
            0.10057618468999863,
            0.8333592414855957,
            -0.35979458689689636,
            -0.14547495543956757,
            0.2403246909379959,
            -0.1492832452058792,
            -0.07118719071149826,
            -0.061766404658555984,
            0.033106040209531784,
            0.25475651025772095
        ],
        [
            0.05924011021852493,
            -0.16980281472206116,
            1.0165431499481201,
            0.30852770805358887,
            1.4732869863510132,
            -0.2304985374212265,
            0.08584633469581604,
            -0.3315417766571045,
            0.13629262149333954,
            0.1659320741891861,
            0.06534749269485474,
            -0.008725391700863838,
            0.172744020819664,
            -0.0857648178935051,
            -0.16526584327220917,
            0.1612238734960556,
            0.10145621001720428,
            -0.14134180545806885,
            0.8314490914344788,
            0.5850926637649536,
            0.013827926479279995,
            0.13664931058883667,
            0.0051635559648275375,
            -0.02647785097360611,
            -0.05165689066052437,
            0.09652750939130783,
            -0.024221954867243767,
            0.0010580344824120402,
            0.11464197933673859,
            0.018613049760460854,
            -0.34354233741760254,
            -0.020652811974287033,
            0.6720128655433655,
            -0.25465133786201477,
            1.1684784889221191,
            0.3159583508968353,
            -0.025673359632492065,
            -0.0675375685095787,
            -0.028382623568177223,
            0.19694656133651733,
            -0.02524058148264885,
            -0.35399600863456726,
            -0.2947937846183777,
            -0.07047109305858612,
            -0.333528071641922,
            -0.06879176944494247,
            0.035378873348236084,
            -0.04737885296344757,
            0.08371412754058838,
            -1.7925728559494019,
            0.16475003957748413,
            0.033591024577617645,
            -0.4330376088619232,
            0.06515029817819595,
            -0.48469310998916626,
            0.15692038834095,
            0.16866259276866913,
            -0.023067351430654526,
            0.030581694096326828,
            0.08414468914270401,
            0.5409929156303406,
            -0.07859589904546738,
            0.11527839303016663,
            -0.18518373370170593,
            0.052682120352983475,
            -0.37305986881256104,
            -0.1051768958568573,
            -0.02173270471394062,
            0.041192054748535156,
            0.13754993677139282,
            0.012722511775791645,
            -0.06773048639297485,
            0.05020793154835701,
            -0.033385805785655975,
            0.13720948994159698,
            0.6572951078414917,
            -0.2680172920227051,
            -0.015176050364971161,
            -0.04048740863800049,
            0.26974132657051086,
            -0.1963575780391693,
            -0.15551038086414337,
            -0.2100679725408554,
            -0.08686617016792297,
            0.15430976450443268,
            -0.8713057637214661,
            -0.10630087554454803,
            0.0655142068862915,
            -0.2843412756919861,
            0.40658053755760193,
            0.024962032213807106,
            -0.9385305643081665,
            0.0929894670844078,
            0.16777564585208893,
            -0.04203842580318451,
            0.2587645947933197,
            0.05077449232339859,
            0.029605122283101082,
            0.07747669517993927,
            -0.08356841653585434,
            -0.11592572182416916,
            0.007067588623613119,
            0.02033366449177265,
            -0.17339859902858734,
            -0.3900115489959717,
            -0.2426365166902542,
            -0.02239060588181019,
            -0.6391463279724121,
            0.18124808371067047,
            0.06082264706492424,
            -0.3053464889526367,
            0.05684630572795868,
            0.9627493619918823,
            -0.027839967980980873,
            -0.037393275648355484,
            0.2971530258655548,
            -0.5933762192726135,
            -0.37033411860466003,
            0.010989599861204624,
            0.21632252633571625,
            0.29584062099456787,
            0.3168905973434448,
            -0.48187223076820374,
            -0.022593412548303604,
            1.1124874353408813,
            0.7387099862098694,
            0.11552370339632034,
            0.09448909759521484
        ]
    ],
    "layer2/biases/Variable:0": [
        -0.7999884486198425,
        -0.6831362843513489,
        0.26942533254623413,
        -1.4375277757644653,
        -0.5964226722717285,
        -0.42211103439331055,
        0.08592548966407776,
        -0.016457481309771538,
        -2.3456127643585205,
        0.08098021894693375,
        -1.3058098554611206,
        -0.779975950717926,
        -1.2941430807113647,
        0.10268276929855347,
        -0.13867639005184174,
        0.6177712678909302,
        0.907282292842865,
        0.5115119218826294,
        0.2639850378036499,
        1.3327723741531372,
        0.6262791156768799,
        -0.4967711865901947,
        -0.6102102994918823,
        -0.07392879575490952,
        -1.7929705381393433,
        -0.13363316655158997,
        0.2694888412952423,
        -1.4942591190338135,
        1.0610215663909912,
        2.300142288208008,
        0.27097153663635254,
        2.2552459239959717,
        -1.5092004537582397,
        -1.7047967910766602,
        1.2665729522705078,
        1.217484712600708,
        0.13938312232494354,
        0.7155405879020691,
        -0.9334291219711304,
        1.0138014554977417,
        1.0573976039886475,
        1.5298672914505005,
        -0.9773023128509521,
        -1.0381604433059692,
        -1.9663045406341553,
        -0.8508186340332031,
        1.650689959526062,
        3.0016658306121826,
        1.1311672925949097,
        -0.24809043109416962,
        0.8025510311126709,
        -0.11286699026823044,
        -2.286987543106079,
        1.0279836654663086,
        0.6435686945915222,
        0.8897265195846558,
        -0.2031930536031723,
        1.4698675870895386,
        0.6002145409584045,
        0.18796862661838531,
        -0.6340821981430054,
        -0.6304936408996582,
        -0.483932763338089,
        0.015924593433737755,
        -1.0225263833999634,
        -0.215433269739151,
        0.1709185689687729,
        0.21841895580291748,
        3.3445372581481934,
        -0.03968917578458786,
        0.38777509331703186,
        1.112300157546997,
        0.5812503099441528,
        0.48830366134643555,
        1.115457534790039,
        1.0814789533615112,
        -0.06347520649433136,
        -1.2576507329940796,
        0.3270806074142456,
        -0.32701581716537476,
        0.023773564025759697,
        1.793806791305542,
        0.8789949417114258,
        0.9279112219810486,
        1.5851253271102905,
        0.15492595732212067,
        0.6827458143234253,
        0.409689724445343,
        0.05259408429265022,
        -2.2180397510528564,
        0.7614824771881104,
        -1.0103206634521484,
        0.006727069150656462,
        0.9707929491996765,
        0.11299236863851547,
        2.2672815322875977,
        -0.5123677253723145,
        1.0273391008377075,
        1.0330270528793335,
        0.810950517654419,
        1.6224290132522583,
        1.3291306495666504,
        -0.002523752162232995,
        0.30143141746520996,
        1.835785984992981,
        0.2904011309146881,
        0.8803437948226929,
        0.36265265941619873,
        -0.03254000470042229,
        -0.31836241483688354,
        -0.18613936007022858,
        0.3246971070766449,
        2.256805181503296,
        -1.048654317855835,
        0.6600522994995117,
        -0.6333443522453308,
        -1.2695746421813965,
        -0.23570896685123444,
        1.0756809711456299,
        -1.260920524597168,
        0.4305489659309387,
        -0.33874180912971497,
        0.16687172651290894,
        0.011565597727894783,
        -0.042639490216970444,
        0.6557302474975586,
        1.2096105813980103,
        -0.16029112040996552
    ],
    "layer2/weights/Variable:0": [
        [
            0.07353124022483826,
            0.15918239951133728,
            0.004357093945145607,
            -0.18270133435726166,
            0.030038917437195778,
            -0.11743935197591782,
            0.34404078125953674,
            0.023748960345983505,
            -0.12320426106452942,
            0.023255830630660057,
            -0.009915906004607677,
            0.2260970026254654,
            -0.008296120911836624,
            0.05797777697443962,
            -0.1574535220861435,
            -0.00436864560469985,
            -0.04378749430179596,
            0.005293161608278751,
            0.06947937607765198,
            -0.03539949283003807,
            -0.070319764316082,
            0.05529196932911873,
            -0.10775148868560791,
            -0.0022202874533832073,
            -0.19029764831066132,
            0.05602577328681946,
            -0.027910595759749413,
            -0.004941747058182955,
            0.05558806657791138,
            0.003438549814745784,
            -0.16347847878932953,
            -0.029788320884108543,
            0.0958608016371727,
            -0.04540761932730675,
            -0.19520650804042816,
            -0.012254899367690086,
            0.17254437506198883,
            -0.12008868157863617,
            0.2682358920574188,
            -0.16544702649116516,
            0.2904427647590637,
            -0.02348567545413971,
            0.04300754517316818,
            0.02809964306652546,
            -0.06323447078466415,
            0.025710035115480423,
            -0.06825796514749527,
            0.002752486849203706,
            -0.08936421573162079,
            -0.08984024822711945,
            -0.08338618278503418,
            0.06796177476644516,
            0.07932872325181961,
            0.059980351477861404,
            0.11358442157506943,
            -0.1431524008512497,
            -0.03340790048241615,
            0.025313783437013626,
            -0.12402265518903732,
            0.06768365949392319,
            -0.12497587502002716,
            0.107957623898983,
            -0.014273339882493019,
            -0.0325833261013031,
            -0.016719723120331764,
            -0.024571960791945457,
            -0.0694805160164833,
            -0.06292524188756943,
            -0.07201631367206573,
            -0.10540656745433807,
            0.22013568878173828,
            0.08310508728027344,
            -0.0004897522157989442,
            0.01314208097755909,
            0.051826078444719315,
            0.11535164713859558,
            0.024401415139436722,
            0.2770977020263672,
            0.017589021474123,
            -0.079837866127491,
            -0.007533655501902103,
            0.20119835436344147,
            -0.08767044544219971,
            0.023855388164520264,
            0.06730519980192184,
            0.11259856820106506,
            -0.03060062974691391,
            -0.06956223398447037,
            -0.0733809545636177,
            -0.2733156681060791,
            0.050806254148483276,
            0.1004631295800209,
            -0.08184356242418289,
            0.12782931327819824,
            0.061843495815992355,
            -0.10343825817108154,
            -0.04791823402047157,
            0.042498841881752014,
            0.15981560945510864,
            -0.03428570553660393,
            -0.2646731436252594,
            0.12398646771907806,
            0.04508313164114952,
            -0.009786943905055523,
            -0.008107018657028675,
            0.019201278686523438,
            0.007857742719352245,
            0.05052188038825989,
            -0.06556425988674164,
            0.07612355053424835,
            0.03793153911828995,
            -0.012963027693331242,
            -0.06227416172623634,
            0.3253861665725708,
            0.1414147913455963,
            0.021924391388893127,
            0.07157204300165176,
            0.056699398905038834,
            0.03972087427973747,
            0.05498537793755531,
            0.0028428477235138416,
            -0.09924203157424927,
            0.19506286084651947,
            -0.1407191902399063,
            0.20019766688346863,
            -0.18293285369873047,
            -0.09764358401298523,
            -0.048539407551288605
        ],
        [
            -0.006862560287117958,
            -0.00810116995126009,
            -0.10059903562068939,
            0.06531906127929688,
            0.38292959332466125,
            0.05400210618972778,
            -0.16859661042690277,
            -0.0007644203142262995,
            -0.00739167258143425,
            -0.11365166306495667,
            0.09953244030475616,
            0.015229140408337116,
            -0.02557528018951416,
            -0.07178205996751785,
            0.22753000259399414,
            0.12355219572782516,
            0.03867660090327263,
            0.21646735072135925,
            0.11300219595432281,
            -0.11645402759313583,
            -0.188176229596138,
            0.029577070847153664,
            -0.07392695546150208,
            0.10421358793973923,
            0.008664829656481743,
            -0.15237784385681152,
            0.072345070540905,
            0.1165640726685524,
            -0.028480878099799156,
            0.39103320240974426,
            0.12419600784778595,
            0.5348618030548096,
            0.010491961613297462,
            -0.06864220649003983,
            0.04745744541287422,
            -0.2554268538951874,
            0.0445881262421608,
            0.03720080107450485,
            0.07394959032535553,
            -0.025087464600801468,
            0.0769810900092125,
            0.06607343256473541,
            0.020930079743266106,
            0.01777026057243347,
            0.23054395616054535,
            0.07735858112573624,
            -0.03685271739959717,
            0.06353476643562317,
            -0.24711115658283234,
            -0.09635057300329208,
            0.1768684834241867,
            0.051946017891168594,
            0.0443161241710186,
            -0.032392289489507675,
            -0.0924227386713028,
            0.013144520111382008,
            -0.03704998642206192,
            0.011506836861371994,
            -0.012893766164779663,
            -0.03865901753306389,
            0.05602626875042915,
            0.3318731188774109,
            0.03283372521400452,
            0.07520871609449387,
            0.06113085150718689,
            -0.051348283886909485,
            -0.010092574171721935,
            -0.11484058946371078,
            0.11120467633008957,
            0.09571434557437897,
            -0.2765326499938965,
            -0.06426472216844559,
            0.01917295716702938,
            -0.03203562647104263,
            -0.28003430366516113,
            0.23439808189868927,
            0.011797815561294556,
            -0.005367713514715433,
            -0.10733681917190552,
            -0.1597156822681427,
            0.009543419815599918,
            -0.06672577559947968,
            0.011232087388634682,
            0.002310393378138542,
            -0.2225390523672104,
            -0.04232584312558174,
            0.17890653014183044,
            0.07317806035280228,
            -0.014492145739495754,
            0.1338241845369339,
            -0.008166525512933731,
            0.0518646277487278,
            -0.0757332295179367,
            -0.12131384760141373,
            0.08373896777629852,
            0.01430834922939539,
            0.00783792044967413,
            -0.07811977714300156,
            -0.05025728419423103,
            -0.058503326028585434,
            0.26133298873901367,
            -0.05364204943180084,
            0.09449835121631622,
            0.16676124930381775,
            0.04301261529326439,
            -0.21349041163921356,
            0.010876580141484737,
            -0.07337599247694016,
            0.03509299457073212,
            0.02503794990479946,
            -0.0408843569457531,
            0.047588396817445755,
            -0.03360142558813095,
            0.1346990317106247,
            -0.4411555528640747,
            0.40143635869026184,
            0.0319494754076004,
            0.09485773742198944,
            -0.005074967164546251,
            -0.08219035714864731,
            0.05461258441209793,
            -0.21755225956439972,
            -0.07984263449907303,
            -0.0239515732973814,
            0.3369565010070801,
            0.18318739533424377,
            0.1288832724094391,
            0.14548973739147186
        ],
        [
            0.19751441478729248,
            0.03593025356531143,
            -0.4966309070587158,
            -0.40096765756607056,
            -0.39017224311828613,
            0.1656818389892578,
            0.6521878838539124,
            0.04434416443109512,
            0.12957309186458588,
            -0.02659977227449417,
            0.06258724629878998,
            0.2003631889820099,
            -0.013828996568918228,
            -0.13242903351783752,
            0.6752837300300598,
            -0.07676340639591217,
            0.27704182267189026,
            0.3601573705673218,
            0.039814628660678864,
            0.011310925707221031,
            -0.0676577016711235,
            -0.6387007832527161,
            0.0016117070335894823,
            0.010575655847787857,
            0.131519615650177,
            -0.08413602411746979,
            0.046506766229867935,
            0.11506626754999161,
            -0.14192725718021393,
            -0.19997744262218475,
            -0.12217985093593597,
            0.44353044033050537,
            -0.1507202535867691,
            -0.058486826717853546,
            -0.1880521923303604,
            0.0004040953062940389,
            0.02086348831653595,
            0.35120639204978943,
            0.295072466135025,
            -0.10143541544675827,
            -0.21198886632919312,
            -0.2381170392036438,
            0.03535924851894379,
            0.01002179179340601,
            -0.24985109269618988,
            0.46936798095703125,
            0.02706189453601837,
            -0.1592528074979782,
            -0.1843319833278656,
            0.03768488019704819,
            -0.16449369490146637,
            0.02747451327741146,
            0.11751556396484375,
            -0.10034800320863724,
            -0.014255322515964508,
            0.03866774961352348,
            0.13090962171554565,
            -0.10169239342212677,
            0.02167869359254837,
            0.19387860596179962,
            -0.08022964745759964,
            0.299868643283844,
            0.32634565234184265,
            -0.06052105873823166,
            -0.055629730224609375,
            0.3088339865207672,
            -0.0657377690076828,
            -0.22818973660469055,
            0.03179387375712395,
            -0.30520743131637573,
            0.012554116547107697,
            0.17258739471435547,
            0.29397258162498474,
            -0.09678662568330765,
            0.1010700985789299,
            0.016552312299609184,
            -0.2802613079547882,
            -0.1733722984790802,
            -0.03204916790127754,
            0.15643131732940674,
            0.18776091933250427,
            0.06415051221847534,
            0.009219732135534286,
            0.09117791801691055,
            0.0015418034745380282,
            -0.12409529089927673,
            0.1383337676525116,
            0.028214363381266594,
            -0.025207893922924995,
            0.14309540390968323,
            -0.2843291163444519,
            0.02388365939259529,
            0.14526058733463287,
            -0.0732397586107254,
            0.23750893771648407,
            0.0038905872497707605,
            0.5703673362731934,
            -0.6203073859214783,
            -0.6628364324569702,
            0.06746309250593185,
            -0.6612787842750549,
            -0.013710785657167435,
            0.3243178725242615,
            -0.1531643122434616,
            -0.04614974185824394,
            0.32409927248954773,
            0.35819151997566223,
            0.06898113340139389,
            0.4127691388130188,
            -0.15036550164222717,
            0.07124754786491394,
            0.06803972274065018,
            -0.1398010104894638,
            -0.06798013299703598,
            -0.35287150740623474,
            -0.12559691071510315,
            -0.12009958177804947,
            0.07675690948963165,
            0.06550842523574829,
            0.3167235255241394,
            0.08095603436231613,
            -0.03940712288022041,
            -0.07289060950279236,
            0.656266450881958,
            -0.2929685115814209,
            0.22774945199489594,
            -0.06412850320339203,
            -0.048539310693740845
        ],
        [
            -0.2695534825325012,
            0.09124749898910522,
            0.24700354039669037,
            -0.08110042661428452,
            -0.2199850082397461,
            -0.19517368078231812,
            -0.28356122970581055,
            0.11678878217935562,
            -0.003743574721738696,
            0.18419599533081055,
            0.02150144800543785,
            -0.1687406748533249,
            0.04451659694314003,
            0.13327127695083618,
            0.06799387186765671,
            0.053872834891080856,
            0.007791878189891577,
            0.13404782116413116,
            0.15068325400352478,
            -0.05659173056483269,
            0.02657345123589039,
            -0.25696077942848206,
            -0.2000150829553604,
            -0.05329711362719536,
            -0.1423119753599167,
            -0.05725472420454025,
            -0.0030553212855011225,
            0.053242869675159454,
            -0.07465818524360657,
            -0.1809542179107666,
            0.1655459851026535,
            0.07653481513261795,
            0.09643549472093582,
            0.03427351638674736,
            -0.003044047160074115,
            -0.01458753366023302,
            0.06038907915353775,
            -0.1299017369747162,
            -0.3683858811855316,
            -0.12403131276369095,
            0.2720779478549957,
            0.0923510268330574,
            0.1651221364736557,
            -0.12525950372219086,
            -0.07700992375612259,
            0.18245458602905273,
            0.0034760411363095045,
            0.016066253185272217,
            0.08782899379730225,
            -0.21939533948898315,
            -0.11773782968521118,
            0.06321755051612854,
            -0.2020469456911087,
            0.23954728245735168,
            0.09193925559520721,
            0.03438471630215645,
            0.06905524432659149,
            0.061457309871912,
            0.0708785280585289,
            0.47215431928634644,
            0.19984936714172363,
            -0.17274612188339233,
            0.05893032252788544,
            0.02324693463742733,
            0.07096388190984726,
            0.07450803369283676,
            -0.18093150854110718,
            0.03694876283407211,
            -0.055729858577251434,
            0.22456610202789307,
            0.36951014399528503,
            -0.03306654468178749,
            -0.08558689057826996,
            0.09024155139923096,
            -0.07829027622938156,
            -0.10498486459255219,
            -0.1320173144340515,
            0.08242692053318024,
            -0.012302808463573456,
            0.028861498460173607,
            0.046799853444099426,
            0.3465237021446228,
            -0.15727755427360535,
            0.06615140289068222,
            -0.0720890611410141,
            0.15614815056324005,
            -0.1954527199268341,
            -0.05251478776335716,
            -0.006410561036318541,
            0.1445493847131729,
            -0.046135276556015015,
            0.024847054854035378,
            -0.13359566032886505,
            0.08315914869308472,
            -0.050293080508708954,
            0.015815258026123047,
            -0.003447578987106681,
            -0.04579959437251091,
            0.11378949880599976,
            0.042923703789711,
            -0.18487325310707092,
            0.01736610010266304,
            0.08451429754495621,
            0.06765091419219971,
            -0.020168988034129143,
            0.16701309382915497,
            -0.1144912913441658,
            -0.05470047891139984,
            -0.08264949172735214,
            -0.1655503809452057,
            0.049186669290065765,
            0.08351673930883408,
            -0.25462421774864197,
            -0.0664842426776886,
            -0.4049525260925293,
            -0.048070747405290604,
            -0.0790606141090393,
            0.32627832889556885,
            -0.05896662920713425,
            0.13260266184806824,
            0.1137724444270134,
            0.1390242874622345,
            0.04158865660429001,
            -0.1607988476753235,
            -0.19377504289150238,
            -0.135160893201828,
            -0.04535321146249771,
            0.062209855765104294
        ],
        [
            0.09922152012586594,
            -0.32468175888061523,
            0.08226459473371506,
            -0.011125846765935421,
            0.20851121842861176,
            -0.07917063683271408,
            -0.5451114773750305,
            0.2989913523197174,
            -0.18132296204566956,
            0.06976371258497238,
            -0.04772275313735008,
            -0.033675458282232285,
            0.006678748410195112,
            0.06794082373380661,
            0.2600833773612976,
            0.019242336973547935,
            0.12946118414402008,
            0.15519379079341888,
            -0.026335429400205612,
            -0.21970857679843903,
            0.024772172793745995,
            0.04077324643731117,
            0.029170315712690353,
            -0.018124083057045937,
            -0.09202451258897781,
            0.021277189254760742,
            0.005345954094082117,
            -0.04899991303682327,
            -0.0824594646692276,
            -0.05714678764343262,
            -0.02068447507917881,
            -0.07961424440145493,
            0.18678729236125946,
            0.15271084010601044,
            -0.07162053138017654,
            0.10318935662508011,
            -0.2329617589712143,
            -0.032678477466106415,
            -0.01933528669178486,
            0.1251688301563263,
            0.03447365388274193,
            0.007782523054629564,
            0.07904035598039627,
            -0.09563139826059341,
            0.020324839279055595,
            0.019036896526813507,
            -0.09450364112854004,
            -0.0678015798330307,
            0.05041911080479622,
            -0.459328830242157,
            0.06535732001066208,
            -0.0783471092581749,
            -0.027881650254130363,
            0.1576632708311081,
            0.1979450136423111,
            -0.1803276538848877,
            0.07992963492870331,
            0.16338051855564117,
            0.038308609277009964,
            0.03680691495537758,
            -0.2674509882926941,
            -0.1782452017068863,
            0.025235170498490334,
            0.01409880816936493,
            -0.09172139316797256,
            0.046989183872938156,
            -0.1230461522936821,
            0.07283623516559601,
            -0.11957094818353653,
            0.040492624044418335,
            0.25037094950675964,
            -0.08860725164413452,
            -0.022448111325502396,
            -0.07547762244939804,
            0.04671752452850342,
            0.0951613187789917,
            -0.06719101965427399,
            -0.06887520104646683,
            0.014477070420980453,
            -0.006859541404992342,
            0.24315913021564484,
            0.3151599168777466,
            0.013327855616807938,
            -0.013650810346007347,
            0.002600459149107337,
            0.17464213073253632,
            -0.1445365995168686,
            -0.09516716748476028,
            -0.06833473592996597,
            0.011300739832222462,
            -0.14959165453910828,
            -0.042827751487493515,
            -0.07295652478933334,
            0.1637033373117447,
            0.1581418663263321,
            -0.008497023954987526,
            0.11511560529470444,
            0.2358088493347168,
            0.07814675569534302,
            0.0702105313539505,
            0.47197288274765015,
            0.12006063014268875,
            0.03564237430691719,
            -0.0947614535689354,
            -0.057398293167352676,
            -0.036471448838710785,
            0.07921793311834335,
            -0.0024566862266510725,
            -0.3883955776691437,
            0.032154571264982224,
            0.0488128699362278,
            0.44381850957870483,
            -0.10759136825799942,
            -0.026752522215247154,
            0.22019001841545105,
            -0.04080700874328613,
            0.04870910197496414,
            -0.04537798464298248,
            0.13836027681827545,
            0.24802936613559723,
            0.11022543162107468,
            0.04719685763120651,
            0.10127171128988266,
            -0.2176865041255951,
            0.05658964812755585,
            -0.05864306911826134,
            0.038001127541065216,
            0.05197557806968689
        ],
        [
            -0.018940424546599388,
            -0.02657211385667324,
            -0.0062737008556723595,
            -0.09975496679544449,
            0.1661197990179062,
            -0.03811220824718475,
            -0.2325616180896759,
            0.19280575215816498,
            -0.12889786064624786,
            -0.0455188974738121,
            0.07642205059528351,
            -0.2709607779979706,
            0.07716713100671768,
            0.025634605437517166,
            0.01820904202759266,
            0.02166435495018959,
            -0.10837554186582565,
            0.14661847054958344,
            0.023136328905820847,
            -0.09024541079998016,
            0.19460061192512512,
            0.11270543187856674,
            -0.012432126328349113,
            0.27319809794425964,
            -0.0867248997092247,
            -0.11270241439342499,
            -0.29032081365585327,
            -0.09981942921876907,
            -0.10611473768949509,
            -0.006298418622463942,
            -0.1322045773267746,
            -0.008390610106289387,
            -0.1828192174434662,
            0.0012117027072235942,
            -0.39548367261886597,
            0.02358590066432953,
            0.06841017305850983,
            0.1355186104774475,
            -0.22054913640022278,
            -0.020493879914283752,
            -0.20339302718639374,
            -0.005336214788258076,
            -0.00981402862817049,
            0.10422013700008392,
            0.2047111541032791,
            0.07577952742576599,
            -0.06308184564113617,
            -0.04985731095075607,
            -0.1170402392745018,
            0.11191566288471222,
            0.18381547927856445,
            -0.08637535572052002,
            0.006411644164472818,
            -0.12644962966442108,
            0.20340369641780853,
            -0.04102989286184311,
            0.21279805898666382,
            -0.07882941514253616,
            -0.04654524847865105,
            0.15372343361377716,
            0.05107838287949562,
            0.14565947651863098,
            0.025618107989430428,
            -0.016448408365249634,
            0.08085597306489944,
            0.028464216738939285,
            -0.020830953493714333,
            -0.036162301898002625,
            0.02044762670993805,
            0.08410724997520447,
            -0.13680434226989746,
            0.018581820651888847,
            0.30482152104377747,
            -0.06250398606061935,
            0.012248503975570202,
            -0.03351697325706482,
            0.029622593894600868,
            -0.031706977635622025,
            -0.10760059952735901,
            0.007005185354501009,
            0.02801418863236904,
            0.18983310461044312,
            0.3660220205783844,
            0.02919217012822628,
            -0.018229851499199867,
            0.06655773520469666,
            0.09905777126550674,
            -0.04638441652059555,
            -0.07710091024637222,
            0.04246993362903595,
            0.022709067910909653,
            0.09891156852245331,
            0.08386500924825668,
            -0.07325512170791626,
            0.05743461474776268,
            0.14175790548324585,
            0.07931236922740936,
            -0.04525965452194214,
            0.026168670505285263,
            -0.03929819166660309,
            0.10621648281812668,
            0.0041115619242191315,
            -0.08002631366252899,
            -0.024242516607046127,
            -0.12756972014904022,
            0.043341781944036484,
            -0.03137517347931862,
            0.0506725087761879,
            0.20035836100578308,
            -0.0927412360906601,
            -0.026294417679309845,
            -0.1088872104883194,
            -0.11500030755996704,
            0.10508231818675995,
            0.3402824103832245,
            0.07058081030845642,
            0.034378018230199814,
            -0.020488491281867027,
            0.10834895074367523,
            -0.238335520029068,
            -0.23723827302455902,
            -0.05162991210818291,
            0.07267943769693375,
            0.03182590752840042,
            -0.01981455832719803,
            -0.14994199573993683,
            0.03854955732822418,
            0.11970065534114838
        ],
        [
            0.06536195427179337,
            -0.40113669633865356,
            -0.039372317492961884,
            -0.34874123334884644,
            0.933523416519165,
            0.005327623803168535,
            -0.19676470756530762,
            -0.33307182788848877,
            -0.04042649641633034,
            -0.36355388164520264,
            0.017320269718766212,
            0.06656590849161148,
            0.0705137550830841,
            0.04731385037302971,
            0.18427856266498566,
            -0.08735068887472153,
            0.036987192928791046,
            -0.25644198060035706,
            -0.2237962782382965,
            0.06104133650660515,
            0.153458833694458,
            -0.05859474092721939,
            -0.011324713006615639,
            0.017123844474554062,
            0.04234626889228821,
            0.019920073449611664,
            0.030765289440751076,
            0.024605045095086098,
            -0.00026141098351217806,
            -0.07517088949680328,
            0.0810399129986763,
            0.09638851881027222,
            0.027286607772111893,
            -0.005287774372845888,
            -0.13283219933509827,
            -0.0070350281894207,
            -0.20570819079875946,
            -0.18502505123615265,
            -0.24296018481254578,
            0.09339604526758194,
            0.3524560332298279,
            0.0634080320596695,
            0.21637186408042908,
            -0.022231904789805412,
            0.08601883798837662,
            -0.17936906218528748,
            0.011461451649665833,
            -0.04679336026310921,
            0.019574517384171486,
            -0.0584358386695385,
            0.06836124509572983,
            0.05525660514831543,
            -0.03657751530408859,
            -0.2021438330411911,
            -0.017882656306028366,
            0.005624770186841488,
            0.03600100427865982,
            0.003079456277191639,
            -0.0009771683253347874,
            -0.05747603997588158,
            -0.04238463565707207,
            0.05589401349425316,
            0.03099011816084385,
            0.018839659169316292,
            0.30650079250335693,
            0.020408162847161293,
            0.07263824343681335,
            0.1947939097881317,
            0.0020647516939789057,
            -0.11938021332025528,
            -0.06462878733873367,
            -0.06766209751367569,
            0.003448436502367258,
            0.011853809468448162,
            0.0178050696849823,
            0.01801249384880066,
            0.046829354017972946,
            0.737121045589447,
            0.03988979756832123,
            -0.02952335588634014,
            0.010775357484817505,
            -0.05660184100270271,
            0.031905386596918106,
            -0.03407041355967522,
            0.08943556994199753,
            -0.0665256679058075,
            -0.032020557671785355,
            -0.06154371798038483,
            -0.0001749068615026772,
            0.06383783370256424,
            -0.07052198052406311,
            0.026777077466249466,
            -0.008235061541199684,
            -0.0013619037345051765,
            -0.12845724821090698,
            0.2537308931350708,
            0.05810021981596947,
            0.03439367935061455,
            0.14040453732013702,
            0.01582527533173561,
            -0.22601015865802765,
            -0.13733579218387604,
            0.09872100502252579,
            -0.006547416560351849,
            0.0659266784787178,
            0.01631884276866913,
            -0.01603681407868862,
            -0.0422230027616024,
            0.0050187259912490845,
            0.020934075117111206,
            0.014496981166303158,
            0.0945339947938919,
            0.0417865514755249,
            -0.10014168918132782,
            -0.2734082043170929,
            0.1724376231431961,
            -0.029164372012019157,
            -0.04771747440099716,
            0.08893007040023804,
            0.015109134837985039,
            0.11797211319208145,
            0.028049420565366745,
            0.36238381266593933,
            0.1324247568845749,
            -0.3403744697570801,
            0.024336589500308037,
            -0.1412513107061386,
            -0.025353260338306427
        ],
        [
            0.011373980902135372,
            -0.16021184623241425,
            -0.06942733377218246,
            -0.31906434893608093,
            -0.14527003467082977,
            -0.12492449581623077,
            0.07585104554891586,
            -0.09305348992347717,
            -0.05833607167005539,
            0.08752260357141495,
            -0.08439557999372482,
            0.12245206534862518,
            -0.04300856962800026,
            0.02104346826672554,
            -0.05434940755367279,
            -0.06388052552938461,
            0.03157421573996544,
            0.10762187838554382,
            0.04274119809269905,
            -0.016302041709423065,
            0.16559718549251556,
            -0.18127094209194183,
            0.008370590396225452,
            0.13001275062561035,
            0.0824095830321312,
            -0.14949016273021698,
            -0.04484264552593231,
            0.081186443567276,
            -0.04974439740180969,
            -0.20220963656902313,
            0.02161717228591442,
            0.04729456454515457,
            -0.08340732753276825,
            0.10586460679769516,
            0.14170557260513306,
            0.1496168076992035,
            -0.2567017078399658,
            0.19658955931663513,
            0.11583399772644043,
            0.02361372672021389,
            0.19505611062049866,
            -0.18483197689056396,
            0.10566212236881256,
            0.06816916912794113,
            -0.21971237659454346,
            -0.20336633920669556,
            0.0013334063114598393,
            0.12605120241641998,
            0.19525839388370514,
            0.12468675523996353,
            0.1439078450202942,
            0.03942769765853882,
            0.09918724000453949,
            0.02836645394563675,
            0.00914531759917736,
            0.042216330766677856,
            -0.12544836103916168,
            -0.1609259396791458,
            -0.08906129747629166,
            -0.2998213469982147,
            -0.04944952577352524,
            0.3679097592830658,
            0.047880303114652634,
            0.05538579076528549,
            0.05085036903619766,
            0.07046941667795181,
            0.16004978120326996,
            0.1034608706831932,
            0.21809926629066467,
            0.013648699969053268,
            -0.11607976257801056,
            0.03736899420619011,
            0.17463494837284088,
            0.014928597025573254,
            -0.006327915005385876,
            0.04797302186489105,
            0.10910499095916748,
            0.41118118166923523,
            0.02895425260066986,
            0.18925774097442627,
            -0.38976192474365234,
            -0.03836655616760254,
            -0.08758343011140823,
            -0.0009445608593523502,
            0.09122658520936966,
            0.06562285125255585,
            0.1041073426604271,
            -0.005111003760248423,
            -0.07761389017105103,
            -0.1997380256652832,
            0.07976717501878738,
            0.02062111347913742,
            0.0673694983124733,
            -0.03202260285615921,
            0.013027790002524853,
            0.39562803506851196,
            0.3462672233581543,
            0.14777682721614838,
            0.29183661937713623,
            0.3648645579814911,
            0.18938952684402466,
            -0.08606945723295212,
            -0.07279497385025024,
            0.008320458233356476,
            -0.051833465695381165,
            -0.5082307457923889,
            0.036515045911073685,
            -0.03324688971042633,
            0.21939392387866974,
            -0.049507010728120804,
            0.013160422444343567,
            -0.19669769704341888,
            -0.16867393255233765,
            -0.22692467272281647,
            -0.2535470426082611,
            0.03607860952615738,
            0.005620987620204687,
            0.012729916721582413,
            -0.006358040496706963,
            0.5150291323661804,
            0.10307485610246658,
            0.05668499320745468,
            -0.06788677722215652,
            -0.43827417492866516,
            0.14932987093925476,
            -0.30681324005126953,
            0.0537533275783062,
            0.07489027082920074
        ],
        [
            -0.030142851173877716,
            0.48333823680877686,
            -0.028613395988941193,
            0.860772967338562,
            0.3509036898612976,
            -0.13852301239967346,
            -0.9715428352355957,
            0.11776213347911835,
            0.02680959552526474,
            -0.09307969361543655,
            0.008524646051228046,
            -0.05464553460478783,
            0.10409531742334366,
            -0.12931160628795624,
            -0.1461995244026184,
            0.06401516497135162,
            -0.007258041296154261,
            -0.010402937419712543,
            -0.1530177742242813,
            -0.06316804140806198,
            -0.16133782267570496,
            0.05375530943274498,
            -0.05150865763425827,
            0.07387744635343552,
            -0.0789235457777977,
            -0.010503490455448627,
            -0.42041707038879395,
            0.003085124772042036,
            0.05459027364850044,
            -0.25212574005126953,
            0.32237544655799866,
            0.12481391429901123,
            -0.04087990149855614,
            0.030716175213456154,
            0.37438565492630005,
            -0.04844389855861664,
            0.2179773449897766,
            -0.46086427569389343,
            0.1324329972267151,
            -0.18840323388576508,
            0.6172306537628174,
            -0.03261363133788109,
            -0.02192181721329689,
            0.003748563816770911,
            0.09548164159059525,
            0.1144561916589737,
            0.007864448241889477,
            -0.05444440618157387,
            -0.16611555218696594,
            0.003922538831830025,
            0.4949190616607666,
            0.030469302088022232,
            0.1098790392279625,
            -0.05121476203203201,
            -0.10870049148797989,
            0.024002812802791595,
            0.20372723042964935,
            0.03035905957221985,
            0.012789027765393257,
            -0.4442000687122345,
            -0.060819629579782486,
            0.16280126571655273,
            -0.053583987057209015,
            0.13126562535762787,
            -0.032439205795526505,
            -0.010210604406893253,
            -0.060124482959508896,
            -0.020411401987075806,
            -0.23829953372478485,
            0.2527053952217102,
            0.04629385843873024,
            0.05643700435757637,
            0.25860315561294556,
            0.03927129879593849,
            -0.02307339571416378,
            -0.2792467474937439,
            -0.02625844068825245,
            0.1611628234386444,
            -0.05117150396108627,
            -0.060126952826976776,
            -0.12460336834192276,
            0.04877813160419464,
            0.0700414627790451,
            -0.0009383471915498376,
            0.05771074816584587,
            0.014588756486773491,
            0.10471159219741821,
            -0.012839955277740955,
            0.08539626747369766,
            -0.12314777821302414,
            0.04071972146630287,
            -0.02070794068276882,
            -0.02848547138273716,
            0.11875629425048828,
            -0.00060164654860273,
            0.11776739358901978,
            -0.018831249326467514,
            -0.13671451807022095,
            0.17771974205970764,
            0.003398678032681346,
            -0.14184874296188354,
            0.08427079766988754,
            0.10416782647371292,
            -0.03133567422628403,
            -0.03167267516255379,
            0.1685398519039154,
            0.02030104026198387,
            -0.07295332849025726,
            0.04771432653069496,
            0.019905561581254005,
            0.2648031413555145,
            0.04484238848090172,
            -0.09952821582555771,
            0.21294578909873962,
            0.1770508736371994,
            0.11439362168312073,
            0.07632363587617874,
            -0.10111503303050995,
            -0.18424062430858612,
            0.05917014181613922,
            0.04101041331887245,
            -0.23768772184848785,
            0.14724093675613403,
            -0.23597702383995056,
            -0.07650972157716751,
            0.3555012345314026,
            -0.09535957127809525,
            -0.02364952489733696
        ],
        [
            -0.040246233344078064,
            0.2584231495857239,
            0.032684676349163055,
            -0.3744187653064728,
            -0.6698483228683472,
            0.02790701389312744,
            -0.24833662807941437,
            0.07370766252279282,
            -0.026715343818068504,
            0.0036858851090073586,
            0.013834229670464993,
            -0.07323404401540756,
            -0.02678637020289898,
            0.05960787460207939,
            0.28659167885780334,
            0.023673508316278458,
            0.010448847897350788,
            0.07519213855266571,
            0.13909606635570526,
            -0.08168325573205948,
            0.3475252091884613,
            0.1082645133137703,
            -0.014782988466322422,
            -0.06837761402130127,
            0.05211279168725014,
            0.025144020095467567,
            0.06590937077999115,
            -0.14518871903419495,
            0.18082648515701294,
            0.4934346377849579,
            0.0011098412796854973,
            0.06105367839336395,
            -0.049220260232686996,
            -0.036501847207546234,
            -0.1637168526649475,
            -0.11042121052742004,
            -0.03127412870526314,
            0.11425837874412537,
            -0.12454861402511597,
            0.2994370460510254,
            -0.3100287914276123,
            0.11714886128902435,
            -0.20500268042087555,
            -0.19552962481975555,
            0.07297483086585999,
            -0.15273737907409668,
            0.017414040863513947,
            0.20333530008792877,
            -0.25614863634109497,
            -0.0863814502954483,
            -0.4800751507282257,
            -0.043680064380168915,
            0.19888551533222198,
            0.0575714036822319,
            0.09308267384767532,
            0.1145072728395462,
            0.04813721403479576,
            0.05921586602926254,
            -0.05341922491788864,
            -0.2338201254606247,
            -0.03834609314799309,
            -0.05033688619732857,
            -0.07380391657352448,
            -0.041133832186460495,
            0.01812855713069439,
            0.049140844494104385,
            -0.0848756730556488,
            0.0031472239643335342,
            0.0011804030509665608,
            0.04418153315782547,
            0.28024253249168396,
            0.05453582480549812,
            0.07853163033723831,
            0.16253028810024261,
            0.13910037279129028,
            0.1454154998064041,
            0.017997799441218376,
            0.49528568983078003,
            0.001044327626004815,
            -0.10355105251073837,
            -0.07925459742546082,
            0.04895244538784027,
            0.05935712158679962,
            0.02112593688070774,
            -0.046794820576906204,
            0.10585405677556992,
            -0.0015594500582665205,
            0.034554533660411835,
            -0.019518885761499405,
            -0.14824476838111877,
            -0.08404196053743362,
            -0.0036539346911013126,
            -0.005995684303343296,
            0.009357857517898083,
            0.323102742433548,
            -0.0898064523935318,
            -0.10663188993930817,
            0.08720915764570236,
            -0.1809905767440796,
            -0.3836386501789093,
            -0.43082356452941895,
            -0.05350470915436745,
            -0.20043021440505981,
            -0.052247676998376846,
            0.11106432229280472,
            0.33505260944366455,
            -0.008844162337481976,
            -0.029297731816768646,
            -0.19838526844978333,
            -0.082757867872715,
            -0.013098184950649738,
            0.14287801086902618,
            0.0932011604309082,
            -0.12999163568019867,
            0.29837149381637573,
            0.5045042634010315,
            -0.06539741158485413,
            -0.1263177990913391,
            -0.03272373229265213,
            -0.1152757778763771,
            0.28719645738601685,
            0.18579797446727753,
            0.025899086147546768,
            -0.15850789844989777,
            0.1792352944612503,
            0.13506579399108887,
            0.2694667875766754,
            0.05631289258599281
        ],
        [
            0.06278873980045319,
            -0.12286053597927094,
            0.08143956959247589,
            -0.34541893005371094,
            -0.1524977684020996,
            -0.09554925560951233,
            -0.12600751221179962,
            0.021193096414208412,
            0.05640185996890068,
            -0.0849255695939064,
            -0.049787260591983795,
            0.01465678121894598,
            0.06766493618488312,
            0.058422885835170746,
            -0.0998963713645935,
            -0.003555750474333763,
            -0.1476205438375473,
            0.0976155623793602,
            0.04806936904788017,
            0.015571674332022667,
            -0.15643207728862762,
            0.08118817210197449,
            -0.06349358707666397,
            0.04788777232170105,
            0.01569005288183689,
            -0.08055057376623154,
            0.21099427342414856,
            -0.0533699095249176,
            -0.2978045344352722,
            0.16512824594974518,
            0.19100618362426758,
            0.014992003329098225,
            0.04894036427140236,
            0.07746873050928116,
            0.051436226814985275,
            0.05900820344686508,
            0.08415022492408752,
            0.11619685590267181,
            -0.15464694797992706,
            0.16811515390872955,
            0.11940138041973114,
            -0.062459059059619904,
            0.008592539466917515,
            0.11541195213794708,
            0.33752909302711487,
            -0.9069969058036804,
            0.02993784286081791,
            0.045591630041599274,
            -0.0034032720141112804,
            0.05321922525763512,
            0.04364275932312012,
            0.024207700043916702,
            -0.07921626418828964,
            0.10589355230331421,
            -0.00029424659442156553,
            0.0055086081847548485,
            -0.06611307710409164,
            -0.18352381885051727,
            -0.033916980028152466,
            0.2394552230834961,
            0.055079177021980286,
            0.11458306759595871,
            -0.006772765424102545,
            0.03955160453915596,
            0.05242897570133209,
            0.10319723933935165,
            0.050781551748514175,
            -0.0027228191029280424,
            0.16145361959934235,
            0.046885889023542404,
            -0.4195916950702667,
            -0.0020036795176565647,
            -0.08442644029855728,
            -0.11069142818450928,
            -0.4117407500743866,
            -0.07169456779956818,
            0.018426114693284035,
            0.6251747012138367,
            0.02355257049202919,
            0.13634537160396576,
            -0.14767007529735565,
            -0.046864140778779984,
            -0.06812804937362671,
            0.03749530762434006,
            0.08687230944633484,
            -0.09834202378988266,
            0.08708701282739639,
            -0.07244928926229477,
            0.00015211192658171058,
            -0.27303430438041687,
            -0.1801047921180725,
            -0.05249522626399994,
            0.026262842118740082,
            -0.20207476615905762,
            0.1828734129667282,
            0.004385350272059441,
            0.10323279350996017,
            0.20684947073459625,
            -0.005262239370495081,
            0.03708856925368309,
            -0.24762028455734253,
            0.05186805501580238,
            0.005280084442347288,
            0.09865625947713852,
            0.1464361846446991,
            -0.23719722032546997,
            0.0817611962556839,
            0.056511033326387405,
            0.05614859610795975,
            0.04453699663281441,
            0.19646699726581573,
            -0.11550536751747131,
            0.028286518529057503,
            -0.12808100879192352,
            -0.1833847016096115,
            0.09363272786140442,
            0.03563554212450981,
            0.05575081706047058,
            0.06885748356580734,
            0.0686459094285965,
            -0.009806870482861996,
            -0.012672573328018188,
            -0.033507149666547775,
            -0.02706010639667511,
            0.14874254167079926,
            -0.17950285971164703,
            0.0001825806248234585,
            0.013926689513027668
        ],
        [
            0.004164233338087797,
            -0.006850954610854387,
            -0.08012134581804276,
            -0.07091157883405685,
            0.21295970678329468,
            -0.1966053694486618,
            -2.1724166870117188,
            0.06216220185160637,
            -0.03712628781795502,
            -0.07267482578754425,
            -0.08670898526906967,
            -0.0982966497540474,
            0.12527430057525635,
            0.05638473108410835,
            -0.1431848257780075,
            0.06389358639717102,
            0.07406991720199585,
            0.01713201403617859,
            -0.17547033727169037,
            -0.060746386647224426,
            0.20221516489982605,
            0.4070906639099121,
            -0.03520769253373146,
            -0.0898561105132103,
            -0.08236925303936005,
            -0.054054733365774155,
            0.025309527292847633,
            -0.04718942940235138,
            -0.09102511405944824,
            0.14900293946266174,
            -0.007439293898642063,
            -0.03485095128417015,
            0.06173603981733322,
            0.01773156225681305,
            0.25438395142555237,
            0.06287356466054916,
            -0.016960375010967255,
            -0.0861293151974678,
            -0.07076222449541092,
            -0.06773412972688675,
            -0.0930810272693634,
            0.08297007530927658,
            0.05523458868265152,
            -0.08679415285587311,
            -0.05642898008227348,
            0.0267585888504982,
            -0.06918779760599136,
            -0.17083126306533813,
            0.11600542068481445,
            0.15330596268177032,
            -0.07386067509651184,
            0.05372513458132744,
            0.040135856717824936,
            -0.07785744220018387,
            -0.1322581171989441,
            0.07344036549329758,
            -0.05430448055267334,
            0.043375756591558456,
            -0.048060279339551926,
            -0.03468409180641174,
            0.01861262321472168,
            0.07346667349338531,
            0.02504079043865204,
            0.05010313168168068,
            0.13799810409545898,
            -0.02775545045733452,
            0.08184899389743805,
            0.013299456797540188,
            -0.08896264433860779,
            -0.16019552946090698,
            0.05713241174817085,
            -0.16455310583114624,
            -0.09428886324167252,
            -0.037921082228422165,
            0.21209439635276794,
            -0.021831445395946503,
            0.07262860238552094,
            -0.01501087099313736,
            0.1892283707857132,
            0.04118898883461952,
            0.21142370998859406,
            -0.08333806693553925,
            0.11993478238582611,
            0.1843411773443222,
            -0.060862258076667786,
            -0.22300726175308228,
            -0.017332665622234344,
            -0.09449140727519989,
            0.09890013933181763,
            -0.15111981332302094,
            -0.05465271323919296,
            -0.06073049455881119,
            -0.028200790286064148,
            -0.07259779423475266,
            -0.061896003782749176,
            -0.045214492827653885,
            0.06796756386756897,
            -0.09171491861343384,
            -0.04186959192156792,
            -0.0853419229388237,
            1.1717970371246338,
            -0.01109457015991211,
            0.07028207927942276,
            0.05794407054781914,
            0.02804957889020443,
            -0.18037036061286926,
            -0.10492545366287231,
            -0.06875396519899368,
            -0.027951179072260857,
            -0.08646002411842346,
            0.10662450641393661,
            -0.05340220406651497,
            -0.0844457745552063,
            0.11437296867370605,
            -0.06269845366477966,
            0.04367421567440033,
            0.012489483691751957,
            0.020633762702345848,
            0.037536509335041046,
            -0.09327211230993271,
            0.29685354232788086,
            0.03916482999920845,
            0.008661715313792229,
            -0.36738067865371704,
            0.06585482507944107,
            0.010330401360988617,
            -0.011706571094691753,
            0.03754052147269249
        ],
        [
            -0.010898665525019169,
            0.2068825662136078,
            0.06273570656776428,
            -0.17000390589237213,
            -0.04402407631278038,
            0.0026933057233691216,
            0.4575123190879822,
            0.007277798373252153,
            0.0016901198541745543,
            -0.09343887865543365,
            -0.05885080248117447,
            0.20048609375953674,
            0.05036146566271782,
            -0.008005710318684578,
            -0.1765684336423874,
            0.00656692823395133,
            0.029996996745467186,
            -0.0827302411198616,
            -0.18948404490947723,
            -0.02285827323794365,
            0.002924269065260887,
            0.05501050874590874,
            0.035755254328250885,
            -0.07257964462041855,
            0.07787527143955231,
            0.05130806565284729,
            0.18778148293495178,
            0.13649240136146545,
            -0.06807384639978409,
            -0.18166609108448029,
            0.11497492343187332,
            -0.09304313361644745,
            0.016326196491718292,
            0.0014354799641296268,
