{
    "_metadata": {
        "best_epoch": 1037,
        "epoch": 1037,
        "loss_validation": 0.09610000252723694,
        "rms_validation": 0.26159998774528503,
        "rms_validation_descaled": 0.032999999821186066
    },
    "feature_max": {
        "An": 6.000000120551288,
        "Ate": 14.000000200084335,
        "Ati": 14.000000146344243,
        "Ti_Te": 2.5,
        "Zeff": 3.000000086545461,
        "logNustar": -0.000293958017970688,
        "q": 14.999999506267441,
        "smag": 4.9999998236704135,
        "x": 0.9900000184550147
    },
    "feature_min": {
        "An": -4.999999698621779,
        "Ate": 1.9999997999156645,
        "Ati": 1.999999853655756,
        "Ti_Te": 0.25000003742205174,
        "Zeff": 1.0,
        "logNustar": -5.00029375359654,
        "q": 0.6599999605013953,
        "smag": -1.0,
        "x": 0.08999999868178467
    },
    "feature_names": [
        "Zeff",
        "Ati",
        "Ate",
        "An",
        "q",
        "smag",
        "x",
        "Ti_Te",
        "logNustar"
    ],
    "hidden_activation": [
        "tanh",
        "tanh",
        "tanh"
    ],
    "layer1/biases/Variable:0": [
        -0.7545196413993835,
        0.9367701411247253,
        1.1768462657928467,
        -1.3421070575714111,
        -1.5939286947250366,
        -0.04455004632472992,
        -0.4750549793243408,
        -0.010400689207017422,
        2.048323392868042,
        1.320967197418213,
        -0.17880767583847046,
        -0.5791653990745544,
        0.9037702083587646,
        -2.224459171295166,
        -1.060748815536499,
        -0.3283557891845703,
        0.578845739364624,
        0.6964654326438904,
        -0.15094736218452454,
        0.8774988055229187,
        1.2600525617599487,
        1.1304900646209717,
        -0.71007239818573,
        0.8924373984336853,
        0.6123114824295044,
        0.6402015686035156,
        -1.2751861810684204,
        -0.008634337224066257,
        0.7589536905288696,
        -0.5137704014778137,
        1.209328293800354,
        1.8961610794067383,
        -1.3965250253677368,
        -0.9027397036552429,
        0.37434983253479004,
        1.4207780361175537,
        0.544148862361908,
        -2.310572385787964,
        0.3686254322528839,
        -2.0858066082000732,
        0.13934341073036194,
        0.04147448018193245,
        -1.284642219543457,
        0.5433563590049744,
        0.4374164044857025,
        1.2079659700393677,
        -2.658691167831421,
        -0.739500105381012,
        -0.9868378639221191,
        0.7701929807662964,
        -0.04345899447798729,
        0.05847257748246193,
        -1.4283726215362549,
        -0.510355532169342,
        -0.10275566577911377,
        0.12647758424282074,
        -0.4241398274898529,
        0.7662659287452698,
        -0.23632289469242096,
        1.456041693687439,
        0.5565167665481567,
        -1.635048508644104,
        -0.018344298005104065,
        -0.5747131705284119,
        1.923722505569458,
        0.40929657220840454,
        -2.175811290740967,
        0.019856812432408333,
        -1.1181405782699585,
        0.31155484914779663,
        0.12428265064954758,
        0.29745233058929443,
        -2.1520066261291504,
        -0.33960914611816406,
        1.3670605421066284,
        1.5122981071472168,
        0.14593671262264252,
        -0.6175963282585144,
        -0.4937152564525604,
        0.3460069000720978,
        0.9136137366294861,
        -0.3961009085178375,
        -2.2558228969573975,
        0.7325382828712463,
        -0.16900154948234558,
        1.0353248119354248,
        0.26452386379241943,
        1.3587039709091187,
        0.7827197313308716,
        0.8008191585540771,
        0.34912535548210144,
        1.7890626192092896,
        0.19798101484775543,
        -0.21132564544677734,
        0.7480775117874146,
        1.4709705114364624,
        -0.4120669662952423,
        -1.2745643854141235,
        0.4017653167247772,
        0.6460739374160767,
        0.4451340138912201,
        -0.18957988917827606,
        0.13098706305027008,
        0.6838521361351013,
        1.550581932067871,
        0.8270845413208008,
        -0.1537020355463028,
        2.192403793334961,
        0.9017098546028137,
        0.10548608005046844,
        1.8763035535812378,
        1.7957159280776978,
        -0.11183086037635803,
        -0.7582107782363892,
        1.0381526947021484,
        0.1173284575343132,
        -0.4898012578487396,
        -0.6010435223579407,
        0.27516624331474304,
        0.05335506796836853,
        -1.6404643058776855,
        -1.2282240390777588,
        0.5092096328735352,
        -0.43913912773132324,
        0.3888005018234253,
        0.7588055729866028,
        -1.573341727256775,
        1.4658185243606567
    ],
    "layer1/weights/Variable:0": [
        [
            0.028853675350546837,
            -0.07604868710041046,
            0.65715092420578,
            0.2634334862232208,
            0.03296079486608505,
            0.14185607433319092,
            -0.22309643030166626,
            0.6246619820594788,
            0.003798124846071005,
            0.43202468752861023,
            0.010160276666283607,
            0.049510616809129715,
            -0.6130855679512024,
            -0.024327248334884644,
            0.2828007638454437,
            -0.428855299949646,
            0.21807506680488586,
            0.11472494155168533,
            0.4256416857242584,
            0.006581105757504702,
            0.06910233944654465,
            0.5833072066307068,
            -0.07055173814296722,
            0.022959785535931587,
            -0.0481221042573452,
            0.06874587386846542,
            -0.10820037126541138,
            0.31206753849983215,
            0.08439292013645172,
            0.06637942045927048,
            -0.23214611411094666,
            0.2656210660934448,
            0.042072124779224396,
            0.03495900705456734,
            0.0888705775141716,
            0.8327259421348572,
            -0.02542848140001297,
            0.046600181609392166,
            0.11814568191766739,
            -0.14529794454574585,
            0.18988379836082458,
            0.013841635547578335,
            0.15362757444381714,
            -0.162642702460289,
            -0.12328706681728363,
            0.31164950132369995,
            -0.0288248173892498,
            -0.404064804315567,
            0.10281839966773987,
            0.17077621817588806,
            -0.07764814049005508,
            -0.005679665133357048,
            0.44580113887786865,
            -0.18203656375408173,
            0.055692754685878754,
            0.21447454392910004,
            -0.04184611886739731,
            0.10142821073532104,
            0.10650169104337692,
            -0.20153477787971497,
            0.1331203132867813,
            -0.17960752546787262,
            0.18694834411144257,
            -0.8587690591812134,
            -0.10820000618696213,
            -0.2423696368932724,
            -0.08199076354503632,
            -0.17920078337192535,
            0.29734286665916443,
            0.005594682414084673,
            -0.06759770214557648,
            -0.15057626366615295,
            0.0030654980801045895,
            -0.7413540482521057,
            0.0451214462518692,
            0.11170376092195511,
            0.00832909345626831,
            0.450639933347702,
            0.058342527598142624,
            0.4660688638687134,
            -0.02047387696802616,
            0.2367328554391861,
            0.23550088703632355,
            -0.1124194860458374,
            -0.15290473401546478,
            0.18143101036548615,
            -0.08661863207817078,
            -0.011081225238740444,
            -0.006244301795959473,
            0.013643274083733559,
            -0.12327706068754196,
            0.0807558074593544,
            0.2011304348707199,
            0.11794713139533997,
            -0.028242412954568863,
            -0.35616961121559143,
            0.048014383763074875,
            0.4109451174736023,
            0.16866472363471985,
            -0.19544805586338043,
            -0.23834776878356934,
            -0.013017860241234303,
            -0.09599314630031586,
            -0.14423483610153198,
            0.30014699697494507,
            -0.20877328515052795,
            0.18817616999149323,
            0.0034683498088270426,
            -0.04181917384266853,
            -0.014617363922297955,
            -0.14707383513450623,
            -0.3507828414440155,
            0.0486970953643322,
            -0.12108898907899857,
            0.2934627830982208,
            -0.017110392451286316,
            -0.2309337854385376,
            0.05751738324761391,
            0.3681749403476715,
            0.6248266696929932,
            0.06380503624677658,
            0.17764833569526672,
            -0.20172642171382904,
            -0.2183789610862732,
            0.17578403651714325,
            0.16729392111301422,
            0.03513344004750252,
            -0.004535058047622442
        ],
        [
            0.0704592913389206,
            0.09822048991918564,
            -0.2628019154071808,
            0.21682018041610718,
            0.07541884481906891,
            -0.16635239124298096,
            0.5808459520339966,
            0.06981200724840164,
            -0.13862551748752594,
            -0.5910534858703613,
            -0.1063602939248085,
            -0.2887793481349945,
            0.1697508841753006,
            0.1864582598209381,
            -0.05582014471292496,
            0.39505085349082947,
            -0.04885798320174217,
            0.3077978491783142,
            -0.04211801663041115,
            -0.10719229280948639,
            -0.07150878757238388,
            0.05020543560385704,
            -0.15399757027626038,
            1.0475242137908936,
            -0.04270617291331291,
            -0.06548602879047394,
            -0.10893908143043518,
            -0.09165115654468536,
            -0.1710783690214157,
            -0.27892622351646423,
            0.19630761444568634,
            -0.33451026678085327,
            -0.14724451303482056,
            0.0020138865802437067,
            -0.17665480077266693,
            -0.3853188157081604,
            -0.5813801884651184,
            -0.06341937929391861,
            -0.17564657330513,
            0.10452643781900406,
            -0.4832017719745636,
            0.12008761614561081,
            0.1474538892507553,
            -0.11810580641031265,
            0.10431136190891266,
            0.1594972312450409,
            0.18891477584838867,
            0.07618587464094162,
            -0.054646894335746765,
            -0.17371129989624023,
            -0.08222829550504684,
            0.023870162665843964,
            -0.027438977733254433,
            0.034600790590047836,
            -0.3349263370037079,
            -0.36730968952178955,
            0.16001856327056885,
            -0.18033674359321594,
            -0.10595330595970154,
            0.3520109951496124,
            -0.24997390806674957,
            0.21930745244026184,
            -0.5179829001426697,
            0.8520107269287109,
            0.26078125834465027,
            0.5293747186660767,
            0.2252388447523117,
            0.17583763599395752,
            0.04453262686729431,
            0.2023545503616333,
            0.8108582496643066,
            0.039064083248376846,
            0.007720093708485365,
            0.924376368522644,
            -0.04321197792887688,
            -0.32320281863212585,
            -0.07857967913150787,
            -0.016329605132341385,
            -0.09442697465419769,
            -0.8675386905670166,
            -0.10092932730913162,
            -0.5951636433601379,
            -0.029836202040314674,
            0.19421933591365814,
            0.316270112991333,
            -0.3280189335346222,
            0.17489884793758392,
            -0.18912634253501892,
            0.3501507341861725,
            -0.00023100624093785882,
            -0.4469313621520996,
            -0.1389591246843338,
            -0.08952224999666214,
            -0.013908876106142998,
            0.12219743430614471,
            -0.23516225814819336,
            0.11414965987205505,
            -0.21083904802799225,
            -0.24623119831085205,
            0.06229095160961151,
            0.017060425132513046,
            -0.17094190418720245,
            0.24564436078071594,
            0.3082910478115082,
            0.4953940808773041,
            1.8204206228256226,
            -0.17993605136871338,
            -0.005892887245863676,
            -0.25484731793403625,
            0.3312796354293823,
            0.2690091133117676,
            0.03299932926893234,
            -0.21086983382701874,
            -0.0059093753807246685,
            0.04167734086513519,
            0.13439959287643433,
            0.7357675433158875,
            -0.04189645126461983,
            -0.42768916487693787,
            0.4504822790622711,
            -0.44331327080726624,
            -0.16763634979724884,
            0.1567663848400116,
            0.022548524662852287,
            -0.06776552647352219,
            0.0010728957131505013,
            -0.5165213942527771,
            0.2518470883369446
        ],
        [
            -0.42346125841140747,
            -0.20066894590854645,
            0.27683329582214355,
            -0.0130455382168293,
            -0.37671077251434326,
            -0.051814090460538864,
            -0.4028644561767578,
            0.29925844073295593,
            0.6036231517791748,
            -0.22269555926322937,
            0.03238879516720772,
            -0.028186369687318802,
            0.10436704009771347,
            0.13293185830116272,
            0.11581601947546005,
            -0.29693183302879333,
            -0.2200046330690384,
            -0.5343564748764038,
            -0.1144375205039978,
            0.11213342845439911,
            0.8396850228309631,
            0.0815841555595398,
            0.48180916905403137,
            0.33178839087486267,
            -0.2658481299877167,
            -0.0831603929400444,
            -0.48205888271331787,
            -0.014107082039117813,
            0.03725532069802284,
            0.2701128423213959,
            -0.13747231662273407,
            0.3480282127857208,
            0.3424021005630493,
            -0.04782920703291893,
            -0.33710944652557373,
            -0.10798203945159912,
            0.09982531517744064,
            0.21713382005691528,
            0.07783747464418411,
            0.03804825618863106,
            -0.440665602684021,
            -0.08685959130525589,
            -0.20846928656101227,
            -0.3633425235748291,
            0.12002743780612946,
            -0.20525434613227844,
            -0.03515823185443878,
            -0.10012450069189072,
            0.07062119990587234,
            -0.1760067492723465,
            -0.1549050360918045,
            0.46855178475379944,
            -0.14251916110515594,
            0.24794892966747284,
            0.6043996810913086,
            0.13274487853050232,
            0.10276839137077332,
            -0.22771218419075012,
            0.09310391545295715,
            0.4906901717185974,
            0.23177668452262878,
            -1.3650906085968018,
            0.007503706496208906,
            0.04401153326034546,
            0.5186678767204285,
            -0.4146312475204468,
            0.47496679425239563,
            -0.25869670510292053,
            -0.18176968395709991,
            -0.09485408663749695,
            0.02904941327869892,
            0.22551633417606354,
            -0.04171144217252731,
            -0.03491126000881195,
            0.30159440636634827,
            0.08831913769245148,
            -0.32817918062210083,
            0.11232741177082062,
            0.34884390234947205,
            0.022237753495573997,
            0.06328615546226501,
            -0.4679274559020996,
            0.02921184152364731,
            0.06444349884986877,
            0.4919416606426239,
            0.7059511542320251,
            0.03807181864976883,
            0.12250442057847977,
            0.17621466517448425,
            -0.10092554241418839,
            0.3113941252231598,
            0.03380150720477104,
            -0.021517109125852585,
            0.23959195613861084,
            0.12132412940263748,
            0.10661276429891586,
            0.1661173552274704,
            -0.1014867052435875,
            -0.2817316949367523,
            0.10303043574094772,
            0.005454861558973789,
            0.21270982921123505,
            0.04140448570251465,
            0.003953814506530762,
            -0.09249743819236755,
            0.07443408668041229,
            0.15092524886131287,
            0.07642462849617004,
            -0.26446306705474854,
            0.14405648410320282,
            -0.05224402993917465,
            0.35844898223876953,
            -0.02942916937172413,
            -0.250529944896698,
            0.21299558877944946,
            -0.23187048733234406,
            -0.4001609683036804,
            -0.5674141645431519,
            -0.040775179862976074,
            0.027735307812690735,
            -0.9558046460151672,
            -0.06749498844146729,
            -0.2309379279613495,
            0.3044244945049286,
            0.4477798640727997,
            -0.13869842886924744,
            -0.044072337448596954,
            0.5387647747993469
        ],
        [
            -0.5139609575271606,
            -0.6966522932052612,
            -0.09714891016483307,
            0.8589871525764465,
            -0.2574722468852997,
            0.1064397394657135,
            -0.029784275218844414,
            0.5706828832626343,
            0.5546125769615173,
            0.8685072660446167,
            0.20183169841766357,
            1.7123663425445557,
            -0.22497248649597168,
            0.13358917832374573,
            0.2676403820514679,
            0.22032774984836578,
            0.24821101129055023,
            0.6716591715812683,
            0.5531753301620483,
            0.9145050644874573,
            0.2798437476158142,
            -0.27752646803855896,
            -0.2374831885099411,
            -0.41974982619285583,
            -0.6923125386238098,
            0.16149839758872986,
            -0.07503131031990051,
            0.32635658979415894,
            0.8837336301803589,
            0.2382558286190033,
            -0.09125255793333054,
            -0.08104721456766129,
            -0.33088114857673645,
            0.2810751497745514,
            1.354522705078125,
            -0.23561526834964752,
            -0.16813595592975616,
            0.12074337154626846,
            -0.5645549297332764,
            -0.3468482494354248,
            -0.027317529544234276,
            -0.9106712341308594,
            0.04296413064002991,
            -0.014764524064958096,
            -0.5629458427429199,
            -0.0015408761100843549,
            0.16320818662643433,
            0.16088779270648956,
            1.1912226676940918,
            0.7523602247238159,
            0.44676509499549866,
            0.25749653577804565,
            0.1975928544998169,
            -0.21550646424293518,
            -0.1624791920185089,
            -0.003101739566773176,
            -0.9067093729972839,
            0.029230110347270966,
            -0.6323695778846741,
            0.3111622631549835,
            -0.12059056013822556,
            -0.03953651711344719,
            -1.0460776090621948,
            -0.6171075701713562,
            0.32767727971076965,
            0.4305498003959656,
            -0.018240926787257195,
            -0.198211669921875,
            0.3728700578212738,
            0.8561487793922424,
            -1.1617352962493896,
            -0.15999735891819,
            -0.3744935095310211,
            -0.7079262137413025,
            1.0438597202301025,
            -0.12336337566375732,
            0.9177270531654358,
            -0.2495717853307724,
            0.16962885856628418,
            0.8387689590454102,
            0.08565492182970047,
            -0.3686051368713379,
            0.25062599778175354,
            0.1903066188097,
            -0.3619990646839142,
            0.28851738572120667,
            -0.8654583692550659,
            -0.5911625623703003,
            0.5372222661972046,
            -0.8873140215873718,
            -0.3421654999256134,
            0.156632661819458,
            0.16107849776744843,
            -0.5201491117477417,
            0.9260348081588745,
            -0.00719657214358449,
            -1.4525376558303833,
            -0.8085720539093018,
            -0.38341596722602844,
            1.2208067178726196,
            0.9316852688789368,
            -0.3983272910118103,
            -0.6779040694236755,
            0.5006164908409119,
            0.4114166498184204,
            -0.9280076026916504,
            0.12101995199918747,
            -0.2079038769006729,
            -0.9650736451148987,
            -0.5865710973739624,
            -0.1649211198091507,
            0.40233179926872253,
            -0.9041626453399658,
            0.02085956372320652,
            -0.4648693799972534,
            0.014138017781078815,
            0.16493453085422516,
            0.26889967918395996,
            0.28637003898620605,
            -0.49672845005989075,
            0.4897114634513855,
            0.5440145134925842,
            -0.6034597754478455,
            -0.07804157584905624,
            0.36527276039123535,
            0.11087404191493988,
            0.18393075466156006,
            -0.4245081841945648
        ],
        [
            -0.1699478179216385,
            -0.022262174636125565,
            -0.10805626213550568,
            0.09628874063491821,
            0.38033923506736755,
            0.27454376220703125,
            0.16590067744255066,
            -0.012359298765659332,
            -0.3696165978908539,
            -0.22925956547260284,
            -1.473032832145691,
            0.03231828287243843,
            0.09110850095748901,
            0.04165584594011307,
            0.02906685695052147,
            0.14609584212303162,
            0.005286471918225288,
            0.05549725145101547,
            -0.29938626289367676,
            -0.5781065225601196,
            0.008324547670781612,
            0.09184256941080093,
            0.046583350747823715,
            0.15188223123550415,
            0.09763503819704056,
            -0.6156556010246277,
            -0.6352219581604004,
            0.7569459080696106,
            -0.3779318928718567,
            0.21131809055805206,
            -0.12524139881134033,
            -0.03700532764196396,
            0.02486090362071991,
            -0.17193827033042908,
            -0.04296879842877388,
            -0.0767097994685173,
            -0.2878026068210602,
            0.19987963140010834,
            -0.022899307310581207,
            -1.527990460395813,
            0.0134933115914464,
            -0.20420846343040466,
            0.24701741337776184,
            0.16430558264255524,
            0.03477322310209274,
            0.1267721951007843,
            -0.029967470094561577,
            -0.3556317090988159,
            -0.07367975264787674,
            -0.052331969141960144,
            0.19463001191616058,
            0.022427167743444443,
            -0.4427585005760193,
            0.3084057569503784,
            -0.024943046271800995,
            -0.30688488483428955,
            -0.009855285286903381,
            -0.5365628600120544,
            -0.8249967098236084,
            0.09525333344936371,
            0.6864765882492065,
            0.060714323073625565,
            -0.0644337385892868,
            0.06080051511526108,
            -0.11395730078220367,
            -0.23489411175251007,
            -0.09874161332845688,
            -0.8537647724151611,
            0.1641036421060562,
            0.22801706194877625,
            -0.009419222362339497,
            0.8792936205863953,
            0.053447138518095016,
            -0.06993189454078674,
            0.23935583233833313,
            -0.06094801053404808,
            0.0939302146434784,
            0.15718494355678558,
            0.24131238460540771,
            0.061342183500528336,
            -0.04908487945795059,
            -0.20714719593524933,
            0.3047860562801361,
            0.03866329789161682,
            0.19392909109592438,
            -0.09407193213701248,
            -0.43617987632751465,
            0.11782211810350418,
            0.07257622480392456,
            -0.34145718812942505,
            0.04674230143427849,
            2.296311616897583,
            0.900485098361969,
            0.13075967133045197,
            1.612844705581665,
            0.13813163340091705,
            0.08631481975317001,
            0.10811794549226761,
            -0.2936926484107971,
            0.01878582127392292,
            -0.09483558684587479,
            -0.06285686790943146,
            0.23580574989318848,
            -0.05387783423066139,
            -0.14972707629203796,
            0.03915989026427269,
            0.4069153368473053,
            0.008389650844037533,
            -0.04633506014943123,
            -0.0031714807264506817,
            0.31359586119651794,
            -0.03301537409424782,
            0.40691274404525757,
            -0.09622697532176971,
            0.1021706610918045,
            0.3326088786125183,
            0.022382216528058052,
            0.05758582055568695,
            0.19855087995529175,
            0.06932240724563599,
            0.04841488599777222,
            -1.4914320707321167,
            -0.17592203617095947,
            -0.14142835140228271,
            0.1764601469039917,
            0.4432949721813202,
            -0.12522920966148376,
            -0.02242089994251728
        ],
        [
            0.0022637122310698032,
            0.2651994824409485,
            0.11196860671043396,
            -0.4628264009952545,
            -0.27808427810668945,
            0.48249855637550354,
            0.5135521292686462,
            0.18862998485565186,
            -0.02743280492722988,
            0.48513537645339966,
            -0.23857347667217255,
            -1.599411964416504,
            -0.0340968556702137,
            -0.1983853280544281,
            0.16404174268245697,
            -0.2016512155532837,
            0.09151536226272583,
            0.1676507145166397,
            0.4144580662250519,
            -0.65410315990448,
            -0.18486127257347107,
            0.3549453616142273,
            0.0661822184920311,
            -0.1553163230419159,
            0.03151145577430725,
            1.3174872398376465,
            0.459515780210495,
            0.67769455909729,
            -0.6126423478126526,
            0.46180272102355957,
            -1.1970534324645996,
            0.6902734637260437,
            -0.42373090982437134,
            0.6613253951072693,
            -0.6378591656684875,
            -0.09572850912809372,
            0.7737440466880798,
            -0.9861689805984497,
            1.7158453464508057,
            0.629879355430603,
            -0.29088926315307617,
            0.2995350658893585,
            0.17469029128551483,
            0.40520042181015015,
            0.7376033067703247,
            0.395136296749115,
            -0.11115345358848572,
            0.08968547731637955,
            0.3605353832244873,
            0.13963854312896729,
            0.18679526448249817,
            0.17413334548473358,
            -0.21985362470149994,
            0.5959697365760803,
            0.12531240284442902,
            -0.3108542859554291,
            0.2397356629371643,
            -0.11469899117946625,
            0.15085546672344208,
            -0.7097600698471069,
            0.2497824877500534,
            -0.13574928045272827,
            1.8339675664901733,
            -1.1213016510009766,
            0.1843547821044922,
            0.331885427236557,
            0.13939057290554047,
            -0.5542495846748352,
            0.45283177495002747,
            0.32542210817337036,
            0.3650436997413635,
            -0.04559611901640892,
            0.2019219696521759,
            0.6569312810897827,
            -0.20434673130512238,
            1.4954591989517212,
            -0.2223464399576187,
            -1.1020501852035522,
            0.4183470904827118,
            0.12335691601037979,
            -0.6307751536369324,
            0.37486013770103455,
            -0.7035652995109558,
            -0.7333744764328003,
            0.2110954076051712,
            -0.512664794921875,
            -1.1905555725097656,
            -0.4534474015235901,
            1.0508973598480225,
            -0.11610603332519531,
            -0.46353644132614136,
            -0.1762665957212448,
            -0.22483685612678528,
            0.17725445330142975,
            -0.1746101826429367,
            0.8647686839103699,
            -0.21568550169467926,
            -0.6330314874649048,
            -0.3524225354194641,
            -0.34918680787086487,
            0.10123485326766968,
            -0.24625080823898315,
            0.3791079521179199,
            -0.16618986427783966,
            0.3711477220058441,
            -0.057681500911712646,
            0.06143869832158089,
            0.03091980703175068,
            0.29435256123542786,
            -0.3379336893558502,
            0.2583548128604889,
            0.8710930347442627,
            -0.04013732075691223,
            -0.3128916323184967,
            0.4196084141731262,
            0.7292830348014832,
            -0.6299101710319519,
            -0.10256446152925491,
            0.053512509912252426,
            0.13462799787521362,
            0.16380047798156738,
            -0.4797142744064331,
            0.13846580684185028,
            -0.5478529930114746,
            -0.24788406491279602,
            0.18175874650478363,
            -1.8093948364257812,
            -0.3732643723487854
        ],
        [
            0.35123521089553833,
            0.23464639484882355,
            -0.13648207485675812,
            0.15108482539653778,
            -0.09187576174736023,
            -0.7156404852867126,
            0.042452823370695114,
            -0.19794920086860657,
            -0.23026998341083527,
            0.059454768896102905,
            -0.14549867808818817,
            0.2573693096637726,
            0.15783730149269104,
            -0.4633151888847351,
            0.022251060232520103,
            0.11298403143882751,
            0.02712721936404705,
            -0.09627830237150192,
            -0.0439140647649765,
            0.3067595958709717,
            -0.16613087058067322,
            0.19977955520153046,
            0.2439783215522766,
            0.09056814014911652,
            0.23178422451019287,
            0.17350554466247559,
            0.26243242621421814,
            -0.2605542242527008,
            0.20476913452148438,
            -0.19955028593540192,
            0.9490840435028076,
            -0.1535138338804245,
            -0.4437716007232666,
            0.2220262885093689,
            -0.019851671531796455,
            0.352845162153244,
            0.36684557795524597,
            -0.8392239809036255,
            -0.27183589339256287,
            0.009690433740615845,
            0.14243526756763458,
            -0.2644984722137451,
            0.6742609739303589,
            -0.09941788017749786,
            -0.30978310108184814,
            -0.4098756015300751,
            0.02998637594282627,
            0.12635311484336853,
            -0.3281245529651642,
            0.07850483804941177,
            -0.19631415605545044,
            -0.32028546929359436,
            0.08374350517988205,
            0.05005595088005066,
            -0.13711239397525787,
            0.06860576570034027,
            0.09786324203014374,
            -0.10974770039319992,
            -0.16101732850074768,
            0.02784576639533043,
            0.1466854363679886,
            -0.06520400941371918,
            -0.5632994771003723,
            0.3422895073890686,
            -0.2608049809932709,
            0.33437296748161316,
            0.34060919284820557,
            0.16861139237880707,
            -0.37714752554893494,
            0.31707146763801575,
            -0.09685591608285904,
            0.009688345715403557,
            0.24603843688964844,
            0.1826971471309662,
            -0.013208284042775631,
            -0.1371695101261139,
            -0.03135444596409798,
            0.23729319870471954,
            0.0857665166258812,
            -0.07657762616872787,
            -0.8346831798553467,
            -0.46613043546676636,
            -0.30447128415107727,
            0.11347967386245728,
            -0.062441855669021606,
            0.4073144197463989,
            -0.006550760008394718,
            0.38014283776283264,
            0.17676329612731934,
            -0.3114761710166931,
            0.2040945291519165,
            0.08604207634925842,
            -0.11471780389547348,
            -0.024624338373541832,
            0.2767985761165619,
            -0.2348516583442688,
            -0.14015275239944458,
            -0.38916054368019104,
            -0.38672715425491333,
            0.10094800591468811,
            0.3544079065322876,
            0.8373724222183228,
            0.41155940294265747,
            -0.3641221523284912,
            -0.07569030672311783,
            0.09733914583921432,
            0.21254640817642212,
            1.3480147123336792,
            -0.186079204082489,
            0.016446202993392944,
            -0.3682681918144226,
            0.4074118435382843,
            0.16330654919147491,
            0.08886728435754776,
            -0.0851043164730072,
            0.170301154255867,
            0.19857686758041382,
            -0.16648466885089874,
            -0.17627057433128357,
            -0.0410880446434021,
            -0.0845039039850235,
            -0.016297945752739906,
            -0.27255746722221375,
            -0.37214162945747375,
            0.1408916860818863,
            -0.11501988023519516,
            0.010043826885521412,
            -0.021598929539322853
        ],
        [
            -0.010578751564025879,
            0.06974480301141739,
            -0.6408542394638062,
            -0.31840845942497253,
            -0.2166857123374939,
            0.3089796006679535,
            0.6195411086082458,
            -0.17045238614082336,
            -0.03972543776035309,
            -0.3031928241252899,
            -0.021130699664354324,
            -0.9881338477134705,
            -0.5073661804199219,
            -0.030663177371025085,
            0.008883076719939709,
            -0.10250657796859741,
            0.34372901916503906,
            -0.04806532710790634,
            0.15460529923439026,
            -0.049879543483257294,
            -0.12957219779491425,
            -0.46413853764533997,
            0.31821978092193604,
            -0.0806388109922409,
            -0.02963702380657196,
            -0.031120000407099724,
            -0.28777965903282166,
            -0.3878062665462494,
            0.24300232529640198,
            0.10097900778055191,
            0.06776036322116852,
            -0.04789869487285614,
            0.11522157490253448,
            0.3218216598033905,
            -0.4199995994567871,
            -0.165201798081398,
            0.3024832010269165,
            -0.14003270864486694,
            -0.057963695377111435,
            0.39490190148353577,
            -0.38898974657058716,
            0.8108137249946594,
            0.3502665162086487,
            -0.30563274025917053,
            -0.20489531755447388,
            -0.050912030041217804,
            -2.42755389213562,
            0.32559531927108765,
            -0.12759941816329956,
            -0.7267451286315918,
            0.0683886855840683,
            0.16507650911808014,
            0.09556718170642853,
            0.39691123366355896,
            0.02319740690290928,
            0.5003857016563416,
            0.010741345584392548,
            0.2721083462238312,
            0.5496223568916321,
            0.38793322443962097,
            0.12823282182216644,
            0.16663624346256256,
            0.04415271431207657,
            -0.15350858867168427,
            0.17112644016742706,
            0.15332934260368347,
            -0.3565918505191803,
            0.15348279476165771,
            0.16596969962120056,
            0.21473318338394165,
            0.39894700050354004,
            0.4447805881500244,
            0.4477572739124298,
            0.20933255553245544,
            0.004497950430959463,
            0.13194718956947327,
            -0.04370390251278877,
            -0.1582135558128357,
            0.12766629457473755,
            0.39489516615867615,
            0.7341450452804565,
            0.10052840411663055,
            0.3308235704898834,
            0.23464912176132202,
            0.24292880296707153,
            0.42763403058052063,
            0.2613113820552826,
            0.2098330408334732,
            -0.1686636209487915,
            0.12880054116249084,
            0.20768234133720398,
            -0.20250974595546722,
            -0.26474636793136597,
            -1.1499245166778564,
            -0.14951248466968536,
            -0.4166415333747864,
            0.8841265439987183,
            -0.06912700086832047,
            -0.06130601838231087,
            -0.052555397152900696,
            -0.1604214906692505,
            -0.6392558813095093,
            -0.16622138023376465,
            0.00644708750769496,
            -0.36372026801109314,
            -0.012600180692970753,
            0.5899838209152222,
            0.07296411693096161,
            1.4612956047058105,
            0.0162759218364954,
            0.7223658561706543,
            0.21381837129592896,
            -0.6059982180595398,
            -0.7751567959785461,
            0.44700127840042114,
            0.05544377118349075,
            0.2707684338092804,
            -0.002545539755374193,
            0.18268081545829773,
            0.17090409994125366,
            0.12421713769435883,
            -0.36080649495124817,
            -0.19898411631584167,
            0.11703183501958847,
            0.22179993987083435,
            -0.0642496794462204,
            0.15263287723064423,
            -0.12202374637126923
        ],
        [
            0.35596534609794617,
            0.5498455166816711,
            0.33159032464027405,
            -0.30152323842048645,
            -0.43699705600738525,
            -0.4200519919395447,
            -0.2932831346988678,
            0.1144801452755928,
            0.09747114777565002,
            -0.2689218521118164,
            0.24578751623630524,
            -0.31759363412857056,
            -0.10881850868463516,
            -0.2108723521232605,
            0.49504098296165466,
            -1.096693754196167,
            0.4889247417449951,
            0.5873100161552429,
            0.2831253111362457,
            -0.25448378920555115,
            0.5553240180015564,
            0.11630513519048691,
            -0.6239780187606812,
            -0.6231604218482971,
            0.44007137417793274,
            -0.00837944820523262,
            0.09215828031301498,
            0.6696053743362427,
            0.6380388140678406,
            -0.201690211892128,
            -0.008996197022497654,
            0.5814253091812134,
            -0.44778966903686523,
            -0.09493020921945572,
            0.40717610716819763,
            -0.07666342705488205,
            -0.006866809446364641,
            -0.2230069786310196,
            -0.35587358474731445,
            1.0091029405593872,
            -0.315392404794693,
            -0.4221382737159729,
            -0.343140184879303,
            -1.0014700889587402,
            -1.1003563404083252,
            -1.2605202198028564,
            0.028018372133374214,
            0.9844433069229126,
            0.24667078256607056,
            0.6489789485931396,
            0.5438083410263062,
            0.6495594382286072,
            0.45006343722343445,
            0.13364362716674805,
            -0.6106716990470886,
            -0.626322865486145,
            -0.6355607509613037,
            0.4422302842140198,
            -0.5070725679397583,
            -0.8144800066947937,
            -0.8132423162460327,
            -0.40014487504959106,
            -0.08052583038806915,
            -0.14011135697364807,
            0.4319125711917877,
            0.05542680621147156,
            0.0893474668264389,
            0.22868961095809937,
            0.5212029814720154,
            0.3876490592956543,
            0.08993189036846161,
            0.8461496829986572,
            1.2691313028335571,
            -0.06728584319353104,
            0.4089801609516144,
            -0.1647825688123703,
            0.48547565937042236,
            -0.19477352499961853,
            -0.34420180320739746,
            -0.23719288408756256,
            -0.06706178188323975,
            -0.010626902803778648,
            0.5566831827163696,
            0.857098400592804,
            -0.4703443944454193,
            0.040131159126758575,
            -0.16668914258480072,
            -0.9469255208969116,
            -0.33201247453689575,
            -0.49506887793540955,
            -0.5719040036201477,
            -0.00501795019954443,
            0.30374762415885925,
            -0.047297153621912,
            -0.647378146648407,
            -0.4156198799610138,
            0.175126850605011,
            -0.16001282632350922,
            0.5547858476638794,
            0.121421217918396,
            0.27920523285865784,
            0.04952448233962059,
            -0.6778283715248108,
            -0.43526411056518555,
            -0.35009104013442993,
            -0.1866869181394577,
            -0.05306331440806389,
            0.23861823976039886,
            -0.050868209451436996,
            -0.8080534338951111,
            -1.4149870872497559,
            -0.16083751618862152,
            0.029227392747998238,
            0.8299692869186401,
            -0.5611019134521484,
            0.3788510859012604,
            0.265214741230011,
            -1.1363003253936768,
            0.3447197377681732,
            -0.17328046262264252,
            -0.18800878524780273,
            0.07204160839319229,
            -0.5164615511894226,
            0.5713319182395935,
            -0.9555079936981201,
            0.36483174562454224,
            0.24010305106639862,
            0.03149998188018799
        ]
    ],
    "layer2/biases/Variable:0": [
        -1.707850694656372,
        0.8902381062507629,
        -0.13780120015144348,
        -1.3378710746765137,
        0.9016162157058716,
        -0.0041303932666778564,
        0.05486409366130829,
        0.14492090046405792,
        -0.005518347956240177,
        -1.227086067199707,
        -1.7881617546081543,
        0.8798681497573853,
        -0.9053758382797241,
        0.08185058832168579,
        0.35838451981544495,
        1.0320724248886108,
        -0.5363402962684631,
        2.025371551513672,
        -0.30796200037002563,
        0.5195578336715698,
        -2.465237617492676,
        0.03625647723674774,
        0.7542880773544312,
        -0.45784518122673035,
        -2.0952999591827393,
        1.7349282503128052,
        -1.1933050155639648,
        1.8033252954483032,
        -1.06107759475708,
        -0.5931990742683411,
        -0.10216617584228516,
        1.5790849924087524,
        1.0582059621810913,
        0.43334904313087463,
        0.9704534411430359,
        0.5653730034828186,
        1.7526508569717407,
        -0.1541181355714798,
        -1.0607287883758545,
        -0.82323157787323,
        -2.793919563293457,
        0.28209516406059265,
        0.08898711204528809,
        -0.4790274500846863,
        0.9850518703460693,
        0.7885490655899048,
        0.7793917655944824,
        -0.8480173945426941,
        -2.1771485805511475,
        -0.7651357054710388,
        -0.3377333879470825,
        -0.0720575675368309,
        0.597289502620697,
        -0.4721418619155884,
        -0.24348151683807373,
        -0.05223347619175911,
        -0.7134105563163757,
        1.4620413780212402,
        0.41616976261138916,
        1.2344549894332886,
        -0.8553176522254944,
        -2.1837799549102783,
        1.1744884252548218,
        0.08202887326478958,
        2.320972204208374,
        1.2296003103256226,
        -0.18912914395332336,
        -1.4125821590423584,
        0.06636084616184235,
        -1.4028056859970093,
        -0.5167914032936096,
        1.2171565294265747,
        -1.105097770690918,
        -0.631066620349884,
        1.7123245000839233,
        0.8684295415878296,
        0.023262811824679375,
        -1.7808129787445068,
        0.16930663585662842,
        0.30335503816604614,
        2.3669984340667725,
        3.022918701171875,
        0.47395360469818115,
        -1.2008411884307861,
        -0.025642728433012962,
        1.145165205001831,
        -0.2323397547006607,
        -1.3643412590026855,
        2.0942256450653076,
        0.39831408858299255,
        -0.09341134130954742,
        0.4898476302623749,
        2.2011542320251465,
        -0.36914151906967163,
        -0.9510920643806458,
        0.0078709302470088,
        0.7092493772506714,
        -0.010314053855836391,
        -1.2246520519256592,
        1.6447950601577759,
        1.2288626432418823,
        0.4035029709339142,
        0.2463480830192566,
        -0.04816483333706856,
        -0.36180925369262695,
        0.48408305644989014,
        0.5445826649665833,
        -0.5369933247566223,
        -0.3821645677089691,
        0.1534610092639923,
        -0.6900978088378906,
        -0.897790253162384,
        -0.6848852634429932,
        1.495908260345459,
        0.21054761111736298,
        -0.0916970819234848,
        -0.26516422629356384,
        -0.7810278534889221,
        1.2469258308410645,
        -1.2193944454193115,
        -0.8388386964797974,
        1.1868520975112915,
        -1.7623844146728516,
        -0.41465139389038086,
        -0.9295275807380676,
        0.01057443581521511,
        0.23011328279972076,
        -0.40658333897590637
    ],
    "layer2/weights/Variable:0": [
        [
            -0.05288219079375267,
            -0.06969425082206726,
            -0.04118536040186882,
            -0.009204917587339878,
            0.05449119582772255,
            -0.03340283781290054,
            -0.5422093868255615,
            0.1039699837565422,
            0.021366538479924202,
            0.05397330969572067,
            -0.051486268639564514,
            0.06946390867233276,
            0.014629420824348927,
            0.051870979368686676,
            -0.09280607104301453,
            -0.002948201261460781,
            -0.06540124118328094,
            -0.04771362990140915,
            -0.10861310362815857,
            0.02189048007130623,
            0.07463397085666656,
            -0.07503308355808258,
            -0.026468342170119286,
            -0.025095073506236076,
            0.15249282121658325,
            0.12801121175289154,
            0.08578088879585266,
            -0.03891220688819885,
            -0.023605456575751305,
            0.04680038243532181,
            -0.08096034079790115,
            -0.09642678499221802,
            0.09542650729417801,
            -0.014120674692094326,
            -0.059904277324676514,
            0.02279268391430378,
            -0.06163298338651657,
            0.16172975301742554,
            0.0270833857357502,
            -0.011653469875454903,
            0.06480973213911057,
            0.03141746297478676,
            0.025201216340065002,
            0.07321211695671082,
            -0.08910734206438065,
            0.021953435614705086,
            -0.0029697164427489042,
            0.02975032478570938,
            -0.08369245380163193,
            0.052052002400159836,
            -0.05812674015760422,
            -0.0020051999017596245,
            0.06694338470697403,
            0.139419287443161,
            -0.025644129142165184,
            -0.009518807753920555,
            0.005427053663879633,
            -0.1766885668039322,
            0.10796190053224564,
            -0.07723146677017212,
            -0.02448190003633499,
            -0.05051371455192566,
            0.03358000889420509,
            0.06970064342021942,
            -0.061517369002103806,
            -0.0011797170154750347,
            0.08553604781627655,
            -0.12256979942321777,
            -0.09765587002038956,
            0.050737060606479645,
            -0.05052487179636955,
            -0.022252995520830154,
            -0.07615412026643753,
            0.07541763782501221,
            0.08488710224628448,
            0.00010778055002447218,
            -0.018153831362724304,
            -0.15249593555927277,
            0.0660051479935646,
            0.1652507483959198,
            0.08348289132118225,
            0.14882077276706696,
            -0.04781518876552582,
            0.04554756358265877,
            0.038844089955091476,
            -0.04014201462268829,
            0.03261808305978775,
            -0.025368018075823784,
            -0.17500010132789612,
            -0.16702406108379364,
            -0.08902693539857864,
            0.014364907518029213,
            0.03520077466964722,
            0.024130603298544884,
            -0.031154906377196312,
            -0.053466711193323135,
            -0.06928982585668564,
            -0.03204186260700226,
            -0.04362059012055397,
            0.08633852005004883,
            0.13579896092414856,
            0.07120084017515182,
            0.005569447763264179,
            0.1354919672012329,
            0.058367904275655746,
            0.03319721296429634,
            -0.10870722681283951,
            0.07371789962053299,
            0.02933330647647381,
            0.07374340295791626,
            -0.3271489143371582,
            -0.021968895569443703,
            -0.08527765423059464,
            -0.028976771980524063,
            -0.12146806716918945,
            0.03796453773975372,
            -0.08627568185329437,
            -0.042885810136795044,
            -0.16205306351184845,
            0.0052396384999156,
            0.08277859538793564,
            0.011346835643053055,
            0.050657808780670166,
            -0.021023502573370934,
            0.02783065475523472,
            0.13637733459472656,
            0.032007668167352676,
            -0.12312863767147064
        ],
        [
            0.18226423859596252,
            -0.15547017753124237,
            -0.02598363161087036,
            0.03350452333688736,
            -0.06770605593919754,
            0.03152891993522644,
            0.466372549533844,
            0.06406839936971664,
            -0.423880398273468,
            0.07590152323246002,
            -0.0022360023576766253,
            -0.021638434380292892,
            0.01455708872526884,
            0.1981191635131836,
            -0.03743557631969452,
            0.02991916611790657,
            0.0023906822316348553,
            -0.07197879254817963,
            -0.04106907546520233,
            -0.12523089349269867,
            -0.1349439173936844,
            -0.0019355369731783867,
            -0.08206343650817871,
            0.03415796905755997,
            -0.032043952494859695,
            0.09122385829687119,
            0.03124244324862957,
            0.018201520666480064,
            -0.06891398131847382,
            0.022332947701215744,
            -0.021251127123832703,
            -0.6591823101043701,
            0.009714811109006405,
            -0.033813782036304474,
            0.011554325930774212,
            -0.09417520463466644,
            -0.15532948076725006,
            0.27681073546409607,
            0.43099620938301086,
            -0.09635144472122192,
            0.04047563672065735,
            0.09893195331096649,
            -0.04813021048903465,
            -0.04258507862687111,
            -0.10700532048940659,
            0.005002113059163094,
            0.06533482670783997,
            -0.052361711859703064,
            0.0034012196119874716,
            -0.033258967101573944,
            0.03465757146477699,
            -0.025231370702385902,
            0.048332083970308304,
            0.058099351823329926,
            -0.05291517451405525,
            -0.008064113557338715,
            -0.005165766458958387,
            -0.023642778396606445,
            -0.08916761726140976,
            0.6884121894836426,
            0.04585978761315346,
            -0.017560873180627823,
            0.05031526833772659,
            -0.056821033358573914,
            -0.1205916777253151,
            -0.01791645772755146,
            0.15122942626476288,
            -0.020510578528046608,
            0.005876951385289431,
            -0.08633305877447128,
            -0.014916782267391682,
            0.03852866217494011,
            -0.037530798465013504,
            0.12180235236883163,
            0.18580609560012817,
            -0.05888434499502182,
            -0.06820501387119293,
            0.4858372211456299,
            0.04666965827345848,
            0.014076534658670425,
            -0.012991595081984997,
            -0.15642862021923065,
            0.007854832336306572,
            0.10813795030117035,
            0.014004867523908615,
            -0.06507772952318192,
            -0.062443606555461884,
            -0.0512201227247715,
            -0.3155733346939087,
            -0.003115098224952817,
            -0.013322528451681137,
            -0.02161187119781971,
            -0.10742006450891495,
            0.02330610901117325,
            0.18109683692455292,
            -0.07513461261987686,
            0.03325187414884567,
            -0.03779113292694092,
            0.07695060968399048,
            -0.08301761746406555,
            -0.033822666853666306,
            0.04510316252708435,
            -0.442447304725647,
            -0.23472058773040771,
            0.00804477371275425,
            -0.07288715243339539,
            0.07349301874637604,
            0.31597262620925903,
            -0.00755479047074914,
            -0.002431242261081934,
            -0.35752740502357483,
            0.07138316333293915,
            -0.07150743901729584,
            -0.007815123535692692,
            -0.05136391147971153,
            -0.016132313758134842,
            0.01952190510928631,
            -0.15209287405014038,
            -0.17835164070129395,
            -0.04896440729498863,
            0.003791132243350148,
            -0.3312602937221527,
            -0.012319859117269516,
            0.265943318605423,
            0.03790253400802612,
            -0.21233992278575897,
            0.03836473077535629,
            -0.10405503958463669
        ],
        [
            0.006589324679225683,
            0.11188594251871109,
            -0.08015879988670349,
            0.03626897931098938,
            -0.09685339033603668,
            0.040157563984394073,
            -0.36025696992874146,
            -0.08569781482219696,
            -0.1149556040763855,
            0.09241240471601486,
            0.05317481979727745,
            0.02045580931007862,
            0.011364353820681572,
            0.16124951839447021,
            0.0419405996799469,
            0.004121358506381512,
            -0.0359872430562973,
            -0.02399325557053089,
            -0.03441644832491875,
            -0.031075095757842064,
            -0.008310767821967602,
            -0.03760962188243866,
            -0.11991263180971146,
            0.0827377587556839,
            -0.011085794307291508,
            0.029073458164930344,
            0.048540256917476654,
            -0.019729433581233025,
            0.1393968015909195,
            -0.061782464385032654,
            -0.11030220240354538,
            0.22323600947856903,
            -0.033318087458610535,
            -0.01799911819398403,
            -0.036799199879169464,
            -0.14969845116138458,
            0.17491847276687622,
            -0.14916865527629852,
            0.09370222687721252,
            0.09899856895208359,
            -0.1011890172958374,
            0.004665685817599297,
            -0.09008665382862091,
            0.12465871125459671,
            0.006261478643864393,
            0.010366031900048256,
            0.006421390455216169,
            0.12126366794109344,
            0.027843181043863297,
            0.06458413600921631,
            0.09019137918949127,
            -0.013035467825829983,
            0.034379854798316956,
            -0.10269267857074738,
            0.05829533189535141,
            -0.06467938423156738,
            -0.12976084649562836,
            -0.04603634774684906,
            -0.14475521445274353,
            -0.07625488936901093,
            0.052633337676525116,
            0.002535638166591525,
            0.00011732172424672171,
            -0.10025011748075485,
            -0.004463208839297295,
            0.1102902889251709,
            0.32825857400894165,
            -0.12323988974094391,
            -0.050682034343481064,
            0.018422981724143028,
            0.10402786731719971,
            0.08634374290704727,
            0.010223734192550182,
            -0.03429551422595978,
            0.03191347420215607,
            0.07017359882593155,
            -0.05575766786932945,
            0.009274519048631191,
            -0.01990373246371746,
            0.08066415786743164,
            0.0651257336139679,
            0.011214753612875938,
            -0.017057592049241066,
            -0.0018402301939204335,
            0.10843779891729355,
            0.07479675859212875,
            -0.01662481389939785,
            0.13145573437213898,
            -0.05999971926212311,
            -0.01255149208009243,
            0.06351454555988312,
            0.01231888122856617,
            0.11286139488220215,
            -0.039753880351781845,
            -0.03094162605702877,
            -0.0017154674278572202,
            0.15801534056663513,
            -0.02156851440668106,
            0.146778404712677,
            0.13171055912971497,
            0.033010151237249374,
            -0.13772329688072205,
            0.023249873891472816,
            -0.31138595938682556,
            0.06138011813163757,
            -0.09773764759302139,
            0.03192944824695587,
            -0.2541956901550293,
            -0.05965906381607056,
            -0.04279336705803871,
            -0.013391309417784214,
            -0.042665380984544754,
            0.05894798785448074,
            -0.04993819445371628,
            -0.04269837215542793,
            0.023147106170654297,
            0.04310552403330803,
            0.4083336889743805,
            -0.33523431420326233,
            0.12579554319381714,
            0.006967867258936167,
            -0.012002966366708279,
            -0.1246502473950386,
            -0.052124377340078354,
            0.06529977172613144,
            0.036085084080696106,
            -0.0699542835354805,
            0.014035660773515701
        ],
        [
            -0.03668983280658722,
            0.10874022543430328,
            0.04270162060856819,
            0.024256013333797455,
            0.05461464449763298,
            -0.01459253765642643,
            0.1620870679616928,
            -0.051341280341148376,
            -0.06954966485500336,
            -0.02822176180779934,
            -0.04097655415534973,
            0.014987465925514698,
            0.02117486670613289,
            0.1412154585123062,
            0.060153838247060776,
            0.009181082248687744,
            0.03720059618353844,
            0.03740096837282181,
            0.10372684895992279,
            -0.0178037378937006,
            -0.18624937534332275,
            -0.057935018092393875,
            0.049888432025909424,
            -0.0659666582942009,
            -0.021476957947015762,
            0.10665813088417053,
            -0.15548837184906006,
            0.016013411805033684,
            0.0381494015455246,
            0.11604823917150497,
            0.07321077585220337,
            0.07079136371612549,
            -0.020145289599895477,
            0.08624597638845444,
            0.02548062801361084,
            -0.0192722138017416,
            0.14526259899139404,
            -0.11513631790876389,
            0.02165071666240692,
            0.010744763538241386,
            -0.074290432035923,
            -0.15323428809642792,
            0.11921292543411255,
            -0.04551619291305542,
            0.07229622453451157,
            0.08535343408584595,
            0.07465104758739471,
            -0.013467793352901936,
            0.1269482523202896,
            -0.18200062215328217,
            0.023756202310323715,
            0.03356098756194115,
            -0.002195604145526886,
            -0.061609651893377304,
            -0.11706837266683578,
            0.046062372624874115,
            -0.008456428535282612,
            0.09142881631851196,
            0.003814730327576399,
            0.16551341116428375,
            -0.04445689544081688,
            0.04699627310037613,
            0.08106407523155212,
            0.5063999891281128,
            0.05933884158730507,
            0.04814155772328377,
            -0.014849614351987839,
            0.11250331997871399,
            0.10443765670061111,
            0.055360741913318634,
            0.008352027274668217,
            -0.020632345229387283,
            -0.07995489239692688,
            -0.02785508707165718,
            0.13024652004241943,
            0.05842114984989166,
            0.024557700380682945,
            0.22871877253055573,
            -0.07284960895776749,
            -0.13917899131774902,
            0.015080943703651428,
            0.015966258943080902,
            0.008095629513263702,
            0.05336722731590271,
            -0.09323809295892715,
            0.017263444140553474,
            -0.13639438152313232,
            0.04129958525300026,
            0.3524661958217621,
            -0.01640152744948864,
            0.019972454756498337,
            0.057748809456825256,
            0.02882511168718338,
            -0.02790539525449276,
            -0.06453407555818558,
            0.03463604673743248,
            -0.030677534639835358,
            -0.03399284929037094,
            -0.04987350478768349,
            0.1338539719581604,
            0.0389309860765934,
            0.009311753325164318,
            -0.01840291917324066,
            -0.1121075302362442,
            0.009927604347467422,
            0.187139093875885,
            0.17233631014823914,
            -0.017183823511004448,
            0.026169808581471443,
            -0.02578023262321949,
            -0.3736197054386139,
            -0.139897421002388,
            0.10894952714443207,
            0.07329986244440079,
            0.15691114962100983,
            -0.00670710438862443,
            -0.008121533319354057,
            -0.13532300293445587,
            -0.05620841309428215,
            0.05564763769507408,
            0.1950792372226715,
            0.31907904148101807,
            -0.0003149843541905284,
            -0.27978330850601196,
            -0.021590424701571465,
            -0.18519483506679535,
            -0.02755076251924038,
            0.06439636647701263
        ],
        [
            -0.19669243693351746,
            -0.03742475435137749,
            0.06823763996362686,
            -0.039350103586912155,
            0.023963231593370438,
            -0.05412517488002777,
            -0.4072798192501068,
            0.026230715215206146,
            0.25631871819496155,
            -0.08133155852556229,
            -0.05268479883670807,
            0.037700194865465164,
            0.008320479653775692,
            -0.004180604591965675,
            0.00625541340559721,
            -0.09602051228284836,
            -0.0020603633020073175,
            0.02734440378844738,
            0.012717001140117645,
            0.08423091471195221,
            0.4186870753765106,
            -0.07049919664859772,
            0.036004241555929184,
            -0.05303249508142471,
            -0.017223501577973366,
            -0.15781229734420776,
            0.12277016788721085,
            -0.11547981202602386,
            0.10276264697313309,
            -0.1259879469871521,
            0.028757916763424873,
            -0.013159386813640594,
            -0.006093632895499468,
            -0.026776714250445366,
            -0.15518274903297424,
            -0.09466633945703506,
            -0.05698411166667938,
            -0.220591738820076,
            0.21965520083904266,
            -0.014366630464792252,
            0.03411950543522835,
            0.012771383859217167,
            0.09343365579843521,
            -8.974412776296958e-05,
            -0.2612791061401367,
            0.07318317145109177,
            0.1772507131099701,
            0.09350772947072983,
            0.006530551239848137,
            -0.09723454713821411,
            0.0023654841352254152,
            0.027511874213814735,
            0.033579252660274506,
            -0.03865133598446846,
            -0.008251136168837547,
            0.02957322634756565,
            -0.02745828591287136,
            -0.16476617753505707,
            0.04390675202012062,
            0.018092339858412743,
            -0.0688069760799408,
            -0.036262668669223785,
            0.012154522351920605,
            -0.20426511764526367,
            0.003032876644283533,
            -0.03077717125415802,
            -0.0920071080327034,
            -0.14616215229034424,
            -0.10568293184041977,
            -0.00027329399017617106,
            0.017084995284676552,
            0.014866499230265617,
            -0.1154232919216156,
            -0.0012040778528898954,
            -0.024732407182455063,
            0.09353804588317871,
            -0.05611836910247803,
            -0.04172252491116524,
            -0.028688281774520874,
            0.048482369631528854,
            0.0025047508534044027,
            0.08274006098508835,
            0.08408858627080917,
            -0.04466261714696884,
            0.049928609281778336,
            0.06362584978342056,
            -0.11676451563835144,
            0.0028875251300632954,
            0.13697654008865356,
            -0.20801544189453125,
            -0.04626038298010826,
            0.04182872176170349,
            -0.13279980421066284,
            0.04365215823054314,
            0.03023972548544407,
            -0.029312731698155403,
            -0.0445784367620945,
            0.026896648108959198,
            0.043234389275312424,
            0.09869632869958878,
            -0.04515712708234787,
            0.045668743550777435,
            0.019665952771902084,
            0.1399129182100296,
            0.024106742814183235,
            -0.00543574383482337,
            -0.03405752778053284,
            0.016417305916547775,
            -0.05316115543246269,
            -0.045723818242549896,
            0.48250633478164673,
            -0.16282056272029877,
            0.053078532218933105,
            -0.09805623441934586,
            0.01770235039293766,
            0.00717101339250803,
            -0.05145663022994995,
            0.0015478471759706736,
            -0.010508233681321144,
            0.010884171351790428,
            0.1218361184000969,
            -0.03359270840883255,
            0.09213604778051376,
            0.0006674020551145077,
            0.04151102527976036,
            -0.022728383541107178,
            0.006337806582450867,
            0.0907677710056305
        ],
        [
            -0.04919274523854256,
            0.09926381707191467,
            -0.051735397428274155,
            0.2409970760345459,
            -0.021366527304053307,
            0.033279042690992355,
            0.09518388658761978,
            -0.09534405171871185,
            -0.22488871216773987,
            -0.03573700040578842,
            -0.017614133656024933,
            -0.04333563894033432,
            -0.06936674565076828,
            0.06239303573966026,
            -0.107319675385952,
            -0.15228669345378876,
            0.022813741117715836,
            0.0024630101397633553,
            -0.05114340782165527,
            -0.03671815246343613,
            0.038260821253061295,
            0.06768427044153214,
            -0.041330184787511826,
            0.16936253011226654,
            -0.01919693499803543,
            0.13320012390613556,
            0.0011451693717390299,
            0.03444778546690941,
            -0.032077666372060776,
            -0.1421397477388382,
            -0.03665349632501602,
            -0.022460171952843666,
            -0.10338307172060013,
            -0.043783146888017654,
            0.07145288586616516,
            -0.016482558101415634,
            0.06316108256578445,
            -0.059988852590322495,
            -0.011766597628593445,
            0.013229751028120518,
            0.016951825469732285,
            0.005100905429571867,
            0.0034966496750712395,
            -0.06048862263560295,
            -0.26004230976104736,
            -0.07880177348852158,
            0.08439962565898895,
            -0.00575751718133688,
            -0.001714915968477726,
            -0.04577481374144554,
            -0.021430645138025284,
            -0.023064063861966133,
            -0.025173906236886978,
            0.04750664532184601,
            -0.02455292083323002,
            0.013726984150707722,
            0.04632393270730972,
            -0.02445424534380436,
            0.12991048395633698,
            -0.2830295264720917,
            -0.030284684151411057,
            0.10327917337417603,
            0.05783594772219658,
            0.07725405693054199,
            0.08099640905857086,
            -0.05502781271934509,
            0.011417447589337826,
            -0.12960843741893768,
            0.1044125035405159,
            -0.09954849630594254,
            0.02340087853372097,
            -0.07123804837465286,
            0.18674446642398834,
            -0.013927925378084183,
            0.13664427399635315,
            0.005829309578984976,
            0.012156752869486809,
            0.06809640675783157,
            0.00927853025496006,
            -0.054065849632024765,
            -0.005330560263246298,
            0.15375562012195587,
            0.0022840434685349464,
            -0.046873170882463455,
            -0.03649406135082245,
            0.12513744831085205,
            0.07034242153167725,
            0.0849461555480957,
            -0.3693947494029999,
            -0.07103785872459412,
            0.07064442336559296,
            -0.00149441824760288,
            -0.10780289769172668,
            -0.25489136576652527,
            0.021200716495513916,
            0.06857679784297943,
            -0.008804571814835072,
            -0.15820641815662384,
            0.0014939575921744108,
            0.002446528756991029,
            -0.21131223440170288,
            -0.12751318514347076,
            0.002930332673713565,
            -0.3458922505378723,
            0.02020048350095749,
            0.03607875481247902,
            -0.07998447865247726,
            0.10957003384828568,
            -0.08289677649736404,
            -0.0262074563652277,
            -0.3330477476119995,
            -0.10469897091388702,
            0.07522669434547424,
            -0.03196989744901657,
            -0.10594411194324493,
            -0.060623422265052795,
            -0.021283529698848724,
            0.3127100169658661,
            0.08196056634187698,
            0.008115689270198345,
            -0.09391677379608154,
            0.25280922651290894,
            -0.1306077390909195,
            -0.23052771389484406,
            0.0813242644071579,
            -0.07126448303461075,
            0.11527974158525467,
            0.004324003588408232
        ],
        [
            -0.02999432198703289,
            -0.029660269618034363,
            0.02100115641951561,
            -0.08584598451852798,
            0.0982629731297493,
            -0.06760019063949585,
            -0.2610092759132385,
            -0.11618456989526749,
            -0.023909155279397964,
            0.04504728689789772,
            -0.013097316958010197,
            0.07399021834135056,
            0.04650852829217911,
            -0.32790955901145935,
            -0.04914672300219536,
            -0.020844126120209694,
            -0.08812862634658813,
            -0.04673066362738609,
            -0.020367803052067757,
            -0.04568454250693321,
            0.11421840637922287,
            -0.11561556905508041,
            -0.049862559884786606,
            -0.03656473755836487,
            -0.03593028709292412,
            -0.1644366830587387,
            0.04068715125322342,
            0.08026699721813202,
            0.05540730804204941,
            0.10617365688085556,
            0.09779925644397736,
            0.0017191343940794468,
            -0.0018662262009456754,
            0.005528378766030073,
            0.14918668568134308,
            0.13148905336856842,
            -0.15430402755737305,
            0.05445985123515129,
            0.0833713635802269,
            -0.09135903418064117,
            0.05931311473250389,
            0.02681424282491207,
            0.1383359581232071,
            -0.04375947266817093,
            0.02624337561428547,
            0.02704082988202572,
            0.03583905100822449,
            0.03742709383368492,
            0.054444361478090286,
            0.05210888385772705,
            -0.1026887595653534,
            0.0477999709546566,
            0.05960558354854584,
            0.06344423443078995,
            -0.05264288932085037,
            -0.03528394550085068,
            0.047574952244758606,
            -0.12455917149782181,
            0.09007485210895538,
            -0.016191158443689346,
            -0.055876169353723526,
            0.05720486864447594,
            0.02823331393301487,
            -0.19635778665542603,
            0.14879976212978363,
            -0.05627679452300072,
            0.07406701892614365,
            -0.058700524270534515,
            -0.11501570791006088,
            0.02886495366692543,
            0.01183195412158966,
            -0.006924874149262905,
            -0.029386745765805244,
            0.04113975167274475,
            -0.028146451339125633,
            -0.08967255800962448,
            -0.03779720142483711,
            -0.32309257984161377,
            0.1044202670454979,
            0.3005317747592926,
            -0.000942325743380934,
            0.1508372277021408,
            -0.049757905304431915,
            -0.013772976584732533,
            0.046932246536016464,
            0.008070259355008602,
            0.0745643749833107,
            0.0220074150711298,
            0.052278973162174225,
            -0.03920387849211693,
            0.023120233789086342,
            0.09133105725049973,
            -0.003104759845882654,
            -0.026427995413541794,
            0.05100138485431671,
            0.07656503468751907,
            -0.056522101163864136,
            -0.026470283046364784,
            -0.12350856512784958,
            0.2494056522846222,
            0.09163100272417068,
            0.049270614981651306,
            0.11725341528654099,
            0.11243284493684769,
            0.024545496329665184,
            0.03338278830051422,
            0.030589871108531952,
            0.11451908946037292,
            0.10784150660037994,
            0.016162849962711334,
            -0.1158304363489151,
            -0.049162883311510086,
            0.1403466910123825,
            -0.045253828167915344,
            -0.12081766873598099,
            -0.09263093769550323,
            0.06816360354423523,
            -0.00033208727836608887,
            -0.007416303735226393,
            -0.002426289254799485,
            -0.1563158482313156,
            0.18464498221874237,
            0.04672027751803398,
            0.08134158700704575,
            0.02484211139380932,
            0.24995292723178864,
            0.10029762238264084,
            0.08115274459123611
        ],
        [
            -0.09088333696126938,
            0.09099329262971878,
            -0.014665551483631134,
            0.016112670302391052,
            0.017773576080799103,
            0.0420389361679554,
            -0.015925107523798943,
            -0.19962351024150848,
            0.0591089203953743,
            0.060918085277080536,
            -0.06162027642130852,
            0.023694301024079323,
            -0.05604777857661247,
            -0.059564098715782166,
            0.05491245165467262,
            0.0456245094537735,
            -0.027693908661603928,
            -0.06707319617271423,
            0.04777171462774277,
            -0.03681832179427147,
            -0.10300998389720917,
            -0.0631164014339447,
            0.06910786777734756,
            -0.02024291269481182,
            -0.04561047628521919,
            -0.021770624443888664,
            -0.010477893054485321,
            0.0615294873714447,
            0.005187138915061951,
            -0.0031659547239542007,
            -0.022462915629148483,
            0.21870207786560059,
            -0.0453362800180912,
            0.13955296576023102,
            0.10154089331626892,
            -0.011763869784772396,
            0.06327873468399048,
            -0.06569954007863998,
            -0.06590496748685837,
            0.06727155297994614,
            -0.14860638976097107,
            -0.06295966356992722,
            -0.2519756257534027,
            0.09700026363134384,
            0.010523767210543156,
            -0.026984063908457756,
            -0.04479711502790451,
            0.021074092015624046,
            0.022274019196629524,
            0.05255408212542534,
            0.034829869866371155,
            -0.02965349331498146,
            -0.04814591631293297,
            0.026820208877325058,
            0.06319577991962433,
            0.06627947837114334,
            -0.09620156139135361,
            0.17876464128494263,
            -0.01832582615315914,
            -0.04310140013694763,
            0.008287427015602589,
            0.04945964738726616,
            -0.00885903649032116,
            -0.18861094117164612,
            0.18542124330997467,
            0.07864830642938614,
            -0.07433418184518814,
            0.1292879432439804,
            0.008916208520531654,
            0.028032677248120308,
            0.023981831967830658,
            0.019267594441771507,
            0.048540227115154266,
            0.027414819225668907,
            0.020825915038585663,
            -0.07173224538564682,
            0.029822664335370064,
            0.09548032283782959,
            -0.09124230593442917,
            -0.020077237859368324,
            0.03989293798804283,
            0.06064070388674736,
            -0.03215107321739197,
            -0.057903457432985306,
            0.07871092855930328,
            -0.06209425628185272,
            0.0484713576734066,
            0.10091791301965714,
            0.1355605274438858,
            -0.06655475497245789,
            -0.03520864248275757,
            0.0192043948918581,
            0.023008840158581734,
            -0.08587157726287842,
            0.014674599282443523,
            0.09198351949453354,
            -0.07041430473327637,
            -0.08521303534507751,
            0.004697368945926428,
            -0.06714729219675064,
            0.03545167297124863,
            -0.11701016128063202,
            0.047957710921764374,
            -0.3133404552936554,
            -0.07199693471193314,
            0.026435555890202522,
            0.03477468714118004,
            -0.00046182668302208185,
            0.09047026932239532,
            -0.03889376297593117,
            0.030345654115080833,
            0.04077526554465294,
            0.18564414978027344,
            0.00457933871075511,
            -0.034014035016298294,
            -0.016299646347761154,
            0.042943574488162994,
            0.09954208135604858,
            0.07047920674085617,
            -0.015189189463853836,
            0.34452754259109497,
            -0.12232615053653717,
            -0.05357113108038902,
            -0.23191340267658234,
            -0.0778956487774849,
            -0.09439204633235931,
            -0.00691158277913928,
            -0.03853191062808037
        ],
        [
            0.008713701739907265,
            0.19735786318778992,
            0.04251891002058983,
            0.14780542254447937,
            -0.030535178259015083,
            0.03892481327056885,
            0.3984965682029724,
            -0.10068926215171814,
            0.10054510086774826,
            -0.1380988210439682,
            -0.09288149327039719,
            -0.05192088708281517,
            -0.07595501840114594,
            0.2600085735321045,
            -0.036443617194890976,
            -0.1039574071764946,
            0.07582747936248779,
            -0.04316870495676994,
            0.039621952921152115,
            0.19904586672782898,
            -0.30312156677246094,
            0.0280098058283329,
            -0.04921039566397667,
            0.2869934141635895,
            -0.048881564289331436,
            -0.08914751559495926,
            -0.17580546438694,
            0.06602715700864792,
            0.0217229425907135,
            -0.10657010972499847,
            -0.055428799241781235,
            0.39334535598754883,
            -0.009923059493303299,
            -0.023984555155038834,
            -0.0004209683684166521,
            0.029892031103372574,
            -0.26731547713279724,
            -0.02257213555276394,
            -0.18034344911575317,
            -0.03663337603211403,
            -0.1471167504787445,
            -0.010526031255722046,
            -0.13615676760673523,
            -0.04869941994547844,
            0.00980057567358017,
            0.049492523074150085,
            -0.025459671393036842,
            0.16774266958236694,
            -0.06306970119476318,
            -0.11582083255052567,
            -0.02255026251077652,
            -0.08273591101169586,
            0.009909462183713913,
            -0.00035110930912196636,
            0.09374874085187912,
            0.006831800565123558,
            -0.0047593810595571995,
            0.16764630377292633,
            -0.06406330317258835,
            -0.2431459128856659,
            -0.030141957104206085,
            -0.010279439389705658,
            0.05318093299865723,
            -0.1716322898864746,
            -0.028176549822092056,
            -0.04317621514201164,
            0.09806810319423676,
            0.14719532430171967,
            0.024777421727776527,
            -0.024384213611483574,
            0.0030999251175671816,
            0.15547341108322144,
            0.06778082251548767,
            0.00784948281943798,
            0.09324098378419876,
            -0.016899608075618744,
            -0.0791366845369339,
            -0.07557850331068039,
            0.024989590048789978,
            -0.011546093970537186,
            -0.12398038059473038,
            -0.08543720096349716,
            0.00909091904759407,
            0.002114131348207593,
            -0.004338823724538088,
            -0.06876648217439651,
            -0.17042042315006256,
            0.060888033360242844,
            0.19904248416423798,
            0.23551326990127563,
            0.137119859457016,
            -0.010366413742303848,
            0.005311681888997555,
            -0.03103586472570896,
            0.11743836104869843,
            -0.08887749910354614,
            0.029538780450820923,
            -0.052473053336143494,
            -0.0038747794460505247,
            -0.17419028282165527,
            -0.01985180377960205,
            0.04741711542010307,
            0.08234390616416931,
            0.2948274612426758,
            0.078877754509449,
            0.23563288152217865,
            0.19235730171203613,
            -0.196066752076149,
            0.031956277787685394,
            -0.005264123901724815,
            -0.5840634703636169,
            0.10454276204109192,
            0.14945091307163239,
            -0.04409812390804291,
            0.034328147768974304,
            0.0746912956237793,
            -0.08682054281234741,
            -0.10230270773172379,
            0.025755925104022026,
            -0.097015380859375,
            -0.19363249838352203,
            -0.06843363493680954,
            -0.0531000941991806,
            0.14643871784210205,
            -0.04923323914408684,
            -0.07145430147647858,
            0.04395272582769394,
            0.004198659677058458
        ],
        [
            -0.06371729075908661,
            0.08284033834934235,
            0.04895773530006409,
            0.01676378771662712,
            -0.1258256882429123,
            0.1437218338251114,
            0.06832437217235565,
            -0.14920659363269806,
            -0.2007633000612259,
            0.13154050707817078,
            0.09732300043106079,
            0.027146097272634506,
            -0.04500141367316246,
            0.10322613269090652,
            0.06598038226366043,
            0.0660628005862236,
            0.06437159329652786,
            -0.0047140708193182945,
            0.030984334647655487,
            0.059363726526498795,
            -0.1525544971227646,
            -0.026549460366368294,
            -0.03384196758270264,
            0.4258503317832947,
            -0.12167759984731674,
            0.09103212505578995,
            -0.2509085237979889,
            0.07666435092687607,
            -0.13051818311214447,
            -0.16359777748584747,
            -0.09839549660682678,
            0.22944648563861847,
            -0.0012977321166545153,
            -0.0543661005795002,
            0.1081993356347084,
            -0.009045396000146866,
            -0.1120334342122078,
            0.13006053864955902,
            -0.10035114735364914,
            0.013728978112339973,
            -0.15389356017112732,
            0.08028536289930344,
            -0.04299299418926239,
            0.04369824379682541,
            0.1411139965057373,
            -0.009723194874823093,
            -0.02503160946071148,
            -0.11464452743530273,
            0.11808514595031738,
            -0.05027591809630394,
            0.056632839143276215,
            -0.1070140153169632,
            -0.03951457142829895,
            -0.06677979230880737,
            0.0034751209896057844,
            0.03718022257089615,
            0.004990621004253626,
            0.11852048337459564,
            -0.12202230840921402,
            0.020600225776433945,
            -0.0029723569750785828,
            -0.007761852350085974,
            0.006762580014765263,
            0.12965165078639984,
            0.08199715614318848,
            0.008031228557229042,
            0.10140901803970337,
            -0.03619728609919548,
            0.21787135303020477,
            0.10904528200626373,
            0.024553991854190826,
            0.06253115832805634,
            0.01947222277522087,
            -0.0545378215610981,
            -0.15164881944656372,
            -0.026363544166088104,
            0.036335766315460205,
            0.1467745453119278,
            -0.006242359522730112,
            -0.17579703032970428,
            -0.09593494236469269,
            -0.04998086765408516,
            0.0007088071433827281,
            -0.0524214543402195,
            -0.055801719427108765,
            0.00327258906327188,
            0.0828884020447731,
            0.024005718529224396,
            0.08131306618452072,
            0.009480263106524944,
            -0.012221835553646088,
            -0.006526439916342497,
            -0.10554572194814682,
            -0.1524103283882141,
            0.02151108719408512,
            0.1011807844042778,
            0.038326311856508255,
            -0.052904557436704636,
            -0.05869843065738678,
            -0.11095025390386581,
            0.056870292872190475,
            -0.04175539314746857,
            -0.16951236128807068,
            -0.12504279613494873,
            -0.13295434415340424,
            -0.02235405147075653,
            0.16465994715690613,
            0.02170286327600479,
            0.07176637649536133,
            -0.025455044582486153,
            -0.23400305211544037,
            -0.06661197543144226,
            -0.13536253571510315,
            -0.03884745016694069,
            -0.17854724824428558,
            0.00020847111591137946,
            -0.015567352063953876,
            0.25666481256484985,
            -0.0566910021007061,
            0.1292465627193451,
            0.15837779641151428,
            0.07621627300977707,
            -0.22287775576114655,
            -0.2720293700695038,
            0.03974686563014984,
            -0.2704700827598572,
            0.05430876836180687,
            0.0033064354211091995
        ],
        [
            -0.06094280257821083,
            0.014113732613623142,
            0.17585405707359314,
            -0.08269182592630386,
            0.0033079548738896847,
            0.09315260499715805,
            0.21320851147174835,
            0.007681563962250948,
            -0.08459651470184326,
            0.06036265194416046,
            -0.05896661803126335,
            -0.012501071207225323,
            0.03108845464885235,
            0.09791379421949387,
            0.06556732207536697,
            0.03186934068799019,
            0.025315430015325546,
            0.0263963770121336,
            -0.05953183025121689,
            -0.06171830743551254,
            -0.25391069054603577,
            -0.09923284500837326,
            -0.07718172669410706,
            -0.029056834056973457,
            -0.08825810253620148,
            0.11217678338289261,
            -0.07890919595956802,
            0.04635016620159149,
            -0.05755753815174103,
            0.026565978303551674,
            -0.014030723832547665,
            0.0382688008248806,
            0.11633773893117905,
            0.08297038823366165,
            0.041960105299949646,
            -0.15607520937919617,
            0.1230870932340622,
            -0.0643279105424881,
            0.06538423895835876,
            0.2870452404022217,
            -0.21454943716526031,
            -0.03696662560105324,
            0.08966850489377975,
            0.09799551963806152,
            0.10060784965753555,
            -0.03051997907459736,
            0.02834966406226158,
            0.12785737216472626,
            -0.07333944737911224,
            -0.09072921425104141,
            0.07992599904537201,
            -0.10127358883619308,
            0.027337098494172096,
            0.11764412373304367,
            0.1604904979467392,
            0.006434162147343159,
            0.03299397975206375,
            0.09553530067205429,
            -0.2245156168937683,
            -0.1541186273097992,
            -0.1126386746764183,
            0.07935170829296112,
            0.16587971150875092,
            0.2343141734600067,
            0.0006574856815859675,
            -0.009241804480552673,
            0.015747372061014175,
            0.24111081659793854,
            -0.0787072405219078,
            -0.11874556541442871,
            -0.034702301025390625,
            0.2027079313993454,
            0.14536364376544952,
            0.05081428587436676,
            -0.18766780197620392,
            -0.07105128467082977,
            -0.09541512280702591,
            0.05005428567528725,
            -0.034193601459264755,
            -0.02183367684483528,
            0.13802018761634827,
            -0.030239328742027283,
            -0.008191856555640697,
            -0.07281281054019928,
            -0.13544563949108124,
            -0.08361709117889404,
            -0.04389340430498123,
            -0.13212278485298157,
            -0.09143941849470139,
            0.038757484406232834,
            -0.03850085660815239,
            0.08162158727645874,
            -0.00647572660818696,
            -0.028747210279107094,
            -0.019810751080513,
            -0.0010553498286753893,
            0.0899328738451004,
            0.041789088398218155,
            0.21025536954402924,
            -0.15475867688655853,
            -0.05480627715587616,
            0.023213649168610573,
            0.029971500858664513,
            -0.011915170587599277,
            -0.022630685940384865,
            0.054124992340803146,
            0.06921030580997467,
            -0.01350029744207859,
            -0.10825175046920776,
            -0.005352666135877371,
            -0.39613762497901917,
            0.03768103942275047,
            0.04100838676095009,
            -0.04655182361602783,
            0.16661028563976288,
            0.06110559403896332,
            -0.02192866988480091,
            -0.394035279750824,
            -0.05267736688256264,
            0.1940925270318985,
            0.1009506806731224,
            -0.2969611585140228,
            0.11313753575086594,
            0.046648845076560974,
            -0.03471732512116432,
            -0.04351571202278137,
            0.012303324416279793,
            0.02888496220111847
        ],
        [
            0.133901447057724,
            0.018385006114840508,
            -0.07281235605478287,
            0.20690061151981354,
            -0.14697787165641785,
            0.01045410055667162,
            0.6165342926979065,
            -0.29531610012054443,
            0.18091616034507751,
            0.44205203652381897,
            -0.10067689418792725,
            -0.014960106462240219,
            -0.014457527548074722,
            0.3326444625854492,
            0.04888908937573433,
            -0.04618990048766136,
            -0.031185466796159744,
            0.08905167132616043,
            -0.029532652348279953,
            0.22453594207763672,
            -0.38665926456451416,
            0.159051313996315,
            -0.018106037750840187,
            0.19262880086898804,
            -0.2539694905281067,
            0.04012233391404152,
            -0.01945265382528305,
            -0.12186930328607559,
            -0.1335725635290146,
            0.13926368951797485,
            -0.0070648700930178165,
            0.31946778297424316,
            -0.0547809973359108,
            0.05693957209587097,
            -0.01753854751586914,
            -0.037729665637016296,
            -0.17547832429409027,
            -0.12820400297641754,
            -0.06073461472988129,
            0.0322052538394928,
            -0.08308553695678711,
            -0.18187753856182098,
            0.11824197322130203,
            -0.0237188208848238,
            0.11499150097370148,
            0.055590998381376266,
            0.16944599151611328,
            -0.17197948694229126,
            0.09119293093681335,
            -0.1841561645269394,
            0.0804498940706253,
            -0.12401439994573593,
            0.04060452803969383,
            -0.13496702909469604,
            -0.08773684501647949,
            0.11394140124320984,
            0.01109737902879715,
            -0.06472896784543991,
            -0.02968144416809082,
            0.36340561509132385,
            -0.006462679710239172,
            0.008158821612596512,
            -0.10631195455789566,
            0.886896550655365,
            0.0618295818567276,
            0.121527299284935,
            0.30208298563957214,
            0.13661381602287292,
            0.3762612044811249,
            -0.3738882541656494,
            0.01328231766819954,
            -0.07644813507795334,
            -0.0754595547914505,
            0.02902173437178135,
            -0.11473439633846283,
            0.14375518262386322,
            0.08515671640634537,
            0.3523917496204376,
            -0.24254971742630005,
            0.15039509534835815,
            0.015805033966898918,
            -0.03502335399389267,
            -0.08019242435693741,
            -0.296500563621521,
            0.04371543973684311,
            -0.117594413459301,
            -0.13778923451900482,
            -0.09235528856515884,
            0.9725326299667358,
            -0.09728655964136124,
            0.03993651270866394,
            -0.001614960958249867,
            -0.09281882643699646,
            0.11562929302453995,
            -0.01610577665269375,
            -0.20723283290863037,
            -0.08263664692640305,
            0.07908391952514648,
            0.1107320562005043,
            -0.03548339754343033,
            -0.06075117737054825,
            0.268868088722229,
            -0.23755405843257904,
            -0.15884017944335938,
            -0.009729658253490925,
            0.019681215286254883,
            -0.135136216878891,
            -0.27681052684783936,
            -0.12461510300636292,
            -0.05764682590961456,
            -1.7137428522109985,
            -0.09824171662330627,
            0.14317995309829712,
            0.027232477441430092,
            0.07357849180698395,
            -0.02019810490310192,
            -0.07294147461652756,
            -0.11514577269554138,
            0.03495793417096138,
            0.046396974474191666,
            0.34023407101631165,
            0.11431605368852615,
            0.4998406767845154,
            -0.1658959984779358,
            0.029527921229600906,
            -0.22379787266254425,
            0.09586326777935028,
            -0.16865459084510803
        ],
        [
            -0.015067742206156254,
            -0.02297150529921055,
            0.07215648144483566,
            0.09857052564620972,
            -0.028515510261058807,
            0.014115685597062111,
            -0.36649930477142334,
            -0.07196638733148575,
            -0.18511393666267395,
            0.39744654297828674,
            0.06105294078588486,
            0.0395498052239418,
            -0.026844196021556854,
            0.026691732928156853,
            -0.1547776162624359,
            -0.14763018488883972,
            0.02938813343644142,
            -0.08941105008125305,
            0.01721203327178955,
            0.031963326036930084,
            0.17687900364398956,
            0.051500096917152405,
            0.03558439761400223,
            -0.06496840715408325,
            -0.22701196372509003,
            0.19711314141750336,
            -0.013393858447670937,
            -0.08969725668430328,
            -0.05486530065536499,
            0.6476888656616211,
