{
    "_metadata": {
        "best_epoch": 1169,
        "epoch": 1169,
        "loss_validation": 0.028699999675154686,
        "rms_validation": 0.14749999344348907,
        "rms_validation_descaled": 0.030799999833106995
    },
    "feature_max": {
        "An": 6.0,
        "Ate": 13.999999799787433,
        "Ati": 13.999999707247783,
        "Ti_Te": 2.500000037441564,
        "Zeff": 3.0,
        "logNustar": -0.00029389703793479083,
        "q": 14.999999814911666,
        "smag": 4.999999911903269,
        "x": 0.9899999907753247
    },
    "feature_min": {
        "An": -4.99999927494918,
        "Ate": 2.0000002002125656,
        "Ati": 2.0,
        "Ti_Te": 0.250000018720782,
        "Zeff": 1.0,
        "logNustar": -5.000293897037935,
        "q": 0.6600000728014113,
        "smag": -0.9999999119032691,
        "x": 0.09000001713153978
    },
    "feature_names": [
        "Zeff",
        "Ati",
        "Ate",
        "An",
        "q",
        "smag",
        "x",
        "Ti_Te",
        "logNustar"
    ],
    "hidden_activation": [
        "tanh",
        "tanh",
        "tanh"
    ],
    "layer1/biases/Variable:0": [
        0.0942046269774437,
        0.1834261566400528,
        1.847090244293213,
        1.0360080003738403,
        0.8815208077430725,
        -2.018908977508545,
        -0.26787590980529785,
        0.12860994040966034,
        1.6958543062210083,
        0.6174126863479614,
        -0.8104788064956665,
        -0.6552022099494934,
        -1.6719591617584229,
        0.36246752738952637,
        -1.6464180946350098,
        1.4613957405090332,
        0.22725029289722443,
        -0.43102967739105225,
        -0.44156110286712646,
        0.7451251149177551,
        -0.018377700820565224,
        -0.5710688829421997,
        0.8164012432098389,
        -0.13615095615386963,
        0.47949594259262085,
        0.07895562052726746,
        -0.048062507063150406,
        0.11733783781528473,
        -0.6992878913879395,
        -0.6787207126617432,
        -0.014843381941318512,
        0.5194577574729919,
        -1.3916500806808472,
        -0.7952855229377747,
        -0.4082709848880768,
        -1.3864896297454834,
        -0.5072216391563416,
        -2.141908645629883,
        -0.7673372626304626,
        -0.10472160577774048,
        -1.0839568376541138,
        -0.06891758739948273,
        -0.27262774109840393,
        -1.1725256443023682,
        -2.1117684841156006,
        0.0645725280046463,
        -1.9233920574188232,
        0.09464988857507706,
        0.8574473261833191,
        -0.1659594029188156,
        -1.4070290327072144,
        1.679468035697937,
        -0.5196422934532166,
        0.23052607476711273,
        0.9418741464614868,
        1.1827434301376343,
        -0.4117782413959503,
        -1.9684617519378662,
        -0.9460358619689941,
        1.2240933179855347,
        -0.4868727922439575,
        -0.7185202836990356,
        -0.9677293300628662,
        -0.47009122371673584,
        0.500939667224884,
        -1.2379180192947388,
        -0.42864134907722473,
        0.02160317450761795,
        0.8428285717964172,
        2.2605621814727783,
        -0.5161167979240417,
        -0.3307921290397644,
        -0.26575109362602234,
        -0.5302339196205139,
        1.5916391611099243,
        -0.5816783905029297,
        -1.0302847623825073,
        1.1511858701705933,
        0.29306739568710327,
        -0.3606855571269989,
        -0.5100204944610596,
        0.29985037446022034,
        -0.34885892271995544,
        -0.12535510957241058,
        -0.14691999554634094,
        -0.4995562732219696,
        0.17948190867900848,
        0.004700913559645414,
        -0.5628082752227783,
        -0.9166108965873718,
        0.18148186802864075,
        0.7893733978271484,
        0.24794606864452362,
        0.22252655029296875,
        -0.16815327107906342,
        -0.8067564368247986,
        -0.3396097421646118,
        1.3727246522903442,
        1.148152470588684,
        0.02534373104572296,
        -0.33179035782814026,
        0.22544504702091217,
        0.6266079545021057,
        -0.20313706994056702,
        -0.40439385175704956,
        0.016265902668237686,
        1.5638185739517212,
        1.4666236639022827,
        0.06632620841264725,
        -0.7644824981689453,
        -1.440960168838501,
        -0.1528061330318451,
        -0.6416307091712952,
        -0.22404025495052338,
        -1.1627682447433472,
        -1.242419958114624,
        -0.14509445428848267,
        0.2299845665693283,
        1.8464114665985107,
        -0.19392737746238708,
        2.0964012145996094,
        -1.439447283744812,
        0.6362610459327698,
        0.25915205478668213,
        0.9203404188156128,
        0.5586352348327637,
        0.1906544268131256,
        -0.26925596594810486
    ],
    "layer1/weights/Variable:0": [
        [
            -0.052017416805028915,
            0.24724386632442474,
            0.4151751697063446,
            0.05832038074731827,
            0.19373130798339844,
            -0.004681832157075405,
            -0.11283069103956223,
            0.0673527717590332,
            -0.0635087639093399,
            0.003955560270696878,
            0.0511992909014225,
            -0.0293448343873024,
            -0.014944636262953281,
            0.08330724388360977,
            -0.2284294217824936,
            -0.02795957401394844,
            0.10589224845170975,
            0.039213672280311584,
            0.06915833801031113,
            0.1886877566576004,
            -0.0007905616075731814,
            -0.028510287404060364,
            -0.07264743745326996,
            0.11590522527694702,
            0.27906373143196106,
            -0.019802747294306755,
            0.12281601130962372,
            -0.026298796758055687,
            0.1614311784505844,
            -0.16936174035072327,
            0.08633030951023102,
            0.272406667470932,
            -0.049167294055223465,
            -0.06778568029403687,
            -0.07658877968788147,
            0.06672816723585129,
            0.18412703275680542,
            -0.13866285979747772,
            -0.007170282304286957,
            -0.07590730488300323,
            0.05567082390189171,
            -0.02694605104625225,
            -0.06076276674866676,
            -0.02993880771100521,
            0.04397640377283096,
            0.010265608318150043,
            -0.0493900366127491,
            0.14193372428417206,
            0.09398150444030762,
            -0.025379639118909836,
            0.054376497864723206,
            -0.004971417598426342,
            0.011712072417140007,
            0.09345345199108124,
            0.05885224789381027,
            0.06166476011276245,
            0.07673303037881851,
            0.0010820223251357675,
            0.02966202422976494,
            -0.18437807261943817,
            -0.06794098019599915,
            0.029373295605182648,
            0.034190833568573,
            -0.04236539825797081,
            0.07861781120300293,
            0.08814525604248047,
            -0.1194777637720108,
            0.07134652137756348,
            -0.035883333534002304,
            -0.0025614327751100063,
            -0.17449483275413513,
            -0.052941497415304184,
            0.15768542885780334,
            0.04874154180288315,
            0.1228136196732521,
            0.048221055418252945,
            0.04588116705417633,
            0.1912764608860016,
            -0.02559143677353859,
            -0.015714559704065323,
            -0.19173426926136017,
            -0.06529088318347931,
            -0.006162067875266075,
            0.0643627941608429,
            0.03574385866522789,
            0.001335221459157765,
            0.07764112204313278,
            0.005486313719302416,
            -0.09322941303253174,
            -0.01754089444875717,
            0.04323255270719528,
            -0.11550748348236084,
            0.05313892289996147,
            -0.043265532702207565,
            0.21857503056526184,
            -0.025860199704766273,
            -0.035985592752695084,
            0.005732201971113682,
            -0.1456054002046585,
            -0.0841960459947586,
            -0.05017456039786339,
            -0.044836949557065964,
            -0.14439590275287628,
            -0.03993650898337364,
            -0.203656867146492,
            0.08855579048395157,
            0.0006536752916872501,
            0.19968831539154053,
            -0.18415042757987976,
            -0.028209621086716652,
            -0.390863835811615,
            -0.1970026195049286,
            0.08023205399513245,
            -0.15898247063159943,
            -0.10594382882118225,
            -0.47014543414115906,
            -0.05761659890413284,
            -0.05507588014006615,
            -0.1346573531627655,
            -0.04847613722085953,
            0.0006491446401923895,
            0.045301295816898346,
            0.046771083027124405,
            -0.07706670463085175,
            -0.038971908390522,
            0.12985041737556458,
            -0.14941895008087158,
            -0.05293440818786621
        ],
        [
            -0.08955852687358856,
            -0.556182324886322,
            -0.21057552099227905,
            0.24329526722431183,
            -0.34135380387306213,
            -0.00594784552231431,
            0.18729281425476074,
            0.0370965376496315,
            -0.05076766386628151,
            -0.04277154430747032,
            -0.0018014685483649373,
            0.020432785153388977,
            -0.03926675021648407,
            -0.0468822717666626,
            0.0207690242677927,
            0.059905923902988434,
            0.24661846458911896,
            0.07647033035755157,
            -0.16508029401302338,
            -0.1297948956489563,
            0.25688010454177856,
            -0.07450815290212631,
            -0.1975807100534439,
            0.06711209565401077,
            -0.17609865963459015,
            -0.03163982927799225,
            -0.2868427336215973,
            0.18199409544467926,
            0.15742245316505432,
            -0.12575753033161163,
            0.0010110973380506039,
            -0.2249085009098053,
            0.05212986841797829,
            0.07746528834104538,
            0.1509729027748108,
            0.17212152481079102,
            0.08414215594530106,
            -0.007988969795405865,
            -0.09026745706796646,
            -0.01903771050274372,
            -0.09405753761529922,
            0.013877363875508308,
            0.033329274505376816,
            -0.03838003799319267,
            0.008142541162669659,
            0.012858851812779903,
            0.1473284810781479,
            -0.06551562994718552,
            0.30068904161453247,
            -0.055652257055044174,
            -0.03452013060450554,
            0.025075286626815796,
            -0.09511591494083405,
            0.09106387197971344,
            0.16374771296977997,
            -0.15623503923416138,
            -0.04932820796966553,
            -0.0027775538619607687,
            -0.09275142103433609,
            0.1520274579524994,
            -0.09874223917722702,
            0.11138959228992462,
            -0.0042313504964113235,
            0.020387597382068634,
            -0.23633337020874023,
            -0.02787727490067482,
            0.1139456033706665,
            0.02811455726623535,
            -0.05919773504137993,
            9.686707926448435e-05,
            0.09574078023433685,
            0.17450988292694092,
            0.1319844275712967,
            0.02445635199546814,
            -0.021186651661992073,
            0.020192550495266914,
            -0.01896396093070507,
            -0.15144874155521393,
            -0.10102645307779312,
            -0.07963206619024277,
            0.1251278817653656,
            0.442182719707489,
            0.0822933092713356,
            0.10642525553703308,
            -0.018024936318397522,
            0.19515830278396606,
            -0.020957637578248978,
            -0.020991740748286247,
            -0.07314185798168182,
            0.08081930130720139,
            0.1210334300994873,
            0.07824841141700745,
            -0.07603171467781067,
            0.3434954881668091,
            -0.1886885166168213,
            0.27999940514564514,
            -0.017602751031517982,
            -0.0009086871868930757,
            -0.035718828439712524,
            0.11548098921775818,
            0.03313073888421059,
            0.040379151701927185,
            -0.26014673709869385,
            -0.12407877296209335,
            0.08295105397701263,
            -0.09106823056936264,
            0.2335091233253479,
            -0.48990675806999207,
            0.1720256209373474,
            0.07289469987154007,
            0.2754582464694977,
            -0.2516219913959503,
            -0.034962497651576996,
            0.18544602394104004,
            0.20071092247962952,
            0.2698048949241638,
            0.0846741572022438,
            0.05609598755836487,
            0.11074889451265335,
            0.12815850973129272,
            -0.0036357897333800793,
            -0.06658656895160675,
            -0.03139837458729744,
            0.1187496930360794,
            -0.12169776856899261,
            -0.1295749694108963,
            0.30812209844589233,
            0.2265700250864029
        ],
        [
            -0.1446448117494583,
            0.04715733230113983,
            0.047337181866168976,
            -0.21466298401355743,
            0.26499277353286743,
            0.0037876099813729525,
            0.2368011772632599,
            0.1969732791185379,
            0.014177987352013588,
            -0.3458069860935211,
            0.09286484867334366,
            -0.13474179804325104,
            0.06050267815589905,
            0.02301720343530178,
            0.15584103763103485,
            -0.11115886270999908,
            0.15038546919822693,
            -0.31240782141685486,
            -0.18186740577220917,
            -0.13428334891796112,
            -0.4539385437965393,
            0.32631736993789673,
            -0.17471802234649658,
            -0.12252464145421982,
            -0.10867681354284286,
            0.10668624937534332,
            -0.03851393982768059,
            0.3201368749141693,
            -0.07015484571456909,
            -0.07837928086519241,
            0.45884108543395996,
            0.03612037003040314,
            0.15321050584316254,
            0.17860159277915955,
            -0.23584434390068054,
            0.03418745845556259,
            0.002733832923695445,
            -0.20835468173027039,
            -0.25126102566719055,
            0.2655058205127716,
            -0.23260559141635895,
            -0.19938009977340698,
            0.12668704986572266,
            -0.14320547878742218,
            -0.9852830767631531,
            -0.032058898359537125,
            0.05941525101661682,
            0.16456738114356995,
            -0.026709001511335373,
            -0.1422901153564453,
            0.07224883139133453,
            0.13653670251369476,
            -0.37280353903770447,
            0.24560078978538513,
            0.6023606061935425,
            0.41905391216278076,
            -0.3979051113128662,
            0.002441541524603963,
            0.07374931871891022,
            0.07372262328863144,
            0.26190873980522156,
            -0.19176805019378662,
            -0.5441684722900391,
            -0.021000538021326065,
            0.06624637544155121,
            -0.16013574600219727,
            -0.10978225618600845,
            -0.15072433650493622,
            -0.09780608117580414,
            -3.4527973184594885e-05,
            -0.13200828433036804,
            -0.41783955693244934,
            -0.0964166596531868,
            0.11085554212331772,
            0.9958205819129944,
            0.11324310302734375,
            -0.1416114866733551,
            -0.034532465040683746,
            -0.19199414551258087,
            -0.2752988636493683,
            -0.26772764325141907,
            0.20090265572071075,
            0.003686550771817565,
            0.22223781049251556,
            0.16008923947811127,
            -0.1715320646762848,
            0.1646161824464798,
            -0.08877506852149963,
            0.1499190479516983,
            -0.1732204258441925,
            0.07366414368152618,
            -0.15637163817882538,
            0.0010102693922817707,
            -0.3144366443157196,
            0.017492249608039856,
            -0.08661489188671112,
            -0.15397235751152039,
            -0.013999241404235363,
            0.17690083384513855,
            -0.16488215327262878,
            -0.11179694533348083,
            -0.13242629170417786,
            -0.014870005659759045,
            0.12012205272912979,
            0.016421591863036156,
            -0.04959959536790848,
            0.11841145157814026,
            0.9124844670295715,
            0.09043481200933456,
            -0.02583245001733303,
            -0.05764130502939224,
            0.11628900468349457,
            0.31244075298309326,
            0.020340241491794586,
            0.09477623552083969,
            -0.11420807987451553,
            0.3128112852573395,
            -0.033205024898052216,
            -0.10005466639995575,
            0.31334400177001953,
            0.008004117757081985,
            0.17766277492046356,
            -0.34920281171798706,
            0.01960507407784462,
            0.46806684136390686,
            -0.0030216812156140804,
            -0.06282448023557663,
            0.013840606436133385
        ],
        [
            0.47557130455970764,
            0.36372309923171997,
            0.22613774240016937,
            0.22139807045459747,
            0.28737300634384155,
            -0.020823100581765175,
            -0.5828936696052551,
            -0.14873303472995758,
            0.10859116166830063,
            0.31641271710395813,
            -0.030297288671135902,
            0.335162878036499,
            0.015950409695506096,
            0.012008392252027988,
            -0.4951614737510681,
            0.10721992701292038,
            -0.039556048810482025,
            0.17995639145374298,
            -0.5064742565155029,
            0.09312163293361664,
            -0.06953161954879761,
            0.04467597231268883,
            -0.11529146879911423,
            0.10292889922857285,
            0.030769500881433487,
            0.419729083776474,
            0.19288849830627441,
            0.2401529997587204,
            0.005779767408967018,
            -0.22015686333179474,
            0.15963192284107208,
            0.06126159057021141,
            -0.26175162196159363,
            -0.2868541181087494,
            0.23579391837120056,
            0.05256461352109909,
            0.13096928596496582,
            -0.012571287341415882,
            -0.04501080513000488,
            0.20286689698696136,
            -0.24946895241737366,
            0.14249534904956818,
            -0.4075537919998169,
            -0.002441577147692442,
            -0.9164370894432068,
            -0.01348575484007597,
            -0.19090451300144196,
            0.5415889024734497,
            0.16750308871269226,
            -0.02498805709183216,
            -0.024671291932463646,
            1.4705108404159546,
            0.021639879792928696,
            -0.25319433212280273,
            -0.40327802300453186,
            0.3575775623321533,
            0.01980035938322544,
            -0.008583642542362213,
            -0.14870846271514893,
            0.033952195197343826,
            -0.10818203538656235,
            0.2215775102376938,
            -0.0774112269282341,
            -0.25920388102531433,
            0.5116828083992004,
            -0.6888232231140137,
            0.02677156962454319,
            -0.010432155802845955,
            0.14575344324111938,
            -0.00017365410167258233,
            -0.0528835766017437,
            0.17749902606010437,
            0.3188769221305847,
            -0.230103999376297,
            -0.3549918830394745,
            -0.03089025430381298,
            0.09599971771240234,
            0.09279517829418182,
            -0.0018568321829661727,
            0.37164589762687683,
            0.11327454447746277,
            -0.42226332426071167,
            0.13946537673473358,
            -0.05370447784662247,
            -0.47375214099884033,
            0.22495828568935394,
            -0.010639792308211327,
            0.3168735206127167,
            -0.3017522394657135,
            -0.04816417396068573,
            -0.135323628783226,
            -0.09878425300121307,
            0.3738986849784851,
            0.3840605318546295,
            0.037125375121831894,
            0.20653176307678223,
            -0.27927663922309875,
            0.02404155395925045,
            -0.225535586476326,
            0.28312382102012634,
            -0.3601653575897217,
            0.32028964161872864,
            0.04259520396590233,
            0.09075113385915756,
            0.040201473981142044,
            0.15338106453418732,
            0.1225133091211319,
            0.26042768359184265,
            0.07250173389911652,
            0.005140800029039383,
            -0.06408925354480743,
            0.01785345934331417,
            -0.07612490653991699,
            -0.5595291256904602,
            0.022638186812400818,
            -0.12895269691944122,
            -0.2778104245662689,
            0.030935654416680336,
            -0.07064127922058105,
            -0.7962904572486877,
            0.007718142122030258,
            -0.2910163104534149,
            0.4023321866989136,
            0.008476223796606064,
            0.5780258178710938,
            -0.09321306645870209,
            -0.33670610189437866,
            -0.12246907502412796
        ],
        [
            -0.04153875261545181,
            -0.03795800358057022,
            -0.08524853736162186,
            -0.07119806110858917,
            -0.12672795355319977,
            -0.01247120089828968,
            0.02988525480031967,
            -0.00647742161527276,
            0.30439355969429016,
            -0.08858304470777512,
            -0.04188348725438118,
            -0.004718923941254616,
            -1.6967225074768066,
            0.03469179943203926,
            -0.06346878409385681,
            0.20408989489078522,
            -0.01676320843398571,
            0.08601991832256317,
            -0.1502155363559723,
            -0.1099030077457428,
            -0.018236776813864708,
            0.18858948349952698,
            0.21152149140834808,
            -0.062274858355522156,
            -0.10065682977437973,
            0.0013450263068079948,
            -0.058617204427719116,
            -0.037368133664131165,
            -0.04809504374861717,
            0.04333777725696564,
            0.048324380069971085,
            0.014692054130136967,
            0.09338035434484482,
            -0.0253889299929142,
            0.08275571465492249,
            0.10748076438903809,
            -0.1102358028292656,
            0.039283473044633865,
            -0.028792163357138634,
            -0.04007478058338165,
            -0.9865071773529053,
            -0.7348184585571289,
            0.054672446101903915,
            -0.25715139508247375,
            -0.016436008736491203,
            -0.03605058416724205,
            -0.008811932057142258,
            0.16135376691818237,
            0.027335163205862045,
            -0.0048807840794324875,
            0.07117299735546112,
            -0.020746298134326935,
            -0.03283398225903511,
            -0.02507629618048668,
            -0.047614067792892456,
            0.1305784434080124,
            0.030177190899848938,
            -0.013180609792470932,
            0.04889645054936409,
            -0.03940364345908165,
            0.17661742866039276,
            0.013509906828403473,
            0.12497131526470184,
            0.06161803752183914,
            0.07509853690862656,
            0.12851260602474213,
            -0.09075341373682022,
            -1.05830717086792,
            -0.20956531167030334,
            0.0010916036553680897,
            0.023113757371902466,
            0.1818789839744568,
            -0.0029327680822461843,
            0.12114916741847992,
            0.00898862723261118,
            0.11952807009220123,
            -1.0438801050186157,
            0.07472159713506699,
            -0.18060514330863953,
            0.21132123470306396,
            -0.03928860276937485,
            0.00021418227697722614,
            0.0010829877573996782,
            -0.026677152141928673,
            0.023890258744359016,
            0.012418595142662525,
            0.1742483526468277,
            0.13737735152244568,
            -0.19120962917804718,
            0.4262298345565796,
            -0.21826766431331635,
            0.07602369040250778,
            -0.4308607280254364,
            0.05505984649062157,
            0.030168211087584496,
            -0.0677139088511467,
            0.08252036571502686,
            0.004815461114048958,
            -0.13896934688091278,
            0.013275516219437122,
            0.4181266129016876,
            0.08117597550153732,
            0.0588054284453392,
            -0.015959395095705986,
            -0.25257647037506104,
            -0.009215679951012135,
            -0.008734606206417084,
            -0.006077790632843971,
            -0.11597328633069992,
            0.1291816234588623,
            0.046664103865623474,
            0.04626411944627762,
            -0.12082695215940475,
            -0.017923159524798393,
            0.06439758092164993,
            -0.05208839476108551,
            -0.005435020662844181,
            -0.18433469533920288,
            -0.015294602140784264,
            0.05529864877462387,
            -0.0013305553002282977,
            0.04089050367474556,
            -0.07990147918462753,
            -0.0807286873459816,
            -0.01991524174809456,
            0.5122747421264648,
            0.04848182573914528,
            -0.05536264553666115
        ],
        [
            0.1088930144906044,
            0.21919578313827515,
            -0.21526606380939484,
            -0.29506537318229675,
            -0.011439611203968525,
            -0.012750616297125816,
            0.0973682552576065,
            -0.38249310851097107,
            -0.005981195718050003,
            -0.021944619715213776,
            -0.5896762609481812,
            0.021042684093117714,
            0.14685992896556854,
            -0.38377645611763,
            -0.2096879780292511,
            0.12542618811130524,
            -0.06815984845161438,
            -0.006409302353858948,
            -0.062412455677986145,
            -0.011191154830157757,
            0.23146149516105652,
            -0.23981371521949768,
            -0.2009260505437851,
            -0.25179487466812134,
            0.12614451348781586,
            -0.538723349571228,
            -0.21231111884117126,
            -0.16934165358543396,
            0.029739312827587128,
            -0.0919761061668396,
            -0.4319956600666046,
            0.27794501185417175,
            0.1595393568277359,
            0.07942816615104675,
            -0.08305086195468903,
            0.5213250517845154,
            0.004577134735882282,
            0.13346731662750244,
            0.11454808712005615,
            -0.08296819776296616,
            -0.19820398092269897,
            0.01944357343018055,
            0.46413660049438477,
            0.5505760908126831,
            0.5971338152885437,
            -0.19215384125709534,
            -0.031581345945596695,
            0.19903506338596344,
            0.6115225553512573,
            0.7239128947257996,
            0.03755064308643341,
            -0.7122059464454651,
            -0.04394058510661125,
            0.10360387712717056,
            0.1024906113743782,
            1.2191014289855957,
            0.6463632583618164,
            -0.019351821392774582,
            0.13334886729717255,
            -0.17188699543476105,
            0.41038620471954346,
            -0.07806645333766937,
            0.11280033737421036,
            0.0678558275103569,
            0.02803359553217888,
            0.24973733723163605,
            0.06725481152534485,
            -0.3505778908729553,
            0.11544432491064072,
            6.167071660456713e-06,
            0.1284976601600647,
            -0.3770550489425659,
            -0.10775245726108551,
            -0.35615310072898865,
            0.27646875381469727,
            0.1387769877910614,
            0.10745158791542053,
            -0.2583741843700409,
            -0.2856251001358032,
            0.12802936136722565,
            -0.21115413308143616,
            0.09241347759962082,
            -0.579171895980835,
            -0.7914116978645325,
            0.10627005994319916,
            0.5059512853622437,
            -0.34302300214767456,
            0.28064635396003723,
            -0.005331780295819044,
            -0.09057462215423584,
            -0.16741248965263367,
            -0.13240893185138702,
            -0.017737263813614845,
            -0.10829784721136093,
            -0.2591935992240906,
            -0.16455796360969543,
            0.17290854454040527,
            0.00952786672860384,
            -0.072496198117733,
            0.07690200954675674,
            -0.25844791531562805,
            -0.17761628329753876,
            0.11364135146141052,
            -1.1799497604370117,
            0.18417012691497803,
            0.1820346862077713,
            -0.007689266465604305,
            0.3410322666168213,
            -0.038553815335035324,
            0.27976179122924805,
            -0.010352741926908493,
            -0.11889892816543579,
            0.16949383914470673,
            0.1669907420873642,
            -0.09596823900938034,
            -0.11912073194980621,
            -0.13690875470638275,
            -0.1732293665409088,
            -0.10175018757581711,
            0.08088352531194687,
            0.0071650962345302105,
            -0.15858793258666992,
            -0.07583214342594147,
            0.023014362901449203,
            -0.49299266934394836,
            -0.11412403732538223,
            -0.20880211889743805,
            -0.04072945937514305
        ],
        [
            0.0042107440531253815,
            -0.11697422713041306,
            -0.03502698242664337,
            -0.3714214861392975,
            0.3015213906764984,
            -0.008855562657117844,
            0.08226393908262253,
            -0.18714101612567902,
            -0.07972823828458786,
            -0.15105466544628143,
            -0.21219679713249207,
            0.30695822834968567,
            0.03332958370447159,
            0.41774290800094604,
            0.029829401522874832,
            -0.19327911734580994,
            0.11173631995916367,
            -0.16022510826587677,
            -0.16804705560207367,
            0.04795345664024353,
            -0.009075564332306385,
            0.13970720767974854,
            0.0013382064644247293,
            0.2182680070400238,
            0.16512084007263184,
            -0.10762855410575867,
            0.09983012825250626,
            0.16097575426101685,
            -0.20008796453475952,
            0.14103978872299194,
            0.040985092520713806,
            -0.05533783882856369,
            0.2298668771982193,
            0.01138200145214796,
            0.29197677969932556,
            -0.010544024407863617,
            -0.011067514307796955,
            -0.02366863749921322,
            -0.023622548207640648,
            -0.15439367294311523,
            -0.03026198036968708,
            -0.17751659452915192,
            0.14145809412002563,
            -0.23339611291885376,
            -0.07714135199785233,
            -0.05626247823238373,
            0.15473653376102448,
            -0.1291920244693756,
            -0.1716935783624649,
            0.06035652384161949,
            -0.1406383067369461,
            -0.10433679819107056,
            -0.25065121054649353,
            -0.3416813910007477,
            -0.05568256229162216,
            0.05417366698384285,
            -0.30199432373046875,
            -0.013879706151783466,
            -0.54743891954422,
            0.19351491332054138,
            -0.10161241143941879,
            -0.0875687226653099,
            0.2305668592453003,
            0.2530118525028229,
            -0.07163038849830627,
            0.17334409058094025,
            0.0005225451895967126,
            -0.1314859539270401,
            0.2269933819770813,
            0.00478962529450655,
            -0.1313844919204712,
            -0.18030905723571777,
            -0.22364681959152222,
            -0.304914265871048,
            -0.29337432980537415,
            -0.025596629828214645,
            -0.04060612991452217,
            -0.09218386560678482,
            -0.2556357681751251,
            0.058345407247543335,
            0.07428596913814545,
            -0.016193510964512825,
            0.07816103100776672,
            -0.18569225072860718,
            -0.05220649018883705,
            0.045801933854818344,
            0.40552544593811035,
            0.15400207042694092,
            -0.06498763710260391,
            0.23331385850906372,
            0.03564472123980522,
            -0.16202767193317413,
            -0.0389847531914711,
            -0.08830160647630692,
            0.0025466084480285645,
            0.06948284059762955,
            0.08371807634830475,
            0.0018155713332816958,
            0.22654038667678833,
            -0.02452896162867546,
            -0.031491316854953766,
            -0.06343560665845871,
            -0.018155083060264587,
            0.12119574099779129,
            -0.038211122155189514,
            -0.04275146871805191,
            -0.0511917769908905,
            -0.1600027233362198,
            -0.18724888563156128,
            0.1321445256471634,
            0.08790040016174316,
            0.11933568120002747,
            0.3920217454433441,
            -0.10414884984493256,
            0.1496572494506836,
            -0.1319311112165451,
            0.058769892901182175,
            0.5245958566665649,
            -0.18528632819652557,
            0.1370217353105545,
            0.004232290666550398,
            -0.3343474864959717,
            -0.1667187213897705,
            0.025334417819976807,
            0.11849869042634964,
            -0.05447447672486305,
            0.0073553770780563354,
            -0.07626418769359589
        ],
        [
            -0.027021300047636032,
            0.2603268623352051,
            0.7993903756141663,
            0.13195565342903137,
            0.14168541133403778,
            0.00225445837713778,
            0.025126328691840172,
            -0.03032487817108631,
            -0.04145554080605507,
            -0.19552212953567505,
            -0.08028271794319153,
            0.030979476869106293,
            -0.04845427721738815,
            0.07867437601089478,
            0.2287132889032364,
            0.045082468539476395,
            -0.10031526535749435,
            -0.031590789556503296,
            -0.09151076525449753,
            -0.21416854858398438,
            -0.16099092364311218,
            0.09775630384683609,
            -0.054298993200063705,
            -0.1311386376619339,
            -0.35417160391807556,
            0.0702093318104744,
            0.05248592793941498,
            -0.08354440331459045,
            -0.7557464241981506,
            0.13155889511108398,
            -0.2593247890472412,
            -0.295649915933609,
            0.06497541069984436,
            0.1646222323179245,
            0.15140239894390106,
            0.025612089782953262,
            0.0787714347243309,
            0.2984744608402252,
            -0.08463519811630249,
            -0.03100043162703514,
            -0.14069949090480804,
            -0.13324561715126038,
            0.1340353786945343,
            0.09457161277532578,
            -0.02871732786297798,
            0.09614233672618866,
            0.07513877004384995,
            -0.14968954026699066,
            -0.21141622960567474,
            0.045822713524103165,
            0.16539183259010315,
            -0.06066484376788139,
            0.008412167429924011,
            -0.18149226903915405,
            0.05887622386217117,
            -0.03269317373633385,
            0.006673022173345089,
            -0.0067883566953241825,
            -0.053612906485795975,
            0.2858431935310364,
            0.1727449893951416,
            -0.3241540193557739,
            -0.18015429377555847,
            0.05824032798409462,
            -0.003742669941857457,
            -0.09668639302253723,
            -0.060129884630441666,
            -0.11083317548036575,
            -0.09496859461069107,
            0.0009450293146073818,
            -0.2197873294353485,
            0.11012740433216095,
            -0.23779764771461487,
            -0.03281177207827568,
            -0.24535895884037018,
            -0.028947720304131508,
            -0.08902836591005325,
            -0.18397000432014465,
            -0.023930232971906662,
            0.12501506507396698,
            -0.3584190905094147,
            -0.269863486289978,
            0.07524273544549942,
            -0.17662428319454193,
            0.02911788783967495,
            0.3231717646121979,
            -0.1337817758321762,
            -0.4251495897769928,
            -0.031177572906017303,
            0.04308934137225151,
            0.035972412675619125,
            0.002377469791099429,
            -0.1460915505886078,
            0.2546306252479553,
            -0.19430482387542725,
            -0.47584038972854614,
            0.030918411910533905,
            -0.011177861131727695,
            -0.000946014653891325,
            0.09286360442638397,
            0.07745146006345749,
            0.12773679196834564,
            0.1974930316209793,
            0.0861746296286583,
            0.27794983983039856,
            0.0800020843744278,
            0.3220422565937042,
            -0.1704370379447937,
            0.3311431407928467,
            -0.1312471330165863,
            0.2693239152431488,
            -0.5064570903778076,
            0.1685495227575302,
            0.38484159111976624,
            -0.9809584617614746,
            -0.07800320535898209,
            -0.028798792511224747,
            0.02082713693380356,
            0.26588788628578186,
            0.09944436699151993,
            -0.007566539570689201,
            -0.0434371717274189,
            -0.204578697681427,
            0.13036352396011353,
            0.031093770638108253,
            -0.24396464228630066,
            0.03014843352138996,
            0.12347930669784546
        ],
        [
            0.018743284046649933,
            -0.1071188822388649,
            -0.04938414692878723,
            0.3129764199256897,
            0.32934433221817017,
            -0.005493525415658951,
            -0.1448407620191574,
            0.07998956739902496,
            0.14977414906024933,
            0.19672814011573792,
            0.44116657972335815,
            0.2070387303829193,
            -0.03430816903710365,
            -0.00241249636746943,
            -0.04523896425962448,
            -1.470670223236084,
            0.17261740565299988,
            -0.6861783862113953,
            0.4727509915828705,
            -0.11021465808153152,
            0.1011219248175621,
            0.0989653691649437,
            -0.050321947783231735,
            -0.040234945714473724,
            0.10201836377382278,
            0.15034863352775574,
            0.12670664489269257,
            0.06620688736438751,
            -0.125257670879364,
            -0.14744454622268677,
            -0.0482814759016037,
            0.03396586328744888,
            0.07236763089895248,
            -0.12005744129419327,
            0.3399185836315155,
            -0.02789042517542839,
            -0.0971059650182724,
            -0.06192076578736305,
            0.2636898458003998,
            0.5466406941413879,
            -0.08747535943984985,
            0.2214076817035675,
            -0.14640596508979797,
            -0.1425594985485077,
            0.0828416496515274,
            -0.12436453998088837,
            -0.00926139485090971,
            -0.1495194137096405,
            0.15317445993423462,
            -0.26404887437820435,
            -0.029387587681412697,
            0.008585370145738125,
            -0.28413376212120056,
            0.17092537879943848,
            0.042626649141311646,
            -0.29733985662460327,
            -0.1690109670162201,
            -0.021237552165985107,
            -0.1057642474770546,
            0.1410365104675293,
            -0.21186167001724243,
            0.15300484001636505,
            -0.12133631110191345,
            0.05343611165881157,
            0.15245133638381958,
            0.1494247317314148,
            -0.14102183282375336,
            0.051217470318078995,
            0.00427253358066082,
            -0.0014512432971969247,
            -0.009800782427191734,
            -0.24439701437950134,
            0.07943370938301086,
            -0.1900639832019806,
            0.1561034917831421,
            -0.005958814639598131,
            -0.2764832675457001,
            -0.5655038356781006,
            -0.19942352175712585,
            0.01873079501092434,
            -0.02795463241636753,
            -0.12593255937099457,
            0.001675527193583548,
            -0.24666021764278412,
            -0.2891731858253479,
            0.01666366495192051,
            -0.4860593378543854,
            -0.14631964266300201,
            -0.17492209374904633,
            -0.4639435112476349,
            -0.02450486272573471,
            -0.3347442150115967,
            -0.3636745810508728,
            -0.234148308634758,
            0.09176495671272278,
            0.16079463064670563,
            0.24992582201957703,
            -0.007670891936868429,
            -0.023345137014985085,
            0.3074871599674225,
            -0.09908610582351685,
            0.20739570260047913,
            0.16834738850593567,
            -0.04500017315149307,
            0.3132968246936798,
            -0.2249113768339157,
            0.08279943466186523,
            0.07341331243515015,
            0.07703420519828796,
            -0.1289089024066925,
            0.10742650926113129,
            0.039806973189115524,
            0.031006913632154465,
            -0.05731336772441864,
            0.0643015205860138,
            -0.08206028491258621,
            -0.3212234377861023,
            -0.033304426819086075,
            -0.6268033385276794,
            -0.14492885768413544,
            -0.01035127229988575,
            -0.4281935393810272,
            0.2606808543205261,
            -0.12770217657089233,
            0.13220025599002838,
            0.08640414476394653,
            -0.2197946161031723,
            -0.1107158288359642
        ]
    ],
    "layer2/biases/Variable:0": [
        1.3914402723312378,
        0.0048795356415212154,
        0.1891922503709793,
        0.06529194116592407,
        -0.18304654955863953,
        0.17693397402763367,
        -0.5154056549072266,
        -0.7530393004417419,
        0.21100464463233948,
        -2.9697749614715576,
        0.4368821978569031,
        0.8730170130729675,
        0.20842990279197693,
        -0.2521756589412689,
        -0.575218915939331,
        0.8764410614967346,
        0.9670161604881287,
        1.560518503189087,
        0.5070195198059082,
        0.9844569563865662,
        -0.5400429368019104,
        -1.159329891204834,
        1.904335856437683,
        0.8888962268829346,
        -0.6403524875640869,
        -0.9030044078826904,
        -0.4404084086418152,
        -0.5698330998420715,
        -0.25037479400634766,
        0.36325472593307495,
        -0.21826542913913727,
        -0.3294406831264496,
        -0.4705677330493927,
        1.0038819313049316,
        -1.6334835290908813,
        0.1787908673286438,
        -1.0647907257080078,
        -0.5273211598396301,
        0.028178811073303223,
        -1.194905161857605,
        -0.32501021027565,
        1.2932459115982056,
        1.0088764429092407,
        0.2552828788757324,
        0.9482806324958801,
        0.023232582956552505,
        0.9169963598251343,
        -0.46528947353363037,
        -0.24788352847099304,
        -0.36177098751068115,
        -1.608154296875,
        0.2043023407459259,
        -0.008083360269665718,
        -0.5036972761154175,
        -1.3672186136245728,
        0.7198799848556519,
        -0.094870425760746,
        0.16766922175884247,
        0.501704216003418,
        1.0763217210769653,
        -0.4615040421485901,
        -0.6667116284370422,
        0.2031003087759018,
        2.1365904808044434,
        -0.37702926993370056,
        0.8070060610771179,
        2.0688185691833496,
        0.7822229862213135,
        0.5581923723220825,
        0.08942238241434097,
        -0.9228063225746155,
        -0.9479384422302246,
        -0.7121047973632812,
        0.6689619421958923,
        0.08444244414567947,
        1.548545241355896,
        0.8324140906333923,
        0.6274453997612,
        1.064042091369629,
        0.8457987308502197,
        -0.3388543426990509,
        0.8798834085464478,
        -1.101513147354126,
        0.3333146572113037,
        2.331576347351074,
        -0.2551996409893036,
        -0.4751048684120178,
        -1.5915497541427612,
        0.3223736882209778,
        0.4779239594936371,
        -1.3154737949371338,
        -0.5464602708816528,
        0.4974098205566406,
        0.5121344923973083,
        0.20789407193660736,
        0.6667963266372681,
        1.0849913358688354,
        0.012985019013285637,
        0.8105250597000122,
        2.036832094192505,
        0.807338297367096,
        0.16176959872245789,
        0.9749509692192078,
        1.0564515590667725,
        0.15363077819347382,
        -1.5312997102737427,
        1.2161756753921509,
        0.8843392133712769,
        0.7863250970840454,
        0.4504476487636566,
        0.05347965657711029,
        0.5543310046195984,
        -0.6003274321556091,
        0.21669167280197144,
        -0.9982307553291321,
        1.1840325593948364,
        -0.5386644601821899,
        1.1931384801864624,
        0.9643195867538452,
        1.6688100099563599,
        -3.035308361053467,
        0.12588000297546387,
        -0.07275748252868652,
        1.542568564414978,
        0.8870872855186462,
        -0.38203638792037964,
        -1.028958797454834,
        -0.46186476945877075
    ],
    "layer2/weights/Variable:0": [
        [
            -0.017286384478211403,
            0.0711902603507042,
            0.00682505639269948,
            0.02005300670862198,
            0.014619193971157074,
            0.002631526440382004,
            -0.0626676082611084,
            -0.022653430700302124,
            0.033746570348739624,
            -0.05165569484233856,
            0.05422956496477127,
            0.013662904500961304,
            -0.05099732428789139,
            0.015823520720005035,
            0.07797975838184357,
            -0.009272580035030842,
            0.01776287332177162,
            0.058892279863357544,
            -0.025225182995200157,
            -0.030859870836138725,
            -0.01837555132806301,
            -0.040192168205976486,
            -0.045734889805316925,
            -0.005586537998169661,
            -0.09140488505363464,
            -0.008812670595943928,
            0.025333838537335396,
            0.0408528707921505,
            -0.02750341221690178,
            -0.11458027362823486,
            0.039652515202760696,
            -0.08386283367872238,
            -0.004378589801490307,
            0.007482945453375578,
            0.021959668025374413,
            0.016326457262039185,
            -0.04031024128198624,
            -0.0010529692517593503,
            0.030287059023976326,
            -0.021266907453536987,
            0.022375240921974182,
            -0.040126997977495193,
            -0.009199922904372215,
            0.03617793694138527,
            -0.01424378901720047,
            0.005597470793873072,
            0.022916508838534355,
            -0.02846337854862213,
            -0.08868724852800369,
            -0.025608515366911888,
            -0.004965295549482107,
            0.0033091758377850056,
            0.00122563517652452,
            -0.04214471951127052,
            0.07231436669826508,
            0.060692790895700455,
            0.019586686044931412,
            0.03538757562637329,
            0.026507193222641945,
            0.08472399413585663,
            0.08209831267595291,
            0.0011520077241584659,
            0.0033826245926320553,
            -0.00052108452655375,
            0.028656095266342163,
            -0.04362000524997711,
            0.017358791083097458,
            0.0001815620926208794,
            0.007706276141107082,
            -0.026152128353714943,
            -0.007670669350773096,
            0.0017931951442733407,
            0.03327146917581558,
            -0.014375053346157074,
            -0.01824716292321682,
            0.03524937853217125,
            0.030156617984175682,
            0.04734489321708679,
            0.030284645035862923,
            0.0031164404936134815,
            0.05325285717844963,
            0.008357896469533443,
            0.013373215682804585,
            0.03984173387289047,
            0.06766583025455475,
            0.020926332101225853,
            -0.019317198544740677,
            0.06275058537721634,
            -0.007543761283159256,
            -0.008870221674442291,
            -0.004942642990499735,
            0.08434726297855377,
            -0.013564959168434143,
            0.04118082672357559,
            -0.00712383259087801,
            -0.01755547523498535,
            -0.0843847468495369,
            0.01793881133198738,
            0.01660729944705963,
            -0.034326907247304916,
            0.016829101368784904,
            0.016594721004366875,
            0.0009449489298276603,
            -0.012335638515651226,
            -0.023760544136166573,
            -0.004576933104544878,
            0.045705363154411316,
            -0.0032297198195010424,
            0.019662873819470406,
            -0.04912365972995758,
            -0.024504361674189568,
            -0.00168365438003093,
            -0.01726539619266987,
            -0.0017743895296007395,
            -0.06594855338335037,
            -0.023860467597842216,
            0.03948304057121277,
            0.027887854725122452,
            0.10659461468458176,
            0.11028286069631577,
            0.005891122855246067,
            0.002964901737868786,
            0.025451596826314926,
            0.05999542772769928,
            -0.0032409997656941414,
            0.005617735907435417,
            -0.04696378484368324,
            0.030922187492251396
        ],
        [
            0.027292728424072266,
            0.040437936782836914,
            -0.011193923652172089,
            0.016025852411985397,
            0.028052030131220818,
            0.018477438017725945,
            -0.026685116812586784,
            0.003250068984925747,
            0.08789713680744171,
            -0.11327195167541504,
            0.09071538597345352,
            0.034110959619283676,
            -0.03249848634004593,
            -0.009832681156694889,
            0.09926559776067734,
            0.020162459462881088,
            0.11713921278715134,
            0.028195813298225403,
            -0.0346016027033329,
            -0.017853017896413803,
            -0.11219269782304764,
            0.021037064492702484,
            -0.03546575456857681,
            0.02784593775868416,
            -0.12098471075296402,
            -0.00787898525595665,
            -0.00028884856146760285,
            0.04859165474772453,
            0.014449440874159336,
            0.011842104606330395,
            0.008887738920748234,
            0.04100332781672478,
            -0.05710211768746376,
            0.018412506207823753,
            0.03248219192028046,
            -0.01812180131673813,
            -0.003612481290474534,
            -0.0028117375914007425,
            0.05381592735648155,
            0.003487725043669343,
            -0.06796082854270935,
            -0.012211601249873638,
            -0.019701100885868073,
            -0.044023651629686356,
            -0.002256020437926054,
            0.0072774216532707214,
            -0.01773400418460369,
            -0.00359728978946805,
            -0.08635593950748444,
            -0.01727660372853279,
            -0.020162679255008698,
            0.0024019377306103706,
            0.018956424668431282,
            -0.019232382997870445,
            0.054666582494974136,
            0.053084298968315125,
            0.03305426985025406,
            -0.0031602750532329082,
            0.06740278750658035,
            0.08540792763233185,
            0.049661263823509216,
            -0.0031284510623663664,
            0.0006831411737948656,
            -0.0012558054877445102,
            -0.04616311937570572,
            0.010027999058365822,
            -0.007341327611356974,
            -0.04425806179642677,
            0.02023446373641491,
            0.0056335399858653545,
            0.06702817976474762,
            -0.021985996514558792,
            0.036335915327072144,
            -0.01242649182677269,
            0.021388471126556396,
            0.07646090537309647,
            -0.07379607111215591,
            0.029599500820040703,
            -0.02272852137684822,
            0.0022005506325513124,
            -0.030307812616229057,
            -0.08040548115968704,
            -0.00498645193874836,
            -0.047209084033966064,
            0.037901442497968674,
            -0.09528439491987228,
            0.02790878713130951,
            0.03523527830839157,
            0.024541322141885757,
            -0.16397057473659515,
            -0.05455564334988594,
            0.2619551718235016,
            0.0014362800866365433,
            0.05897654592990875,
            -0.00950699858367443,
            -0.014524316415190697,
            -0.029567215591669083,
            -0.03863931819796562,
            0.10910586267709732,
            -0.0066237314604222775,
            -0.02892450988292694,
            0.04466548189520836,
            -0.02677350677549839,
            -0.09266667813062668,
            -0.06059803068637848,
            0.13647669553756714,
            0.07880465686321259,
            -0.00090818788157776,
            0.17855171859264374,
            -0.05390626937150955,
            -0.04219358414411545,
            -0.017066780477762222,
            -0.08616771548986435,
            -0.000864451692905277,
            -0.0840718075633049,
            0.0951506495475769,
            -0.021992607042193413,
            0.014677020721137524,
            0.1643400341272354,
            0.03831116482615471,
            -0.02518625371158123,
            -0.0032411906868219376,
            0.02877560630440712,
            -0.08665745705366135,
            -0.0014787958934903145,
            -0.09304831922054291,
            -0.0715399757027626,
            0.07909651100635529
        ],
        [
            -0.06402484327554703,
            0.018807630985975266,
            -0.030989518389105797,
            -0.14830347895622253,
            -0.033428091555833817,
            -0.012457486242055893,
            0.09567493200302124,
            -0.01084070187062025,
            -0.009894933551549911,
            -0.05909683555364609,
            0.03210991621017456,
            -0.01870087720453739,
            0.01161373220384121,
            0.009889628738164902,
            -0.10234864056110382,
            -0.004357160069048405,
            0.018857862800359726,
            -0.08222713321447372,
            -0.0260327011346817,
            0.0020539285615086555,
            -0.12411227822303772,
            0.092470683157444,
            -0.03222419321537018,
            -0.051125820726156235,
            0.1828969568014145,
            0.023356443271040916,
            0.005103806499391794,
            -0.013142886571586132,
            0.01573326252400875,
            0.06681391596794128,
            -0.07693962007761002,
            -0.006058590020984411,
            -0.017501521855592728,
            -0.03170885145664215,
            -0.09157952666282654,
            0.01950647309422493,
            0.0006410211208276451,
            0.012239998206496239,
            0.013420878909528255,
            -0.06210939213633537,
            0.1971798837184906,
            -0.07508642971515656,
            0.003835721407085657,
            0.19136956334114075,
            0.06483963131904602,
            -0.02943471260368824,
            0.045977503061294556,
            -0.11607905477285385,
            -0.04871824383735657,
            0.04370369762182236,
            -0.055111829191446304,
            -0.006094580516219139,
            -0.025910964235663414,
            0.016591612249612808,
            -0.02329227514564991,
            -0.01305688638240099,
            -0.006536222528666258,
            -0.02766144834458828,
            -0.01868581399321556,
            -0.13861221075057983,
            0.0013833647826686502,
            0.017942259088158607,
            -0.0156257227063179,
            0.00010368986113462597,
            0.005908532068133354,
            -0.01123760361224413,
            0.012342709116637707,
            -0.022932881489396095,
            0.0035981193650513887,
            -0.15621155500411987,
            0.020168155431747437,
            0.009406084194779396,
            0.02378745563328266,
            -0.0691336840391159,
            -0.005343120079487562,
            -0.08041266351938248,
            -0.018146997317671776,
            -0.03795068711042404,
            -0.02348506823182106,
            0.015176268294453621,
            -0.040930699557065964,
            -0.04725171998143196,
            -0.03231668099761009,
            -0.05372358858585358,
            0.005084159318357706,
            -0.007761792745441198,
            0.10182550549507141,
            0.055706702172756195,
            1.775737473508343e-06,
            0.24872271716594696,
            0.04059075191617012,
            -0.2141217291355133,
            0.036005496978759766,
            -0.018088461831212044,
            -0.0027386960573494434,
            0.06572113931179047,
            0.18280750513076782,
            -0.11874089390039444,
            0.25909659266471863,
            0.007614872418344021,
            -0.04649903625249863,
            0.005305892322212458,
            -0.056489285081624985,
            -0.04035345837473869,
            0.006754661910235882,
            -0.04760868102312088,
            -0.1666048765182495,
            -0.041485223919153214,
            -0.13034950196743011,
            -0.0012010333593934774,
            0.031373199075460434,
            0.037118107080459595,
            -0.02461380511522293,
            0.00545895891264081,
            0.0317971408367157,
            -0.0689796507358551,
            -0.017436565831303596,
            -0.0396360345184803,
            -0.05058525130152702,
            0.015328949317336082,
            -0.04506376013159752,
            -0.028980161994695663,
            0.016411658376455307,
            0.04869594797492027,
            -0.0038173552602529526,
            0.05160696804523468,
            0.14047981798648834,
            -0.05674688145518303
        ],
        [
            -0.06155870854854584,
            -0.030423548072576523,
            -0.016121361404657364,
            0.07184021174907684,
            0.007054191082715988,
            0.03343695402145386,
            0.041397783905267715,
            0.046790022403001785,
            0.024919774383306503,
            -0.004283514339476824,
            -0.044791534543037415,
            -0.02085244469344616,
            -0.013036185875535011,
            -0.050476375967264175,
            -0.012639987282454967,
            -0.012899307534098625,
            -0.08647952973842621,
            -0.061708755791187286,
            -0.03451984003186226,
            -0.037017084658145905,
            -0.0025532220024615526,
            -0.1081353947520256,
            -0.049165915697813034,
            -0.05408312380313873,
            -0.07383778691291809,
            0.015189597383141518,
            0.02566825971007347,
            0.000624039676040411,
            -0.027356760576367378,
            0.04521198198199272,
            -0.0008766470709815621,
            -0.02296253852546215,
            0.09186748415231705,
            0.013516148552298546,
            -0.08692430704832077,
            0.02279883250594139,
            0.0020000808872282505,
            0.022469062358140945,
            0.018688052892684937,
            -0.07543015480041504,
            0.08878334611654282,
            -0.07995244115591049,
            -0.006287809461355209,
            0.001224166713654995,
            -0.05122984200716019,
            0.0055421930737793446,
            0.019212396815419197,
            -0.0342261828482151,
            -0.08040309697389603,
            -0.0061203483492136,
            -0.0034662652760744095,
            -0.003946330863982439,
            0.015170875936746597,
            0.009693416766822338,
            0.029930468648672104,
            0.021141842007637024,
            -0.0974498838186264,
            0.05644411966204643,
            0.02293938398361206,
            -0.060267023742198944,
            -0.024222590029239655,
            0.02454744279384613,
            -0.0029669057112187147,
            9.484827751293778e-05,
            0.018397986888885498,
            -0.03661252558231354,
            0.05449327453970909,
            -0.031416550278663635,
            0.022391200065612793,
            -0.14937888085842133,
            0.01156848855316639,
            0.011800017207860947,
            -0.03115907497704029,
            -0.04888973757624626,
            -0.014679066836833954,
            -0.010310998186469078,
            0.04278296232223511,
            0.008841918781399727,
            0.03693871572613716,
            -0.03038516640663147,
            -0.0007029241533018649,
            -0.027879197150468826,
            0.009388646110892296,
            0.011195499449968338,
            -0.030358782038092613,
            -0.0002657666045706719,
            0.0564577654004097,
            0.045361947268247604,
            0.003263959428295493,
            0.16089493036270142,
            0.014745689928531647,
            -0.09313032776117325,
            0.051098112016916275,
            -0.004851275589317083,
            -0.042240895330905914,
            0.0029680582229048014,
            0.038459666073322296,
            -0.06654427200555801,
            -0.010977542959153652,
            -0.055917367339134216,
            -0.04498022794723511,
            0.08126457780599594,
            -0.057953815907239914,
            -0.02670665644109249,
            0.006353097967803478,
            0.004323991946876049,
            0.059248924255371094,
            -0.03663557395339012,
            0.06694196164608002,
            -0.01930774375796318,
            0.0077246855944395065,
            -0.01796642690896988,
            0.03479636833071709,
            0.004757467191666365,
            -0.05444038659334183,
            -0.10281652212142944,
            -0.00839842390269041,
            -0.025391269475221634,
            -0.015209533274173737,
            -0.11418084055185318,
            -0.03460000082850456,
            -0.025126108899712563,
            0.023281333968043327,
            0.142961323261261,
            0.010408710688352585,
            0.0376335084438324,
            0.04469666630029678,
            -0.03005734086036682
        ],
        [
            -0.040919795632362366,
            0.0028054998256266117,
            -0.01544002816081047,
            0.01570584438741207,
            -0.01993805542588234,
            0.02690904587507248,
            -0.009006813168525696,
            -0.03038058616220951,
            -0.028635313734412193,
            0.07858672738075256,
            0.03625722602009773,
            0.0029272171668708324,
            -0.04906640574336052,
            0.05580887943506241,
            0.08520300686359406,
            -0.01578437350690365,
            0.013499336317181587,
            -0.02722720429301262,
            0.014285559765994549,
            -0.006368913222104311,
            -0.03533222898840904,
            0.11174216121435165,
            -0.021354587748646736,
            0.2227504998445511,
            0.12250050902366638,
            0.01772000826895237,
            -0.030443033203482628,
            0.04294098541140556,
            0.011819572187960148,
            -0.055246930569410324,
            -0.031991537660360336,
            -0.029719343408942223,
            -0.11893215775489807,
            -0.022729141637682915,
            -0.0006100063910707831,
            0.015502330847084522,
            -0.05511879920959473,
            0.03906536102294922,
            0.007712573744356632,
            0.06965208053588867,
            0.020980948582291603,
            -0.014677755534648895,
            0.018508123233914375,
            0.05790044739842415,
            -0.006677734199911356,
            -0.022862926125526428,
            -0.0095096156001091,
            -0.011117438785731792,
            -0.011660167947411537,
            -0.10070588439702988,
            -0.050505902618169785,
            -0.01148088276386261,
            -0.017254896461963654,
            0.011103671975433826,
            0.04144855588674545,
            0.005635549314320087,
            0.02151370234787464,
            -0.0486316941678524,
            -0.05546574294567108,
            -0.03607071563601494,
            0.0009347334853373468,
            0.003169306321069598,
            -0.01775691844522953,
            -0.0017337901517748833,
            0.020390663295984268,
            0.00917969923466444,
            0.018679052591323853,
            0.0034065027721226215,
            -0.03204959258437157,
            0.03020699881017208,
            -0.07022169977426529,
            0.015631187707185745,
            0.04303085058927536,
            -0.0012479660799726844,
            -0.015348052605986595,
            0.006533118896186352,
            -0.06600748747587204,
            0.017201386392116547,
            0.008838623762130737,
            -0.030711770057678223,
            0.008281284011900425,
            -0.0215768963098526,
            0.010170839726924896,
            0.008686460554599762,
            -0.0456794910132885,
            -0.03617466613650322,
            -0.010257950983941555,
            0.02932525798678398,
            -0.005337628535926342,
            -0.17637956142425537,
            0.018724381923675537,
            -0.057659149169921875,
            -0.005886382889002562,
            0.023178070783615112,
            -0.028385037556290627,
            0.029384927824139595,
            -0.013033046387135983,
            0.03479732200503349,
            0.09230171144008636,
            -0.03912050276994705,
            -0.0812898650765419,
            -0.003070438513532281,
            -0.043671783059835434,
            -0.02766043320298195,
            -0.01939873956143856,
            0.015033615753054619,
            0.06096988916397095,
            -0.04598546773195267,
            -0.1073986068367958,
            -0.03693073242902756,
            0.00895002856850624,
            0.009919675998389721,
            -0.12527799606323242,
            0.0060149142518639565,
            0.05708199739456177,
            0.0381852425634861,
            0.06073928624391556,
            -0.003718848107382655,
            -0.07865495979785919,
            -0.02287137135863304,
            -0.003170739160850644,
            0.0033899033442139626,
            0.032522477209568024,
            0.014382142573595047,
            -0.01851380243897438,
            -0.022923992946743965,
            0.04817996546626091,
            0.016230344772338867
        ],
        [
            0.044238682836294174,
            -0.012060051783919334,
            0.0036353340838104486,
            -0.13077646493911743,
            -0.001133606070652604,
            0.01099075935781002,
            -0.01395714282989502,
            -0.004035859368741512,
            -0.023976437747478485,
            -0.18385231494903564,
            -0.03827926516532898,
            0.025303658097982407,
            0.012532328255474567,
            -0.03594808652997017,
            0.035833802074193954,
            0.017435871064662933,
            0.02326134592294693,
            0.027419181540608406,
            0.03041481040418148,
            0.03038826212286949,
            -0.017533013597130775,
            0.018093900755047798,
            0.05050871521234512,
            -0.032852061092853546,
            0.027590176090598106,
            -0.02097557857632637,
            -0.03559862822294235,
            0.0721447691321373,
            -0.06588049232959747,
            -0.0014066204894334078,
            0.009518571197986603,
            0.019490038976073265,
            -0.03031281754374504,
            0.014796199277043343,
            -0.007898028939962387,
            0.012013677507638931,
            -0.015803106129169464,
            -0.009235707111656666,
            -0.008762052282691002,
            -0.014913049526512623,
            0.005282856523990631,
            0.025387471541762352,
            0.02279886044561863,
            -0.04762984812259674,
            0.06904076039791107,
            -0.0019517395412549376,
            0.03682035952806473,
            0.021441685035824776,
            0.028513852506875992,
            -0.03664492070674896,
            -0.0462576225399971,
            0.0052716596983373165,
            0.00204745982773602,
            0.004874932114034891,
            -0.05140251666307449,
            -0.008298235014081001,
            0.048411134630441666,
            -0.024935739114880562,
            -0.022614914923906326,
            -0.03140896186232567,
            -0.02593502402305603,
            -0.016143785789608955,
            0.0033499933779239655,
            -4.0227238059742376e-05,
            -0.02373664081096649,
            -0.19924651086330414,
            0.03896460309624672,
            0.02059962972998619,
            0.006890777498483658,
            0.0008395697805099189,
            -0.010690777562558651,
            -0.020157668739557266,
            -0.09402435272932053,
            0.019559983164072037,
            0.009806771762669086,
            0.0069583263248205185,
            0.005999455694109201,
            0.0006267710705287755,
            0.08796064555644989,
            0.020925255492329597,
            -0.0254678837954998,
            0.012128613889217377,
            -0.0028524145018309355,
            0.015531445853412151,
            0.049007561057806015,
            0.0027136371936649084,
            -0.2293369024991989,
            0.00013900076737627387,
            0.005229606758803129,
            0.15872769057750702,
            -0.017347270622849464,
            -0.6302676200866699,
            0.1170048788189888,
            -0.011973495595157146,
            0.015984511002898216,
            0.009628623723983765,
            -0.03042551316320896,
            0.009527916088700294,
            -0.015229065902531147,
            0.03952408209443092,
            -0.010468591935932636,
            -0.037606384605169296,
            -0.06972355395555496,
            0.015719521790742874,
            0.01641007699072361,
            -0.002950997557491064,
            -0.09940710663795471,
            0.017264602705836296,
            -0.05767441913485527,
            0.02147291973233223,
            0.04191916808485985,
            0.009077503345906734,
            0.03801404684782028,
            0.0032487872522324324,
            0.005152077414095402,
            0.0027111810632050037,
            -0.04634459316730499,
            0.02410595305263996,
            -0.00880268681794405,
            0.1333613395690918,
            -0.135035440325737,
            0.0062480769120156765,
            0.0011107088066637516,
            0.09566538035869598,
            0.025119446218013763,
            -0.016654163599014282,
            0.048234447836875916,
            -0.02870853617787361
        ],
        [
            0.03609916567802429,
            -0.05871441215276718,
            -0.0005735798622481525,
            -0.04382902756333351,
            -0.007296000141650438,
            -0.0531582310795784,
            0.09760285913944244,
            -0.02061646059155464,
            -0.03860040754079819,
            -0.0385308712720871,
            -0.07676993310451508,
            -0.01142172422260046,
            0.04503719136118889,
            -0.02296948991715908,
            -0.07215306162834167,
            0.01450890302658081,
            -0.1939757615327835,
            -0.006521702278405428,
            0.009530368261039257,
            0.02177090011537075,
            0.06259100139141083,
            0.05765726789832115,
            0.05054537579417229,
            -0.03088313341140747,
            0.09344995766878128,
            0.004072571638971567,
            -0.01820421777665615,
            -0.1233857125043869,
            0.050922635942697525,
            0.0818423256278038,
            -0.0413626953959465,
            0.056013237684965134,
            0.014956208877265453,
            -0.005805542692542076,
            0.027177436277270317,
            -0.049242593348026276,
            0.053898885846138,
            -0.0052079856395721436,
            -0.025586655363440514,
            0.05785568803548813,
            -0.023706331849098206,
            0.020138904452323914,
            0.01773357018828392,
            -0.03687931224703789,
            -0.09272705018520355,
            -0.006580006331205368,
            -0.05997108295559883,
            0.0157522801309824,
            0.09815073758363724,
            -0.006606525741517544,
            -0.009455980733036995,
            -0.0014615475665777922,
            0.006339178420603275,
            0.07095526158809662,
            -0.08437789231538773,
            -0.0516599640250206,
            -0.07268856465816498,
            -0.01881641149520874,
            -0.019151583313941956,
            -0.07407305389642715,
            -0.10705719143152237,
            -0.008836972527205944,
            -0.00355223985388875,
            -0.0006388844340108335,
            -0.025218721479177475,
            0.07879416644573212,
            -0.02919553965330124,
            0.002949338871985674,
            0.0013958981726318598,
            0.07380125671625137,
            0.006775551475584507,
            -0.0033311203587800264,
            0.1509951800107956,
            -0.024842699989676476,
            0.01965007372200489,
            -0.04090698063373566,
            0.000392492045648396,
            -0.046712685376405716,
            -0.07090022414922714,
            -0.000325332599459216,
            -0.046355392783880234,
            -0.046435870230197906,
            -0.018964285030961037,
            0.003958276007324457,
            -0.09120091795921326,
            0.02874438464641571,
            0.0638989508152008,
            -0.026105349883437157,
            -0.0003461979504209012,
            0.14720425009727478,
            0.025270072743296623,
            -0.41241011023521423,
            0.006291736848652363,
            -0.046987809240818024,
            0.03171023726463318,
            0.018432574346661568,
            0.06010465323925018,
            0.01662288047373295,
            -0.028058432042598724,
            0.05931468307971954,
            -0.017302127555012703,
            -0.06636645644903183,
            0.009936780668795109,
            0.021777963265776634,
            0.029609741643071175,
            -0.08001303672790527,
            -0.052463825792074203,
            0.024406062439084053,
            -0.052126694470644,
            0.023626718670129776,
            0.05056069418787956,
            0.0004378243174869567,
            0.025310449302196503,
            -0.013421883806586266,
            0.10760623961687088,
            0.02377595193684101,
            -0.04549897462129593,
            -0.0198985543102026,
            -0.13889963924884796,
            0.09177183359861374,
            0.04504137486219406,
            0.004310179501771927,
            -0.03251026198267937,
            -0.15582746267318726,
            -0.0011800701031461358,
            -0.0387992300093174,
            0.053200580179691315,
            -0.044034361839294434
        ],
        [
            0.011141980066895485,
            -0.0754900798201561,
            0.01761522889137268,
            -0.014569469727575779,
            -0.014581192284822464,
            0.039986561983823776,
            -0.005137455649673939,
            0.023289447650313377,
            0.0003465865447651595,
            -0.03063029609620571,
            -0.011715087108314037,
            0.025672672316432,
            -0.009170514531433582,
            -0.03947203978896141,
            0.0035736041609197855,
            0.003455887548625469,
            0.03156530484557152,
            -0.08201643824577332,
            0.026501338928937912,
            0.039643026888370514,
            0.009904940612614155,
            -0.01698860339820385,
            0.020465467125177383,
            -0.027975741773843765,
            0.06211164966225624,
            -0.005754850339144468,
            -0.028388431295752525,
            -0.11704085767269135,
            -0.006969555281102657,
            0.08941742032766342,
            0.0025553791783750057,
            0.003231375478208065,
            0.045091770589351654,
            -0.004778771661221981,
            -0.040967829525470734,
            0.05165454000234604,
            0.012604556046426296,
            0.013950269669294357,
            -0.01977764628827572,
            -0.047725025564432144,
            0.040693312883377075,
            0.005571204237639904,
            0.010329232551157475,
            -0.04394731670618057,
            0.1934232860803604,
            -0.010516287758946419,
            0.07802922278642654,
            0.017078664153814316,
            0.017011240124702454,
            0.0009248060523532331,
            0.0052683399990201,
            0.0007486738031730056,
            -0.008868489414453506,
            0.01528080739080906,
            0.0060149733908474445,
            -0.024767670780420303,
            -0.04234658554196358,
            -0.036456238478422165,
            0.035622093826532364,
            -0.16750043630599976,
            0.01244212593883276,
            -0.0049095312133431435,
            -0.007783452048897743,
            -9.005780157167464e-05,
            0.0004672179638873786,
            -0.04420068860054016,
            0.06601142883300781,
            0.015600497834384441,
            0.02561577595770359,
            0.07505982369184494,
            -0.03850480914115906,
            -0.005739724263548851,
            -0.12982477247714996,
            0.03637530282139778,
            -0.0024124463088810444,
            0.019879164174199104,
            -0.00035595378722064197,
            -0.010570810176432133,
            0.039374545216560364,
            -0.001334036118350923,
            -0.014681936241686344,
            -0.005025465041399002,
            0.017995912581682205,
            -0.05970423296093941,
            0.008198468945920467,
            0.08331026881933212,
            -0.05917109176516533,
            -0.08000437915325165,
            0.0057439436204731464,
            0.05264107137918472,
            -0.008706420660018921,
            -0.008044954389333725,
            0.024341624230146408,
            -0.018217794597148895,
            -0.028872421011328697,
            0.005492204800248146,
            0.012070093303918839,
            -0.011512132361531258,
            -0.015902141109108925,
            -0.0016546370461583138,
            -0.0576951764523983,
            0.010929862037301064,
            -0.010670989751815796,
            0.025500740855932236,
            0.01143882516771555,
            0.09283638745546341,
            0.05883960425853729,
            0.013092514127492905,
            -0.01450254675000906,
            0.04820933938026428,
            -0.00565965985879302,
            1.6547688574064523e-05,
            -0.022212957963347435,
            0.011238804087042809,
            -0.000967089319601655,
            0.02281959541141987,
            -0.03208594396710396,
            -0.04738369956612587,
            0.08749698102474213,
            0.008647593669593334,
            -0.027279330417513847,
            -0.008726651780307293,
            0.004422456491738558,
            0.12099878489971161,
            -0.02515963278710842,
            -0.013705587945878506,
            0.07503010332584381,
            -0.004756794311106205
        ],
        [
            -0.04408789798617363,
            -0.010840744711458683,
            -0.004340659361332655,
            -0.011200420558452606,
            0.0016776236006990075,
            0.01338410284370184,
            -0.13253183662891388,
            0.02780875936150551,
            0.06655970215797424,
            0.18282923102378845,
            -0.06884617358446121,
            -0.021616658195853233,
            -0.01428680308163166,
            0.01928240805864334,
            -0.19757576286792755,
            -0.01741434819996357,
            0.07056475430727005,
            -0.13475863635540009,
            -0.004511593841016293,
            -0.029422586783766747,
            0.049495771527290344,
            -0.030715337023139,
            -0.05012865364551544,
            0.043709177523851395,
            -0.1282069981098175,
            0.018177645280957222,
            0.004090231843292713,
            -0.04226737096905708,
            0.00686689792200923,
            0.004917825572192669,
            -0.06723979860544205,
            0.029727810993790627,
            0.06851941347122192,
            -0.0037445537745952606,
            0.0271731186658144,
            0.006727159488946199,
            0.008114656433463097,
            0.012202882207930088,
            0.006765179336071014,
            0.0020754532888531685,
            0.0021692728623747826,
            -0.019241031259298325,
            -0.02300679311156273,
            -0.004100735764950514,
            0.3551445007324219,
            0.005326118320226669,
            -0.02337457239627838,
            0.24874050915241241,
            0.06801865249872208,
            0.035162489861249924,
            0.07203660160303116,
            -0.004169892054051161,
            -0.0019498002948239446,
            0.041287992149591446,
            0.0312217865139246,
            0.016742028295993805,
            0.15238633751869202,
            0.02480078674852848,
            -0.009073624387383461,
            -0.0478973388671875,
            0.013207410462200642,
            0.016020268201828003,
            -0.003806706052273512,
            -5.2494036935968325e-05,
            -0.0112657705321908,
            0.2527902126312256,
            -0.03572620078921318,
            -0.02371242269873619,
            -0.002261830260977149,
            0.05101339891552925,
            -0.0004521000664681196,
            0.019127257168293,
            0.31957539916038513,
            -0.01524028368294239,
            -0.011190220713615417,
            -0.03027249686419964,
            -0.004840388894081116,
            -0.00794000830501318,
            0.0011479795211926103,
            -0.02103497087955475,
            0.020498359575867653,
            -0.012188558466732502,
            0.011449362151324749,
            -0.026737645268440247,
            -0.09545941650867462,
            -0.023328978568315506,
            -0.007577171083539724,
            0.10827930271625519,
            -0.004104712512344122,
            0.13658536970615387,
            0.01915770210325718,
            0.08242113143205643,
            0.11636912077665329,
            0.013364559970796108,
            -0.026298433542251587,
            -0.011844134889543056,
            -0.1397724449634552,
            -0.01159841287881136,
            0.012953790836036205,
            -0.03926154598593712,
            0.018114399164915085,
            0.05000301077961922,
            -0.01614655926823616,
            -0.015317554585635662,
            -0.08711076527833939,
            0.07292158901691437,
            -0.1320640742778778,
            -0.023037035018205643,
            0.006467246916145086,
            -0.022249821573495865,
            -0.02248646691441536,
            -0.010483554564416409,
            0.3890950083732605,
            0.006322589702904224,
            -0.2108379751443863,
            -0.14765848219394684,
            0.022934269160032272,
            -0.018581926822662354,
            0.01906600408256054,
            0.04922996461391449,
            -0.034413956105709076,
            -0.00930428970605135,
            0.0047402153722941875,
            0.32613134384155273,
            -0.030229544267058372,
            -0.06868688762187958,
            0.06937339156866074,
            -0.0755869597196579
        ],
        [
            -0.07038159668445587,
            0.018822740763425827,
            0.0037911648396402597,
            0.059414006769657135,
            0.0012113690609112382,
            0.007141969166696072,
            -0.05542139708995819,
            0.01614556834101677,
            0.021462632343173027,
            -0.03258064389228821,
            0.03713708370923996,
            0.03170622140169144,
            -0.018501708284020424,
            -0.030819620937108994,
            0.005579547490924597,
            -0.0068469881080091,
            -0.013783636502921581,
            -0.021285559982061386,
            -0.03064468502998352,
            -0.03571831434965134,
            -0.0355440229177475,
            -0.104298435151577,
            -0.047565359622240067,
            0.02789228968322277,
            -0.06247942894697189,
            -0.000697141163982451,
            0.01315392553806305,
            0.07354488223791122,
            -0.01946614682674408,
            -0.02118002623319626,
            0.0312420092523098,
            -0.017017990350723267,
            0.017629755660891533,
            0.03101166896522045,
            -0.021203888580203056,
            0.008066262118518353,
            -0.03099704347550869,
            0.008039820939302444,
            0.032786186784505844,
            -0.009910858236253262,
            -0.055421095341444016,
            -0.02572294883430004,
            -0.018523668870329857,
            -0.07236739248037338,
            -0.07527840882539749,
            0.024227745831012726,
            -0.06096344813704491,
            0.011459913104772568,
            -0.040008123964071274,
            -0.005895684938877821,
            -0.003879120107740164,
            0.001211947645060718,
            0.0021994321141391993,
            -0.0009993052808567882,
            0.04938275367021561,
            0.05364218354225159,
            -0.027671772986650467,
            0.06283289194107056,
            0.022124767303466797,
            -0.04338320717215538,
            0.04967221990227699,
            0.014553066343069077,
            0.000849593139719218,
            0.0007037234609015286,
            0.010582724586129189,
            -0.04425273835659027,
            0.005905167665332556,
            -0.02078314498066902,
            0.031124314293265343,
            -0.015004581771790981,
            0.02994202822446823,
            -0.0042344313114881516,
            -0.07521369308233261,
            0.0011979404371231794,
            -0.01751656085252762,
            0.0021474414970725775,
            0.04373309016227722,
            0.030949154868721962,
            0.0019430432002991438,
            -0.011166592128574848,
            0.03559541702270508,
            -0.022872909903526306,
            0.02166430838406086,
            0.021038450300693512,
            -0.03322731703519821,
            0.03327732905745506,
            0.11350919306278229,
            0.015950161963701248,
            0.01369662955403328,
            0.007291478104889393,
            -0.005113211926072836,
            0.21059107780456543,
            0.03488343209028244,
            0.023522762581706047,
            -0.022297633811831474,
            -0.010841159150004387,
            -0.02364199422299862,
            -0.06778844445943832,
            -0.08388303220272064,
            -0.05038852244615555,
            0.010084002278745174,
            0.026637712493538857,
            0.0026282973121851683,
            -0.025593828409910202,
            -0.008334442973136902,
            0.04842241480946541,
            0.032973889261484146,
            0.005423561669886112,
            0.08985202759504318,
            -0.02533232979476452,
            -0.026014987379312515,
            -0.008388008922338486,
            -0.07700870931148529,
            -0.0026649408973753452,
            -0.06378232687711716,
            -0.055366791784763336,
            0.00862608477473259,
            -0.0056050303392112255,
            0.0443313792347908,
            -0.2724730670452118,
            -0.11433441191911697,
            -0.017593663185834885,
            0.024990880861878395,
            0.25269097089767456,
            -0.0041701034642755985,
            -0.0016148790018633008,
            -0.05295948311686516,
            0.014247546903789043
        ],
        [
            0.008533542975783348,
            0.018146656453609467,
            0.045885901898145676,
            0.3503290116786957,
            -0.0350089967250824,
            0.07842529565095901,
            -0.037996597588062286,
            -0.010415123775601387,
            0.023499196395277977,
            -0.21001537144184113,
            0.0681569054722786,
            0.009502846747636795,
            -0.024995584040880203,
            -0.023513585329055786,
            -0.06620918214321136,
            0.0357833169400692,
            -0.42588114738464355,
            0.09192287921905518,
            0.048591259866952896,
            -0.005816340446472168,
            -0.08258260786533356,
            0.028424108400940895,
            0.044016461819410324,
            0.02510376088321209,
            -0.1593584567308426,
            -0.03132985904812813,
            -0.02782069519162178,
            0.04372077062726021,
            -0.0124650364741683,
            0.01832984760403633,
            0.07755018025636673,
            0.01537853293120861,
            -0.030625345185399055,
            0.04781228303909302,
            0.04028679057955742,
            0.04001914709806442,
            -0.03201288357377052,
            0.027304628863930702,
            -0.01486874371767044,
            -0.06915659457445145,
            -0.030600110068917274,
            0.046070050448179245,
            0.045972321182489395,
            -0.20994730293750763,
            -0.16855761408805847,
            -0.0330047570168972,
            0.11488737165927887,
            0.051205046474933624,
            -0.04228729009628296,
            -0.020625686272978783,
            0.23536990582942963,
            -0.005045541096478701,
            -0.018721899017691612,
            -0.10551729798316956,
            0.011683893389999866,
            0.053679417818784714,
            -0.1607605218887329,
            -0.010690669529139996,
            0.025591248646378517,
            -0.19564209878444672,
            0.05833488330245018,
            -0.02367367036640644,
            -0.011655563488602638,
            -0.002720173681154847,
            0.02060432732105255,
            -0.229037806391716,
            0.08680249750614166,
            0.04379311203956604,
            0.02176927775144577,
            -0.08834423124790192,
            -0.07051277905702591,
            -0.03368920087814331,
            0.018277648836374283,
            0.07458902895450592,
            -0.0055991895496845245,
            0.01694859191775322,
            0.0037799139972776175,
            0.02264375425875187,
            0.06592271476984024,
            0.005051781423389912,
            -0.003423007670789957,
            0.07269125431776047,
            0.031094755977392197,
            0.007913252338767052,
            -0.07410700619220734,
            0.21798016130924225,
            0.03142112120985985,
            -0.12760506570339203,
            0.01700196973979473,
            0.28405511379241943,
            -0.04725990816950798,
            0.0932408794760704,
            -0.07984950393438339,
            0.023348065093159676,
            -0.014495083130896091,
            0.04068442061543465,
            0.0846770778298378,
            -0.0026165444869548082,
            -0.030743392184376717,
            -0.005327713675796986,
            -0.04221133142709732,
            0.015404416248202324,
            -0.06378959119319916,
            0.04249916970729828,
            -0.00824408046901226,
            0.12261271476745605,
            -0.009924634359776974,
            0.00046185628161765635,
            0.13224194943904877,
            0.016725875437259674,
            0.013975081034004688,
            0.027224620804190636,
            -0.18914875388145447,
            -0.038105323910713196,
            -0.1415254771709442,
            0.25974372029304504,
            0.022133754566311836,
            0.01723952777683735,
            0.1089216098189354,
            0.0748140811920166,
            -0.06661032140254974,
            -0.01416381448507309,
            0.05670463666319847,
            -0.36743655800819397,
            0.12109488993883133,
            0.11928538233041763,
            -0.0026988161262124777,
            0.0941430926322937
        ],
        [
            0.00042339396895840764,
            0.012532643042504787,
            0.0037275145296007395,
            0.05209166929125786,
            -0.007672276347875595,
            -4.66501442133449e-05,
            -0.031014220789074898,
            -0.005290312692523003,
            0.009356645867228508,
            -0.0031713703647255898,
            0.05791649967432022,
            -0.002381928963586688,
            -0.010290072299540043,
            -0.04763038083910942,
            -0.11341524124145508,
            0.03932967409491539,
            -0.04677283763885498,
            -0.008948973380029202,
            -0.01622021198272705,
            -0.024961384013295174,
            -0.05327318236231804,
            -0.041682932525873184,
            0.031495194882154465,
            -0.03639678657054901,
            -0.08386348932981491,
            -0.02725350111722946,
            0.0019672124180942774,
            0.007179803214967251,
            0.011952205561101437,
            -0.07334768772125244,
            0.024394089356064796,
            -0.009263681247830391,
            -0.07985390722751617,
            0.03257976844906807,
            0.03136647865176201,
            -0.022077180445194244,
            -0.058611318469047546,
            -0.004279220476746559,
            0.034110188484191895,
            0.01003088615834713,
            0.03983926773071289,
            0.007340943906456232,
            0.038053132593631744,
            -0.073536716401577,
            0.12386533617973328,
            0.0034129866398870945,
            -0.016256678849458694,
            0.0011532583739608526,
            -0.03899750858545303,
            0.02429979108273983,
            -0.0884527713060379,
            -0.001967562362551689,
            0.0051904646679759026,
            -0.014208905398845673,
            0.015493673272430897,
            0.06530699133872986,
            -0.08532343059778214,
            0.09407012909650803,
            -0.024456137791275978,
            0.041212983429431915,
            0.06300768256187439,
            -0.013522673398256302,
            -0.0010280882706865668,
            -0.0006146009545773268,
            0.013456299901008606,
            0.05455820634961128,
            0.03517257422208786,
            -0.00032521970570087433,
            0.024739693850278854,
            -0.12984341382980347,
            -0.054443858563899994,
            -0.03922370448708534,
            -0.10663729906082153,
            -0.02795460633933544,
            -0.007414632942527533,
            0.049146343022584915,
            0.06560999155044556,
            0.03721092641353607,
            -0.004231649450957775,
            0.008498704992234707,
            0.02479013428092003,
            -0.028575409203767776,
            -0.024256980046629906,
            0.03748684376478195,
            0.07405118644237518,
            0.02915261499583721,
            -0.06138654425740242,
            -0.006071379408240318,
            0.024765273556113243,
            0.0158812515437603,
            -0.014156977646052837,
            0.12641672790050507,
            0.0736374706029892,
            0.03420728072524071,
            0.011521322652697563,
            0.042395640164613724,
            -0.14781975746154785,
            -0.04019808769226074,
            -0.006685119122266769,
            -0.006716365925967693,
            0.01373032946139574,
            -0.008835938759148121,
            -0.019494518637657166,
            -0.00925446767359972,
            -0.0013394972775131464,
            -0.016123993322253227,
            -0.05660552904009819,
            -0.009039422497153282,
            0.013035713694989681,
            -0.019471265375614166,
            0.005638715345412493,
            0.0274045467376709,
            -0.11074986308813095,
            -0.0073852757923305035,
            -0.06074591353535652,
            0.0008043974521569908,
            -0.02492159977555275,
            0.027668554335832596,
            0.07890500128269196,
            -0.1049278974533081,
            -0.024890588596463203,
            -0.002580057829618454,
            0.04537252336740494,
            0.22543279826641083,
            0.050792183727025986,
            -0.024719009175896645,
            -0.059215743094682693,
            0.03502800315618515
        ],
        [
            -0.07938919961452484,
            0.027908852323889732,
