{
    "_metadata": {
        "best_epoch": 1155,
        "epoch": 1155,
        "loss_validation": 0.08340000361204147,
        "rms_validation": 0.24160000681877136,
        "rms_validation_descaled": 0.027400000020861626
    },
    "feature_max": {
        "An": 5.999999879149923,
        "Ate": 14.00000040016703,
        "Ati": 13.999999853680938,
        "Ti_Te": 2.5000001123475752,
        "Zeff": 3.0000000865366836,
        "logNustar": -0.00029380620934990723,
        "q": 15.000000370234023,
        "smag": 4.999999912108998,
        "x": 0.9899999934089503
    },
    "feature_min": {
        "An": -4.999999818724885,
        "Ate": 2.0,
        "Ati": 2.000000146319062,
        "Ti_Te": 0.2500000187245959,
        "Zeff": 1.0,
        "logNustar": -5.00029380620935,
        "q": 0.6599999037391538,
        "smag": -0.9999999121089982,
        "x": 0.08999999340895025
    },
    "feature_names": [
        "Zeff",
        "Ati",
        "Ate",
        "An",
        "q",
        "smag",
        "x",
        "Ti_Te",
        "logNustar"
    ],
    "hidden_activation": [
        "tanh",
        "tanh",
        "tanh"
    ],
    "layer1/biases/Variable:0": [
        0.5839706063270569,
        -0.26216426491737366,
        0.5904456973075867,
        -0.3233015835285187,
        -0.9521194100379944,
        0.03563201427459717,
        0.8597469925880432,
        -1.2772212028503418,
        1.2976371049880981,
        -1.0327991247177124,
        -0.005222526378929615,
        -1.3628391027450562,
        -0.5139467120170593,
        0.929599940776825,
        1.196377158164978,
        2.7311034202575684,
        -1.2582519054412842,
        1.6648586988449097,
        -0.7827889919281006,
        0.7923340797424316,
        -1.061930537223816,
        1.2871980667114258,
        1.3619695901870728,
        1.536853551864624,
        -0.798620343208313,
        -0.5145066976547241,
        -2.5579545497894287,
        -1.2213889360427856,
        -0.2929413616657257,
        -1.8470402956008911,
        1.8915859460830688,
        -1.2272335290908813,
        -0.9918981194496155,
        2.2372629642486572,
        0.6432111263275146,
        0.29123979806900024,
        0.8453591465950012,
        0.0803646445274353,
        0.05982828512787819,
        2.1388728618621826,
        0.8090497851371765,
        -0.5041517615318298,
        0.6452893018722534,
        -0.9258947968482971,
        0.5655232071876526,
        1.8777483701705933,
        -0.21507374942302704,
        0.39729511737823486,
        -0.3359502851963043,
        -0.10537388920783997,
        1.9129719734191895,
        0.40506625175476074,
        -2.414682626724243,
        1.4731395244598389,
        -0.46583449840545654,
        -1.1882914304733276,
        0.9921565055847168,
        -1.4398753643035889,
        1.8609588146209717,
        -0.5861700773239136,
        0.22072550654411316,
        -0.39087265729904175,
        -1.0266482830047607,
        0.17430032789707184,
        -0.4783553183078766,
        -0.41223931312561035,
        0.10986405611038208,
        0.27549922466278076,
        -0.21798516809940338,
        0.2917558252811432,
        0.1319655030965805,
        1.121267318725586,
        -0.7639469504356384,
        1.2172750234603882,
        -3.1449131965637207,
        0.3306659460067749,
        0.31399327516555786,
        0.7068153023719788,
        -0.25896352529525757,
        0.46146297454833984,
        0.46216627955436707,
        -1.1053876876831055,
        0.44770750403404236,
        -0.04917273297905922,
        -0.2846045196056366,
        -1.333730936050415,
        0.5462562441825867,
        1.027922511100769,
        2.1663308143615723,
        -0.7087481617927551,
        0.5924980044364929,
        -0.2207670956850052,
        0.07031866163015366,
        1.2638599872589111,
        1.1588066816329956,
        1.5050275325775146,
        0.14689314365386963,
        0.6755062341690063,
        -1.1692322492599487,
        0.5249879360198975,
        -1.834764838218689,
        -1.253824234008789,
        -1.037438154220581,
        0.29500818252563477,
        -0.7028300166130066,
        -1.2588155269622803,
        -2.2995734214782715,
        -0.050934046506881714,
        0.164601668715477,
        -1.6272389888763428,
        -0.30459949374198914,
        2.0313172340393066,
        -0.5108717083930969,
        1.100431203842163,
        -2.3484408855438232,
        -0.3236430883407593,
        -1.0790948867797852,
        1.5126138925552368,
        -1.0579177141189575,
        -0.5524075031280518,
        -0.17789830267429352,
        1.8210960626602173,
        1.5612266063690186,
        1.6881000995635986,
        0.32123512029647827,
        1.7882262468338013,
        0.6001096963882446,
        -0.3388056755065918
    ],
    "layer1/weights/Variable:0": [
        [
            0.22911718487739563,
            0.12817639112472534,
            0.010439814068377018,
            -0.06209792569279671,
            0.0011856360360980034,
            -0.040757566690444946,
            -0.10830116271972656,
            0.027729762718081474,
            -0.01438981108367443,
            -0.014350523240864277,
            0.0523567721247673,
            -0.8762786388397217,
            -0.038922350853681564,
            -0.12331222742795944,
            0.0712256208062172,
            -0.25882989168167114,
            0.06674257665872574,
            -0.23806175589561462,
            -0.009666520170867443,
            0.23396357893943787,
            -0.13224083185195923,
            0.022879283875226974,
            -0.2161407619714737,
            -0.1241229698061943,
            -0.5286840796470642,
            -0.19005119800567627,
            -0.1924690306186676,
            0.1031523048877716,
            0.17899277806282043,
            -0.21388617157936096,
            0.14063256978988647,
            -0.018604176118969917,
            -0.3252588212490082,
            -0.153518944978714,
            -0.07105068862438202,
            -0.11891260743141174,
            -0.06752590090036392,
            0.15836746990680695,
            -0.1269976943731308,
            0.15458258986473083,
            -0.1694420427083969,
            -0.1311221867799759,
            -0.08074984699487686,
            -0.08270139247179031,
            0.004535670392215252,
            -0.003578489413484931,
            -0.017315316945314407,
            -0.27706190943717957,
            0.08482822775840759,
            -0.6666806936264038,
            -0.1007697656750679,
            0.14213231205940247,
            0.5686817169189453,
            -0.056959766894578934,
            0.08500398695468903,
            0.16668358445167542,
            -0.25961533188819885,
            -0.09694638103246689,
            -0.10269563645124435,
            0.07210981100797653,
            0.15779027342796326,
            -0.0850268080830574,
            0.14707393944263458,
            0.20911738276481628,
            0.133693128824234,
            -0.28354376554489136,
            0.0037929865065962076,
            0.04914434626698494,
            0.17462891340255737,
            -0.01484847441315651,
            -0.6163849234580994,
            0.030811181291937828,
            -0.020967304706573486,
            0.06924676150083542,
            0.004400026518851519,
            -0.3277684152126312,
            0.14439599215984344,
            -0.029398955404758453,
            -0.09626990556716919,
            0.19337618350982666,
            0.009975792840123177,
            0.02705715410411358,
            -0.24806606769561768,
            -0.062121886759996414,
            0.014368249103426933,
            -0.09159106761217117,
            0.08425210416316986,
            0.21331147849559784,
            -0.06588228791952133,
            -0.19696974754333496,
            0.153887078166008,
            0.07637044042348862,
            0.464725524187088,
            -0.016663607209920883,
            -0.046481721103191376,
            0.18642550706863403,
            0.09467772394418716,
            0.20854578912258148,
            -0.020994095131754875,
            0.35016632080078125,
            -0.2697807550430298,
            -0.18636064231395721,
            -0.18688322603702545,
            -0.47954118251800537,
            -0.2514340579509735,
            -0.09977437555789948,
            -0.134251669049263,
            0.017107494175434113,
            -0.12270734459161758,
            -0.02751915156841278,
            -0.07434693723917007,
            0.04587886109948158,
            0.24172364175319672,
            0.07877404987812042,
            -0.03339231386780739,
            0.18388237059116364,
            0.28227388858795166,
            -0.15629863739013672,
            -0.4470754861831665,
            0.07141187787055969,
            -0.23583312332630157,
            0.04194612428545952,
            0.11145801842212677,
            -0.1236269548535347,
            -0.1857403665781021,
            -0.009237142279744148,
            0.2677113115787506,
            0.013150518760085106
        ],
        [
            -0.10794853419065475,
            0.1004495695233345,
            -0.022020993754267693,
            -0.010021227411925793,
            -0.1688293218612671,
            0.2002418339252472,
            0.11615175008773804,
            0.12270980328321457,
            -0.14458437263965607,
            -0.08001144230365753,
            -0.052361685782670975,
            -0.01778324320912361,
            -0.0037914596032351255,
            0.09967423230409622,
            -0.0817762017250061,
            -0.5654008388519287,
            -0.5449754595756531,
            -0.25086236000061035,
            0.0786014199256897,
            0.11042790859937668,
            -0.18575462698936462,
            0.1100321039557457,
            0.4520456790924072,
            0.06491945683956146,
            -0.18867595493793488,
            0.22080887854099274,
            0.44561755657196045,
            -0.299022376537323,
            0.08875478804111481,
            -0.22942636907100677,
            -0.17628870904445648,
            -0.07139889150857925,
            0.15741758048534393,
            0.36042311787605286,
            -0.1679876744747162,
            0.025408411398530006,
            0.07003203779459,
            -0.13445696234703064,
            -0.22215420007705688,
            0.029563818126916885,
            0.10939248651266098,
            0.09942591935396194,
            -0.1394355595111847,
            0.1548490971326828,
            -0.1901709884405136,
            0.15017108619213104,
            0.31282860040664673,
            0.6088362336158752,
            0.6552449464797974,
            0.6036536693572998,
            0.07521484792232513,
            -0.31690263748168945,
            0.07761901617050171,
            -0.10246912389993668,
            -0.20474930107593536,
            -0.11089660972356796,
            0.057485196739435196,
            0.12362930178642273,
            -0.08090365678071976,
            0.00806331541389227,
            -0.373975932598114,
            -0.2030114084482193,
            -0.1046895831823349,
            -0.6150485277175903,
            0.1682121604681015,
            0.4827955365180969,
            -0.14308243989944458,
            0.08624985814094543,
            -0.5958742499351501,
            0.007836884818971157,
            0.4639364182949066,
            0.0535874143242836,
            0.025162408128380775,
            -0.14276078343391418,
            -0.0029057178180664778,
            0.24847032129764557,
            -0.2046179473400116,
            -0.16929937899112701,
            0.0883890837430954,
            -0.38171204924583435,
            0.03370201587677002,
            -0.04891735315322876,
            -0.04236254096031189,
            -0.5118458271026611,
            -0.439897358417511,
            -0.13952744007110596,
            -0.18606825172901154,
            -0.7180914878845215,
            0.0511888824403286,
            0.4758375585079193,
            0.18968087434768677,
            -0.0801423117518425,
            0.043150655925273895,
            0.037143200635910034,
            1.0768553018569946,
            -0.6543844938278198,
            -0.04697743058204651,
            -0.37929362058639526,
            0.019350318238139153,
            -0.3768405020236969,
            0.2314375787973404,
            -1.0167216062545776,
            0.5998558402061462,
            -0.06614918261766434,
            -0.5916550755500793,
            0.23360146582126617,
            0.31841081380844116,
            -0.3445984125137329,
            0.23488759994506836,
            0.14165659248828888,
            -0.1381683498620987,
            0.11107608675956726,
            -0.5060180425643921,
            -0.20212002098560333,
            0.16396038234233856,
            0.3365175127983093,
            -0.008480321615934372,
            -0.07981807738542557,
            0.5585676431655884,
            -0.1551472246646881,
            0.6219840049743652,
            0.16885726153850555,
            0.01931019127368927,
            0.05676773563027382,
            0.2039484828710556,
            0.017107758671045303,
            -0.3525988459587097,
            -0.10581875592470169
        ],
        [
            -0.018342358991503716,
            0.06982052326202393,
            0.27025744318962097,
            0.1404576450586319,
            0.02225208654999733,
            0.135812446475029,
            -0.01298440434038639,
            0.08211315423250198,
            0.020575402304530144,
            0.34302815794944763,
            -0.683759331703186,
            -0.27373206615448,
            -0.3729410767555237,
            0.07839599251747131,
            -0.2403896600008011,
            -0.0255357064306736,
            -0.29196861386299133,
            0.5405617356300354,
            0.42855188250541687,
            -0.14643971621990204,
            0.029022885486483574,
            -0.36985501646995544,
            1.1171329021453857,
            -0.15911835432052612,
            -0.10633958876132965,
            -0.4339908957481384,
            -0.04116664081811905,
            0.336093932390213,
            -0.5463961958885193,
            -0.23899170756340027,
            0.42001599073410034,
            0.04893707111477852,
            -0.0931783989071846,
            0.4302278161048889,
            0.15453892946243286,
            -0.15655995905399323,
            0.23759178817272186,
            -0.07747191190719604,
            0.3476863205432892,
            0.6469159722328186,
            0.1774229109287262,
            0.178998202085495,
            0.374055415391922,
            -0.30197322368621826,
            0.6659218072891235,
            0.04360838606953621,
            -0.35324037075042725,
            0.16247773170471191,
            -0.11015473306179047,
            0.02741207368671894,
            0.05419675633311272,
            -0.3479674756526947,
            -0.3170156180858612,
            0.3428179621696472,
            -0.47460174560546875,
            0.5902148485183716,
            -0.0473778173327446,
            0.04704242944717407,
            0.11880016326904297,
            0.10064847767353058,
            0.15479007363319397,
            -0.4363948404788971,
            0.08602342009544373,
            0.026089319959282875,
            0.261300265789032,
            -0.17956045269966125,
            -0.5339599847793579,
            -0.4395331144332886,
            -0.0706397220492363,
            -0.582824170589447,
            0.1502251774072647,
            0.19199515879154205,
            -0.17690905928611755,
            1.1169675588607788,
            0.0032740626484155655,
            -0.33908501267433167,
            -0.0399746298789978,
            0.4684152901172638,
            -0.07381011545658112,
            -0.05091158300638199,
            0.40387120842933655,
            -0.5154048204421997,
            -0.41825467348098755,
            0.17249244451522827,
            0.24003054201602936,
            0.1432618498802185,
            0.8656270503997803,
            0.5879603624343872,
            0.055123768746852875,
            -0.6157218813896179,
            0.17900575697422028,
            0.12269249558448792,
            -0.013159232214093208,
            -0.22781428694725037,
            0.10656275600194931,
            0.058452729135751724,
            0.10598638653755188,
            0.19190137088298798,
            -0.4097917079925537,
            0.26087629795074463,
            -0.23322336375713348,
            -0.6410509943962097,
            0.04153959080576897,
            -0.30266016721725464,
            -0.4271458685398102,
            -0.5850875377655029,
            -0.955960214138031,
            -0.3013223111629486,
            -0.1335364431142807,
            -0.11487345397472382,
            0.49787402153015137,
            -0.07948131859302521,
            -0.07872866839170456,
            -0.22433869540691376,
            0.02195574715733528,
            -0.17432890832424164,
            -0.0969066470861435,
            -0.052878487855196,
            0.2414465993642807,
            -0.1874498426914215,
            -0.2845318615436554,
            0.14696402847766876,
            -0.2578515410423279,
            -0.02389645017683506,
            0.6209968328475952,
            -0.040536634624004364,
            0.07693739980459213,
            -0.1614517867565155
        ],
        [
            0.24354927241802216,
            0.8078755736351013,
            0.2467765361070633,
            0.40494656562805176,
            0.14134784042835236,
            0.27036741375923157,
            -0.27362775802612305,
            -0.7340112328529358,
            -0.5088090300559998,
            -0.16444170475006104,
            0.002952787559479475,
            0.36681145429611206,
            0.3547499477863312,
            -0.16436278820037842,
            -0.27539846301078796,
            -0.21951836347579956,
            1.1784710884094238,
            -0.4396013915538788,
            -0.19330348074436188,
            -0.03173741325736046,
            -1.1517599821090698,
            0.47044724225997925,
            -0.6211711764335632,
            0.14577141404151917,
            0.21406221389770508,
            -0.09791357070207596,
            -0.22944451868534088,
            0.6100701093673706,
            -0.06537126004695892,
            -0.18659304082393646,
            -0.13939329981803894,
            0.06312239915132523,
            0.4884972870349884,
            0.6185227632522583,
            -0.6449778079986572,
            -0.0021537437569350004,
            -0.7660359740257263,
            -0.7940510511398315,
            0.5832646489143372,
            0.024873675778508186,
            0.3043423891067505,
            0.35193413496017456,
            0.7765579223632812,
            -1.0743930339813232,
            -0.27886146306991577,
            -0.12652437388896942,
            0.049024295061826706,
            0.20905789732933044,
            -0.3299010992050171,
            -0.5632999539375305,
            0.004090176895260811,
            -0.04681443050503731,
            0.06082737073302269,
            1.1250141859054565,
            0.3444708585739136,
            -0.5545418858528137,
            -0.6804152131080627,
            -0.12920880317687988,
            -0.2595539689064026,
            -0.1242666095495224,
            0.4819740653038025,
            1.0093539953231812,
            -0.4253733158111572,
            0.7684968113899231,
            0.8184601068496704,
            0.2897045612335205,
            1.5305229425430298,
            0.15050974488258362,
            0.7296409010887146,
            -0.05838770791888237,
            -0.21220709383487701,
            0.19689558446407318,
            0.39808303117752075,
            -0.08002382516860962,
            0.005676469765603542,
            0.48080283403396606,
            0.1729632318019867,
            -0.23126208782196045,
            -0.24074913561344147,
            -0.3870147466659546,
            0.12023908644914627,
            -0.20242691040039062,
            0.13657288253307343,
            -0.6859756112098694,
            0.21766512095928192,
            -0.5897635817527771,
            0.2024812251329422,
            -0.30497175455093384,
            -0.03878447785973549,
            -0.7629101276397705,
            0.026223095133900642,
            0.30048561096191406,
            -0.19533540308475494,
            -0.16234087944030762,
            -0.39789631962776184,
            -0.13657623529434204,
            -0.5549153089523315,
            0.6841297149658203,
            -1.632430076599121,
            -0.07706177979707718,
            0.1880837380886078,
            0.11026930063962936,
            0.33002153038978577,
            -0.2390158623456955,
            0.10603418946266174,
            -1.9200139045715332,
            -0.6184870600700378,
            0.08108656853437424,
            -0.16734126210212708,
            -0.21636062860488892,
            -0.026930728927254677,
            -0.051272012293338776,
            -0.08321654051542282,
            0.14024718105793,
            0.22512830793857574,
            0.10628607124090195,
            0.32813143730163574,
            0.1647784560918808,
            -0.30782657861709595,
            -0.19669584929943085,
            0.0351235494017601,
            -0.239247128367424,
            -0.09960570931434631,
            0.4240477979183197,
            -0.6125906705856323,
            -0.04605467617511749,
            -0.5410705804824829,
            0.6515538096427917
        ],
        [
            0.08403903990983963,
            0.05740337818861008,
            -0.42099735140800476,
            0.02877045050263405,
            0.1100965067744255,
            0.2350158542394638,
            0.788305938243866,
            0.39785876870155334,
            0.03064299374818802,
            -0.32838258147239685,
            0.14730453491210938,
            -0.1584528535604477,
            0.05098414421081543,
            0.084543377161026,
            0.6389204859733582,
            -0.15598368644714355,
            -0.06430567055940628,
            0.022464124485850334,
            0.030191000550985336,
            -0.3422591984272003,
            -0.11985217779874802,
            -0.03634067252278328,
            -0.06622739881277084,
            -0.2154906690120697,
            -0.053650371730327606,
            -0.43988820910453796,
            0.09422149509191513,
            -0.15488219261169434,
            -0.030347654595971107,
            -0.00711399968713522,
            -0.11457538604736328,
            0.1779363751411438,
            -0.0855884999036789,
            -0.11325207352638245,
            -0.08492613583803177,
            0.054962947964668274,
            -0.3143690824508667,
            -0.022868024185299873,
            -0.07077620923519135,
            -0.04315324127674103,
            0.22753579914569855,
            -0.3288993239402771,
            0.30980080366134644,
            -0.058055296540260315,
            -0.1770145446062088,
            -0.6627815961837769,
            -0.05014418065547943,
            0.17812667787075043,
            -0.013077868148684502,
            0.015268740244209766,
            -0.03756367415189743,
            -0.5386025905609131,
            -0.1062525138258934,
            0.16106420755386353,
            -0.29008111357688904,
            0.26685765385627747,
            0.002554848790168762,
            -0.7681357860565186,
            -0.06683025509119034,
            0.9546283483505249,
            0.05570317804813385,
            -0.12083941698074341,
            -0.0073044332675635815,
            -0.08018217980861664,
            -0.0381963774561882,
            0.1513456404209137,
            -0.014247070997953415,
            0.05716818943619728,
            0.11029330641031265,
            -0.09262093156576157,
            0.10392864793539047,
            0.5099879503250122,
            0.2489538937807083,
            -0.017614591866731644,
            -0.00887568760663271,
            -0.12768107652664185,
            0.033353131264448166,
            -0.05779353156685829,
            -0.9066535830497742,
            -0.05834271013736725,
            -0.6836583018302917,
            0.10047383606433868,
            -0.003927305340766907,
            0.08504548668861389,
            -0.010861449874937534,
            0.0004156958602834493,
            0.11996517330408096,
            -0.06185082718729973,
            2.192702531814575,
            -0.08438795059919357,
            0.6459983587265015,
            0.10665919631719589,
            0.1353122889995575,
            0.013965639285743237,
            0.024641653522849083,
            0.06288056820631027,
            1.2481844425201416,
            0.1892886459827423,
            0.1232554093003273,
            -0.02468102052807808,
            -0.5021944046020508,
            -0.043979521840810776,
            0.11011751741170883,
            0.0599767342209816,
            -0.2541462779045105,
            -0.06434927135705948,
            0.17095081508159637,
            -0.1471240222454071,
            -0.1502102017402649,
            -0.9664276838302612,
            0.25312158465385437,
            0.3790207803249359,
            0.12005926668643951,
            0.2616889178752899,
            -0.014503720216453075,
            -0.13827326893806458,
            -0.39163321256637573,
            0.06769442558288574,
            0.01176582369953394,
            -1.5762557983398438,
            -0.15762494504451752,
            -0.19377382099628448,
            -0.07551580667495728,
            -0.20587044954299927,
            -0.013188921846449375,
            2.4865827560424805,
            0.008457204326987267,
            -0.09811040014028549
        ],
        [
            -0.5308060646057129,
            -0.39539405703544617,
            -0.3505493402481079,
            -1.8118127584457397,
            0.6635138392448425,
            -0.25020483136177063,
            0.1136627122759819,
            -0.7810348868370056,
            0.08906932175159454,
            0.1437477171421051,
            -0.5055803656578064,
            -0.12379064410924911,
            0.24810940027236938,
            -0.07326380163431168,
            -0.20144407451152802,
            0.09236492961645126,
            -0.8200631737709045,
            -0.18152131140232086,
            -0.6866921186447144,
            -0.515121579170227,
            -0.7567270994186401,
            -0.3248083293437958,
            -0.08184725046157837,
            1.0776329040527344,
            -0.11494161933660507,
            -0.3794462978839874,
            -0.4395071864128113,
            -0.812608003616333,
            -0.04944101721048355,
            -0.11536547541618347,
            -0.20737189054489136,
            -0.08128110319375992,
            0.40503162145614624,
            -0.015273341909050941,
            0.11602048575878143,
            0.3618457317352295,
            -0.40031662583351135,
            -0.254971444606781,
            0.4418807625770569,
            0.22881191968917847,
            0.14652691781520844,
            0.24861367046833038,
            1.1504318714141846,
            1.0566439628601074,
            -0.33577677607536316,
            -0.3118700087070465,
            0.21133700013160706,
            0.2587171494960785,
            -0.23178867995738983,
            -0.39734193682670593,
            0.05413736775517464,
            0.5262407064437866,
            -0.1239134669303894,
            -0.1917513757944107,
            1.1500149965286255,
            -0.3370310664176941,
            -0.46565017104148865,
            0.7643865346908569,
            -0.4361902177333832,
            -0.012514965608716011,
            -0.3884012699127197,
            -0.06315073370933533,
            -1.1940690279006958,
            -0.7933670878410339,
            -0.5557244420051575,
            -0.801474928855896,
            -0.8411002159118652,
            0.09968945384025574,
            0.23996004462242126,
            0.4683929681777954,
            -0.5476504564285278,
            0.8447831869125366,
            -0.34965962171554565,
            -0.19226376712322235,
            -0.000760455266572535,
            -0.7081757187843323,
            0.5419763922691345,
            -0.1736001819372177,
            -0.3452896475791931,
            0.19900228083133698,
            0.006572059355676174,
            0.46538451313972473,
            0.32200953364372253,
            -0.24845638871192932,
            -0.43306198716163635,
            -0.23848605155944824,
            0.055516764521598816,
            0.41188594698905945,
            0.22313770651817322,
            -0.13864946365356445,
            -0.3126225769519806,
            -0.01779738813638687,
            -0.09743806719779968,
            -0.35766804218292236,
            0.02469322457909584,
            -0.629858672618866,
            0.14185771346092224,
            0.1406281441450119,
            0.7180851101875305,
            0.21683092415332794,
            0.23832055926322937,
            0.1401984542608261,
            -1.290376901626587,
            -0.07947804778814316,
            0.13363106548786163,
            0.9623887538909912,
            -0.2869657874107361,
            -0.018286187201738358,
            -0.988275945186615,
            0.27006179094314575,
            0.44868767261505127,
            -0.2005455493927002,
            -0.018180454149842262,
            0.861316442489624,
            -0.21214032173156738,
            -0.2379062920808792,
            -0.539610743522644,
            -0.3669496178627014,
            -0.2558487057685852,
            -0.08839341253042221,
            -1.6224074363708496,
            -0.344855934381485,
            0.41955918073654175,
            0.2634950280189514,
            0.39298826456069946,
            -0.2171449363231659,
            -0.6305213570594788,
            -1.3065532445907593
        ],
        [
            0.5978150367736816,
            0.03520933538675308,
            -0.42220035195350647,
            0.19173569977283478,
            -0.6905835270881653,
            -0.6277309060096741,
            0.3222642242908478,
            -0.30357396602630615,
            0.7765743136405945,
            0.2231794148683548,
            0.4929032325744629,
            -0.13306254148483276,
            -0.5552240610122681,
            0.6953960657119751,
            0.15287305414676666,
            0.1377321034669876,
            0.14456135034561157,
            0.1523834466934204,
            -0.2808499038219452,
            -0.42437082529067993,
            -0.2353825569152832,
            -0.15333865582942963,
            0.16991876065731049,
            0.3942856192588806,
            0.050537578761577606,
            -0.13551898300647736,
            -0.43721067905426025,
            0.1903524547815323,
            -0.3169013559818268,
            0.11073778569698334,
            0.24762818217277527,
            -0.7125723958015442,
            -0.07515306770801544,
            -0.049101781100034714,
            -0.023566143587231636,
            -0.2305363267660141,
            -0.05852709710597992,
            0.11672952771186829,
            0.07845376431941986,
            -0.6623703241348267,
            -0.36430901288986206,
            -0.601975679397583,
            0.14762328565120697,
            0.20382007956504822,
            0.4307246804237366,
            0.045055244117975235,
            -0.6699690818786621,
            0.34386128187179565,
            0.2063625007867813,
            0.40705549716949463,
            -0.28911617398262024,
            -0.18823011219501495,
            0.0705321654677391,
            -0.10974359512329102,
            -0.2774449288845062,
            -0.2894846796989441,
            0.22547860443592072,
            0.0568854883313179,
            -0.39778727293014526,
            0.5011932849884033,
            0.19799098372459412,
            0.20689918100833893,
            -0.08017095178365707,
            0.009008832275867462,
            0.2690781354904175,
            0.5563415288925171,
            -0.03762548044323921,
            0.0036031121853739023,
            0.0009065117337740958,
            0.17021076381206512,
            0.11899685114622116,
            -0.0025360577274113894,
            -0.2499401867389679,
            -0.1391741931438446,
            0.004501847550272942,
            0.7606948018074036,
            0.4799465537071228,
            -0.47041603922843933,
            0.12548039853572845,
            -0.489480584859848,
            0.21087491512298584,
            -0.08765078336000443,
            -0.5270814895629883,
            -0.06551972776651382,
            0.3568226099014282,
            0.07437764108181,
            -0.0982288047671318,
            -0.12762601673603058,
            0.07100890576839447,
            -0.16849790513515472,
            -0.15413345396518707,
            -1.1678727865219116,
            0.2856141924858093,
            0.9533929228782654,
            -0.021804912015795708,
            0.06628358364105225,
            -0.22314651310443878,
            -0.36973482370376587,
            -0.20112431049346924,
            0.30396926403045654,
            0.2296581119298935,
            -0.06593606621026993,
            0.02546256221830845,
            -0.02936490625143051,
            -0.3484971523284912,
            -0.2438937872648239,
            -0.07853774726390839,
            0.43517550826072693,
            0.4893020987510681,
            -0.19147464632987976,
            0.28251051902770996,
            -0.4031851887702942,
            -0.46961769461631775,
            0.17342616617679596,
            0.014202766120433807,
            -0.25732505321502686,
            0.003835574956610799,
            0.4826897978782654,
            -0.16935977339744568,
            0.10916045308113098,
            0.23375965654850006,
            -0.22998648881912231,
            0.9193448424339294,
            0.2771088480949402,
            -0.116306833922863,
            0.12342901527881622,
            -0.4978785812854767,
            -0.4375992715358734
        ],
        [
            0.2040298879146576,
            -0.17142166197299957,
            0.2512184977531433,
            -0.06369024515151978,
            -0.06863588839769363,
            0.09980844706296921,
            0.3783716857433319,
            0.25216901302337646,
            -0.0742233544588089,
            0.22791200876235962,
            -0.16552263498306274,
            0.0034998576156795025,
            -0.03976137563586235,
            0.11968580633401871,
            0.08501735329627991,
            0.2039400339126587,
            -0.1461438536643982,
            0.15492048859596252,
            -0.06655589491128922,
            -0.09414340555667877,
            0.7301433682441711,
            0.3970130383968353,
            -0.41133928298950195,
            -0.021926185116171837,
            -0.8574389219284058,
            0.1946612447500229,
            -0.480240136384964,
            -0.40131428837776184,
            -0.10347053408622742,
            0.21080578863620758,
            0.2874002754688263,
            0.08409934490919113,
            0.10598458349704742,
            0.5742861032485962,
            -0.15591812133789062,
            -0.8353570103645325,
            0.6721010208129883,
            -0.2223602533340454,
            0.13195201754570007,
            0.21036730706691742,
            -0.24831955134868622,
            0.273409903049469,
            -0.08586771041154861,
            0.15703092515468597,
            -0.08875476568937302,
            0.13906635344028473,
            -0.17396675050258636,
            0.41670969128608704,
            -0.3735855221748352,
            0.09677178412675858,
            -0.05334818735718727,
            -0.6612063050270081,
            0.02061109058558941,
            0.4095243811607361,
            -0.4458416998386383,
            -0.22109153866767883,
            0.453600138425827,
            -0.024319283664226532,
            0.046977076679468155,
            -0.14552396535873413,
            -1.2389719486236572,
            -0.04860837757587433,
            0.18777471780776978,
            0.534413754940033,
            -0.8241760730743408,
            0.549881100654602,
            -0.1442914456129074,
            -0.3999810814857483,
            0.005143966991454363,
            0.9991588592529297,
            0.06354665756225586,
            0.32904428243637085,
            -0.2982484996318817,
            -0.2691759467124939,
            0.0027347097638994455,
            -0.043127402663230896,
            0.3859979510307312,
            0.513421893119812,
            0.05882786214351654,
            -0.10440127551555634,
            0.1181730329990387,
            -0.15966108441352844,
            0.641988217830658,
            0.16179107129573822,
            0.0764717310667038,
            0.27052223682403564,
            -0.08533217012882233,
            0.36353105306625366,
            0.5753634572029114,
            0.40213465690612793,
            -0.15499581396579742,
            0.15574780106544495,
            0.40978190302848816,
            -0.009435854852199554,
            -0.23575246334075928,
            0.08320391923189163,
            0.1810556799173355,
            0.24943731725215912,
            0.40660360455513,
            -0.7824638485908508,
            -0.13855265080928802,
            0.6927391290664673,
            -0.45381051301956177,
            -0.14946794509887695,
            -0.20547731220722198,
            0.5136495232582092,
            -0.15372826159000397,
            -0.11779508739709854,
            0.03644539415836334,
            -0.2930450439453125,
            -0.19526247680187225,
            0.6248239874839783,
            -0.06461300700902939,
            0.28580933809280396,
            -2.276865005493164,
            0.4127611517906189,
            0.25689831376075745,
            0.07855059951543808,
            0.05976598709821701,
            0.20227062702178955,
            0.33497318625450134,
            0.13008782267570496,
            -0.12271101027727127,
            0.03734739124774933,
            0.06454231590032578,
            -0.19118806719779968,
            -0.6498607993125916,
            -0.2659537196159363
        ],
        [
            -0.1518125981092453,
            -0.35489633679389954,
            0.05040642246603966,
            -0.2874350845813751,
            0.08193603903055191,
            0.315708190202713,
            -0.31434929370880127,
            -0.31273406744003296,
            -0.04861070588231087,
            1.3650197982788086,
            -0.20060402154922485,
            0.041289009153842926,
            0.0720827579498291,
            -0.004378162790089846,
            0.05915754288434982,
            0.3188132047653198,
            0.711918294429779,
            -0.46643224358558655,
            0.628585696220398,
            -0.1387568712234497,
            -0.012600813060998917,
            0.4033358693122864,
            0.09661974012851715,
            0.7109757661819458,
            -0.11942338198423386,
            -0.8493436574935913,
            0.49186280369758606,
            1.072127103805542,
            -0.1567707061767578,
            -0.1076025739312172,
            -0.05271393805742264,
            0.06455659121274948,
            0.3819970488548279,
            0.04087550938129425,
            -0.4394894540309906,
            -0.07928760349750519,
            -0.47451356053352356,
            0.05379641428589821,
            -0.2544609010219574,
            -0.056519750505685806,
            -1.3248255252838135,
            0.18696331977844238,
            0.21316444873809814,
            0.49833256006240845,
            0.5868246555328369,
            -0.06810912489891052,
            0.2864958643913269,
            0.08717988431453705,
            -0.22334133088588715,
            -0.23357167840003967,
            -1.0698881149291992,
            -0.006920928135514259,
            0.4658699929714203,
            0.1309404820203781,
            -0.07933969795703888,
            -0.35730719566345215,
            -0.28121164441108704,
            0.335909366607666,
            0.18798096477985382,
            -0.5230271220207214,
            -0.6724461913108826,
            1.0389397144317627,
            -0.0161602720618248,
            -0.08479444682598114,
            0.020351190119981766,
            0.1000654324889183,
            0.3645980954170227,
            0.7174603343009949,
            -0.17206358909606934,
            -0.022886814549565315,
            -0.5354027152061462,
            -0.002672104397788644,
            0.021002326160669327,
            0.0847734734416008,
            -0.0012680449290201068,
            -0.005697507876902819,
            0.24701321125030518,
            0.7983995676040649,
            0.32739388942718506,
            0.17986786365509033,
            0.6992858052253723,
            -0.685895562171936,
            -0.2366458624601364,
            0.08166349679231644,
            -0.47550085186958313,
            1.1460992097854614,
            -0.8930175304412842,
            -0.5077947378158569,
            0.1638966053724289,
            -0.16757561266422272,
            0.28438034653663635,
            -0.09535857290029526,
            -0.5830411314964294,
            0.28144046664237976,
            -0.5100637078285217,
            -0.39197686314582825,
            0.07224930822849274,
            -0.17859533429145813,
            -0.12101569771766663,
            0.031295426189899445,
            0.034762632101774216,
            0.15823209285736084,
            -0.14354339241981506,
            0.2647029459476471,
            0.004539215937256813,
            0.5699624419212341,
            -0.8475871086120605,
            0.5151591897010803,
            -0.2823854386806488,
            -0.1523517370223999,
            -0.24100922048091888,
            -0.9639479517936707,
            -0.023677751421928406,
            -0.16070114076137543,
            -0.029358763247728348,
            0.0836467370390892,
            0.0358884371817112,
            -1.1144946813583374,
            0.3916720151901245,
            -0.05398871749639511,
            0.20804966986179352,
            -0.9752823710441589,
            0.1855160892009735,
            0.9258146286010742,
            0.09567876905202866,
            -0.08646813780069351,
            0.044222310185432434,
            0.06431963294744492
        ]
    ],
    "layer2/biases/Variable:0": [
        0.1339850127696991,
        -0.6060760617256165,
        0.5962553024291992,
        -0.1591707468032837,
        1.1241623163223267,
        0.3587704002857208,
        0.5773975253105164,
        0.6562826037406921,
        0.30966347455978394,
        -1.0085309743881226,
        -1.6028099060058594,
        0.286292165517807,
        -0.9581220746040344,
        0.5475025773048401,
        0.008219020441174507,
        0.7988291382789612,
        0.13367342948913574,
        -1.5783029794692993,
        -0.22032396495342255,
        -1.8426496982574463,
        -0.03917456790804863,
        1.7356019020080566,
        -0.8474357724189758,
        0.07841856777667999,
        0.1765047013759613,
        0.07711152732372284,
        0.4231782555580139,
        0.6765796542167664,
        0.29142314195632935,
        1.058909296989441,
        0.4270702600479126,
        0.1023438572883606,
        2.007993459701538,
        -0.4260900914669037,
        -0.666499674320221,
        -0.2483477145433426,
        0.8412220478057861,
        -0.45663323998451233,
        1.5001777410507202,
        -0.21222847700119019,
        -0.5183089375495911,
        -1.1746468544006348,
        1.1623799800872803,
        0.5745775699615479,
        1.2077144384384155,
        1.19431471824646,
        0.9172994494438171,
        -1.1670488119125366,
        1.7628740072250366,
        0.5086273550987244,
        0.31325849890708923,
        -1.328763723373413,
        -1.5555418729782104,
        -0.05728713423013687,
        -0.6028234958648682,
        -1.4006428718566895,
        -0.7416955828666687,
        0.10757192224264145,
        -0.7022544145584106,
        -1.2225903272628784,
        0.9983290433883667,
        -0.9125684499740601,
        1.7799354791641235,
        0.3008599877357483,
        -0.817452609539032,
        2.5600340366363525,
        0.29155924916267395,
        1.209771752357483,
        0.5891878008842468,
        -0.634670078754425,
        -1.3488541841506958,
        0.44062137603759766,
        -0.9349574446678162,
        0.041697096079587936,
        -0.5899884104728699,
        -1.2515196800231934,
        -0.3668881356716156,
        -0.3993455469608307,
        -0.6497747302055359,
        1.4327512979507446,
        0.347242146730423,
        -0.7884742617607117,
        1.1837269067764282,
        -0.5969873666763306,
        -0.8696930408477783,
        -0.42079514265060425,
        2.2607295513153076,
        -1.1249781847000122,
        -0.6707431674003601,
        0.3348392844200134,
        1.0883680582046509,
        0.4633947014808655,
        -0.2276056855916977,
        -0.06593108922243118,
        -0.5101346373558044,
        0.637866735458374,
        -0.9104368090629578,
        -0.1557692438364029,
        -0.441662073135376,
        0.434679239988327,
        0.9039485454559326,
        -1.2861768007278442,
        -0.014339753426611423,
        -1.2938323020935059,
        -0.012571617029607296,
        -0.4974621832370758,
        0.2982606291770935,
        0.334367960691452,
        -0.20350536704063416,
        0.573479175567627,
        -1.7133013010025024,
        -1.1049772500991821,
        2.3311092853546143,
        -0.32677432894706726,
        1.048280119895935,
        -0.3165639340877533,
        2.7378759384155273,
        1.4750747680664062,
        -1.1423765420913696,
        0.7287646532058716,
        0.6526098847389221,
        1.5323212146759033,
        0.12491446733474731,
        -1.8125898838043213,
        0.8970836400985718,
        -0.39084041118621826,
        -1.5112509727478027,
        0.2918784022331238
    ],
    "layer2/weights/Variable:0": [
        [
            0.10058976709842682,
            -0.10750686377286911,
            0.13191381096839905,
            -0.038846343755722046,
            -0.1382611095905304,
            -0.04716641083359718,
            -0.1351313441991806,
            -0.2126827836036682,
            0.06179768964648247,
            -0.08364886045455933,
            -0.056300289928913116,
            0.14836153388023376,
            -0.04396143555641174,
            0.191606804728508,
            0.10279567539691925,
            0.036344531923532486,
            0.08419215679168701,
            0.01182994432747364,
            -0.12382737547159195,
            -0.012462676502764225,
            0.16085781157016754,
            -0.06270063668489456,
            0.016797387972474098,
            -0.0239623561501503,
            0.01886734738945961,
            0.043186936527490616,
            0.06098644435405731,
            0.006998579949140549,
            -0.035166528075933456,
            -0.07733777165412903,
            0.11110236495733261,
            -0.018680786713957787,
            0.09197593480348587,
            0.04256420210003853,
            0.08003590255975723,
            -0.00662600202485919,
            0.009037011303007603,
            0.06589805334806442,
            -0.025838326662778854,
            0.13339461386203766,
            -0.11285866051912308,
            -0.05066898092627525,
            -0.015164398588240147,
            0.046057965606451035,
            0.10351164638996124,
            0.07924282550811768,
            0.088299959897995,
            0.05820770189166069,
            0.2836906909942627,
            0.14807194471359253,
            -0.11846771091222763,
            -0.1389402598142624,
            -0.005931883119046688,
            -0.013915790244936943,
            0.1599389612674713,
            -0.026585610583424568,
            -0.032775893807411194,
            0.10431580245494843,
            0.037009403109550476,
            0.09105078876018524,
            0.09404037147760391,
            -0.11847179383039474,
            0.03520532324910164,
            0.049416158348321915,
            -0.09670750051736832,
            0.06692749261856079,
            0.06676226109266281,
            -0.09010904282331467,
            -0.019769448786973953,
            0.004327607806771994,
            -0.07638856768608093,
            -0.04851894453167915,
            0.12605266273021698,
            -0.0715799555182457,
            -0.03583185002207756,
            -0.07212703675031662,
            -0.12281389534473419,
            0.08140605688095093,
            -0.024391666054725647,
            0.12427593022584915,
            -0.00247142999432981,
            -0.025351719930768013,
            -0.10168333351612091,
            -0.02757064625620842,
            -0.03606118634343147,
            -0.052475061267614365,
            0.013285938650369644,
            -0.017499487847089767,
            0.135395348072052,
            -0.038530122488737106,
            0.04541810229420662,
            0.1448364108800888,
            -0.07840518653392792,
            -0.033613186329603195,
            0.01448850892484188,
            -0.11831498146057129,
            0.0684971883893013,
            -0.08931201696395874,
            -0.0517355278134346,
            -0.04449733346700668,
            -0.053772810846567154,
            -0.013112040236592293,
            0.06990450620651245,
            0.043632589280605316,
            0.06851711124181747,
            -0.04217932000756264,
            -0.03851497173309326,
            -0.0180013757199049,
            -0.11243322491645813,
            -0.06605865806341171,
            -0.059214379638433456,
            0.0488920621573925,
            -0.06616587936878204,
            0.013035234063863754,
            0.08812759816646576,
            0.105769582092762,
            -0.08179515600204468,
            -0.09915188699960709,
            -0.10547413676977158,
            0.21400035917758942,
            0.0026807584799826145,
            0.09203869849443436,
            0.03489108011126518,
            -0.27175065875053406,
            0.09325875341892242,
            0.04523992910981178,
            -0.03927675634622574,
            0.061149872839450836
        ],
        [
            0.07677727192640305,
            -0.09192240238189697,
            0.05827545374631882,
            -0.12057729065418243,
            -0.02641163393855095,
            -0.03749403730034828,
            0.0755872130393982,
            -0.1660732477903366,
            -0.010635032318532467,
            -0.07255177944898605,
            -0.1097102239727974,
            0.030285503715276718,
            0.01723782904446125,
            0.14827333390712738,
            0.0671837255358696,
            -0.025615913793444633,
            -0.04492315277457237,
            -0.055114615708589554,
            -0.06070401892066002,
            0.14027491211891174,
            0.10130473971366882,
            -0.0011234537232667208,
            -0.014505418948829174,
            0.07149965316057205,
            -0.06411680579185486,
            0.17477166652679443,
            0.025431504473090172,
            -0.14262264966964722,
            0.01488895807415247,
            0.0439482182264328,
            0.05992436036467552,
            -0.011493658646941185,
            0.05240361765027046,
            -0.005719983018934727,
            -3.652423765743151e-05,
            0.011977560818195343,
            -0.03485235944390297,
            0.15323331952095032,
            0.05224569886922836,
            0.04542582109570503,
            -0.08395297825336456,
            0.013722519390285015,
            -0.13095903396606445,
            0.031177865341305733,
            -0.07771747559309006,
            0.0432756207883358,
            0.02555616945028305,
            0.10207907855510712,
            0.27003028988838196,
            0.10819223523139954,
            0.04310525581240654,
            -0.03678375110030174,
            0.052345722913742065,
            -0.07518506050109863,
            0.05179445818066597,
            -0.08470238745212555,
            -0.03392989933490753,
            0.1148395836353302,
            0.11101614683866501,
            0.04257253184914589,
            -0.20392225682735443,
            -0.18846745789051056,
            -0.013024753890931606,
            0.04699936509132385,
            -0.1176966056227684,
            -0.005001093726605177,
            -0.013001356273889542,
            -0.0763130933046341,
            -0.0633905902504921,
            -0.018263906240463257,
            -0.028538575395941734,
            0.006643408443778753,
            0.07152393460273743,
            -0.18638724088668823,
            0.01331187691539526,
            0.037803709506988525,
            0.06858962774276733,
            0.08925493061542511,
            -0.002465766854584217,
            -0.023888392373919487,
            -0.05731501802802086,
            -0.17993973195552826,
            0.12963055074214935,
            0.049930647015571594,
            -0.010428945533931255,
            -0.046666715294122696,
            0.011731002479791641,
            0.0031735487282276154,
            0.14302362501621246,
            -0.018894771113991737,
            0.014848761260509491,
            -0.017246372997760773,
            0.06792925298213959,
            -0.1052766963839531,
            -0.002841008361428976,
            -0.014305057004094124,
            0.08147941529750824,
            0.047141604125499725,
            0.0233578123152256,
            -0.08386855572462082,
            0.10075710713863373,
            0.0643070712685585,
            0.06266340613365173,
            0.0037018239963799715,
            0.09066757559776306,
            0.020331915467977524,
            0.047415684908628464,
            0.043583691120147705,
            -0.18551427125930786,
            0.19206859171390533,
            -0.03567558899521828,
            0.009246048517525196,
            0.017222130671143532,
            -0.016327200457453728,
            -0.04920297861099243,
            0.05899295210838318,
            0.08274152129888535,
            -0.13376079499721527,
            -0.06894227117300034,
            -0.06941856443881989,
            -0.11456328630447388,
            0.07046692818403244,
            -0.027488645166158676,
            -0.16609397530555725,
            0.13359396159648895,
            -0.07549251616001129,
            0.059786293655633926,
            0.05065688490867615
        ],
        [
            -0.005476242396980524,
            0.02782347984611988,
            0.0038074059411883354,
            0.15378232300281525,
            0.05325959622859955,
            0.04056336730718613,
            0.14715218544006348,
            -0.09118784219026566,
            -0.06741585582494736,
            0.13097044825553894,
            -0.053446147590875626,
            0.004284818656742573,
            0.12008977681398392,
            0.011072780936956406,
            0.055031388998031616,
            -0.04407772049307823,
            -0.04218355193734169,
            0.022171122953295708,
            -0.017857102677226067,
            0.06860379874706268,
            0.17121994495391846,
            0.02346172370016575,
            0.02208651974797249,
            -0.012315518222749233,
            -0.009261629544198513,
            0.03856753930449486,
            -0.0378258153796196,
            -0.05973045900464058,
            0.05391835793852806,
            -0.04137863218784332,
            -0.02737352065742016,
            -0.08716914057731628,
            -0.052062761038541794,
            -0.006899896543473005,
            -0.0424308255314827,
            -0.04075933247804642,
            0.03934429585933685,
            -0.0970773696899414,
            0.005712991580367088,
            -0.016933534294366837,
            -0.01939677819609642,
            0.03149852529168129,
            -0.02937082014977932,
            0.029005233198404312,
            -0.07980582863092422,
            -0.040064677596092224,
            0.030674373731017113,
            -0.012608076445758343,
            0.1258533000946045,
            -0.16566437482833862,
            -0.0031528237741440535,
            0.07080605626106262,
            0.0722549557685852,
            0.1334579735994339,
            -0.007470466196537018,
            -0.06695977598428726,
            0.12696146965026855,
            0.10914723575115204,
            -0.01458647008985281,
            -0.026858925819396973,
            -0.17968058586120605,
            -0.0387810580432415,
            0.0404617078602314,
            -0.04694619029760361,
            -0.049775876104831696,
            0.048993710428476334,
            -0.00861965212970972,
            -0.048146896064281464,
            -0.039254847913980484,
            0.0261799655854702,
            -0.06325026601552963,
            0.019762927666306496,
            -0.009741856716573238,
            0.03703835606575012,
            0.07596636563539505,
            0.02925845980644226,
            -0.03228709101676941,
            0.039880089461803436,
            0.08869006484746933,
            -0.06250359117984772,
            -0.02674385905265808,
            -0.08253622055053711,
            0.026929214596748352,
            0.1187213808298111,
            -0.015940554440021515,
            0.051609620451927185,
            0.030231978744268417,
            0.1294919103384018,
            -0.18426373600959778,
            -0.011848368681967258,
            -0.027000783011317253,
            -0.10211654007434845,
            0.09368828684091568,
            0.04834425449371338,
            0.049505412578582764,
            -0.0022426785435527563,
            -0.10898207873106003,
            0.04271391034126282,
            -0.014346115291118622,
            -0.04933655261993408,
            -0.03816291689872742,
            -0.08030246198177338,
            -0.002700673183426261,
            -0.04187687858939171,
            0.06256739795207977,
            0.027233583852648735,
            -0.04491069167852402,
            -0.1316346973180771,
            -0.0025558725465089083,
            -0.0635175034403801,
            0.016842609271407127,
            -0.03285357356071472,
            0.05334090441465378,
            -0.03347538784146309,
            -0.03133533522486687,
            0.0013588626170530915,
            -0.03918981924653053,
            -0.08673711866140366,
            0.048532649874687195,
            -0.03046533837914467,
            -0.000985709368251264,
            0.018464094027876854,
            -0.0443769134581089,
            -0.018139149993658066,
            0.005544920917600393,
            -0.018132925033569336,
            0.09155554324388504,
            0.06065944582223892
        ],
        [
            -0.07526104897260666,
            -0.10702457278966904,
            0.11772675812244415,
            0.0007986072450876236,
            -0.15212056040763855,
            -0.1580256074666977,
            0.02653898112475872,
            -0.4150058329105377,
            -0.12351483106613159,
            -0.23042672872543335,
            -0.05382319539785385,
            0.3601000905036926,
            -0.0923561304807663,
            0.5618906617164612,
            0.1327138990163803,
            0.006268554832786322,
            -0.055465150624513626,
            0.048243116587400436,
            0.02315760962665081,
            0.081832155585289,
            0.4875674247741699,
            0.12190032005310059,
            0.05638546496629715,
            0.14200642704963684,
            -0.13232189416885376,
            0.09195718914270401,
            -0.15184301137924194,
            0.7145524621009827,
            -0.02249508909881115,
            0.08294270932674408,
            0.22932392358779907,
            0.012436093762516975,
            0.16736948490142822,
            0.08234492689371109,
            0.07789654284715652,
            0.01719149388372898,
            0.023318912833929062,
            0.14533331990242004,
            -0.1376287043094635,
            -0.0232503991574049,
            -0.16039638221263885,
            0.05110349506139755,
            0.05396679416298866,
            0.05025225877761841,
            0.017357831820845604,
            -0.03418511897325516,
            0.02650967799127102,
            -0.010168476961553097,
            0.14437851309776306,
            0.5290895700454712,
            -0.14844293892383575,
            -0.122350312769413,
            0.0862903743982315,
            0.09048552066087723,
            0.3709854185581207,
            0.06202113255858421,
            0.28065839409828186,
            0.05276719853281975,
            0.21735157072544098,
            0.03700811043381691,
            0.2854352295398712,
            -0.37588587403297424,
            0.013901465572416782,
            -0.04080270975828171,
            -0.19752441346645355,
            0.10699289292097092,
            0.0073621547780931,
            -0.09181671589612961,
            -0.04745271056890488,
            0.15910090506076813,
            -0.023727573454380035,
            -0.10853837430477142,
            0.05007605627179146,
            -0.29435256123542786,
            -0.07293563336133957,
            -0.03960210829973221,
            -0.09085738658905029,
            0.12857134640216827,
            -0.06341835856437683,
            -0.06065912917256355,
            -0.004945138469338417,
            -0.12034790962934494,
            -0.24714580178260803,
            0.085208959877491,
            0.006994122173637152,
            -0.15976950526237488,
            -0.030856627970933914,
            -0.0005847873981110752,
            0.2588486075401306,
            0.031711604446172714,
            0.06877577304840088,
            0.1318206489086151,
            -0.007627036422491074,
            0.12062305957078934,
            0.06672317534685135,
            -0.08805867284536362,
            0.054941173642873764,
            -0.030809983611106873,
            0.14189088344573975,
            0.029759056866168976,
            -0.03025023080408573,
            0.19654665887355804,
            0.14614476263523102,
            0.1474301964044571,
            0.10002285242080688,
            0.04984220489859581,
            -0.01917746290564537,
            -0.0678953155875206,
            -0.13023929297924042,
            0.25291332602500916,
            -0.02807028964161873,
            0.5681595206260681,
            0.11364240199327469,
            -0.041387688368558884,
            0.14233611524105072,
            0.10879694670438766,
            0.46095871925354004,
            -0.26094549894332886,
            -0.10514948517084122,
            0.06512570381164551,
            0.026411738246679306,
            0.02555629052221775,
            0.3437668979167938,
            -0.41380012035369873,
            0.40536433458328247,
            0.005315098911523819,
            0.03649360314011574,
            0.08136973530054092
        ],
        [
            0.07696684449911118,
            0.06498529016971588,
            -0.036848284304142,
            -0.15391547977924347,
            0.060999784618616104,
            -0.02898450754582882,
            0.08211218565702438,
            -0.015374722890555859,
            -0.1113709881901741,
            0.03513622656464577,
            -0.03281919285655022,
            -0.07032635062932968,
            0.061822470277547836,
            -0.132605642080307,
            -0.04303132742643356,
            -0.09248139709234238,
            -0.024864792823791504,
            -0.03569673374295235,
            0.02250606194138527,
            -0.0057644350454211235,
            -0.24894514679908752,
            0.045261818915605545,
            0.049895480275154114,
            -0.012588128447532654,
            -0.030008789151906967,
            0.037086665630340576,
            -0.459418386220932,
            -1.2753331661224365,
            -0.03478112071752548,
            -0.0036026621237397194,
            -0.051278211176395416,
            0.022621333599090576,
            -0.033701952546834946,
            0.01660298928618431,
            -0.0010278582340106368,
            -0.05900987237691879,
            0.04019077867269516,
            0.21661368012428284,
            0.04975197836756706,
            -0.05452974513173103,
            0.0775495395064354,
            0.006329023744910955,
            -0.009564854204654694,
            -0.012834242545068264,
            -0.06735239923000336,
            -0.061758220195770264,
            -0.029462004080414772,
            -0.04803842306137085,
            0.2215123027563095,
            0.4371112883090973,
            -0.11600542068481445,
            0.15596072375774384,
            -0.015553293749690056,
            -0.16054825484752655,
            -0.2590767443180084,
            -0.055212974548339844,
            0.010207557119429111,
            0.01971101574599743,
            -0.031005971133708954,
            -0.064239501953125,
            -0.04441746324300766,
            -0.15727657079696655,
            -0.04500461742281914,
            -0.02146664820611477,
            0.026852376759052277,
            0.05155259370803833,
            -0.050726715475320816,
            0.03387438505887985,
            0.0728185847401619,
            0.06718951463699341,
            0.056715406477451324,
            0.0924006849527359,
            0.05874759331345558,
            0.20087622106075287,
            -0.013073433190584183,
            0.09085175395011902,
            0.05540138855576515,
            0.01976550556719303,
            -0.14996327459812164,
            -0.11323578655719757,
            -0.05221189558506012,
            0.03210117295384407,
            -0.042938049882650375,
            -0.06588632613420486,
            -0.050407834351062775,
            0.06006459519267082,
            -0.01447107270359993,
            -0.03479109704494476,
            -0.18915735185146332,
            0.010907634161412716,
            -0.051518142223358154,
            -0.0812879353761673,
            0.07268127053976059,
            -0.08890711516141891,
            0.013490310870110989,
            0.07836586236953735,
            -0.14557264745235443,
            0.0745418518781662,
            -0.03918662667274475,
            0.107321597635746,
            0.061567969620227814,
            -0.03745918348431587,
            -0.018017515540122986,
            0.008618006482720375,
            0.003666279138997197,
            0.037386223673820496,
            -0.0155504010617733,
            -0.03651507943868637,
            -0.037371132522821426,
            -0.04423023760318756,
            0.004807226825505495,
            -0.012287549674510956,
            0.038363244384527206,
            -0.0305885411798954,
            -0.0946931540966034,
            -0.03580569848418236,
            -0.08669565618038177,
            0.1795623004436493,
            0.14713303744792938,
            -0.0753706842660904,
            -0.049119021743535995,
            -0.020181110128760338,
            -0.005395814310759306,
            -0.09420078992843628,
            0.14689575135707855,
            0.09555226564407349,
            0.016716955229640007,
            -0.0001466283283662051
        ],
        [
            -0.024459773674607277,
            0.0010031380224972963,
            -0.062433745712041855,
            -0.06783362478017807,
            -0.0033425223082304,
            -0.03380589187145233,
            0.09002872556447983,
            -0.20201542973518372,
            -0.053833968937397,
            0.04461461678147316,
            0.033840496093034744,
            -0.0008591384394094348,
            -0.04342690855264664,
            0.16010846197605133,
            0.014931497164070606,
            -0.05763368308544159,
            0.022429216653108597,
            -0.009237930178642273,
            -0.007404747419059277,
            0.061562974005937576,
            0.08640341460704803,
            0.023215167224407196,
            0.07266660779714584,
            -0.051100101321935654,
            -0.021860653534531593,
            -0.051320526748895645,
            -0.02298421412706375,
            0.10987834632396698,
            0.026121824979782104,
            0.018527720123529434,
            -0.07683593034744263,
            -0.049765441566705704,
            -0.07651811093091965,
            -0.01740776188671589,
            -0.0021752016618847847,
            0.045086584985256195,
            -0.04810027405619621,
            0.044613346457481384,
            0.05579904466867447,
            -0.07085191458463669,
            0.018070263788104057,
            0.04587334766983986,
            -0.068814717233181,
            0.066658616065979,
            -0.03632098436355591,
            -0.07222367823123932,
            -0.007844937965273857,
            -0.027853157371282578,
            0.1487492471933365,
            -0.01568724401295185,
            -0.07573800534009933,
            -0.03377588093280792,
            0.02586342580616474,
            0.018629318103194237,
            0.047859277576208115,
            -0.011929536238312721,
            -0.00745816295966506,
            0.053495749831199646,
            0.010173559188842773,
            -0.016657471656799316,
            0.08339544385671616,
            0.03138602524995804,
            -0.0017734768334776163,
            0.017992453649640083,
            0.009295032359659672,
            -0.039463289082050323,
            -0.010348375886678696,
            -0.014288484118878841,
            0.0037645837292075157,
            -0.07552649080753326,
            -0.062935471534729,
            0.06365624070167542,
            -0.052274879068136215,
            0.06025058031082153,
            0.0022555419709533453,
            -0.0005556198884733021,
            0.024759024381637573,
            0.041185420006513596,
            0.0947423130273819,
            0.007675621192902327,
            0.02339594066143036,
            -0.17193493247032166,
            -0.03230104222893715,
            -0.006179216783493757,
            0.038289520889520645,
            -0.04328053072094917,
            -0.015454987064003944,
            0.10032408684492111,
            0.1730261743068695,
            0.06270669400691986,
            -0.03207363933324814,
            -0.056561727076768875,
            0.013223357498645782,
            0.033733926713466644,
            0.03553672134876251,
            -0.03547578677535057,
            -0.011984050273895264,
            0.040204644203186035,
            -0.02526175230741501,
            0.0010526311816647649,
            -0.009871633723378181,
            -0.004103322047740221,
            0.09245911985635757,
            -0.04280296713113785,
            -0.01902877539396286,
            -0.015897922217845917,
            -0.03224755451083183,
            -0.010884207673370838,
            0.03955305367708206,
            -0.051742710173130035,
            0.022647997364401817,
            0.15733890235424042,
            0.05234900861978531,
            -0.034138407558202744,
            0.03186066821217537,
            -0.0661388486623764,
            -0.0494285523891449,
            -0.10687029361724854,
            -0.04671895503997803,
            0.15042506158351898,
            -0.012006630189716816,
            0.03155909851193428,
            0.09542834758758545,
            -0.2794846296310425,
            0.09189072996377945,
            0.04774666205048561,
            -0.022962693125009537,
            -0.03558622673153877
        ],
        [
            -0.0556490495800972,
            -0.030130423605442047,
            0.003692209953442216,
            -0.10588553547859192,
            -0.006056186277419329,
            -0.08811192959547043,
            -0.08291122317314148,
            0.059093888849020004,
            0.04336719587445259,
            0.049671720713377,
            0.07546208053827286,
            0.022728873416781425,
            -0.19662125408649445,
            -0.2516702115535736,
            -0.10595591366291046,
            -0.060242973268032074,
            -0.01576581969857216,
            0.11676617711782455,
            -0.019406156614422798,
            -0.08051174879074097,
            0.06901664286851883,
            -0.03339282050728798,
            -0.009750353172421455,
            -0.06913398206233978,
            -0.03533592075109482,
            0.04500238597393036,
            0.0006503725307993591,
            -0.013224315829575062,
            -0.06941692531108856,
            -0.021355673670768738,
            -0.060743995010852814,
            0.046944987028837204,
            0.07150609791278839,
            -0.03115236945450306,
            0.23569732904434204,
            0.07884947955608368,
            -0.01795893721282482,
            0.03542855381965637,
            -0.0770752876996994,
            0.07006265968084335,
            -0.21734774112701416,
            -0.035858187824487686,
            -0.10756206512451172,
            0.020262880250811577,
            0.029409775510430336,
            0.0011071469634771347,
            -0.0205015167593956,
            0.09189697355031967,
            0.17615318298339844,
            -0.1462833434343338,
            0.0008895570645108819,
            -0.004893598612397909,
            0.06382911652326584,
            -0.08367473632097244,
            -0.018819669261574745,
            -0.0016490617999807,
            -0.20742753148078918,
            -0.011860141530632973,
            0.11996698379516602,
            -0.03787484019994736,
            -0.11474569886922836,
            -0.09176643192768097,
            -0.03617815673351288,
            0.09712766110897064,
            -0.03043382614850998,
            0.0034391104709357023,
            -0.04619155079126358,
            0.07159403711557388,
            -0.039251361042261124,
            -0.13181136548519135,
            0.02500818483531475,
            -0.10190362483263016,
            0.09388940781354904,
            -0.15942488610744476,
            0.06794899702072144,
            0.04881416633725166,
            0.03502658009529114,
            -0.0062955464236438274,
            -0.1890624612569809,
            -0.009137248620390892,
            -0.0696919858455658,
            0.17251409590244293,
            -0.08432881534099579,
            0.08749272674322128,
            0.002667298773303628,
            -0.046740710735321045,
            0.02368752285838127,
            -0.08485390245914459,
            0.2926796078681946,
            -0.030491456389427185,
            0.03308310732245445,
            -0.007290629670023918,
            -0.031020423397421837,
            0.06094696372747421,
            -0.08928211778402328,
            -0.1635766178369522,
            -0.10816195607185364,
            -0.04955816641449928,
            0.06345009803771973,
            0.03653742000460625,
            0.11449753493070602,
            0.022412274032831192,
            0.0907348245382309,
            -0.06577941030263901,
            -0.021779745817184448,
            0.0010724911699071527,
            -0.025875072926282883,
            0.06663529574871063,
            0.11614637076854706,
            -0.03321528062224388,
            -0.054833993315696716,
            -0.08111140877008438,
            -0.0015589966205880046,
            -0.07306408137083054,
            0.03488671034574509,
            0.05170079693198204,
            0.14338399469852448,
            -0.10989200323820114,
            -0.04088101536035538,
            -0.11030378192663193,
            -0.06084015220403671,
            -0.028361329808831215,
            -0.08721084892749786,
            -0.06306110322475433,
            -0.07027564942836761,
            -0.013946054503321648,
            -0.06975909322500229,
            0.001049792394042015
        ],
        [
            -0.011076526716351509,
            -0.04590652137994766,
            0.03674716874957085,
            -0.07930435985326767,
            0.030672907829284668,
            0.011902778409421444,
            -0.05150505527853966,
            -0.14290131628513336,
            -0.027278555557131767,
            -0.010350680910050869,
            0.08865147083997726,
            0.08424507081508636,
            -0.1488601118326187,
            0.17461080849170685,
            0.18586097657680511,
            0.14533200860023499,
            0.004530453123152256,
            -0.019844364374876022,
            0.11135505139827728,
            0.11804278194904327,
            -0.09302005916833878,
            0.09270525723695755,
            -0.05890072509646416,
            0.01591816358268261,
            -0.024483872577548027,
            0.06363430619239807,
            0.01729186438024044,
            -0.7613658308982849,
            -0.014794807881116867,
            0.0600452683866024,
            0.05390605330467224,
            -0.027955010533332825,
            0.1072409525513649,
            -0.10359308868646622,
            -0.0853344276547432,
            -0.00016465938824694604,
            0.01246650144457817,
            -0.3129544258117676,
            0.04908863455057144,
            -0.06058214232325554,
            -0.16290384531021118,
            -0.003176378319039941,
            0.12271459400653839,
            0.13243159651756287,
            -0.014225703664124012,
            -0.016495537012815475,
            0.06337352097034454,
            0.04355834797024727,
            -0.35328409075737,
            -0.8391485214233398,
            0.016734054312109947,
            -0.009580698795616627,
            0.02691461332142353,
            0.06318274885416031,
            0.1318199187517166,
            0.08473202586174011,
            0.04196926951408386,
            -0.02519969642162323,
            0.10250317305326462,
            -0.07977581024169922,
            -0.26529455184936523,
            0.16912055015563965,
            0.021837441250681877,
            0.1050555482506752,
            0.10018761456012726,
            0.22334223985671997,
            -0.016118453815579414,
            0.0032145928125828505,
            -0.09249936789274216,
            0.010883822105824947,
            -0.0017646310152485967,
            0.01842021569609642,
            0.17849625647068024,
            -0.1674002856016159,
            -0.0950080156326294,
            0.022152084857225418,
            -0.015552189201116562,
            0.17567548155784607,
            0.039612848311662674,
            -0.1213100478053093,
            -0.08653782308101654,
            -0.10937805473804474,
            -0.09228306263685226,
            0.04666147381067276,
            0.0012373338686302304,
            0.01909322664141655,
            0.039660949259996414,
            0.004441177938133478,
            -0.20870311558246613,
            -0.008781714364886284,
            0.07499846816062927,
            0.11870071291923523,
            0.007546029053628445,
            0.08810148388147354,
            0.012342369183897972,
            -0.03700895980000496,
            -0.3072390556335449,
            -0.05078723654150963,
            0.044039756059646606,
            0.018022270873188972,
            -0.12411172688007355,
            0.018336080014705658,
            -0.10904618352651596,
            -0.05637730658054352,
            -0.009248892776668072,
            0.010965025052428246,
            -0.010895133949816227,
            -0.05899812653660774,
            -0.08341237157583237,
            0.49381983280181885,
            -0.04017973691225052,
            -0.0005098278634250164,
            0.06089221313595772,
            -0.08120695501565933,
            0.11246869713068008,
            -0.03781978040933609,
            -0.13483980298042297,
            0.4569685459136963,
            -0.02890324965119362,
            -0.20681831240653992,
            0.10660474747419357,
            -0.0035839981865137815,
            0.009872032329440117,
            0.2215336710214615,
            0.21578891575336456,
            -0.006828841287642717,
            -0.06228331848978996,
            0.0005996853578835726
        ],
        [
            -0.029580438509583473,
            0.16072790324687958,
            0.025707900524139404,
            0.08075112104415894,
            -0.05125265195965767,
            0.01859317161142826,
            -0.15010829269886017,
            -0.21516834199428558,
            0.05173406004905701,
            0.008937902748584747,
            0.029172517359256744,
            0.004629225470125675,
            0.01562255434691906,
            -0.060127440840005875,
            0.00546677689999342,
            -0.0012898945715278387,
            0.1131589412689209,
            0.0740559846162796,
            0.02661765180528164,
            -0.13033291697502136,
            0.08679802715778351,
            -0.02422737330198288,
            0.04696381092071533,
            -0.06384345144033432,
            0.11247989535331726,
            -0.05553976818919182,
            0.05521931126713753,
            0.29350435733795166,
            0.032501012086868286,
            -0.021509738638997078,
            -0.048059359192848206,
            0.02965479902923107,
            0.0028087289538234472,
            -0.009101923555135727,
            -0.04127117246389389,
            -0.0020208866335451603,
            -0.006976979319006205,
            0.06146255135536194,
            -0.07808523625135422,
            0.07312627136707306,
            -0.0043358528055250645,
            -0.020724652335047722,
            0.044706933200359344,
            -0.0163333211094141,
            0.18195649981498718,
            0.060368672013282776,
            -0.003203795989975333,
            -0.15314118564128876,
            -0.0650724321603775,
            0.12498216331005096,
            0.0018998441519215703,
            -0.2000340074300766,
            -0.04767585173249245,
            0.027119629085063934,
            0.13420771062374115,
            0.0142446244135499,
            0.14830920100212097,
            -0.06570300459861755,
            -0.015595773234963417,
            0.010805191472172737,
            0.056220415979623795,
            -0.055556777864694595,
            -0.03029349260032177,
            0.07169514894485474,
            0.05061311647295952,
            -0.004878309555351734,
            0.006762061733752489,
            0.030979683622717857,
            -0.015811845660209656,
            -0.015322612598538399,
            0.013549646362662315,
            -0.0378556065261364,
            -0.005300805903971195,
            -0.041323401033878326,
            0.03673721104860306,
            -0.03906629607081413,
            -0.015588629059493542,
            -0.04866023734211922,
            0.06826648116111755,
            0.12716561555862427,
            0.11960864812135696,
            0.10344762355089188,
            -0.1442105919122696,
            0.014386429451406002,
            0.03546331450343132,
            -0.031236622482538223,
            0.013326727785170078,
            -0.025492409244179726,
            0.07897675037384033,
            0.08155854791402817,
            -0.03363083302974701,
            0.03533652052283287,
            -0.16339348256587982,
            0.04459666460752487,
            0.022350309416651726,
            -0.054896190762519836,
            -0.0855414941906929,
            -0.053782567381858826,
            0.0041864532977342606,
            -0.03626790642738342,
            0.008956857956945896,
            -0.020156633108854294,
            -0.007640717551112175,
            -0.04750737547874451,
            -0.0688871443271637,
            -0.014239438809454441,
            -0.05428392067551613,
            -0.06522288918495178,
            0.02117224782705307,
            -0.06131058558821678,
            0.06072963774204254,
            0.04259219020605087,
            0.0004328952927608043,
            0.041833166033029556,
            0.21708479523658752,
            0.07264059782028198,
            -0.37358206510543823,
            0.041983481496572495,
            -0.1412247121334076,
            0.19477418065071106,
            0.0444859117269516,
            -0.06484013795852661,
            -0.07852217555046082,
            -0.0392611101269722,
            0.1213824674487114,
            0.06857993453741074,
            -0.03427303582429886,
            -0.046555135399103165
        ],
        [
            -0.02966959774494171,
            -0.05490417778491974,
            -0.04749712347984314,
            0.1115390881896019,
            0.011860448867082596,
            0.12692858278751373,
            0.08145403861999512,
            -0.1333940178155899,
            0.06269822269678116,
            0.13247698545455933,
            0.17883387207984924,
            0.08799427002668381,
            -0.027019109576940536,
            -0.06929238885641098,
            0.06822661310434341,
            0.09182049334049225,
            0.07252364605665207,
            -0.007193492725491524,
            -0.0458223894238472,
            -0.05609078332781792,
            -0.004630797076970339,
            -0.04918726161122322,
            -0.02687881886959076,
            -0.012270916253328323,
            0.06217280775308609,
            -0.0886947363615036,
            -0.0996154174208641,
            -0.5214097499847412,
            0.17640334367752075,
            0.09045097231864929,
            0.09154908359050751,
            0.029090819880366325,
            0.053036388009786606,
            0.0431523434817791,
            -0.07594548165798187,
            0.00327999796718359,
            -0.03178700432181358,
            0.011656545102596283,
            -0.10292776674032211,
            0.05201805755496025,
            0.1880580335855484,
            -0.0017514899373054504,
            0.2942938804626465,
            -4.215253284201026e-07,
            0.003155539510771632,
            0.04437932372093201,
            -0.018345220014452934,
            -0.13966864347457886,
            -0.27287784218788147,
            -0.7565382719039917,
            -0.10984034836292267,
            -0.07790806889533997,
            -0.06966143101453781,
            -0.07359480112791061,
            0.1322866678237915,
            0.004540753550827503,
            -0.12529554963111877,
            0.0070795537903904915,
            0.09142494946718216,
            -0.055963579565286636,
            -0.23853705823421478,
            0.29541945457458496,
            -0.02276669070124626,
            -0.013353973627090454,
            -0.08500181883573532,
            0.18058010935783386,
            0.05773034691810608,
            0.022425848990678787,
            0.08996644616127014,
            0.13356001675128937,
            0.008781950920820236,
            0.059389665722846985,
            -0.0542445182800293,
            0.0725560411810875,
            0.036124929785728455,
            -0.13966113328933716,
            -0.01585358753800392,
            -0.13204209506511688,
            0.2503623366355896,
            0.015330440364778042,
            0.032085537910461426,
            0.01639053411781788,
            -0.013967451639473438,
            0.0952339842915535,
            0.12542873620986938,
            -0.07498795539140701,
            0.01625598408281803,
            0.03940761089324951,
            0.05427425727248192,
            0.08331535756587982,
            -0.05973099544644356,
            -0.030668141320347786,
            0.05169621482491493,
            -0.05210458114743233,
            0.08288764208555222,
            0.07433217763900757,
            0.08137737959623337,
            0.014568371698260307,
            -0.09806095063686371,
            0.1737387627363205,
            -0.12121609598398209,
            0.042452048510313034,
            0.09284023940563202,
            0.06403809785842896,
            -0.05501346290111542,
            -0.021608877927064896,
            -0.07325060665607452,
            0.0031091689597815275,
            -0.03674504533410072,
            0.4137704074382782,
            0.04391775280237198,
            0.005414606537669897,
            -0.0005498906830325723,
            -0.012628307566046715,
            -0.14554603397846222,
            -0.12048288434743881,
            0.08040021359920502,
            -0.04130246862769127,
            0.07968369126319885,
            0.22373607754707336,
            0.03404774144291878,
            0.004133407957851887,
            -0.024321742355823517,
            -0.13859251141548157,
            0.3545224964618683,
            0.15699362754821777,
            -0.14952941238880157,
            -0.01146719790995121
        ],
        [
            -0.06470391154289246,
            0.031084278598427773,
            0.002812762977555394,
            0.03911977633833885,
            -0.17329801619052887,
            -0.06174410879611969,
            -0.11872325837612152,
            -0.23828445374965668,
            0.005203053820878267,
            -0.009950018487870693,
            0.0016239426331594586,
            0.09566522389650345,
            0.05530079826712608,
            0.10347869992256165,
            0.05210708826780319,
            -0.0012915480183437467,
            0.035875849425792694,
            -0.06907966732978821,
            0.031061548739671707,
            -0.01945236138999462,
            0.24305188655853271,
            -0.05991475656628609,
            0.06548313051462173,
            0.04415621981024742,
            0.015408407896757126,
            0.09765993803739548,
            0.036394152790308,
            0.7243992686271667,
            0.04821482673287392,
            0.11374408006668091,
            0.07018793374300003,
            -0.0532710887491703,
            0.07871108502149582,
            -0.026995766907930374,
            0.07236728817224503,
            0.006244814023375511,
            0.050294842571020126,
            0.03677055612206459,
            -0.048633623868227005,
            0.004908957984298468,
            -0.012051234021782875,
            -0.06260135024785995,
            -0.06872820854187012,
            -0.05156411603093147,
            0.03405071794986725,
            0.07990462332963943,
            0.06909133493900299,
            -0.04222460463643074,
            0.13826850056648254,
            0.24037784337997437,
            -0.03040243312716484,
            -0.0725075975060463,
            0.01577478088438511,
            0.03293326869606972,
            0.17573300004005432,
            -0.06510370969772339,
            -0.045975759625434875,
            -0.0008512471686117351,
            0.1687907576560974,
            0.07736340910196304,
            0.13986173272132874,
            0.07991591095924377,
            0.026739440858364105,
            -0.021275896579027176,
            -0.06573954969644547,
            0.11753756552934647,
            0.015001312829554081,
            -0.06485535949468613,
            -0.12850746512413025,
            0.020185597240924835,
            -0.07188248634338379,
            -0.006025892682373524,
            -0.10313696414232254,
            -0.019799280911684036,
            -0.10014541447162628,
            -0.0470489077270031,
            -0.05343303829431534,
            0.09064947813749313,
            0.013454556465148926,
            0.07818064093589783,
            -0.18156331777572632,
            -0.061376649886369705,
            -0.03389188274741173,
            0.07292823493480682,
            0.018661746755242348,
            -0.019640831276774406,
            -0.020244119688868523,
            -0.04076944291591644,
            0.42049914598464966,
            -0.03931736201047897,
            -0.07185707986354828,
            0.06561332195997238,
            -0.047108035534620285,
            -0.018964853137731552,
            0.07359586656093597,
            -0.008064360357820988,
            -0.11179672181606293,
            -0.0028866580687463284,
            -0.023416144773364067,
            -0.02899334952235222,
            -0.06802984327077866,
            0.023083414882421494,
            -0.05801361799240112,
            -0.05113208666443825,
            0.016874300315976143,
            0.04061100259423256,
            0.09643082320690155,
            0.024443672969937325,
            0.1904364675283432,
            -0.18565893173217773,
            0.03981604427099228,
            -0.021909037604928017,
            -0.05761820077896118,
            0.07096818834543228,
            0.19737637042999268,
            0.003625631332397461,
            -0.0869913250207901,
            -0.04798067361116409,
            -0.03895678371191025,
            0.057811297476291656,
            0.09415595233440399,
            0.06144184619188309,
            0.054131221026182175,
            -0.21155835688114166,
            0.07032838463783264,
            0.1162627711892128,
            0.017079222947359085,
            0.1231435015797615
        ],
        [
            0.14308777451515198,
            -0.04069889336824417,
            -0.05958884581923485,
            0.09990488737821579,
            0.06758348643779755,
            0.001488689798861742,
            -0.0279378741979599,
            -0.42734357714653015,
            0.057042550295591354,
            0.061110951006412506,
            0.16623353958129883,
            0.04199541360139847,
            -0.034500353038311005,
            -0.05942092835903168,
            0.03588821738958359,
            0.09957505762577057,
            -0.03993557393550873,
            0.008795340545475483,
            0.14658242464065552,
            -0.06817290931940079,
            0.3240736424922943,
            -0.07350443303585052,
            -0.012167202308773994,
            0.10316704213619232,
            0.0928192213177681,
            -0.05834546685218811,
            0.1163676530122757,
            0.5010800957679749,
            0.09660264849662781,
            -0.04713842645287514,
            0.03617066144943237,
            -0.03170427307486534,
            -0.0332910381257534,
            0.001982024870812893,
            -0.0036201616749167442,
            0.07554354518651962,
            -0.007045752368867397,
            0.0917896255850792,
            -0.04091951996088028,
            -0.05468760058283806,
            0.1309960037469864,
            0.05579814687371254,
            0.06922665983438492,
            -0.07448888570070267,
            0.047555290162563324,
            0.06505858153104782,
            -0.1192837730050087,
            0.06182651221752167,
            0.06553751975297928,
            -0.22336046397686005,
            0.07254564762115479,
            0.019750166684389114,
            -0.045738402754068375,
            0.014498166739940643,
            0.07978647947311401,
            -0.09769370406866074,
            -0.013322288170456886,
            -0.038559868931770325,
            -0.0016679540276527405,
            0.05947211757302284,
            -0.3221351206302643,
            -0.017652107402682304,
            0.026958251371979713,
            -0.0864851251244545,
            -0.2223416566848755,
            0.003804519074037671,
            -0.07766500860452652,
            -0.03724207356572151,
            -0.11351992934942245,
            0.03656342625617981,
            -0.09609515219926834,
            -0.00039178188308142126,
            -0.05657226964831352,
            -0.08355013281106949,
            -0.03155374154448509,
            0.04210190102458,
            0.05510801449418068,
            -0.07744450122117996,
            0.02125486731529236,
            0.07025211304426193,
            0.034446388483047485,
            -0.03817639499902725,
            -0.008631578646600246,
            -0.24761907756328583,
            0.15921422839164734,
            -0.14046071469783783,
            0.036364711821079254,
            -0.04320433363318443,
            0.1010676771402359,
            -0.001207305584102869,
            0.13474580645561218,
            0.06703837215900421,
            0.011201552115380764,
            -0.11546795070171356,
            -0.03404111787676811,
            0.04018085077404976,
            0.01602683961391449,
            0.010970388539135456,
            0.04980505630373955,
            0.01368514634668827,
            0.014433852396905422,
            0.0815659835934639,
            0.05687137320637703,
            0.038992319256067276,
            0.04529782012104988,
            -0.025502750650048256,
            0.0800081416964531,
            0.09511389583349228,
            0.011831797659397125,
            -0.23408891260623932,
            -0.023043114691972733,
            -0.09709048271179199,
            0.0992305651307106,
            0.00847749412059784,
            0.12470659613609314,
            -0.028444087132811546,
            -0.08690769225358963,
            -0.07276932895183563,
            -0.10620778799057007,
            -0.05309776961803436,
            0.03466508910059929,
            0.006149196065962315,
            -0.04444943740963936,
            0.02568330243229866,
            0.28714218735694885,
            0.07496171444654465,
            -0.12853951752185822,
            -0.008110317401587963
        ],
        [
            0.041600551456213,
            0.0038984036073088646,
            -0.039489805698394775,
            0.20283208787441254,
            0.06715862452983856,
            -0.004529338330030441,
            0.15121977031230927,
            -0.15402163565158844,
            0.055405180901288986,
            0.005824334919452667,
            0.003838416887447238,
            -0.07264462858438492,
            -0.004592789337038994,
            -0.023549044504761696,
            -0.06547057628631592,
            -0.03352167829871178,
            -0.06149108707904816,
            -0.07105716317892075,
            0.023757997900247574,
            0.12290392816066742,
            -0.04886731877923012,
            -0.00988816563040018,
            -0.01637432724237442,
            0.01713644526898861,
            -0.0406382791697979,
            -0.03186345845460892,
