{
    "_metadata": {
        "best_epoch": 1403,
        "epoch": 1403,
        "loss_validation": 0.03799999877810478,
        "rms_validation": 0.1720999926328659,
        "rms_validation_descaled": 0.031099999323487282
    },
    "feature_max": {
        "An": 6.0,
        "Ate": 14.000000193744063,
        "Ati": 14.00000029310278,
        "Ti_Te": 2.4999998191678467,
        "Zeff": 3.00000017340853,
        "logNustar": -0.000293984636358772,
        "q": 15.000000430596277,
        "smag": 5.0000000874655255,
        "x": 0.989999980086914
    },
    "feature_min": {
        "An": -5.0,
        "Ate": 1.9999998062559377,
        "Ati": 2.0,
        "Ti_Te": 0.2500000180832153,
        "Zeff": 1.0,
        "logNustar": -5.000293571446427,
        "q": 0.6600000110724756,
        "smag": -0.9999999125344745,
        "x": 0.09000001327539067
    },
    "feature_names": [
        "Zeff",
        "Ati",
        "Ate",
        "An",
        "q",
        "smag",
        "x",
        "Ti_Te",
        "logNustar"
    ],
    "hidden_activation": [
        "tanh",
        "tanh",
        "tanh"
    ],
    "layer1/biases/Variable:0": [
        0.5265964269638062,
        -0.1485287994146347,
        -0.43346577882766724,
        -1.1719317436218262,
        -0.03274550661444664,
        1.182157039642334,
        1.4938157796859741,
        0.09433470666408539,
        -0.3750337064266205,
        0.5351034998893738,
        0.7637723088264465,
        0.09723766893148422,
        -0.7608096599578857,
        -0.07360443472862244,
        0.027850694954395294,
        -0.16489405930042267,
        0.6309243440628052,
        -0.5061043500900269,
        -0.2787054479122162,
        -1.0804657936096191,
        0.30791136622428894,
        1.5340980291366577,
        -0.22294119000434875,
        2.2676267623901367,
        0.11482845991849899,
        -0.6293715238571167,
        -0.26497331261634827,
        1.251708984375,
        1.103601336479187,
        0.5898782014846802,
        -0.6029003858566284,
        0.008824395947158337,
        0.2672920525074005,
        -1.033011794090271,
        -0.5027443766593933,
        2.1031341552734375,
        -1.3917267322540283,
        1.5666135549545288,
        -0.5994606018066406,
        -0.2445322424173355,
        0.7803623080253601,
        0.14774031937122345,
        -1.0822997093200684,
        -1.5594509840011597,
        0.008509942330420017,
        0.053573232144117355,
        1.041128396987915,
        -0.6932733654975891,
        0.21933387219905853,
        1.379142165184021,
        1.3274117708206177,
        1.1968516111373901,
        -0.04896051436662674,
        -0.7837300300598145,
        -0.19738678634166718,
        -1.3469082117080688,
        0.3020913302898407,
        0.9404788613319397,
        1.0857295989990234,
        -1.2528657913208008,
        -1.5339897871017456,
        -0.9972313642501831,
        0.8808000683784485,
        1.4146219491958618,
        -0.31938445568084717,
        -0.03169703483581543,
        0.5575374364852905,
        0.5246292352676392,
        0.8700449466705322,
        0.7849934101104736,
        -0.18097643554210663,
        -0.6456555724143982,
        -1.1868822574615479,
        -0.1881985068321228,
        -0.7593774795532227,
        0.25970643758773804,
        0.15667125582695007,
        -1.0384564399719238,
        -0.19653421640396118,
        1.412109613418579,
        0.02125685103237629,
        -0.9692597985267639,
        1.3216105699539185,
        0.9387534856796265,
        -0.8486334085464478,
        -0.10284510999917984,
        -0.09989896416664124,
        1.2619702816009521,
        0.18010282516479492,
        0.021000901237130165,
        0.5967993140220642,
        -0.259319543838501,
        -0.3371399939060211,
        -0.07232450693845749,
        -0.0989316925406456,
        -0.4705955386161804,
        0.11900067329406738,
        -0.4727928936481476,
        0.5658406615257263,
        -0.6895608901977539,
        0.5781598687171936,
        0.13114826381206512,
        -0.07427948713302612,
        -0.1926114559173584,
        0.6892533302307129,
        0.1714944690465927,
        0.04277314990758896,
        0.08387517929077148,
        0.8187714219093323,
        1.7258349657058716,
        0.05319243669509888,
        1.141922950744629,
        0.10858841985464096,
        0.7504388689994812,
        0.42328131198883057,
        -0.09283812344074249,
        0.4220202565193176,
        -0.32890981435775757,
        -0.7197943925857544,
        -0.18963991105556488,
        0.2741944193840027,
        -0.5074462294578552,
        -0.07885997742414474,
        0.6206101179122925,
        0.036767587065696716,
        0.3440181016921997,
        -1.0825945138931274,
        0.9334245920181274
    ],
    "layer1/weights/Variable:0": [
        [
            -0.14776523411273956,
            -0.01828288845717907,
            -0.08417101204395294,
            0.017880070954561234,
            0.0040521700866520405,
            0.03351869806647301,
            0.10998541861772537,
            0.06317386776208878,
            0.10997679084539413,
            0.14170394837856293,
            0.3794621527194977,
            0.05284843593835831,
            -0.4041614234447479,
            0.0059374975971877575,
            -0.11004223674535751,
            0.2085815966129303,
            -0.09411201626062393,
            0.1007261797785759,
            -0.018235864117741585,
            -0.033907536417245865,
            0.13220848143100739,
            -0.048279356211423874,
            -0.0003381629067007452,
            -0.002080999780446291,
            0.25465670228004456,
            0.10364297032356262,
            -0.0692748948931694,
            0.40024614334106445,
            0.15989339351654053,
            0.005657860077917576,
            -0.02468704804778099,
            0.19394627213478088,
            0.1416100412607193,
            0.04688778892159462,
            -0.12660709023475647,
            7.761656888760626e-06,
            -0.33086296916007996,
            -0.010732067748904228,
            -0.1582198441028595,
            0.024229014292359352,
            0.2093501091003418,
            0.007084523793309927,
            0.0261541735380888,
            0.0029591387137770653,
            0.09425105154514313,
            0.04634365066885948,
            -0.12798158824443817,
            0.002629583002999425,
            -0.05585566163063049,
            0.16557252407073975,
            0.026145514100790024,
            0.027444498613476753,
            0.29082992672920227,
            -0.019362805411219597,
            -0.11931665986776352,
            0.06372334808111191,
            0.1401122659444809,
            -0.0492713563144207,
            -0.01683959737420082,
            0.02407313697040081,
            -0.046264901757240295,
            0.08668211847543716,
            0.34100186824798584,
            0.06422313302755356,
            -0.1885269284248352,
            0.05912400782108307,
            -0.004018366802483797,
            -0.041493263095617294,
            -0.010201587341725826,
            0.00324848759919405,
            0.13672783970832825,
            -0.05655639246106148,
            0.16949120163917542,
            0.04820450767874718,
            0.01839420013129711,
            0.04231102764606476,
            0.06381087005138397,
            -0.24354134500026703,
            0.07368110865354538,
            0.025934506207704544,
            0.15292096138000488,
            0.03541598841547966,
            0.3407217860221863,
            -0.009084038436412811,
            -0.21463046967983246,
            -0.09692773222923279,
            0.02900688722729683,
            -0.03328423947095871,
            0.0012003948213532567,
            -0.05148179456591606,
            -0.13359569013118744,
            0.15456581115722656,
            0.07861106097698212,
            0.015349571593105793,
            -0.029379336163401604,
            -0.03537863492965698,
            -0.0891362875699997,
            0.03745168447494507,
            -0.009852084331214428,
            0.09682659804821014,
            0.02169998176395893,
            -0.09234990924596786,
            0.035632435232400894,
            0.13441146910190582,
            0.04909967631101608,
            -0.11032936722040176,
            -0.017012042924761772,
            0.023011688143014908,
            -0.09637928009033203,
            0.0006908200448378921,
            0.1918269842863083,
            0.19899117946624756,
            0.13548032939434052,
            0.15530523657798767,
            -0.049471594393253326,
            -0.036334842443466187,
            -0.05583023652434349,
            -0.12465603649616241,
            0.15729814767837524,
            0.15125294029712677,
            -0.031204575672745705,
            0.024814898148179054,
            0.12913605570793152,
            -0.06324907392263412,
            0.17701078951358795,
            0.06851869821548462,
            -0.08604182302951813,
            -0.010502729564905167
        ],
        [
            -0.038693953305482864,
            0.14438080787658691,
            -0.18020954728126526,
            0.04848642647266388,
            -0.2899817228317261,
            0.013184413313865662,
            -0.22363069653511047,
            -0.10068885236978531,
            0.27191445231437683,
            0.01472994964569807,
            -0.22862118482589722,
            0.17680855095386505,
            0.12200705707073212,
            -0.016725199297070503,
            0.21537519991397858,
            -0.011322029866278172,
            0.09277066588401794,
            -0.0367840975522995,
            -0.04627588763833046,
            -0.11661775410175323,
            -0.3336467444896698,
            0.06674043834209442,
            0.11321844905614853,
            0.005771643482148647,
            -0.14364193379878998,
            0.05961718037724495,
            -0.005102150607854128,
            -0.1193775087594986,
            -0.5077213644981384,
            0.008195692673325539,
            -0.5561040639877319,
            0.09720127284526825,
            0.1319032609462738,
            0.007537888363003731,
            -0.31743568181991577,
            0.00724656181409955,
            0.21161001920700073,
            0.011549001559615135,
            -0.011361099779605865,
            -0.13070300221443176,
            0.002258186461403966,
            0.020936209708452225,
            0.04321036487817764,
            -0.00226497370749712,
            -0.174558624625206,
            0.05763423070311546,
            0.025524159893393517,
            0.01960776001214981,
            0.023503553122282028,
            -0.20109544694423676,
            -0.06367231160402298,
            -0.04905008524656296,
            -0.031370144337415695,
            -0.08935756981372833,
            0.08535350859165192,
            -0.03914647176861763,
            -0.14068344235420227,
            -0.009165395051240921,
            0.08321662992238998,
            0.12658274173736572,
            -0.05180290341377258,
            -0.1965492218732834,
            -0.1451825201511383,
            -0.1689889132976532,
            -0.047866035252809525,
            -0.02961050719022751,
            0.03645060956478119,
            -0.014475541189312935,
            -0.0035804363433271646,
            -0.021873116493225098,
            -0.061757076531648636,
            -0.33594945073127747,
            -0.0327288880944252,
            -0.004926780704408884,
            0.11398515850305557,
            -0.04069692641496658,
            -0.1283074915409088,
            0.19577158987522125,
            0.05671192705631256,
            -0.1919873207807541,
            -0.05717144161462784,
            -0.004302936140447855,
            -0.04134373366832733,
            -0.02222607098519802,
            -0.2833022475242615,
            0.1137915775179863,
            0.09242671728134155,
            0.14390641450881958,
            0.1677430272102356,
            0.054316598922014236,
            0.27019792795181274,
            0.1680039018392563,
            -0.060755155980587006,
            -0.04353963956236839,
            -0.04436665028333664,
            0.05985648185014725,
            -0.01599755510687828,
            0.025312745943665504,
            -0.03134237602353096,
            -0.006789678242057562,
            0.030953122302889824,
            -0.250530481338501,
            -0.12280690670013428,
            0.11287511885166168,
            -0.07817814499139786,
            0.05811331048607826,
            -0.00465931324288249,
            -0.16904868185520172,
            -0.03133716806769371,
            0.006106132175773382,
            -0.07987513393163681,
            -0.09337063878774643,
            0.017621377483010292,
            0.29449978470802307,
            -0.05866146460175514,
            0.06067637354135513,
            0.10339000821113586,
            0.6419923305511475,
            -0.03895176947116852,
            -0.03395604342222214,
            0.20376881957054138,
            -0.07092486321926117,
            -0.542311429977417,
            -0.11353115737438202,
            -0.034287888556718826,
            -0.05429142713546753,
            0.09241335093975067,
            -0.021981706842780113
        ],
        [
            -0.11473202705383301,
            -0.4989250898361206,
            0.5021207928657532,
            0.11426131427288055,
            0.4691029489040375,
            -0.25937825441360474,
            -0.022168191149830818,
            0.3551712930202484,
            0.058030225336551666,
            0.011183356866240501,
            0.07980140298604965,
            -0.019697148352861404,
            -0.03483687713742256,
            -0.0036091518122702837,
            0.1575462520122528,
            0.010364538989961147,
            -0.2585371434688568,
            -0.29365959763526917,
            0.06446483731269836,
            -0.6839035153388977,
            0.4422138035297394,
            0.27989494800567627,
            0.11039841175079346,
            -0.00374615378677845,
            0.022854575887322426,
            0.030108928680419922,
            -0.05557661131024361,
            0.07015758752822876,
            0.22854939103126526,
            -0.14125138521194458,
            -0.04029626399278641,
            0.01782192662358284,
            0.5903204679489136,
            -0.4049838185310364,
            0.09023839235305786,
            0.0006711205933243036,
            0.05812022462487221,
            -0.007124518975615501,
            -0.047759465873241425,
            0.018546562641859055,
            0.06522362679243088,
            -0.006167885847389698,
            -0.5253942608833313,
            0.0028586913831532,
            0.03448207303881645,
            -0.1148822158575058,
            0.009492890909314156,
            -0.0021955447737127542,
            -0.02171717956662178,
            -0.005002138204872608,
            -0.05913568288087845,
            -0.11844728142023087,
            -0.042252544313669205,
            0.07493209093809128,
            0.18585970997810364,
            0.08359812945127487,
            0.027935288846492767,
            0.01796547882258892,
            -0.055936530232429504,
            -0.6560074687004089,
            -0.2084612250328064,
            -0.034727394580841064,
            -0.08487644791603088,
            1.0793578624725342,
            0.05333831533789635,
            0.20073367655277252,
            -0.044868580996990204,
            -0.09948554635047913,
            -0.1039309948682785,
            -0.054115477949380875,
            0.15841993689537048,
            0.06157165393233299,
            -0.0031712281052023172,
            0.09348435699939728,
            0.16220811009407043,
            -0.3831351101398468,
            0.060498207807540894,
            0.14252977073192596,
            -0.0047555770725011826,
            0.1549471914768219,
            0.0003908748331014067,
            0.17789384722709656,
            -0.11530467122793198,
            0.15688413381576538,
            0.143045112490654,
            -0.03768862411379814,
            0.06388004124164581,
            0.2905159294605255,
            0.11682950705289841,
            0.29508665204048157,
            0.09421097487211227,
            -0.025645114481449127,
            -0.3397344648838043,
            -0.013171933591365814,
            -0.6014617681503296,
            -0.6255081295967102,
            0.020841797813773155,
            -0.028743179515004158,
            0.1865423172712326,
            -0.0703071877360344,
            -0.07551075518131256,
            0.08857370167970657,
            -0.1151844710111618,
            -0.03950251638889313,
            0.10633444786071777,
            -0.15616554021835327,
            0.1221303716301918,
            -0.02605951763689518,
            -0.07226359844207764,
            -0.0017140329582616687,
            0.13856686651706696,
            -0.12464170157909393,
            0.20429933071136475,
            -0.1049138605594635,
            0.8666514754295349,
            -0.051378194242715836,
            0.02808375284075737,
            -0.04760481417179108,
            0.017697561532258987,
            0.22666525840759277,
            0.36241233348846436,
            0.033649615943431854,
            0.31312212347984314,
            -0.09597276151180267,
            -0.05216510221362114,
            0.10853950679302216,
            -0.08005139976739883,
            -0.01719493605196476
        ],
        [
            -0.11088337749242783,
            -0.03237444907426834,
            0.22607694566249847,
            -0.06059905141592026,
            -0.1367146372795105,
            0.33090534806251526,
            -0.2602922022342682,
            0.08016061037778854,
            0.3748021125793457,
            0.08112727850675583,
            0.03509344160556793,
            -0.08749912679195404,
            0.1601393073797226,
            0.0407349169254303,
            -0.36521536111831665,
            0.0856407955288887,
            0.30833470821380615,
            0.10289784520864487,
            0.0945839211344719,
            0.18654489517211914,
            -0.3229924738407135,
            -0.081048384308815,
            -0.02426738105714321,
            -0.0031054336577653885,
            0.13327090442180634,
            0.005684172734618187,
            -0.17798399925231934,
            0.041480861604213715,
            0.3628009259700775,
            -0.06962069123983383,
            0.14019091427326202,
            0.007960348390042782,
            -0.4614015221595764,
            0.04210194945335388,
            0.03921286761760712,
            0.002927058842033148,
            -0.08458202332258224,
            0.005795822013169527,
            0.008173863403499126,
            0.16024911403656006,
            0.18085989356040955,
            0.17736564576625824,
            -0.2860877513885498,
            -0.0022642966359853745,
            0.06597533822059631,
            -0.039118193089962006,
            0.1410316824913025,
            0.022020533680915833,
            0.12493211776018143,
            0.06653927266597748,
            -0.02748013101518154,
            0.10718712210655212,
            -0.05655806139111519,
            0.08827777951955795,
            0.24691063165664673,
            0.2960880398750305,
            0.15782397985458374,
            -0.03013870306313038,
            -0.03152942657470703,
            -0.13852354884147644,
            0.08745036274194717,
            -0.1265835165977478,
            0.064293771982193,
            0.1070803627371788,
            0.1531263291835785,
            0.30476516485214233,
            0.00539457518607378,
            0.04124743118882179,
            -0.056397050619125366,
            -0.04711554944515228,
            0.2922285795211792,
            -0.3367639183998108,
            0.06268829107284546,
            -0.0485449843108654,
            -0.43566465377807617,
            0.9213204979896545,
            0.12908971309661865,
            -0.07567427307367325,
            -0.08214601874351501,
            0.08276280015707016,
            0.06610175967216492,
            -0.09908721596002579,
            0.09491836279630661,
            0.03208580240607262,
            -0.02892361395061016,
            -0.13035030663013458,
            -0.4016128480434418,
            0.6563917398452759,
            -0.5117769241333008,
            -0.23618729412555695,
            0.4765223562717438,
            -0.05671728774905205,
            0.06841187179088593,
            -0.04048946872353554,
            -0.1186329647898674,
            0.4010399281978607,
            -0.33024752140045166,
            0.178412526845932,
            -0.10297651588916779,
            0.28645071387290955,
            -0.027294280007481575,
            -0.02840922772884369,
            -0.11723718047142029,
            0.3412569761276245,
            0.11636184900999069,
            0.08876582980155945,
            -0.32071879506111145,
            0.23887555301189423,
            0.5435631275177002,
            0.0032806473318487406,
            -0.19888634979724884,
            -0.007370897568762302,
            0.2672518789768219,
            0.16264717280864716,
            -0.5687188506126404,
            0.32565587759017944,
            0.22375871241092682,
            -0.3356630206108093,
            -0.15060026943683624,
            0.02768568880856037,
            -0.20345310866832733,
            -0.06661851704120636,
            -0.11893616616725922,
            0.437257319688797,
            0.10981057584285736,
            0.05575046315789223,
            -0.11121491342782974,
            0.5786190032958984
        ],
        [
            -0.03472625091671944,
            -0.058695707470178604,
            0.19170688092708588,
            -0.022300442680716515,
            -0.10416596382856369,
            -0.04183211177587509,
            -0.023176398128271103,
            -0.10396386682987213,
            0.01247662678360939,
            0.524908185005188,
            -0.05640685558319092,
            0.003701758338138461,
            -0.27773237228393555,
            -0.002936924807727337,
            -0.07125767320394516,
            -0.2330506592988968,
            -0.0782351940870285,
            0.03633440285921097,
            -0.1517353504896164,
            0.07323786616325378,
            -0.05666397884488106,
            -0.12104785442352295,
            0.04809895157814026,
            0.003015824593603611,
            -0.03252040594816208,
            0.09890761971473694,
            -0.04492462798953056,
            0.010681623592972755,
            -0.09604229032993317,
            0.04677644371986389,
            -0.004614585544914007,
            0.0046553052961826324,
            -0.0004302453016862273,
            0.050008855760097504,
            0.013672568835318089,
            0.004496371373534203,
            0.02015855722129345,
            0.005895362701267004,
            0.02809831127524376,
            0.0049578468315303326,
            0.007204229012131691,
            -0.15271838009357452,
            -0.011456673964858055,
            -0.025986509397625923,
            -0.06856382638216019,
            0.0546005554497242,
            -0.1443541944026947,
            -0.5426157712936401,
            0.2658179998397827,
            -0.16702117025852203,
            -0.030868878588080406,
            0.06323708593845367,
            -0.2435137927532196,
            -0.12615901231765747,
            -0.017718978226184845,
            -0.054790448397397995,
            -0.030558504164218903,
            1.0616059303283691,
            -0.06610006093978882,
            0.07193013280630112,
            0.02085828222334385,
            -0.09945296496152878,
            -0.06769707798957825,
            0.05485425516963005,
            0.027342963963747025,
            0.6177489757537842,
            0.03857918828725815,
            0.0799783319234848,
            0.3832278251647949,
            1.011826992034912,
            0.14864219725131989,
            0.09791449457406998,
            0.014261173084378242,
            -0.11634649336338043,
            0.17467671632766724,
            -0.01240291353315115,
            -0.17364555597305298,
            -0.013501216657459736,
            0.03982323035597801,
            -0.03454400599002838,
            0.031156107783317566,
            -0.06303992867469788,
            0.0648747906088829,
            1.428985834121704,
            0.030040303245186806,
            -0.0009435651591047645,
            0.9810565114021301,
            -0.03285115212202072,
            0.011956414207816124,
            -0.007368758320808411,
            0.06798021495342255,
            -0.1109248623251915,
            0.123419851064682,
            -0.002571702701970935,
            -0.024658432230353355,
            0.03933432325720787,
            -0.08446010202169418,
            -0.2003735452890396,
            0.14455273747444153,
            0.08333148062229156,
            0.11184427887201309,
            -0.13133130967617035,
            0.006032307632267475,
            -0.031875789165496826,
            0.0022501780185848475,
            -0.08555871993303299,
            -0.036948058754205704,
            -0.06212744489312172,
            -0.0447046272456646,
            0.008657113648951054,
            0.04541686922311783,
            0.11569103598594666,
            0.06645943969488144,
            -0.16336163878440857,
            0.007245444692671299,
            -0.6127915382385254,
            -0.0693787932395935,
            0.11280671507120132,
            0.05811435729265213,
            0.003951488994061947,
            -0.05269573628902435,
            -0.007241315674036741,
            0.019330652430653572,
            0.11247824877500534,
            0.1380084753036499,
            0.05435241758823395,
            0.16045182943344116,
            0.04380619898438454
        ],
        [
            0.41854289174079895,
            0.041630443185567856,
            -0.12119514495134354,
            0.01450207456946373,
            -0.11801806837320328,
            0.2470777928829193,
            0.16099447011947632,
            -0.2748413681983948,
            0.1447993367910385,
            -0.10078967362642288,
            -0.12204668670892715,
            -0.13530614972114563,
            -0.16316089034080505,
            -0.1528400480747223,
            -0.1628015786409378,
            -0.07023503631353378,
            0.34684914350509644,
            -0.033151689916849136,
            0.08093024045228958,
            0.036571867763996124,
            0.6137531995773315,
            0.2800372540950775,
            -0.04501637443900108,
            -0.006070801056921482,
            0.005558598320931196,
            0.24925601482391357,
            -0.46944761276245117,
            0.08363255858421326,
            0.19095070660114288,
            -0.05904141068458557,
            -0.11340433359146118,
            0.017528988420963287,
            0.049067720770835876,
            0.1437397599220276,
            0.040265634655952454,
            0.0007821949548088014,
            -0.0005466645816341043,
            0.007972086779773235,
            0.07066745311021805,
            0.03944378346204758,
            -0.20196875929832458,
            -0.2834780812263489,
            0.240400493144989,
            -0.0037040947936475277,
            -0.14541226625442505,
            0.01857852190732956,
            -0.20250044763088226,
            0.03351951017975807,
            -0.08886515349149704,
            0.5985044836997986,
            0.09356188029050827,
            -0.002134792972356081,
            -0.04052567109465599,
            -0.02565706893801689,
            0.26879963278770447,
            0.019050784409046173,
            0.9070931077003479,
            0.0038214612286537886,
            -0.045277178287506104,
            0.2897540032863617,
            0.03998519852757454,
            0.10666622221469879,
            0.11468552052974701,
            -0.15417054295539856,
            -0.39551645517349243,
            -0.34571292996406555,
            0.07883739471435547,
            0.5357537865638733,
            -0.11073475331068039,
            -0.06594468653202057,
            0.41857314109802246,
            -0.06716077029705048,
            -0.12062074989080429,
            -0.021998023614287376,
            -0.12890338897705078,
            -0.5095389485359192,
            -0.2453424483537674,
            -0.08890444040298462,
            0.07231033593416214,
            0.8461611866950989,
            -0.055121712386608124,
            0.033162083476781845,
            0.09139721840620041,
            -0.1691104769706726,
            -0.042179033160209656,
            0.007992888800799847,
            0.0040127914398908615,
            0.1825093924999237,
            0.888634204864502,
            -0.03784341737627983,
            -0.1215164065361023,
            0.22902582585811615,
            0.5528180003166199,
            0.12787139415740967,
            -0.2832183837890625,
            -0.14098194241523743,
            0.21610887348651886,
            -0.013772419653832912,
            0.7821604609489441,
            0.36473432183265686,
            0.005722973495721817,
            0.03701493516564369,
            -0.15781128406524658,
            -0.15538744628429413,
            -0.5726559162139893,
            0.26423391699790955,
            -0.07656365633010864,
            -0.2388629913330078,
            -0.18107928335666656,
            0.0008506755111739039,
            -0.3853939473628998,
            0.30669325590133667,
            -0.21852423250675201,
            -0.23886297643184662,
            0.030210547149181366,
            -0.4097647964954376,
            -0.33393779397010803,
            0.027419090270996094,
            -0.6118454337120056,
            -0.4678212106227875,
            -0.03781626746058464,
            0.05944935232400894,
            0.3197349011898041,
            -0.009082959964871407,
            0.11169532686471939,
            -0.048540107905864716,
            -1.2441033124923706,
            -0.24760590493679047
        ],
        [
            0.08168788254261017,
            0.22876888513565063,
            0.36391645669937134,
            0.13229604065418243,
            0.17631378769874573,
            0.018257346004247665,
            -0.2016785740852356,
            -0.004523197654634714,
            0.1994296908378601,
            0.11710918694734573,
            0.19561371207237244,
            -0.07558136433362961,
            -0.00038465874968096614,
            0.05238689109683037,
            0.15039171278476715,
            -0.0298888199031353,
            0.005714612081646919,
            0.0636584460735321,
            0.20540514588356018,
            0.07794132083654404,
            -0.30716830492019653,
            0.49781498312950134,
            -0.16050602495670319,
            -0.0025148624554276466,
            -0.024609429761767387,
            0.02944728173315525,
            -0.2974025309085846,
            0.14972630143165588,
            -0.1439516544342041,
            -0.0993838682770729,
            0.03509609401226044,
            -0.3236813545227051,
            0.007730549667030573,
            -0.002395590767264366,
            0.2094891220331192,
            0.0021849465556442738,
            0.0659927949309349,
            -0.0018244682578369975,
            0.033888500183820724,
            -0.03248051553964615,
            -0.44082242250442505,
            -0.018900636583566666,
            -0.08633377403020859,
            0.008873039856553078,
            0.13335610926151276,
            -0.10512953251600266,
            -0.3697412312030792,
            -0.07784321904182434,
            -0.14058080315589905,
            0.025728151202201843,
            0.781642735004425,
            0.7220561504364014,
            0.010144716128706932,
            -0.008245008997619152,
            -0.11119358241558075,
            -0.8246723413467407,
            -0.09843254834413528,
            0.05096006393432617,
            -0.13321256637573242,
            0.014473224058747292,
            0.026057515293359756,
            -0.2551550269126892,
            0.27403151988983154,
            -0.13074322044849396,
            -0.25579899549484253,
            0.2343248575925827,
            -0.0070387227460742,
            0.21956129372119904,
            -0.07901429384946823,
            0.042203716933727264,
            -0.15264581143856049,
            0.08823083341121674,
            -0.12046262621879578,
            -0.07161184400320053,
            0.24197418987751007,
            0.031589750200510025,
            0.06952821463346481,
            0.23610281944274902,
            0.04298112541437149,
            -0.05663704127073288,
            0.060513321310281754,
            0.06482820212841034,
            0.0979965329170227,
            0.14053639769554138,
            0.12619422376155853,
            -0.01697770692408085,
            0.0011917903320863843,
            0.026605097576975822,
            -0.09660188853740692,
            0.09779282659292221,
            0.19400645792484283,
            -0.1996622383594513,
            -0.15380455553531647,
            -0.11995849013328552,
            -0.15916620194911957,
            -0.16910046339035034,
            0.06984902918338776,
            -0.14827661216259003,
            -0.1526598334312439,
            -0.32043248414993286,
            -0.15008889138698578,
            0.060140710324048996,
            0.02876364253461361,
            0.05407777801156044,
            0.40382376313209534,
            0.011613859795033932,
            -0.13433736562728882,
            0.0385809987783432,
            -0.1852485090494156,
            0.005024926736950874,
            -0.2489420771598816,
            -0.1865280270576477,
            0.19401980936527252,
            -0.09823902696371078,
            0.013908140361309052,
            0.29005318880081177,
            -0.1823844462633133,
            0.10774865001440048,
            -0.22812525928020477,
            0.003265275387093425,
            0.1825319081544876,
            0.08042750507593155,
            -0.1074555516242981,
            -0.0020263963378965855,
            0.15557733178138733,
            -0.23340220749378204,
            -0.025879500433802605,
            -0.24234461784362793
        ],
        [
            0.05571548640727997,
            0.10953371226787567,
            0.011791468597948551,
            -0.12063801288604736,
            0.008824320510029793,
            -0.16763800382614136,
            1.0958576202392578,
            0.03999638557434082,
            -0.3541254699230194,
            -0.044460542500019073,
            -0.31097689270973206,
            0.0774003341794014,
            0.3058769106864929,
            0.01902512088418007,
            -0.16893574595451355,
            0.18298441171646118,
            -0.01770523563027382,
            0.07083947956562042,
            -0.029503479599952698,
            0.0006011792575009167,
            -0.10988681018352509,
            0.21499381959438324,
            0.02073136530816555,
            0.0016275938833132386,
            0.12248141318559647,
            -0.12426255643367767,
            -0.13918021321296692,
            0.6972604393959045,
            0.05019305646419525,
            0.0490659698843956,
            0.29554587602615356,
            -0.26529112458229065,
            0.12875260412693024,
            0.008765704929828644,
            0.11784770339727402,
            0.0046616047620773315,
            0.31018537282943726,
            -0.007701974827796221,
            -0.7717223763465881,
            0.06835802644491196,
            -0.08520256727933884,
            -0.026391757652163506,
            -0.12242632359266281,
            -0.0018262658268213272,
            -0.16289274394512177,
            -0.034770432859659195,
            0.20894254744052887,
            -0.026492323726415634,
            0.011338530108332634,
            -0.06250312924385071,
            0.10549728572368622,
            -0.004984372761100531,
            -0.27254465222358704,
            -0.02874346449971199,
            0.14599089324474335,
            0.11021701246500015,
            -0.1959480196237564,
            0.031417664140462875,
            0.0846596285700798,
            0.00610799714922905,
            0.03609219938516617,
            -0.307953804731369,
            -0.1044357642531395,
            -0.05535149201750755,
            0.22218242287635803,
            -0.10311917215585709,
            -0.10061751306056976,
            0.06084480509161949,
            0.042438093572854996,
            -0.03434101119637489,
            -0.13745878636837006,
            0.012536674737930298,
            0.015319676138460636,
            0.05436249449849129,
            0.10655681043863297,
            -0.18711183965206146,
            -0.017077947035431862,
            0.3329494595527649,
            0.14701780676841736,
            0.21861477196216583,
            -0.06125352904200554,
            -0.0376640222966671,
            -0.18313568830490112,
            0.06421810388565063,
            0.20982030034065247,
            0.07129008322954178,
            0.08490774035453796,
            0.20869643986225128,
            0.14065639674663544,
            -0.08119689673185349,
            0.19024185836315155,
            -0.14000847935676575,
            -0.10056725144386292,
            -0.013531969860196114,
            0.09200630336999893,
            0.03255002200603485,
            0.32372593879699707,
            0.1000908762216568,
            0.20841370522975922,
            0.028739003464579582,
            -0.06341277062892914,
            -0.18157757818698883,
            -0.08347924053668976,
            -0.3978014588356018,
            -0.21287104487419128,
            0.015339483506977558,
            0.30806055665016174,
            -0.0503498874604702,
            0.08655989170074463,
            -0.002871128963306546,
            -0.08057563006877899,
            0.4497593939304352,
            -0.0679594874382019,
            -0.23219642043113708,
            -0.13546012341976166,
            0.009434066712856293,
            0.4546041786670685,
            -0.009089138358831406,
            -0.03453131765127182,
            0.26882243156433105,
            -0.052042439579963684,
            -0.0574391633272171,
            0.3713572025299072,
            -0.07774697244167328,
            0.20494259893894196,
            -0.18421529233455658,
            0.07549463212490082,
            0.02473948337137699
        ],
        [
            0.3910917043685913,
            0.4565213620662689,
            -0.46488335728645325,
            0.8268888592720032,
            0.07512325048446655,
            -0.40980711579322815,
            0.05154399573802948,
            -0.00303268781863153,
            -0.046226467937231064,
            0.168747678399086,
            0.11122175306081772,
            -0.19890590012073517,
            0.21202352643013,
            -0.3194778263568878,
            -0.19005373120307922,
            0.2645883858203888,
            0.07112354040145874,
            0.0152235496789217,
            0.22550681233406067,
            0.0864245668053627,
            -0.1221570298075676,
            0.08924926072359085,
            0.28685298562049866,
            -0.003337046829983592,
            0.11148781329393387,
            -0.11402925103902817,
            0.05661995708942413,
            -0.018052782863378525,
            0.05516347289085388,
            -0.2550278306007385,
            0.03435550257563591,
            -0.08598609268665314,
            -0.06004820391535759,
            -0.19087612628936768,
            0.19151167571544647,
            0.008647678419947624,
            -0.13354845345020294,
            0.011722245253622532,
            0.023088576272130013,
            0.38877928256988525,
            -0.04258871078491211,
            -0.2794961929321289,
            -0.25246289372444153,
            0.0044713374227285385,
            -0.5274425148963928,
            -0.15254953503608704,
            0.01147837471216917,
            -0.1328699141740799,
            -0.051190197467803955,
            0.12682950496673584,
            0.0770287811756134,
            0.21843688189983368,
            -0.20790214836597443,
            0.2679480314254761,
            -0.0029633750673383474,
            0.011327964253723621,
            -0.13952088356018066,
            0.12699009478092194,
            -0.6654829978942871,
            -0.42890480160713196,
            -0.07073482125997543,
            0.08363001048564911,
            0.05761731415987015,
            0.05803486704826355,
            -0.18250443041324615,
            -0.5361166000366211,
            0.04588194936513901,
            0.3732587397098541,
            -0.07143396139144897,
            -0.10200823098421097,
            0.15318134427070618,
            -0.10931147634983063,
            0.041255392134189606,
            -0.19319194555282593,
            -0.23709794878959656,
            0.30478665232658386,
            -0.012737106531858444,
            0.035997796803712845,
            0.4458763301372528,
            0.26464325189590454,
            0.21527230739593506,
            -0.08062732964754105,
            0.1139926165342331,
            -0.14185650646686554,
            -0.12357751280069351,
            -0.03809783235192299,
            -0.10871460288763046,
            -0.0970790758728981,
            0.023989668115973473,
            -0.007966868579387665,
            0.16380636394023895,
            -0.014072739519178867,
            0.2504907250404358,
            -0.15060721337795258,
            -0.0019417819567024708,
            -0.3822803795337677,
            -0.265032023191452,
            -0.10045453906059265,
            -0.2655923366546631,
            -0.013494090177118778,
            -0.4993742108345032,
            -0.10517150908708572,
            0.3991103172302246,
            0.1770002692937851,
            0.22008757293224335,
            0.14969855546951294,
            0.024682238698005676,
            -0.017014889046549797,
            -0.03637481853365898,
            -0.006998051889240742,
            0.17439772188663483,
            0.1191628947854042,
            0.03997315838932991,
            0.22039002180099487,
            0.043543580919504166,
            -0.13446547091007233,
            0.2248436063528061,
            -0.07930613309144974,
            -0.2245316505432129,
            0.14979957044124603,
            -0.06279350072145462,
            0.38209885358810425,
            -0.12580782175064087,
            0.14845648407936096,
            -0.4114088714122772,
            0.17861177027225494,
            0.09976263344287872,
            0.19327865540981293
        ]
    ],
    "layer2/biases/Variable:0": [
        -0.9939234256744385,
        -0.5225605964660645,
        1.7383111715316772,
        -0.17096225917339325,
        -0.6545597314834595,
        1.4234696626663208,
        -0.37709376215934753,
        -0.270945280790329,
        1.3657147884368896,
        1.8847547769546509,
        1.477967619895935,
        -0.4607098698616028,
        0.30348530411720276,
        0.41460320353507996,
        1.1118240356445312,
        -0.3669338524341583,
        1.6124885082244873,
        0.8369507789611816,
        -0.10756552219390869,
        0.40261536836624146,
        -2.1484568119049072,
        -0.36503365635871887,
        -0.0012298219371587038,
        0.4477136731147766,
        -0.23065969347953796,
        0.11153606325387955,
        -0.9503225684165955,
        0.6334936618804932,
        -0.06318722665309906,
        -1.0985277891159058,
        0.5864740610122681,
        -0.4201793372631073,
        0.12872886657714844,
        0.4541228413581848,
        0.26320815086364746,
        -1.0457020998001099,
        -0.7120828032493591,
        0.6259441375732422,
        0.8472775816917419,
        -2.220590353012085,
        -0.4161570072174072,
        -0.5774286985397339,
        0.21501773595809937,
        -2.2256600856781006,
        0.6757788062095642,
        0.25517764687538147,
        -0.6564611196517944,
        -1.3177828788757324,
        -0.5674716234207153,
        0.3353410065174103,
        -0.012709883973002434,
        -0.8072662353515625,
        -1.2705172300338745,
        -0.650420606136322,
        -0.9877844452857971,
        0.4015008509159088,
        1.6770342588424683,
        0.4609838128089905,
        0.0325041264295578,
        -0.09104243665933609,
        0.2847381830215454,
        -1.2324165105819702,
        0.2043742686510086,
        -0.14390645921230316,
        0.6151498556137085,
        0.8180334568023682,
        0.16650117933750153,
        0.4974578022956848,
        -0.7286555767059326,
        0.5032012462615967,
        0.6059945225715637,
        0.14831173419952393,
        1.1252392530441284,
        -0.14764297008514404,
        -1.339233636856079,
        1.5867871046066284,
        1.0072050094604492,
        -0.19101190567016602,
        -0.4101735055446625,
        -0.5505313277244568,
        -0.29404306411743164,
        1.2521593570709229,
        0.9425342679023743,
        1.3774737119674683,
        0.04495770484209061,
        -0.012951161712408066,
        -1.5146088600158691,
        -0.8836655616760254,
        -0.056067995727062225,
        0.48204803466796875,
        1.2100666761398315,
        0.631425678730011,
        -0.2631258964538574,
        -0.21713733673095703,
        0.6669149398803711,
        1.0704210996627808,
        -0.4154191315174103,
        -0.533782422542572,
        -1.4055655002593994,
        1.8662751913070679,
        0.6416444778442383,
        0.2002224624156952,
        1.2035391330718994,
        0.33341073989868164,
        -0.0900898203253746,
        -0.8224385380744934,
        0.20696121454238892,
        1.7019672393798828,
        -0.40808388590812683,
        0.03034740686416626,
        1.1091068983078003,
        0.13431887328624725,
        2.0298140048980713,
        -1.1331493854522705,
        2.4577343463897705,
        0.4725196957588196,
        -1.2089864015579224,
        0.13060927391052246,
        -0.3808983266353607,
        0.02404681220650673,
        0.9325156807899475,
        0.7761213183403015,
        -0.9557623267173767,
        0.5770439505577087,
        -0.24711443483829498,
        1.08738112449646,
        0.5563167333602905,
        -1.0294914245605469
    ],
    "layer2/weights/Variable:0": [
        [
            0.11141964793205261,
            -0.018333015963435173,
            -0.005870126187801361,
            0.06537158042192459,
            0.0035163783468306065,
            -0.06832019239664078,
            -0.02772746980190277,
            -0.03924570977687836,
            -0.049434587359428406,
            0.027945000678300858,
            0.06344906985759735,
            -0.014594774693250656,
            -0.08809440582990646,
            -0.02972654439508915,
            0.03516673296689987,
            0.0007780948653817177,
            0.1338026374578476,
            0.023037180304527283,
            0.04587448388338089,
            -0.0011187158524990082,
            0.004559813532978296,
            0.057716041803359985,
            0.01911848410964012,
            -0.017752187326550484,
            0.15175792574882507,
            -0.009387400932610035,
            0.0001819823810365051,
            0.06433853507041931,
            -0.08248601853847504,
            0.05688406154513359,
            -0.015175947919487953,
            0.03868521749973297,
            -0.05030609667301178,
            -0.01446978747844696,
            0.012739204801619053,
            0.00630938122048974,
            0.049663275480270386,
            -0.005583070684224367,
            0.18795378506183624,
            -0.03791803866624832,
            -0.018671195954084396,
            0.03812510892748833,
            0.026740126311779022,
            0.07137898355722427,
            -0.042173121124506,
            0.006422450300306082,
            -0.02710132859647274,
            0.015488225035369396,
            0.01911770924925804,
            -0.00012282945681363344,
            0.0287019032984972,
            -0.059004005044698715,
            -0.05380502715706825,
            -0.038254063576459885,
            0.038665905594825745,
            -0.0012824512086808681,
            0.054024022072553635,
            0.020205354318022728,
            0.0038029984571039677,
            0.0034076026640832424,
            -0.1652413159608841,
            0.027667861431837082,
            -0.02803245559334755,
            -0.061004336923360825,
            0.03017391823232174,
            -5.613995381281711e-05,
            0.0013992699095979333,
            0.030558155849575996,
            0.011040381155908108,
            -0.05808107927441597,
            0.012369395233690739,
            0.11083850264549255,
            0.036677416414022446,
            -0.01661020703613758,
            0.05165433883666992,
            -0.004586800932884216,
            -0.08512570708990097,
            0.028335757553577423,
            0.010131875053048134,
            -0.12713994085788727,
            0.055224403738975525,
            -0.025229495018720627,
            -0.0756191611289978,
            0.07083094120025635,
            -0.0024697096087038517,
            -0.04783717915415764,
            -0.03379425033926964,
            0.002253115177154541,
            -0.047551482915878296,
            0.01613105647265911,
            0.025915171951055527,
            0.09231093525886536,
            -0.03555118292570114,
            -0.0033030228223651648,
            0.02718132920563221,
            0.03594478592276573,
            -0.027035890147089958,
            -0.012138632126152515,
            -0.10783340036869049,
            -0.10183314979076385,
            -0.07612933963537216,
            -0.041119713336229324,
            0.019946051761507988,
            0.0769846960902214,
            0.029883280396461487,
            0.02120109088718891,
            -0.06555628776550293,
            -0.06590013951063156,
            -0.016521034762263298,
            0.011025669053196907,
            -0.029190853238105774,
            -0.09536924958229065,
            0.010271698236465454,
            -0.2029714435338974,
            -0.0001539743534522131,
            0.027919849380850792,
            -0.026824966073036194,
            -0.01757160946726799,
            -0.006743778474628925,
            0.08898334950208664,
            0.006323336623609066,
            -0.003785841865465045,
            0.08472096920013428,
            -0.05413620546460152,
            -0.014499837532639503,
            -0.01675417274236679,
            -0.02897423319518566,
            -0.009692937135696411
        ],
        [
            0.060086965560913086,
            -0.051145877689123154,
            0.025622934103012085,
            -0.015769481658935547,
            0.018540844321250916,
            -0.004446904640644789,
            -0.002988258609548211,
            -0.032710831612348557,
            0.04153679683804512,
            0.04161320999264717,
            0.06586068123579025,
            -0.015208310447633266,
            -0.07168132811784744,
            -0.022517777979373932,
            0.09071353822946548,
            -0.0019164810655638576,
            0.11731866747140884,
            0.07341565191745758,
            0.08031050860881805,
            -0.0015914415707811713,
            0.0038284561596810818,
            0.07289525866508484,
            0.0011419898364692926,
            -0.026140673086047173,
            0.1423547863960266,
            0.0032107937149703503,
            0.11353743076324463,
            -0.03303113579750061,
            0.007450468372553587,
            -0.00841822661459446,
            0.018125483766198158,
            -0.016771700233221054,
            -0.03432127460837364,
            -0.01305400114506483,
            0.03866323456168175,
            0.007792169693857431,
            0.0485752671957016,
            0.003443575231358409,
            0.10476566106081009,
            -0.04389435052871704,
            -0.0018420827109366655,
            0.01993437111377716,
            -0.033259861171245575,
            0.2835307717323303,
            -0.10270180553197861,
            0.029142914339900017,
            -0.019528785720467567,
            -0.00010892010323004797,
            0.0490366630256176,
            0.0004087791603524238,
            -0.05046351999044418,
            -0.08355378359556198,
            -0.09609252214431763,
            -0.022605763748288155,
            0.0054932087659835815,
            0.008368382230401039,
            -0.04758993536233902,
            0.012562342919409275,
            0.0006500508170574903,
            -0.009659010916948318,
            -0.1826002597808838,
            0.0004670726484619081,
            -0.02950558066368103,
            -0.10085154324769974,
            0.04773084819316864,
            0.013758710585534573,
            0.004962089471518993,
            -0.10389236360788345,
            -0.029922686517238617,
            -0.04704158008098602,
            0.08094879239797592,
            0.0829983800649643,
            0.14768889546394348,
            0.012806471437215805,
            0.03618917986750603,
            0.007985849864780903,
            -0.05435904115438461,
            0.02301686257123947,
            -0.0058595966547727585,
            0.01773308776319027,
            0.10758423060178757,
            -0.01778283528983593,
            -0.10601228475570679,
            -0.009189886040985584,
            -0.0005742681096307933,
            -0.03724519908428192,
            -0.018739568069577217,
            0.0060439566150307655,
            -0.040292441844940186,
            -0.005274138413369656,
            0.01944705843925476,
            0.031085090711712837,
            -0.01858840510249138,
            0.0247738528996706,
            0.027409598231315613,
            0.06810051202774048,
            -0.01694389432668686,
            -0.0402597114443779,
            -0.06119947135448456,
            -0.22248125076293945,
            -0.10249527543783188,
            0.04394577443599701,
            0.027965622022747993,
            0.09118209779262543,
            0.015279991552233696,
            0.008156807161867619,
            0.017985861748456955,
            -0.1247466430068016,
            0.00046145610394887626,
            0.023567454889416695,
            0.047930050641298294,
            -0.029076505452394485,
            -0.07024268805980682,
            -0.16941523551940918,
            6.243449752219021e-05,
            0.024304399266839027,
            -0.02525496855378151,
            -0.0644853413105011,
            -0.005480601452291012,
            0.05271223932504654,
            0.06265321373939514,
            -0.04522974416613579,
            -0.002715284936130047,
            0.07123041152954102,
            -0.03444935008883476,
            0.006870429962873459,
            -0.0004995865747332573,
            -0.04697750136256218
        ],
        [
            -0.18606847524642944,
            0.07960394024848938,
            -0.03629368916153908,
            -0.023625878617167473,
            -0.030355364084243774,
            0.03647727146744728,
            -0.06488146632909775,
            0.08723583817481995,
            -0.04614661633968353,
            0.050236012786626816,
            -0.04402633011341095,
            0.002550780540332198,
            0.10680726170539856,
            0.00690108397975564,
            -0.01455060113221407,
            0.0014635237166658044,
            -0.046795547008514404,
            -0.20711888372898102,
            -0.025028547272086143,
            -0.0013541694497689605,
            0.004595839884132147,
            -0.20709151029586792,
            0.047244396060705185,
            -0.070377878844738,
            -0.193084254860878,
            -0.0036354202311486006,
            -0.029981588944792747,
            0.06275297701358795,
            0.15813381969928741,
            0.009468937292695045,
            0.006280004978179932,
            -0.03470845893025398,
            0.006835128180682659,
            -0.028465233743190765,
            0.055953532457351685,
            0.07379641383886337,
            -0.22118788957595825,
            -0.006718212738633156,
            0.020866217091679573,
            0.04360264539718628,
            -0.008095643483102322,
            -0.11188054084777832,
            0.002886895090341568,
            -0.27528437972068787,
            -0.04260573908686638,
            -0.019190821796655655,
            0.06402606517076492,
            0.011322627775371075,
            -0.05518704652786255,
            0.005234630778431892,
            -0.04916652664542198,
            0.07342799752950668,
            -0.02325492538511753,
            0.02930367924273014,
            -0.008624963462352753,
            -0.003146186238154769,
            -0.1111164540052414,
            -0.006375112570822239,
            -0.0009721233509480953,
            0.01798098534345627,
            0.0817074179649353,
            -0.010775542818009853,
            -0.008933589793741703,
            0.09580527991056442,
            -0.03914837911725044,
            -0.0365295447409153,
            -0.0022806001361459494,
            0.08955442160367966,
            0.016988860443234444,
            -0.010714607313275337,
            -0.03650625795125961,
            -0.03283773735165596,
            -0.13431315124034882,
            -0.02824154868721962,
            -0.009481074288487434,
            0.0562124103307724,
            0.08216647803783417,
            -0.004016994033008814,
            0.053475841879844666,
            -0.07323731482028961,
            -0.09181690216064453,
            -0.028621770441532135,
            0.22523170709609985,
            0.17198246717453003,
            0.0006616616155952215,
            0.05464811623096466,
            0.04401184245944023,
            0.002215881599113345,
            0.014734040945768356,
            -0.015339662320911884,
            0.028727414086461067,
            -0.11709772795438766,
            -0.033554866909980774,
            -0.03337976709008217,
            -0.03481597080826759,
            -8.095621160464361e-05,
            -0.009236782789230347,
            -0.012969174422323704,
            0.036002881824970245,
            0.07180558890104294,
            0.08835102617740631,
            -0.10359110683202744,
            -0.018750987946987152,
            -0.24151356518268585,
            -0.01006513275206089,
            0.016633057966828346,
            -0.039815083146095276,
            0.11556188762187958,
            -0.018242329359054565,
            -0.017398444935679436,
            -0.01949474774301052,
            0.05601072683930397,
            0.06613505631685257,
            0.16594764590263367,
            -0.0034741139970719814,
            0.0010991423623636365,
            0.03733206167817116,
            0.08709157258272171,
            -0.009489357471466064,
            0.02366817742586136,
            0.06616361439228058,
            0.06090615689754486,
            -0.06751114130020142,
            -0.05366547405719757,
            0.02611580677330494,
            0.055895913392305374,
            -0.08548974990844727,
            0.02490438148379326
        ],
        [
            -0.01025934237986803,
            -0.05323369428515434,
            0.09582991153001785,
            0.045090530067682266,
            -0.022001640871167183,
            0.01975678652524948,
            -0.07487012445926666,
            -0.042350709438323975,
            -0.030933167785406113,
            0.03654639795422554,
            0.017224110662937164,
            -0.033187136054039,
            0.028717732056975365,
            -0.006006162613630295,
            0.032269880175590515,
            0.007767941802740097,
            0.1548115462064743,
            0.016797658056020737,
            0.023710308596491814,
            0.0316503643989563,
            0.008925645612180233,
            -0.009950440376996994,
            -0.029374713078141212,
            -0.007497725542634726,
            -0.010764666832983494,
            -0.022780437022447586,
            -0.0244110357016325,
            0.035956788808107376,
            0.009040486067533493,
            0.028892260044813156,
            0.09998919814825058,
            -0.08088458329439163,
            0.03416433557868004,
            0.05843008682131767,
            0.12555277347564697,
            -0.0711272731423378,
            -0.14367058873176575,
            -0.003728169482201338,
            -0.10812979936599731,
            -0.015444530174136162,
            0.0039794426411390305,
            -0.03418038785457611,
            -0.011888580396771431,
            -0.25645118951797485,
            -0.12683025002479553,
            0.057278309017419815,
            0.019608452916145325,
            -0.11055182665586472,
            0.09390609711408615,
            -0.015973933041095734,
            -0.009611032903194427,
            -0.12998099625110626,
            -0.01555406954139471,
            -0.03845958039164543,
            -0.072427898645401,
            -0.022334057837724686,
            0.022176356986165047,
            0.051020484417676926,
            -0.05465569347143173,
            0.01686757430434227,
            0.015426038764417171,
            -0.13740508258342743,
            -0.053512126207351685,
            -0.05237876623868942,
            0.10800985991954803,
            0.023785172030329704,
            -0.010759204626083374,
            -0.0257100909948349,
            0.0051743630319833755,
            0.00969789270311594,
            0.010356470011174679,
            0.01128147728741169,
            0.056639593094587326,
            -0.04954510182142258,
            0.08856562525033951,
            0.03729237988591194,
            0.053104955703020096,
            -0.001649392768740654,
            -0.02713150344789028,
            0.03915319964289665,
            0.3507128655910492,
            -0.024010665714740753,
            0.019808631390333176,
            0.03258576616644859,
            -0.016732189804315567,
            -0.01857547089457512,
            -0.05438500642776489,
            -0.023247789591550827,
            -0.07233735173940659,
            -0.02559651806950569,
            0.027884431183338165,
            -0.01186469104140997,
            -0.10382650047540665,
            0.03581331670284271,
            0.059786535799503326,
            0.03282884880900383,
            -0.04397615045309067,
            -0.12764157354831696,
            -0.06648764759302139,
            -0.048555418848991394,
            0.009496240876615047,
            0.04788462072610855,
            0.0862620547413826,
            0.15590181946754456,
            0.023485010489821434,
            -0.07515794783830643,
            -0.0965200886130333,
            -0.045849017798900604,
            -0.04151322692632675,
            0.041296496987342834,
            0.04412231221795082,
            -0.06807642430067062,
            -0.04294523224234581,
            -0.19320406019687653,
            -0.001344921882264316,
            0.011048122309148312,
            -0.020285045728087425,
            -0.3318350911140442,
            -0.04658785089850426,
            0.05576401576399803,
            0.005653354339301586,
            -0.21239648759365082,
            -0.04416719079017639,
            0.13040412962436676,
            -0.051824018359184265,
            -0.006744322367012501,
            -0.0850568488240242,
            0.012509407475590706
        ],
        [
            -0.14456993341445923,
            0.033065441995859146,
            -0.005194161552935839,
            -0.007771259639412165,
            0.010706075467169285,
            0.05654197186231613,
            -0.05855555087327957,
            0.06381221115589142,
            -0.022789176553487778,
            0.027949076145887375,
            -0.0318494513630867,
            0.00757173728197813,
            0.12728382647037506,
            -0.0016096895560622215,
            -0.037701357156038284,
            0.004005779977887869,
            -0.09487579017877579,
            -0.061813801527023315,
            0.01986628770828247,
            0.006107669323682785,
            -0.0025314544327557087,
            -0.08043993264436722,
            -0.07667973637580872,
            -0.06551144272089005,
            -0.1009688526391983,
            -0.006351749412715435,
            -0.1494138389825821,
            0.013097520917654037,
            -0.00593934953212738,
            0.030161887407302856,
            0.00736577995121479,
            -0.029559550806879997,
            0.04088955745100975,
            0.09391333162784576,
            0.049100153148174286,
            0.006320659536868334,
            -0.09509226679801941,
            -0.0007371975807473063,
            0.060976073145866394,
            -0.041292954236269,
            -0.0005576914409175515,
            -0.0613953061401844,
            0.056468136608600616,
            -0.21245889365673065,
            -0.05295131355524063,
            0.0029546059668064117,
            0.0442793034017086,
            -0.028291210532188416,
            -0.02756381221115589,
            -0.004762927535921335,
            -0.017032677307724953,
            0.0050053223967552185,
            -0.030336719006299973,
            0.007392854895442724,
            0.0009511077078059316,
            -0.009244274348020554,
            0.029461706057190895,
            0.012559778988361359,
            -0.0045881932601332664,
            0.0013942662626504898,
            -0.015113198198378086,
            -0.05750133842229843,
            -0.02894984371960163,
            0.016079485416412354,
            -0.023145223036408424,
            -0.004518464673310518,
            -0.0036750680301338434,
            0.10025962442159653,
            0.049110185354948044,
            -0.012457909993827343,
            -0.09856283664703369,
            -0.01580510102212429,
            -0.08984929323196411,
            -0.00010055616439785808,
            -0.015429354272782803,
            -0.019591491669416428,
            0.05488990619778633,
            0.07422392070293427,
            -0.00636247405782342,
            -0.05954877659678459,
            -0.03474922478199005,
            -0.029101204127073288,
            0.14839883148670197,
            0.07153654098510742,
            -0.003282446414232254,
            0.014602803625166416,
            -0.007298560813069344,
            -0.005725904833525419,
            0.003142542438581586,
            0.003136966610327363,
            0.0007394442800432444,
            -0.03539217635989189,
            0.005916565656661987,
            -0.006112924311310053,
            0.014921455644071102,
            0.024572456255555153,
            -0.008772211149334908,
            -0.01932213269174099,
            -0.012027796357870102,
            0.11358563601970673,
            0.01724613644182682,
            -0.10649951547384262,
            0.005379192065447569,
            -0.01418889407068491,
            0.006217814050614834,
            0.012200962752103806,
            -0.03771866485476494,
            0.020543210208415985,
            -0.006765006110072136,
            0.0022251869086176157,
            -0.019945882260799408,
            -0.03769591450691223,
            0.08978183567523956,
            0.006466621067374945,
            0.00011637686111498624,
            0.049695443361997604,
            -0.022153835743665695,
            0.0747336819767952,
            0.002728649415075779,
            -0.040284305810928345,
            -0.00715629430487752,
            0.005914775654673576,
            0.017464380711317062,
            0.009110357612371445,
            6.026140181347728e-05,
            0.03306926041841507,
            0.024691171944141388,
            0.03872155398130417
        ],
        [
            0.1322321593761444,
            0.029494034126400948,
            -0.049434904009103775,
            -0.010636800900101662,
            0.032782286405563354,
            -0.014979843981564045,
            0.041171845048666,
            -0.020897790789604187,
            0.018386827781796455,
            0.010881993919610977,
            -0.012515769340097904,
            0.03033386915922165,
            -0.003253082511946559,
            -0.0017165237804874778,
            -0.012721511535346508,
            0.004790659993886948,
            -0.023380380123853683,
            0.06555470079183578,
            0.006447230465710163,
            -0.025382263585925102,
            -0.0053503187373280525,
            0.09904064238071442,
            0.04453480616211891,
            -0.007137457374483347,
            -0.05042726919054985,
            0.007888284511864185,
            -0.08477858453989029,
            0.03711698576807976,
            0.13556250929832458,
            0.0005464585847221315,
            -0.026805542409420013,
            0.0012159078614786267,
            -0.10467664897441864,
            -0.03410154581069946,
            -0.0739116445183754,
            -0.03333617001771927,
            -0.05351969599723816,
            0.0035682101733982563,
            0.014483547769486904,
            0.05558527633547783,
            -0.006942759267985821,
            0.029351506382226944,
            -0.0918123722076416,
            -0.16086891293525696,
            -0.028976811096072197,
            0.0061693922616541386,
            -0.01759391278028488,
            0.06363173574209213,
            0.024208666756749153,
            -0.005487677175551653,
            -0.012263013049960136,
            0.07486321032047272,
            -0.005955618340522051,
            0.02015850879251957,
            0.044935449957847595,
            -0.0010364133631810546,
            -0.001019079121761024,
            -0.02477649599313736,
            0.03621351718902588,
            -0.007220289204269648,
            -0.05568401888012886,
            -0.07303106784820557,
            0.011649946682155132,
            0.04230063781142235,
            -0.04918808862566948,
            -0.004199050832539797,
            0.0064626941457390785,
            -0.3478720784187317,
            -0.04501710459589958,
            0.047700606286525726,
            -0.007749921642243862,
            -0.05026420205831528,
            -0.09237032383680344,
            0.020754003897309303,
            0.013771498575806618,
            0.022014491260051727,
            -0.013385667465627193,
            -0.06426317244768143,
            -0.0033772902097553015,
            -0.03882642090320587,
            -0.15337656438350677,
            0.053414810448884964,
            -0.012513497844338417,
            0.08762911707162857,
            0.013171111233532429,
            -0.013076146133244038,
            0.037344176322221756,
            0.027173740789294243,
            0.031670086085796356,
            0.06547902524471283,
            -0.027585407719016075,
            -0.043153006583452225,
            0.08034669607877731,
            0.009914538823068142,
            -0.04145466908812523,
            -0.03227027505636215,
            0.0290239080786705,
            0.06975191086530685,
            -0.004405448213219643,
            0.006887332070618868,
            -0.038655269891023636,
            -0.026598701253533363,
            -0.055968042463064194,
            -0.09047841280698776,
            0.00046486224164254963,
            0.08502783626317978,
            0.01569811813533306,
            0.08546752482652664,
            0.034296512603759766,
            -0.017741091549396515,
            -0.039383985102176666,
            -0.03449198976159096,
            -0.08433318883180618,
            0.05343332886695862,
            0.0007857546443119645,
            0.009398805908858776,
            0.07911723852157593,
            0.28053686022758484,
            0.02779090777039528,
            -0.0008129024063237011,
            0.050826381891965866,
            0.023269860073924065,
            -0.07243907451629639,
            0.16852660477161407,
            0.014356376603245735,
            -0.022053735330700874,
            -0.034325044602155685,
            -0.0056241704151034355
        ],
        [
            0.24586865305900574,
            -0.02065209299325943,
            0.10101081430912018,
            -0.07788986712694168,
            0.052165400236845016,
            -0.07710310816764832,
            0.031439173966646194,
            -0.11921250820159912,
            0.006558023393154144,
            -0.02307143621146679,
            0.04174278676509857,
            -0.0536905862390995,
            -0.10669327527284622,
            -0.058731354773044586,
            -0.011253452859818935,
            0.014417002908885479,
            0.1052229255437851,
            -0.15676084160804749,
            0.01235903799533844,
            0.026304110884666443,
            -0.004803454969078302,
            0.056834906339645386,
            -0.1207004114985466,
            -0.11130664497613907,
            0.3561517000198364,
            -0.011164638213813305,
            0.04434727132320404,
            -0.2959769368171692,
            0.12762248516082764,
            -0.02522764913737774,
            0.008161578327417374,
            0.0226758886128664,
            -0.1084556058049202,
            0.07810185104608536,
            0.009327086620032787,
            -0.013466850854456425,
            0.008911550045013428,
            0.008043291047215462,
            0.26735812425613403,
            -0.11577355116605759,
            0.037782568484544754,
            0.15398024022579193,
            -0.045467622578144073,
            0.2913593053817749,
            0.05698016658425331,
            0.08198680728673935,
            0.11951182782649994,
            -0.043956488370895386,
            0.11957255005836487,
            -0.037059735506772995,
            0.11547643691301346,
            -0.01594001054763794,
            0.133344367146492,
            0.021269194781780243,
            -0.04416550323367119,
            -0.026016121730208397,
            0.11579525470733643,
            -0.03197658434510231,
            -0.011875474825501442,
            -0.018854359164834023,
            0.0881301686167717,
            -0.0776965320110321,
            -0.03137730434536934,
            -0.04935769736766815,
            -0.13932444155216217,
            0.0714637041091919,
            -0.00537162646651268,
            -0.12758295238018036,
            -0.09113220125436783,
            -0.021718451753258705,
            -0.05592251569032669,
            0.031643789261579514,
            0.15054257214069366,
            0.03989042341709137,
            -0.059415750205516815,
            -0.040956150740385056,
            -0.03463166207075119,
            0.013441650196909904,
            -0.023141885176301003,
            0.06803684681653976,
            -0.12380533665418625,
            -0.0006354750948958099,
            -0.002381426515057683,
            -0.06179521232843399,
            -0.015534169040620327,
            -0.002406629268079996,
            0.024769630283117294,
            -0.03424184396862984,
            0.01954495906829834,
            -0.04768487066030502,
            -0.2220449000597,
            -0.2061489224433899,
            1.2182208593003452e-06,
            0.061943184584379196,
            0.03841399773955345,
            0.2595576047897339,
            0.05210775136947632,
            -0.12134327739477158,
            0.10272660851478577,
            -0.017712678760290146,
            -0.13049598038196564,
            0.029628075659275055,
            0.013769515790045261,
            0.2107440084218979,
            -0.024785321205854416,
            -0.00602862611413002,
            0.021569304168224335,
            -0.20660743117332458,
            0.0627560093998909,
            0.03813174366950989,
            0.09206393361091614,
            0.18405459821224213,
            -0.15567225217819214,
            -0.2651965022087097,
            0.001973987789824605,
            0.08442391455173492,
            -0.12423760443925858,
            -0.023154379799962044,
            -0.009150602854788303,
            -0.06257651001214981,
            0.02923562191426754,
            0.01650385744869709,
            0.12808768451213837,
            0.07816089689731598,
            -0.004551596473902464,
            -0.07028497010469437,
            0.11751102656126022,
            0.12320248782634735
        ],
        [
            -0.13629238307476044,
            0.016300709918141365,
            -0.004631080664694309,
            -0.01711590774357319,
            -0.0075537096709012985,
            0.009530131705105305,
            -0.033938392996788025,
            0.11743471771478653,
            0.04842998459935188,
            -0.038765110075473785,
            -0.04495923966169357,
            0.009352147579193115,
            0.1162315234541893,
            0.0069925058633089066,
            -0.055389512330293655,
            0.004061566200107336,
            -0.09167174249887466,
            -0.0629575252532959,
            -0.006315789185464382,
            0.006290636956691742,
            -0.004474510904401541,
            -0.0497942715883255,
            -0.060869600623846054,
            -0.0329858660697937,
            -0.12969310581684113,
            -0.007283004000782967,
            -0.010282879695296288,
            -0.10305249691009521,
            0.04442799463868141,
            0.022940384224057198,
            0.009049867279827595,
            -0.03679037094116211,
            0.036328088492155075,
            0.06360606849193573,
            0.0026790641713887453,
            0.03707292303442955,
            0.020287515595555305,
            -0.004731873515993357,
            -0.05024653300642967,
            0.0043416558764874935,
            0.027288181707262993,
            0.0055777099914848804,
            0.03827931731939316,
            -0.06990019977092743,
            -0.008298391476273537,
            -0.008337799459695816,
            0.017894722521305084,
            -0.028668658807873726,
            -0.060898665338754654,
            -0.005948900710791349,
            0.0006986033986322582,
            0.037615299224853516,
            0.011558680795133114,
            0.011499600484967232,
            -0.029691001400351524,
            -0.01173869427293539,
            0.03914136439561844,
            0.0033499146811664104,
            -0.010558606125414371,
            0.00857201311737299,
            0.0417412705719471,
            -0.007895847782492638,
            -0.007455557119101286,
            0.022978002205491066,
            -0.026989873498678207,
            -0.00468320120126009,
            -0.0054255262948572636,
            0.0925818383693695,
            0.009236070327460766,
            0.01633448526263237,
            -0.03442646190524101,
            -0.06635981798171997,
            -0.04591301828622818,
            -0.011913814581930637,
            -0.032252322882413864,
            -0.03817107900977135,
            0.09710758179426193,
            0.03095230832695961,
            -0.010187657549977303,
            0.033514849841594696,
            0.039575960487127304,
            -0.03530097380280495,
            0.10424347221851349,
            0.06675189733505249,
            -0.0036907237954437733,
            0.03783901408314705,
            0.00792171061038971,
            -0.005539855919778347,
            0.020279115065932274,
            -0.01798943430185318,
            -0.016946379095315933,
            -0.05931149050593376,
            -0.004729824140667915,
            -0.00867659505456686,
            -0.00878075696527958,
            0.012662043794989586,
            0.008479883894324303,
            -0.05464314669370651,
            0.07476212084293365,
            0.09799301624298096,
            0.051865339279174805,
            -0.011219347827136517,
            -0.005231024231761694,
            -0.012552469037473202,
            -0.004956443328410387,
            -0.027066545560956,
            0.0020855721086263657,
            0.002000239444896579,
            -0.0031095955055207014,
            -0.0032611950300633907,
            -0.01497681625187397,
            0.05233803018927574,
            0.06335339695215225,
            0.07872340828180313,
            -0.00034057762240990996,
            0.01772836223244667,
            -0.002741158241406083,
            -0.08143610507249832,
            -0.0023746059741824865,
            -0.060620393604040146,
            0.036841265857219696,
            -0.05077202245593071,
            0.01039108820259571,
            0.0629114955663681,
            0.002611858304589987,
            0.03202972933650017,
            -0.009191952645778656,
            0.07433445751667023
        ],
        [
            -0.17124679684638977,
            -0.013067013584077358,
            -0.0023878193460404873,
            0.032027505338191986,
            -0.010324887000024319,
            0.011249016039073467,
            -0.037486232817173004,
            -0.0077111851423978806,
            0.007640533149242401,
            0.0649787113070488,
            -0.03774052485823631,
            0.01421306747943163,
            0.0287342332303524,
            0.016996681690216064,
            -0.009027491323649883,
            -0.003983607515692711,
            0.12656942009925842,
            0.04673793539404869,
            0.04621288180351257,
            -0.0009174562874250114,
            -0.0006687826244160533,
            0.020908178761601448,
            0.07305513322353363,
            0.05571112409234047,
            -0.23012520372867584,
            0.009739984758198261,
            0.01458888128399849,
            0.19879212975502014,
            -0.1235937625169754,
            0.04125576466321945,
            -0.023970697075128555,
            -0.0003130678669549525,
            -0.01138643641024828,
            -0.04998718574643135,
            0.02545507811009884,
            0.039225976914167404,
            -0.04409589618444443,
            -0.0013936181785538793,
            -0.017284857109189034,
            0.03789201006293297,
            -0.03728606179356575,
            -0.09268047660589218,
            0.0259034875780344,
            -0.06680160760879517,
            0.05108019709587097,
            -0.04263940826058388,
            -0.07606606185436249,
            -0.02317587099969387,
            -0.05974995717406273,
            0.011234467849135399,
            -0.10070374608039856,
            -0.0032088947482407093,
            -0.07885697484016418,
            -0.0021476929541677237,
            0.029363149777054787,
            0.0061236280016601086,
            -0.08481955528259277,
            0.0026236223056912422,
            -0.005133706610649824,
            -0.003680725349113345,
            -0.06531442701816559,
            -0.01124698854982853,
            -0.021002331748604774,
            0.04820474982261658,
            0.04290590062737465,
            -0.020053813233971596,
            -0.00280429283156991,
            -0.06230266019701958,
            0.07769118994474411,
            0.02458176203072071,
            0.09754320234060287,
            0.012812215834856033,
            -0.12557600438594818,
            0.0094457333907485,
            0.00016660490655340254,
            0.001479336991906166,
            0.008064326830208302,
            -0.016843855381011963,
            0.03160889074206352,
            -0.03147752210497856,
            0.06136369705200195,
            0.024850154295563698,
            0.04681173712015152,
            0.03130370005965233,
            0.00354633666574955,
            -0.00918847881257534,
            0.022273294627666473,
            -0.0017038729274645448,
            0.00668919226154685,
            0.02800932712852955,
            0.09896855801343918,
            0.046855490654706955,
            -0.008932766504585743,
            -0.02655431441962719,
            -0.007606759667396545,
            -0.06572923809289932,
            -0.012962019070982933,
            -0.035050299018621445,
            -0.012282987125217915,
            0.01636919192969799,
            0.041255757212638855,
            0.07835507392883301,
            0.005823846440762281,
            -0.10995323210954666,
            0.0027695728931576014,
            0.05525185540318489,
            0.029255690053105354,
            0.14803266525268555,
            -0.009959083050489426,
            -0.014344765804708004,
            -0.02161751128733158,
            -0.08084605634212494,
            0.005543150473386049,
            0.008229392580688,
            0.0012960294261574745,
            -0.04139018803834915,
            0.031895142048597336,
            0.032613951712846756,
            0.015532828867435455,
            0.08691387623548508,
            -0.00857766717672348,
            0.008330222219228745,
            -0.15873341262340546,
            -0.001667233882471919,
            0.003288864390924573,
            -0.044928405433893204,
            0.02806168794631958,
            -0.04129863157868385
        ],
        [
            0.02865326590836048,
            -0.019051063805818558,
            -0.02985040843486786,
            0.03785911947488785,
            0.02881503477692604,
            -0.007636225316673517,
            -0.03619535267353058,
            0.036420464515686035,
            -0.14644168317317963,
            0.03519650921225548,
            -0.01611035130918026,
            0.00014491415640804917,
            0.0197948906570673,
            -0.005224905908107758,
            0.03996790200471878,
            0.004404913634061813,
            -0.04051278904080391,
            -0.043639253824949265,
            0.08949965238571167,
            -0.01080811582505703,
            -0.005886280443519354,
            -0.007199205923825502,
            0.03227904438972473,
            0.005802721716463566,
            -0.09395920485258102,
            0.014283631928265095,
            0.026077114045619965,
            0.03915503993630409,
            0.07617825269699097,
            0.021681971848011017,
            0.041241105645895004,
            0.11204198002815247,
            0.005679863505065441,
            -0.0028008560184389353,
            0.02769099920988083,
            0.08849889039993286,
            -0.14178527891635895,
            -0.012754080817103386,
            -0.037824783474206924,
            0.04421927034854889,
            -0.011833437718451023,
            -0.02980154938995838,
            0.03504002466797829,
            0.03666376322507858,
            0.027758091688156128,
            -0.014299686066806316,
            -0.02238401770591736,
            0.029485609382390976,
            0.05594959482550621,
            0.001387064578011632,
            -0.0070520201697945595,
            0.003330555045977235,
            0.04219726845622063,
            0.01853388361632824,
            0.0027189895045012236,
            0.0025400531012564898,
            -0.03867655619978905,
            -0.016425231471657753,
            0.0029938940424472094,
            -0.009218094870448112,
            0.013691267929971218,
            0.008644175715744495,
            -0.032202307134866714,
            -0.05431218817830086,
            0.00556901516392827,
            -0.026718351989984512,
            0.0016932102153077722,
            -0.03409827500581741,
            0.07248427718877792,
            -0.031978726387023926,
            0.04668884351849556,
            -0.07367240637540817,
            -0.008401939645409584,
            0.03229888901114464,
            0.10267610847949982,
            0.10094397515058517,
            0.031612567603588104,
            0.016396155580878258,
            0.006852099671959877,
            -0.030788851901888847,
            0.04464364051818848,
            -0.012352208606898785,
            -0.06791171431541443,
            -0.01470982376486063,
            0.0011883453698828816,
            0.006001560017466545,
            0.04315881431102753,
            0.018636321648955345,
            -0.006168060936033726,
            -0.1286790817975998,
            -0.026542680338025093,
            -0.02417493797838688,
            0.004727395251393318,
            0.00851309671998024,
            -0.029850339516997337,
            0.02822715975344181,
            -0.012866860255599022,
            -0.024370236322283745,
            -0.021539216861128807,
            -0.06638217717409134,
            0.006495234090834856,
            0.041855812072753906,
            -0.014566336758434772,
            -0.09503142535686493,
            -0.011217626743018627,
            0.0011335347080603242,
            0.02326149120926857,
            -0.052696503698825836,
            0.0135933393612504,
            0.008378465659916401,
            -0.005467586684972048,
            0.029591217637062073,
            -0.0339740626513958,
            0.0382949598133564,
            0.0015209089033305645,
            -0.009093275293707848,
            -0.04443266615271568,
            0.00148132408503443,
            0.014057036489248276,
            -0.07216919213533401,
            -0.016328981146216393,
            -0.040722426027059555,
            -0.042493026703596115,
            -0.2876320779323578,
            -0.02829943224787712,
            -0.03791157901287079,
            0.0501575842499733,
            0.0034516556188464165
        ],
        [
            -0.003971078898757696,
            -0.01345605868846178,
            -0.05894606187939644,
            0.0320962555706501,
            -0.0050132698379457,
            0.08374709635972977,
            0.019282570108771324,
            0.09251447021961212,
            0.06489969789981842,
            0.06810777634382248,
            -0.09958332031965256,
            0.01070639118552208,
            0.028940999880433083,
            -0.007196090184152126,
            -0.058466773480176926,
            0.001220643287524581,
            -0.08080266416072845,
            -0.01881805621087551,
            0.018672626465559006,
            -0.011947226710617542,
            -0.005292645189911127,
            -0.09293129295110703,
            0.01736588403582573,
            -0.019196834415197372,
            -0.10140854120254517,
            0.0019630768802016973,
            -0.05399066582322121,
            0.06884501874446869,
            0.05799940600991249,
            0.0011930398177355528,
            0.04651534557342529,
            -0.04996771365404129,
            0.024312863126397133,
            0.027923887595534325,
            -0.005283711478114128,
            0.10518749058246613,
            0.0474233441054821,
            -0.023042794317007065,
            -0.11243884265422821,
            0.01904713734984398,
            -0.009378794580698013,
            -0.005665049888193607,
            0.07581347972154617,
            -0.018206937238574028,
            -0.010555606335401535,
            -0.026614362373948097,
            -0.0572713240981102,
            0.043564438819885254,
            -0.039797428995370865,
            0.010942550376057625,
            -0.04725978150963783,
            -0.011015841737389565,
            -0.07310538738965988,
            0.013352934271097183,
            0.02979147434234619,
            0.0025126358959823847,
            -0.023490462452173233,
            -0.005116625223308802,
            -0.000690339773427695,
            0.011369174346327782,
            -0.03186239302158356,
            -0.002618158236145973,
            0.0007460094639100134,
            -0.0275098979473114,
            -0.020385710522532463,
            -0.04949532076716423,
            0.0018021720461547375,
            0.014932841993868351,
            0.10675472021102905,
            0.027883119881153107,
            -0.002820480614900589,
            -0.10352977365255356,
            -0.03202563151717186,
            -0.015966050326824188,
            -0.01674109324812889,
            0.002006041817367077,
            0.053633563220500946,
            0.06478402763605118,
            -0.004792972933501005,
            0.025292249396443367,
            0.05302019417285919,
            -0.024765213951468468,
            0.03980669379234314,
            -0.0026219484861940145,
            0.00035317050060257316,
            0.03226766735315323,
            -0.01765068806707859,
            0.02005094662308693,
            -0.022500943392515182,
            -0.04404354840517044,
            0.08360927551984787,
            0.0691634938120842,
            -0.02488134428858757,
            -0.03674324229359627,
            -0.04386339336633682,
            -0.0404244065284729,
            -0.038028568029403687,
            0.050234753638505936,
            0.00569332018494606,
            -0.08039690554141998,
            0.023579096421599388,
            0.05670856684446335,
            -0.013657650910317898,
            -0.09481952339410782,
            -0.008907067589461803,
            -0.041297875344753265,
            -0.042336441576480865,
            0.12944389879703522,
            -0.02849617600440979,
            -0.002930724760517478,
            -0.06581403315067291,
            -0.02803565375506878,
            0.08942864090204239,
            0.06207358092069626,
            -9.285064152209088e-05,
            -0.05250672996044159,
            0.07147464156150818,
            0.03563302010297775,
            0.001107501215301454,
            -0.0163120049983263,
            -0.04726686701178551,
            -0.03186668083071709,
            -0.09099113941192627,
            0.06980346143245697,
            -0.013856320641934872,
            0.004958925768733025,
            -0.06429297477006912,
            0.008633757010102272
        ],
        [
            -0.004973222967237234,
            0.01707751676440239,
            -0.05795298516750336,
            -0.03934498503804207,
            -0.004575524944812059,
            0.023378580808639526,
            0.032920997589826584,
            0.02902328036725521,
            -0.04439953342080116,
            -0.03727620467543602,
            -0.0324447825551033,
            0.028808418661355972,
            0.025627655908465385,
            0.009100886061787605,
            -0.0011235550045967102,
            -0.0002480522380210459,
            -0.0658099427819252,
            0.00945109874010086,
            -0.011430535465478897,
            -0.01513654738664627,
            -0.0026150643825531006,
            0.011019743978977203,
            0.0007902453071437776,
            0.0289615448564291,
            0.016849173232913017,
            0.010298313573002815,
            0.035609737038612366,
            -0.00043042609468102455,
            0.08355184644460678,
            -0.0249758493155241,
            -0.038185879588127136,
            -0.01854742132127285,
            -0.0019772762898355722,
            -0.009318441152572632,
            -0.009220290929079056,
            -0.02085277996957302,
            0.025709163397550583,
            -0.011403704062104225,
            -0.03766648843884468,
            0.013465226627886295,
            -0.004842317197471857,
            0.05273653194308281,
            -0.05548090860247612,
            0.11787587404251099,
            -0.14032980799674988,
            -0.029507635161280632,
            0.04423936828970909,
            0.03558634966611862,
            -0.05917391926050186,
            0.0034808909986168146,
            0.014882714487612247,
            0.0619051456451416,
            0.051076740026474,
            0.028150346130132675,
            0.015506907366216183,
            0.0069630444049835205,
            -0.0031758525874465704,
            -0.025474146008491516,
            -0.007793795317411423,
            -0.0020183920860290527,
            0.07642996311187744,
            0.05560969561338425,
            0.024314679205417633,
            0.03768383711576462,
            0.0064032659865915775,
            -0.026048464700579643,
            -0.002380025340244174,
            0.03130192682147026,
            -0.024592824280261993,
            0.01063019409775734,
            -0.019347453489899635,
            -0.03481019660830498,
            0.006696685682982206,
            0.01353542786091566,
            -0.00903149601072073,
            -0.007436273153871298,
            -0.011245748959481716,
            -0.04286898672580719,
            0.01952551119029522,
            0.048090528696775436,
            -0.08062956482172012,
            0.013813203200697899,
            -0.04525940120220184,
            -0.09663496911525726,
            0.0013179004890844226,
            0.02286113239824772,
            0.04296557232737541,
            0.02992001734673977,
            0.036431122571229935,
            0.0009468195494264364,
            -0.019123584032058716,
            0.001040569506585598,
            0.03650206699967384,
            0.0027593555860221386,
            -0.022259486839175224,
            -0.026990506798028946,
            0.026634011417627335,
            0.020885758101940155,
            0.010147334076464176,
            0.024816222488880157,
            -0.009856462478637695,
            -0.03172990307211876,
            -0.03959494084119797,
            0.022929247468709946,
            -0.017072981223464012,
            0.021162763237953186,
            0.023076200857758522,
            -0.016740450635552406,
            0.01741986908018589,
            -0.017412059009075165,
            0.013482696376740932,
            0.03563697263598442,
            -0.015439964830875397,
            0.0797499343752861,
            -4.273232116247527e-05,
            -0.029523782432079315,
            0.03788912668824196,
            0.03421847149729729,
            0.01506047323346138,
            -0.02780230902135372,
            -0.013241375796496868,
            0.03991825506091118,
            0.03423663601279259,
            -0.01800336316227913,
            0.021761078387498856,
            0.00855328794568777,
            -0.009530264884233475,
            -0.012895201332867146
        ],
        [
            -0.05152266100049019,
