{
    "_metadata": {
        "best_epoch": 1477,
        "epoch": 1477,
        "loss_validation": 0.0917000025510788,
        "rms_validation": 0.2721000015735626,
        "rms_validation_descaled": 0.06459999829530716
    },
    "feature_max": {
        "An": 5.999999758967929,
        "Ate": 13.999999599488868,
        "Ati": 14.000000439129064,
        "Ti_Te": 2.5000000374233484,
        "Zeff": 3.0,
        "logNustar": -0.0002938165118950194,
        "q": 14.999999753171439,
        "smag": 4.999999911866932,
        "x": 0.9899999980229205
    },
    "feature_min": {
        "An": -4.999999638451895,
        "Ate": 2.0,
        "Ati": 2.0000001463763546,
        "Ti_Te": 0.25000001871167427,
        "Zeff": 1.0,
        "logNustar": -5.000293714279288,
        "q": 0.6600000740485684,
        "smag": -0.9999999118669325,
        "x": 0.0900000177937151
    },
    "feature_names": [
        "Zeff",
        "Ati",
        "Ate",
        "An",
        "q",
        "smag",
        "x",
        "Ti_Te",
        "logNustar"
    ],
    "hidden_activation": [
        "tanh",
        "tanh",
        "tanh"
    ],
    "layer1/biases/Variable:0": [
        0.3967220187187195,
        -0.045652005821466446,
        0.15845869481563568,
        -0.6833884119987488,
        0.4350338876247406,
        0.2305142730474472,
        -0.7944261431694031,
        -0.12524385750293732,
        -0.14969012141227722,
        -0.19094564020633698,
        -0.10559097677469254,
        0.4701032340526581,
        -0.7867876887321472,
        0.33759957551956177,
        0.7889540791511536,
        -0.42937177419662476,
        0.4412607252597809,
        -0.2315448671579361,
        3.714228391647339,
        -1.0399701595306396,
        1.5845547914505005,
        -1.5474177598953247,
        -0.11630698293447495,
        0.5583347678184509,
        0.739494264125824,
        1.43865168094635,
        -1.8692914247512817,
        0.6317183375358582,
        -0.18213321268558502,
        0.27678537368774414,
        -1.0835078954696655,
        2.211862802505493,
        0.12515775859355927,
        0.7515918016433716,
        -1.439439296722412,
        -0.7076287269592285,
        0.6721915602684021,
        -0.7898995280265808,
        0.5548923015594482,
        0.4635603427886963,
        -1.831290602684021,
        -0.6697487831115723,
        -0.6942851543426514,
        -0.6117887496948242,
        0.13607993721961975,
        -0.08692574501037598,
        0.46563559770584106,
        -1.9316534996032715,
        0.8958839774131775,
        -1.5710570812225342,
        0.20501969754695892,
        -0.6556107401847839,
        -1.1006380319595337,
        1.6924521923065186,
        -0.5981142520904541,
        -0.0068279895931482315,
        0.002704304177314043,
        0.9921030402183533,
        -0.17764708399772644,
        0.2771197259426117,
        -0.7849798798561096,
        -1.419956922531128,
        0.8108404874801636,
        0.40256574749946594,
        1.1545565128326416,
        -0.05724617838859558,
        -0.9814013242721558,
        0.1605806052684784,
        -0.30268964171409607,
        0.8509462475776672,
        0.4909059405326843,
        -0.691600501537323,
        -0.7492345571517944,
        -0.21574395895004272,
        -0.19774535298347473,
        -0.5966699719429016,
        -1.4303388595581055,
        -0.9381489157676697,
        -0.33616891503334045,
        0.29728272557258606,
        0.09575790911912918,
        -0.7708491683006287,
        0.2665691077709198,
        1.6193342208862305,
        0.37327173352241516,
        -0.14833615720272064,
        -0.11097661405801773,
        0.12003331631422043,
        0.13989633321762085,
        1.2162599563598633,
        0.9870125651359558,
        0.32866325974464417,
        -1.0562940835952759,
        1.2066354751586914,
        0.5509335398674011,
        -0.325264036655426,
        0.4172935485839844,
        2.5477826595306396,
        2.3110475540161133,
        -1.4158271551132202,
        2.6927947998046875,
        -1.636335015296936,
        -1.863714337348938,
        -0.11747400462627411,
        -0.035581182688474655,
        1.4353313446044922,
        0.21804027259349823,
        -1.0019901990890503,
        0.21038182079792023,
        -2.087679862976074,
        -0.6825946569442749,
        1.6006271839141846,
        -1.2434711456298828,
        -0.1701650619506836,
        0.8070915937423706,
        -1.7960178852081299,
        0.23566173017024994,
        -0.20177392661571503,
        0.49084538221359253,
        -0.6740157008171082,
        -1.309293270111084,
        -0.5047196745872498,
        0.5863302946090698,
        0.27089232206344604,
        0.3153386116027832,
        0.19731533527374268,
        -1.2257322072982788,
        -0.18182601034641266
    ],
    "layer1/weights/Variable:0": [
        [
            0.24831195175647736,
            0.18620695173740387,
            0.03565949574112892,
            0.057145386934280396,
            -0.21065731346607208,
            0.0678902268409729,
            -0.1518339216709137,
            -0.0738801434636116,
            -0.022926537320017815,
            0.03436051681637764,
            0.02177460864186287,
            -0.036520157009363174,
            0.0028288208413869143,
            0.04607098922133446,
            -0.19805176556110382,
            -0.12226910889148712,
            -0.023007797077298164,
            0.012279456481337547,
            0.0001544770784676075,
            0.11141825467348099,
            0.0067092012614011765,
            -0.43191030621528625,
            0.20601706206798553,
            -0.06500327587127686,
            -0.1253676563501358,
            0.025207849219441414,
            -0.08503755182027817,
            0.04029862582683563,
            -0.28233569860458374,
            -0.03291181102395058,
            0.04792121797800064,
            0.07434596866369247,
            -0.009356305934488773,
            0.05433042347431183,
            0.1155778095126152,
            -0.1960248053073883,
            0.2695677578449249,
            0.035611435770988464,
            0.1660710573196411,
            0.04828667640686035,
            -0.05712789669632912,
            0.16335994005203247,
            0.13575546443462372,
            0.08288195729255676,
            -0.18725109100341797,
            -0.030584750697016716,
            -0.4480949640274048,
            -0.12798930704593658,
            0.18664081394672394,
            0.01820668764412403,
            -0.24132224917411804,
            -0.40064674615859985,
            -0.03536861017346382,
            0.3362669348716736,
            0.17399504780769348,
            -0.19301991164684296,
            -0.327097088098526,
            -0.09782873839139938,
            -0.034789375960826874,
            0.19499126076698303,
            -0.057044364511966705,
            -0.18495561182498932,
            -0.1825110763311386,
            0.05614522099494934,
            0.016229897737503052,
            0.2540966868400574,
            0.16596317291259766,
            -0.14258165657520294,
            -0.05291726812720299,
            -0.14865806698799133,
            -0.44548991322517395,
            -0.062200795859098434,
            -0.22120828926563263,
            -0.003921555355191231,
            0.05989950895309448,
            -0.06033511087298393,
            0.019992411136627197,
            -0.21422000229358673,
            -0.0879678726196289,
            0.1219911277294159,
            0.4632425010204315,
            0.0648171603679657,
            0.1508369892835617,
            0.30771753191947937,
            -0.1822851449251175,
            0.04822097718715668,
            -0.028899449855089188,
            -0.4590449333190918,
            -0.1445557326078415,
            0.012712686322629452,
            -0.4409708082675934,
            0.1383080780506134,
            -0.015088837593793869,
            0.017446396872401237,
            0.008290362544357777,
            0.16200537979602814,
            -0.09577999264001846,
            0.003326172474771738,
            -0.04479711502790451,
            0.03949762508273125,
            0.4238561689853668,
            0.0058379340916872025,
            -0.16281604766845703,
            -0.11455366760492325,
            0.04352682828903198,
            -0.056985415518283844,
            -0.1610453873872757,
            -0.030374350026249886,
            0.10038131475448608,
            0.16876497864723206,
            -0.07804250717163086,
            -0.027403295040130615,
            -0.08590740710496902,
            0.45084384083747864,
            -0.07371463626623154,
            -0.49722158908843994,
            0.07072503864765167,
            -0.48709404468536377,
            -0.04041468724608421,
            0.26804760098457336,
            -0.0736328512430191,
            0.01605643890798092,
            0.023824846372008324,
            0.003974725492298603,
            -0.11288529634475708,
            0.05522837117314339,
            -0.30829304456710815,
            -0.2780897915363312
        ],
        [
            -0.8849419951438904,
            -0.042604606598615646,
            0.01073447521775961,
            -0.0020214433316141367,
            -0.2389962524175644,
            -0.3303295075893402,
            0.2957524359226227,
            -0.4635756313800812,
            -0.5698983669281006,
            0.34379005432128906,
            0.09985730797052383,
            0.010450036264955997,
            -0.1239839643239975,
            -0.16939781606197357,
            -0.022665616124868393,
            0.12315540015697479,
            -0.13584965467453003,
            0.3774716854095459,
            0.0006051502423360944,
            0.04214316979050636,
            0.08251876384019852,
            0.37255334854125977,
            -0.13850393891334534,
            -0.038436159491539,
            0.011783018708229065,
            0.5241268873214722,
            -0.11403883248567581,
            0.0663767009973526,
            0.42219382524490356,
            -0.06563012301921844,
            0.08691038936376572,
            -0.050495561212301254,
            -0.043633267283439636,
            -0.4361327588558197,
            0.11813074350357056,
            0.34583738446235657,
            -0.3528572916984558,
            -0.28144440054893494,
            -0.11903722584247589,
            -0.08254369348287582,
            0.053192462772130966,
            -0.1888902187347412,
            -0.22174447774887085,
            -0.07078400254249573,
            -0.15853077173233032,
            0.18304727971553802,
            -0.08754543960094452,
            -0.05801064521074295,
            -0.10211940854787827,
            -0.009777517057955265,
            0.14075259864330292,
            0.3043995797634125,
            0.4013834595680237,
            -0.45689648389816284,
            0.2535644769668579,
            0.39358851313591003,
            0.11655154079198837,
            0.2943625748157501,
            0.10424703359603882,
            0.1000785306096077,
            0.010492830537259579,
            0.18487496674060822,
            0.2939581871032715,
            0.2523736357688904,
            0.014961891807615757,
            0.33914095163345337,
            -0.01673811674118042,
            -0.10909509658813477,
            -0.0274982787668705,
            -0.01863321289420128,
            -0.18522167205810547,
            0.005194429773837328,
            0.261135458946228,
            -0.09907025843858719,
            -0.20549431443214417,
            0.12516717612743378,
            -0.2216683179140091,
            -0.7606386542320251,
            0.12802854180335999,
            0.022377604618668556,
            -0.4454367458820343,
            -0.2532585859298706,
            0.21353498101234436,
            0.024751968681812286,
            -0.3104622960090637,
            -0.1375633031129837,
            0.06897992640733719,
            0.15575331449508667,
            -0.19684047996997833,
            0.009767739102244377,
            0.11334621161222458,
            -0.12184146791696548,
            0.2632390558719635,
            -0.18848180770874023,
            -0.4930584728717804,
            -0.0663231611251831,
            -0.06830284744501114,
            0.003691342193633318,
            0.061256926506757736,
            0.08419106900691986,
            -0.25192534923553467,
            0.006722732447087765,
            0.17179732024669647,
            0.4890281856060028,
            -0.1576322317123413,
            -0.15076954662799835,
            0.21465885639190674,
            0.13876350224018097,
            -0.01962084136903286,
            0.14073097705841064,
            0.162767231464386,
            -0.018638387322425842,
            -0.06159002333879471,
            -0.18776127696037292,
            0.08612106740474701,
            0.22602719068527222,
            -0.1339002549648285,
            -0.08329040557146072,
            0.5237873196601868,
            -0.39485111832618713,
            -0.05787109583616257,
            0.16770987212657928,
            0.36739176511764526,
            -0.15733662247657776,
            -0.07768847793340683,
            -0.24433784186840057,
            0.06842471659183502,
            0.23967939615249634
        ],
        [
            0.5522926449775696,
            -0.34345701336860657,
            0.023667756468057632,
            0.29229381680488586,
            -0.3951774537563324,
            0.00969983171671629,
            0.10098110139369965,
            -0.012133135460317135,
            0.17230744659900665,
            -0.0628633201122284,
            0.2044118195772171,
            0.22749531269073486,
            0.09302074462175369,
            -0.017825834453105927,
            -0.14902041852474213,
            -0.0029530965257436037,
            -0.38414061069488525,
            -0.08550631999969482,
            0.0004623588756658137,
            -0.24548839032649994,
            0.013760275207459927,
            -0.6079360246658325,
            0.08166716992855072,
            -0.1516277939081192,
            -0.31531503796577454,
            0.836966335773468,
            0.10432475060224533,
            0.47424331307411194,
            -0.3505480885505676,
            0.5748869180679321,
            -0.034087322652339935,
            0.05656664818525314,
            -0.6755848526954651,
            0.505241870880127,
            -0.2160562425851822,
            0.12079443782567978,
            -0.19661052525043488,
            -0.4248771667480469,
            0.2051171064376831,
            0.027331719174981117,
            0.04508930817246437,
            -0.08057227730751038,
            -0.34010764956474304,
            -0.16791915893554688,
            0.5513895153999329,
            0.14891421794891357,
            -0.22438713908195496,
            -0.26936036348342896,
            -0.1315360963344574,
            0.19285422563552856,
            -0.11785880476236343,
            -0.039869632571935654,
            -0.5590324401855469,
            0.6483290791511536,
            -0.24216045439243317,
            -0.05677696317434311,
            0.2552613615989685,
            -0.026147587224841118,
            -0.13546153903007507,
            0.2059452384710312,
            -0.01192785706371069,
            -0.08536161482334137,
            0.07354233413934708,
            0.16010522842407227,
            -0.3123759925365448,
            -0.31929269433021545,
            0.05290466547012329,
            0.42781758308410645,
            0.22502835094928741,
            0.04262577369809151,
            -0.09133593738079071,
            -0.06594265252351761,
            0.348682701587677,
            0.05862259864807129,
            -0.08740358799695969,
            -0.5777314901351929,
            0.06291782855987549,
            0.32016488909721375,
            -0.29743319749832153,
            0.4864414930343628,
            0.14342649281024933,
            0.3403170704841614,
            -0.09229344874620438,
            -0.18254885077476501,
            0.31344640254974365,
            -0.08073762059211731,
            0.04010264202952385,
            -0.23400983214378357,
            0.2375253587961197,
            0.07071303576231003,
            0.07641206681728363,
            -0.40588101744651794,
            -0.12935876846313477,
            -0.19958704710006714,
            0.8899567723274231,
            -0.11771605908870697,
            -0.1937192678451538,
            0.003143603214994073,
            1.328782558441162,
            -0.6977899670600891,
            0.24878157675266266,
            -0.12764115631580353,
            0.0736704096198082,
            0.3053909242153168,
            1.0117782354354858,
            0.8391231894493103,
            0.3907427489757538,
            -0.2933678925037384,
            0.42077603936195374,
            0.0554259791970253,
            -0.50815349817276,
            -0.014413595199584961,
            -0.719957172870636,
            -0.044163718819618225,
            0.7031271457672119,
            -0.49059340357780457,
            0.45499926805496216,
            -0.2673025131225586,
            0.2275114357471466,
            -0.09151166677474976,
            0.4018475115299225,
            -0.12190978974103928,
            0.060700029134750366,
            -0.7460373640060425,
            -0.45287105441093445,
            0.0211380235850811,
            -0.01665283553302288,
            0.04213262349367142
        ],
        [
            -0.09427502751350403,
            -0.34599769115448,
            0.24864144623279572,
            -0.255607008934021,
            0.1588805764913559,
            0.07395457476377487,
            -0.6054102182388306,
            0.5094493627548218,
            0.43027743697166443,
            0.5575393438339233,
            -0.20270708203315735,
            -0.10880598425865173,
            0.023942355066537857,
            -0.15257097780704498,
            -0.16923244297504425,
            -0.7856449484825134,
            -0.011907334439456463,
            -0.31998783349990845,
            0.00035537179792299867,
            -0.7750282883644104,
            0.11472388356924057,
            0.24633562564849854,
            0.38801175355911255,
            0.17757965624332428,
            -0.11232197284698486,
            0.07139258086681366,
            0.0885968804359436,
            0.23645594716072083,
            -0.33950793743133545,
            -0.22132357954978943,
            -0.08276742696762085,
            0.3987402617931366,
            0.011147561483085155,
            -0.16198566555976868,
            -0.3067827820777893,
            -0.22111450135707855,
            0.19593778252601624,
            0.29192355275154114,
            -0.15100601315498352,
            0.6753727197647095,
            -0.037920717149972916,
            -0.0475257933139801,
            -0.19062142074108124,
            -0.3394959568977356,
            -0.43647581338882446,
            -0.7845960259437561,
            -0.12109903246164322,
            -0.8762319684028625,
            0.4561542272567749,
            0.1080409362912178,
            -0.34748196601867676,
            0.22768932580947876,
            0.630832314491272,
            -0.19638985395431519,
            -0.16146107017993927,
            -0.8917474746704102,
            -0.04694978520274162,
            0.7821962833404541,
            0.0005110014462843537,
            0.25204139947891235,
            -0.20715437829494476,
            0.2148539423942566,
            -0.5428498983383179,
            -0.20026545226573944,
            -0.25699326395988464,
            -0.11867192387580872,
            0.08958559483289719,
            -0.6184254288673401,
            -0.20780308544635773,
            -0.10984552651643753,
            -0.2646603286266327,
            0.22045528888702393,
            -0.5343422889709473,
            -0.7210147976875305,
            0.45578500628471375,
            -0.1304370015859604,
            -0.8832759857177734,
            -0.18387308716773987,
            0.010564900934696198,
            -1.102597951889038,
            0.2791319787502289,
            -0.11489472538232803,
            0.5716630816459656,
            0.06772185862064362,
            0.2241830825805664,
            0.3041532039642334,
            -0.5054932832717896,
            0.18230018019676208,
            0.2930125594139099,
            -0.4829304814338684,
            -0.10579592734575272,
            1.2206335067749023,
            -0.44768327474594116,
            0.16252252459526062,
            -0.11603929102420807,
            -0.04873131960630417,
            0.7866384387016296,
            0.003253982402384281,
            0.24607430398464203,
            -0.565880298614502,
            -0.052221354097127914,
            -0.2261485755443573,
            -0.8916963934898376,
            0.4918380081653595,
            -0.4543974995613098,
            0.8031696081161499,
            0.036490168422460556,
            -0.3529382646083832,
            -0.23516875505447388,
            -0.003346653189510107,
            -0.15885663032531738,
            -0.18493320047855377,
            -0.05083141475915909,
            0.04208161681890488,
            0.08961520344018936,
            0.38313010334968567,
            0.2798846662044525,
            -0.044045522809028625,
            -0.4515678584575653,
            -0.2879776358604431,
            -0.15903890132904053,
            0.8841923475265503,
            0.31990575790405273,
            1.1911731958389282,
            -0.3128470480442047,
            0.33939266204833984,
            -0.08944739401340485,
            -0.05841522291302681
        ],
        [
            0.03262260556221008,
            -0.12014380097389221,
            -0.04297182336449623,
            -0.09326811879873276,
            -0.10502197593450546,
            -0.048592064529657364,
            -0.0682578831911087,
            -0.032691776752471924,
            -0.14887937903404236,
            -0.003295141039416194,
            -0.018217839300632477,
            -0.1725873202085495,
            -0.24672956764698029,
            0.2699999511241913,
            0.06701351702213287,
            -0.09426403790712357,
            -0.04406140372157097,
            0.10542143881320953,
            0.001164587214589119,
            -0.18127000331878662,
            0.05093501880764961,
            -0.044749848544597626,
            0.026375629007816315,
            -0.12418552488088608,
            -0.13048289716243744,
            0.009509054943919182,
            0.01134383026510477,
            1.0229936838150024,
            -0.07677773386240005,
            0.33749625086784363,
            0.14818552136421204,
            -0.05668029189109802,
            -0.10520920902490616,
            -0.08446593582630157,
            0.17025403678417206,
            0.07029105722904205,
            -0.1374359279870987,
            0.1181550920009613,
            0.0037187449634075165,
            -0.03817310184240341,
            0.020821504294872284,
            -0.8245792388916016,
            -0.06416607648134232,
            -0.015090708620846272,
            0.06445527076721191,
            0.10795404762029648,
            -0.04284339398145676,
            -0.02217237651348114,
            0.2099398523569107,
            -0.11088668555021286,
            -0.10662002116441727,
            0.05125785246491432,
            -0.12748907506465912,
            -0.08888793736696243,
            -0.05753696709871292,
            0.03891991823911667,
            -0.05061539635062218,
            0.013332691043615341,
            0.029164135456085205,
            -0.28962042927742004,
            0.17078673839569092,
            -0.023205168545246124,
            -0.07204262167215347,
            0.0016575996996834874,
            -0.033589307218790054,
            0.04679817333817482,
            0.39427661895751953,
            -0.032792385667562485,
            -0.06982434540987015,
            0.019333133473992348,
            0.06859622895717621,
            -0.07182659953832626,
            0.2096514254808426,
            -0.15933939814567566,
            0.7738530039787292,
            -0.02781747467815876,
            0.016204390674829483,
            0.014724905602633953,
            0.03828690946102142,
            -0.012063369154930115,
            -0.024746641516685486,
            0.11821546405553818,
            -0.15227439999580383,
            -0.09666028618812561,
            0.03700724244117737,
            -0.0710582584142685,
            0.9007382988929749,
            0.03553948178887367,
            -0.15561358630657196,
            0.027372188866138458,
            0.15272480249404907,
            -0.05411350354552269,
            -0.1149607002735138,
            -0.07003451883792877,
            -0.10291419923305511,
            0.02349262125790119,
            -0.029972851276397705,
            -0.0011141345603391528,
            -0.015522059053182602,
            0.06996820122003555,
            -0.07420330494642258,
            -1.8893736600875854,
            0.1313709169626236,
            -0.04758758097887039,
            0.09764137119054794,
            -0.0005341219948604703,
            0.18924665451049805,
            -1.083592414855957,
            0.11166762560606003,
            0.002762147458270192,
            0.05078122764825821,
            2.134221315383911,
            -0.04190453886985779,
            0.19215750694274902,
            -0.06067553907632828,
            0.006209723651409149,
            -0.22646522521972656,
            0.02609761245548725,
            -0.011371943168342113,
            -0.08333422988653183,
            -0.02861354872584343,
            0.022281868383288383,
            -0.35202300548553467,
            0.0622025728225708,
            0.13522467017173767,
            -1.2183738946914673,
            0.005536042619496584,
            0.009973205626010895
        ],
        [
            0.6887362599372864,
            0.4916068911552429,
            -0.37168145179748535,
            -0.7841096520423889,
            -0.3684235215187073,
            0.41752132773399353,
            -0.06224888190627098,
            -0.06149081885814667,
            -0.5900272727012634,
            -0.08081196993589401,
            0.16852517426013947,
            0.8088130950927734,
            0.013065067119896412,
            -0.26370862126350403,
            0.1021646186709404,
            0.8352526426315308,
            0.19479036331176758,
            -0.12078823149204254,
            -0.0007689516642130911,
            0.1034889742732048,
            -0.1360125094652176,
            -0.825584888458252,
            -0.13104306161403656,
            -0.1297866702079773,
            0.5481063723564148,
            0.11884870380163193,
            -0.7028509974479675,
            0.2707887589931488,
            -0.8496696949005127,
            0.26684242486953735,
            -0.6158496737480164,
            1.504587173461914,
            0.268284410238266,
            0.498125821352005,
            0.5818976759910583,
            -1.1864163875579834,
            -0.1620861440896988,
            0.2985636591911316,
            -0.6235429048538208,
            -0.09749778360128403,
            0.20946291089057922,
            -0.0007585109560750425,
            0.5764642357826233,
            -0.11231084913015366,
            0.20728673040866852,
            0.5336629748344421,
            0.2428678721189499,
            0.6125547885894775,
            -0.11339131742715836,
            0.20220918953418732,
            -0.18114528059959412,
            -0.3977770507335663,
            -1.0472521781921387,
            0.19938351213932037,
            0.13711394369602203,
            0.5352212190628052,
            -0.09157544374465942,
            -0.1301637887954712,
            -1.2986242771148682,
            0.14352093636989594,
            0.2914038598537445,
            -0.3309830129146576,
            -0.002106946660205722,
            0.14563634991645813,
            0.16938582062721252,
            -0.16833701729774475,
            0.36575987935066223,
            -0.4723341464996338,
            -0.5317263603210449,
            -0.4233146607875824,
            -0.01024665031582117,
            -0.011831738986074924,
            0.16494958102703094,
            0.19304654002189636,
            0.3930576741695404,
            0.6748852729797363,
            0.1708335429430008,
            -0.06888285279273987,
            0.12191489338874817,
            0.17170177400112152,
            0.17053307592868805,
            -0.412114679813385,
            -0.12155163288116455,
            0.22735296189785004,
            -0.2575920522212982,
            -0.05413872003555298,
            0.4110722243785858,
            -0.13852111995220184,
            0.0925854817032814,
            -0.359395831823349,
            -0.03741024062037468,
            -0.47246646881103516,
            -0.6226727962493896,
            0.8105517625808716,
            0.20473094284534454,
            0.12451377511024475,
            -0.17147351801395416,
            -0.0033426983281970024,
            -0.4976717233657837,
            0.4976915121078491,
            -0.27579382061958313,
            0.23208554089069366,
            -0.044756919145584106,
            0.14619222283363342,
            -0.07879845798015594,
            -0.7377699613571167,
            0.04090083763003349,
            0.26796382665634155,
            0.23914632201194763,
            0.03705869987607002,
            0.32538098096847534,
            -0.00684985751286149,
            0.4670010805130005,
            -0.11337703466415405,
            -0.01681739278137684,
            -0.10953528434038162,
            0.34624457359313965,
            0.56864994764328,
            -0.16279646754264832,
            -0.48108962178230286,
            0.24026654660701752,
            -0.41044169664382935,
            0.08510622382164001,
            -0.060165196657180786,
            -0.15084843337535858,
            -0.01161984633654356,
            -0.13384296000003815,
            0.20675158500671387
        ],
        [
            -0.20305196940898895,
            -0.5649968981742859,
            -0.2124631255865097,
            -0.06830062717199326,
            -0.15445300936698914,
            0.030684012919664383,
            0.26518139243125916,
            -0.0827663466334343,
            0.018659723922610283,
            -0.1900385618209839,
            0.1663464456796646,
            -0.10985101759433746,
            0.0931524783372879,
            0.13398580253124237,
            0.46506214141845703,
            0.22436703741550446,
            -0.4380092918872833,
            -0.06283776462078094,
            0.0006291148602031171,
            0.05981224402785301,
            -0.12657321989536285,
            0.37235027551651,
            -0.24168510735034943,
            -0.24091321229934692,
            -0.24747180938720703,
            -0.13995510339736938,
            -0.09867139905691147,
            0.04376465082168579,
            0.34842798113822937,
            -0.05641517788171768,
            -0.5955803394317627,
            0.02490301802754402,
            0.32039543986320496,
            0.05573619157075882,
            -0.6267104148864746,
            0.09825635701417923,
            0.3252626955509186,
            -0.1671891212463379,
            -0.29455506801605225,
            0.16417823731899261,
            -1.1647658348083496,
            -0.235935777425766,
            -0.2155672311782837,
            0.19610406458377838,
            0.11472073197364807,
            0.045494548976421356,
            -0.14087043702602386,
            0.12201942503452301,
            -0.2119474709033966,
            0.07923112064599991,
            0.007935946807265282,
            0.46241843700408936,
            0.228645458817482,
            -0.38508355617523193,
            -0.19518828392028809,
            -0.33325064182281494,
            -0.1649521142244339,
            0.10479047894477844,
            -0.10021001100540161,
            -0.25179919600486755,
            0.1994449645280838,
            0.15152016282081604,
            0.18342851102352142,
            -0.20625557005405426,
            -0.3370703160762787,
            0.08813756704330444,
            0.3377121090888977,
            -0.06301135569810867,
            -0.43627023696899414,
            0.4395585358142853,
            0.2639938294887543,
            -0.02626075968146324,
            0.17971831560134888,
            -0.20274977385997772,
            -0.03805023431777954,
            0.17994078993797302,
            0.32283857464790344,
            0.19143421947956085,
            -0.46284395456314087,
            -0.02610197477042675,
            0.018717551603913307,
            0.09309614449739456,
            -0.2287694364786148,
            -0.11336641013622284,
            0.21681353449821472,
            -0.5296681523323059,
            0.03410368040204048,
            0.07997417449951172,
            0.0007478097686544061,
            0.5036723017692566,
            -0.30524006485939026,
            0.07126995921134949,
            -0.2015206664800644,
            0.3566186726093292,
            0.010403206571936607,
            -0.4089418947696686,
            -0.1645587831735611,
            0.007744454313069582,
            0.04755326732993126,
            -0.22097401320934296,
            0.03051869571208954,
            -0.20930960774421692,
            0.294355183839798,
            0.09576588869094849,
            0.44583162665367126,
            0.1239510253071785,
            0.19099554419517517,
            -0.31791698932647705,
            -0.41823118925094604,
            -0.07371785491704941,
            0.6029819250106812,
            -0.04224156215786934,
            0.1078018769621849,
            -0.26023736596107483,
            -0.2488175481557846,
            0.07301601022481918,
            0.36876174807548523,
            -0.0907040387392044,
            0.08522170782089233,
            -0.32366514205932617,
            0.10483048111200333,
            0.19515404105186462,
            0.15843980014324188,
            -0.08423099666833878,
            -0.22421762347221375,
            0.06495033204555511,
            -0.08353779464960098,
            -0.37028199434280396
        ],
        [
            0.19748207926750183,
            -0.26318952441215515,
            -0.08340152353048325,
            0.2335045039653778,
            0.13422203063964844,
            -0.13205073773860931,
            0.14204418659210205,
            0.23196232318878174,
            0.181452676653862,
            0.6341113448143005,
            0.17334401607513428,
            0.12132734805345535,
            -0.05276625603437424,
            -0.1219160407781601,
            0.07740716636180878,
            0.22602364420890808,
            -0.47858864068984985,
            0.6540669202804565,
            -0.0005795787437818944,
            -0.22230401635169983,
            0.0017480958485975862,
            0.26278093457221985,
            -0.10227496922016144,
            0.03559635207056999,
            0.1561942845582962,
            -0.04252694174647331,
            0.20592495799064636,
            0.06224018335342407,
            0.3344942629337311,
            0.33522507548332214,
            0.0480230487883091,
            -0.049208082258701324,
            0.33714377880096436,
            -0.10512325912714005,
            -0.09088445454835892,
            0.1801481693983078,
            -0.4241337776184082,
            0.22969645261764526,
            -0.11315592378377914,
            -0.19169987738132477,
            0.07643632590770721,
            -0.43302595615386963,
            0.14215540885925293,
            -0.20085906982421875,
            -0.264253705739975,
            0.04342552274465561,
            0.41792020201683044,
            0.1619408279657364,
            -0.04148854687809944,
            -0.053336936980485916,
            0.7892656326293945,
            0.3617631196975708,
            -0.30546340346336365,
            -0.21847185492515564,
            -0.7774900197982788,
            0.1776915341615677,
            0.6188051104545593,
            0.13563093543052673,
            0.048670876771211624,
            -0.3122785985469818,
            0.0066927396692335606,
            -1.132112741470337,
            0.32887157797813416,
            -0.6332752704620361,
            0.7663267850875854,
            0.012101231142878532,
            -0.3164671063423157,
            -0.21442851424217224,
            -0.09810739755630493,
            0.649158775806427,
            -0.24054394662380219,
            0.038829345256090164,
            0.22544464468955994,
            0.07015620172023773,
            -0.014421595260500908,
            -0.05054360628128052,
            -0.10129039734601974,
            0.32245489954948425,
            0.09698457270860672,
            -0.1845923364162445,
            -0.03372512012720108,
            -0.163570374250412,
            -0.5023011565208435,
            -0.3132825493812561,
            0.2743246853351593,
            0.058135025203228,
            0.14760808646678925,
            -0.509025514125824,
            0.6962680816650391,
            -0.011750551871955395,
            -0.2163655161857605,
            -0.40934696793556213,
            -0.5029281377792358,
            -0.15677118301391602,
            0.018355663865804672,
            0.25757187604904175,
            0.042540084570646286,
            -0.0010085705434903502,
            -0.006580870598554611,
            0.0056920647621154785,
            0.40740200877189636,
            -0.08215850591659546,
            0.22936809062957764,
            0.05346278101205826,
            0.07743378728628159,
            0.12675589323043823,
            0.04826119542121887,
            0.07164075970649719,
            -0.14848355948925018,
            0.16398493945598602,
            0.18961672484874725,
            0.11274577677249908,
            0.06955703347921371,
            -0.5029980540275574,
            0.027097972109913826,
            0.3642805516719818,
            0.10443279892206192,
            -0.2505268454551697,
            0.04625754430890083,
            -0.4918408691883087,
            0.06854578852653503,
            -0.7819478511810303,
            -0.13301527500152588,
            -0.0072921523824334145,
            0.2983165681362152,
            -0.10461876541376114,
            -0.7986955642700195,
            0.07708944380283356
        ],
        [
            -0.15831120312213898,
            0.18955734372138977,
            0.7431406378746033,
            -0.22144228219985962,
            -0.1010291576385498,
            0.660516083240509,
            0.9742693901062012,
            0.1435413360595703,
            -0.1000133529305458,
            0.1631496399641037,
            -0.4709707200527191,
            0.0812201127409935,
            1.2430461645126343,
            -0.48791542649269104,
            0.19945818185806274,
            -0.08362440764904022,
            -0.056865155696868896,
            -0.05478510633111,
            -0.0005952322972007096,
            -0.12258660048246384,
            -1.342525839805603,
            -0.10902576148509979,
            0.14485466480255127,
            0.43866267800331116,
            0.6924481987953186,
            0.01867065764963627,
            -0.3139033615589142,
            0.009110177867114544,
            0.0820985808968544,
            0.1077757328748703,
            -0.6432039141654968,
            0.24079632759094238,
            0.22670723497867584,
            0.6087243556976318,
            -0.4274125099182129,
            -0.06012538820505142,
            0.1821918934583664,
            0.19465745985507965,
            -0.5758889317512512,
            0.3679813742637634,
            -0.1599159687757492,
            -0.11111821234226227,
            0.11132970452308655,
            0.5771896839141846,
            0.14043021202087402,
            -0.26030653715133667,
            -0.00048148343921639025,
            0.2951311469078064,
            0.24970856308937073,
            0.8980201482772827,
            -0.26182350516319275,
            0.05769358202815056,
            0.049095943570137024,
            0.3552784323692322,
            -0.1580040007829666,
            -0.03900624439120293,
            0.0467623695731163,
            -0.04785584285855293,
            0.33314400911331177,
            0.19366943836212158,
            -0.39666885137557983,
            0.0980338379740715,
            0.005573556758463383,
            0.14358745515346527,
            0.009305460378527641,
            0.4366980195045471,
            -0.20274348556995392,
            -0.07437626272439957,
            0.3157867193222046,
            -0.07204579561948776,
            -0.01534411683678627,
            0.09491398185491562,
            0.11329197138547897,
            -0.23588906228542328,
            0.07523597776889801,
            -0.2435414046049118,
            -0.15826493501663208,
            -0.037789393216371536,
            -0.25731003284454346,
            0.08146948367357254,
            0.08286301791667938,
            0.39919599890708923,
            0.08215218782424927,
            0.17187932133674622,
            -0.41928356885910034,
            0.20458872616291046,
            0.21777993440628052,
            -0.10905943065881729,
            -0.2458048164844513,
            0.18388356268405914,
            -0.10074460506439209,
            0.23408330976963043,
            0.10000424087047577,
            0.0817236378788948,
            0.07076416164636612,
            0.4561198055744171,
            0.4584355354309082,
            0.002947127213701606,
            0.204657182097435,
            -0.4631861448287964,
            0.06940224766731262,
            -0.029595328494906425,
            -0.08644918352365494,
            0.10778620839118958,
            -0.2160307765007019,
            -0.13904395699501038,
            -0.33442118763923645,
            -0.05370431765913963,
            -0.3487338125705719,
            -0.01855289191007614,
            0.12609709799289703,
            -0.1271401047706604,
            -0.33788684010505676,
            -0.2402981072664261,
            -0.05675650015473366,
            -0.17339789867401123,
            0.33808085322380066,
            0.0627736747264862,
            -0.4417531490325928,
            -0.1205621138215065,
            -0.9554733633995056,
            -0.004744429141283035,
            -0.1543450802564621,
            0.23714302480220795,
            0.32438474893569946,
            0.47764068841934204,
            -0.10410622507333755,
            0.3870140314102173
        ]
    ],
    "layer2/biases/Variable:0": [
        1.2609474658966064,
        -0.5219696164131165,
        0.012676388956606388,
        0.6212524175643921,
        -0.22489380836486816,
        0.38944926857948303,
        0.4223172068595886,
        0.6569138765335083,
        1.0982197523117065,
        0.6716562509536743,
        1.842427372932434,
        0.22358338534832,
        0.30147185921669006,
        -0.5822018980979919,
        0.14081323146820068,
        0.08273320645093918,
        0.6148974299430847,
        -0.3857668340206146,
        -2.1976752281188965,
        -0.13234873116016388,
        0.714841902256012,
        -0.5811914801597595,
        0.010802051052451134,
        0.07300729304552078,
        -0.1620413213968277,
        -0.9130972027778625,
        -0.036768969148397446,
        -0.02317153476178646,
        -1.2544597387313843,
        -0.4436306357383728,
        0.5725635290145874,
        1.1369785070419312,
        0.3231310546398163,
        0.8244984745979309,
        0.2978593111038208,
        0.14223115146160126,
        0.6790026426315308,
        -0.3959331810474396,
        -1.3730958700180054,
        -0.3856290280818939,
        -0.08309900015592575,
        -1.36342191696167,
        0.8697822690010071,
        0.7992492914199829,
        -0.3790847957134247,
        0.8890455961227417,
        1.9639151096343994,
        0.41333383321762085,
        -0.1526738554239273,
        -0.45808276534080505,
        0.07754135876893997,
        0.1859818547964096,
        -0.8904032707214355,
        -0.7311494946479797,
        -0.6151776313781738,
        -0.38609471917152405,
        0.9042171835899353,
        0.41165122389793396,
        -0.9009393453598022,
        1.21773099899292,
        -0.03400520980358124,
        0.6219499111175537,
        -0.14623332023620605,
        0.16369682550430298,
        -1.523385763168335,
        -0.8768360614776611,
        -1.7874188423156738,
        0.22918552160263062,
        0.7411160469055176,
        0.4210124611854553,
        -0.1333356350660324,
        0.20980766415596008,
        -1.9672977924346924,
        0.20739400386810303,
        -0.4183541536331177,
        -0.3038630783557892,
        -0.7596656680107117,
        0.8419003486633301,
        -0.15037962794303894,
        -0.7114595770835876,
        0.2447880655527115,
        -2.0234577655792236,
        0.830686092376709,
        -0.577340841293335,
        0.8723956942558289,
        0.006852913647890091,
        1.5622475147247314,
        0.9395307898521423,
        0.32085371017456055,
        -0.26001331210136414,
        1.1729393005371094,
        0.8269770741462708,
        0.42685356736183167,
        0.6742784976959229,
        1.325244426727295,
        0.2697215974330902,
        0.8664324283599854,
        0.6035612225532532,
        0.3747013807296753,
        1.7599111795425415,
        -0.8049817085266113,
        0.13529980182647705,
        0.2373736947774887,
        -0.9880847334861755,
        -1.5569316148757935,
        -0.42128127813339233,
        0.7592400312423706,
        -1.2115732431411743,
        -0.9410805106163025,
        -0.37399396300315857,
        -0.0694931373000145,
        -0.15704384446144104,
        -0.5288965702056885,
        1.7498587369918823,
        0.17705561220645905,
        -0.21135558187961578,
        0.8381956815719604,
        -1.824293613433838,
        1.7996011972427368,
        -0.2755183279514313,
        0.5875582098960876,
        -1.4233671426773071,
        -0.18006379902362823,
        0.20762181282043457,
        0.44187620282173157,
        -0.07555294036865234,
        -0.5081443786621094,
        -0.30579236149787903
    ],
    "layer2/weights/Variable:0": [
        [
            -0.05695493146777153,
            -0.027253100648522377,
            0.039793502539396286,
            0.04305492714047432,
            -0.05404650419950485,
            0.002373483730480075,
            -0.013251978904008865,
            0.01713608205318451,
            0.046565987169742584,
            -0.026816215366125107,
            -0.12183179706335068,
            -0.05152050405740738,
            0.12220047414302826,
            0.015508781187236309,
            -0.037442173808813095,
            0.12005535513162613,
            0.06225593760609627,
            -0.01604391448199749,
            0.2492874413728714,
            0.09462951123714447,
            -0.041290491819381714,
            0.0255699772387743,
            -0.047392647713422775,
            -0.026928342878818512,
            -0.05413472279906273,
            0.0006055750418454409,
            -0.3025359511375427,
            0.023058494552969933,
            0.07232699543237686,
            -0.0413864403963089,
            0.07093214988708496,
            0.11561752110719681,
            -0.13877761363983154,
            0.01711571030318737,
            0.08427604287862778,
            0.05968082323670387,
            -0.05836155265569687,
            0.06020394712686539,
            0.24942906200885773,
            0.10281689465045929,
            0.08714870363473892,
            0.01113706175237894,
            0.056905873119831085,
            -0.05806732922792435,
            0.04282055422663689,
            0.015108254738152027,
            0.3113129734992981,
            -0.01818927749991417,
            0.056894686073064804,
            -0.06865984946489334,
            0.04537035524845123,
            0.1007593497633934,
            0.06397595256567001,
            -0.03586485981941223,
            -0.05267799273133278,
            0.01811634935438633,
            0.04167720302939415,
            0.07444684207439423,
            -0.11060357838869095,
            0.05250723659992218,
            0.05456356704235077,
            0.011823701672255993,
            -0.044336460530757904,
            0.16263282299041748,
            0.013851604424417019,
            -0.1440165638923645,
            0.15260757505893707,
            0.0635436400771141,
            0.14618101716041565,
            -0.19044876098632812,
            0.07198149710893631,
            0.0820157378911972,
            0.006951150484383106,
            0.015317350625991821,
            -0.2544214129447937,
            -0.04990597814321518,
            -0.11931774765253067,
            0.21223154664039612,
            -0.03369826078414917,
            -0.06560343503952026,
            0.1336970180273056,
            0.1388605237007141,
            -0.03601725399494171,
            0.03975963220000267,
            -0.06562525033950806,
            -0.0595431923866272,
            0.09859344363212585,
            -0.030010953545570374,
            -0.11415604501962662,
            0.05008125305175781,
            -0.00205748132430017,
            0.01342338602989912,
            -0.006686750799417496,
            0.11154637485742569,
            -0.14641384780406952,
            -0.09148627519607544,
            0.09655303508043289,
            -0.0402611680328846,
            0.04312857985496521,
            -0.12315379083156586,
            -0.05077453702688217,
            -0.050386883318424225,
            0.25231635570526123,
            0.027369065210223198,
            -0.0014875559136271477,
            0.4318985044956207,
            -0.006228909827768803,
            0.24318329989910126,
            -0.03191637247800827,
            0.032024215906858444,
            0.023562835529446602,
            -0.09654707461595535,
            -0.16697125136852264,
            0.051579829305410385,
            -0.06926204264163971,
            0.13410046696662903,
            0.047345999628305435,
            -0.16122761368751526,
            -0.05722089484333992,
            -0.04193682223558426,
            -0.08396957069635391,
            -0.010551532730460167,
            -0.06922782212495804,
            0.011747338809072971,
            -0.023108722642064095,
            -0.16212989389896393,
            -0.09655582904815674,
            -0.0162774957716465
        ],
        [
            0.032318033277988434,
            -0.05919623747467995,
            0.031629908829927444,
            0.11817903071641922,
            -0.029857058078050613,
            0.06600495427846909,
            0.01885039731860161,
            0.037024497985839844,
            0.04267722740769386,
            -0.18616600334644318,
            -0.03165499120950699,
            0.026870133355259895,
            -0.15064194798469543,
            0.04832150414586067,
            0.0053079985082149506,
            -0.20224808156490326,
            0.16977417469024658,
            -0.0097845159471035,
            -0.01704898290336132,
            -0.16044709086418152,
            0.15024539828300476,
            -0.17088091373443604,
            -0.09008662402629852,
            -0.0818299651145935,
            0.12947912514209747,
            -0.0985741838812828,
            0.1040194034576416,
            -0.028016304597258568,
            -0.1543319821357727,
            0.1761871576309204,
            -0.04293476417660713,
            -0.05035930499434471,
            -0.003186626825481653,
            0.05194465070962906,
            0.012827717699110508,
            0.08105451613664627,
            -0.001062723807990551,
            -0.021105105057358742,
            -0.18736177682876587,
            0.08235446363687515,
            0.015248463489115238,
            0.02879844233393669,
            -0.1399519294500351,
            0.011860471218824387,
            -0.0126161715015769,
            0.03698156774044037,
            0.15628863871097565,
            0.018877996131777763,
            -0.07916048914194107,
            0.029500840231776237,
            0.0361136756837368,
            0.07129453122615814,
            -0.05233125388622284,
            0.014166648499667645,
            0.06462731212377548,
            0.013871192000806332,
            -0.005423951428383589,
            0.09192506223917007,
            -0.14458833634853363,
            -0.025662636384367943,
            -0.10984855145215988,
            0.12334726005792618,
            0.02444632165133953,
            -0.0031590715516358614,
            0.015217208303511143,
            -0.004258229397237301,
            0.03779459744691849,
            0.057018399238586426,
            0.08977609127759933,
            -0.008837442845106125,
            -0.05708155781030655,
            0.0012106773210689425,
            0.0021992134861648083,
            0.03941821679472923,
            0.033900678157806396,
            -0.009453041478991508,
            -0.01896769367158413,
            -0.29961439967155457,
            -0.004705397412180901,
            -0.007870329543948174,
            0.03183632716536522,
            0.062076423317193985,
            -0.03884044662117958,
            -0.034868720918893814,
            0.11972074210643768,
            0.06869277358055115,
            -0.02121969312429428,
            0.009523434564471245,
            -0.06762364506721497,
            0.07697206735610962,
            0.015655677765607834,
            0.03895092383027077,
            -0.0164415892213583,
            -0.0550156868994236,
            0.08438251912593842,
            -0.06234462186694145,
            0.08559998124837875,
            0.027212735265493393,
            -0.04635772109031677,
            -0.12047015130519867,
            -0.004552948288619518,
            0.005330754444003105,
            -0.03967795893549919,
            0.2452303022146225,
            -0.04419698938727379,
            -0.1869811862707138,
            0.18603931367397308,
            -0.10144250094890594,
            0.01098103541880846,
            0.017969947308301926,
            0.10711604356765747,
            0.01749894767999649,
            -0.00039570630178786814,
            -0.06296412646770477,
            -0.0977146327495575,
            0.07380618900060654,
            -0.007654931861907244,
            0.036416761577129364,
            0.06127697974443436,
            -0.1012294664978981,
            0.051186058670282364,
            0.004700986202806234,
            -0.11912588030099869,
            0.05422701686620712,
            -0.004468024708330631,
            0.24492111802101135,
            0.07323859632015228,
            -0.0612177848815918
        ],
        [
            -0.05381730943918228,
            -0.03689486160874367,
            -0.013737615197896957,
            -0.05238758400082588,
            0.07088877260684967,
            -0.06901735067367554,
            0.034358784556388855,
            -0.10454584658145905,
            0.08557043224573135,
            -0.12455778568983078,
            0.1135040819644928,
            -0.02565792016685009,
            0.14728091657161713,
            -0.13542748987674713,
            0.11782223731279373,
            -0.3634251356124878,
            -0.028331296518445015,
            0.12072697281837463,
            -0.06220833957195282,
            0.05508479103446007,
            -0.014851070009171963,
            0.06006733328104019,
            -0.035723570734262466,
            0.13325808942317963,
            0.05636841431260109,
            -0.13674314320087433,
            0.13034799695014954,
            0.10312508046627045,
            -0.11584225296974182,
            -0.044703103601932526,
            -0.04065895080566406,
            0.07714778929948807,
            0.07490085810422897,
            -0.05457055941224098,
            0.06704232841730118,
            -0.016916807740926743,
            -0.029809482395648956,
            -0.053854379802942276,
            -0.007850419729948044,
            -0.07964230328798294,
            -0.05403638631105423,
            0.06289137154817581,
            -0.054967250674963,
            0.021745283156633377,
            -0.022650865837931633,
            -0.018940258771181107,
            -0.00705876387655735,
            0.060120515525341034,
            0.10101297497749329,
            0.08355329930782318,
            0.3159395456314087,
            0.00048574397806078196,
            -0.0734628215432167,
            -0.04034961387515068,
            0.08471769839525223,
            0.006968014407902956,
            -0.07781916856765747,
            0.06674696505069733,
            -0.068883016705513,
            0.0682629868388176,
            -0.03066789172589779,
            0.011322838254272938,
            -0.034730665385723114,
            -0.05239791423082352,
            -0.1011369451880455,
            -0.0014560656854882836,
            -0.012747732922434807,
            -0.002980791963636875,
            0.07380197197198868,
            -0.0747387558221817,
            0.12931770086288452,
            0.1485362946987152,
            -0.1260652393102646,
            0.13293422758579254,
            -0.08198282122612,
            -0.12427720427513123,
            -0.027042152360081673,
            -0.255768358707428,
            0.062387533485889435,
            -0.038632091134786606,
            0.041777510195970535,
            -0.0710115134716034,
            0.050393424928188324,
            0.10343856364488602,
            -0.051815494894981384,
            -0.010006780736148357,
            -0.01050584390759468,
            0.007514846511185169,
            0.007715444080531597,
            -0.03044564090669155,
            -0.039064109325408936,
            -0.05209915339946747,
            -0.059539299458265305,
            0.052368879318237305,
            0.12319961190223694,
            -0.11031094938516617,
            -0.0725867748260498,
            -0.0540238656103611,
            0.21456734836101532,
            -0.014639615081250668,
            0.10520393401384354,
            0.0544918030500412,
            -0.06582818925380707,
            -0.2082078456878662,
            0.03193057328462601,
            0.0014903947012498975,
            -0.06213443726301193,
            0.010284462943673134,
            0.05235031992197037,
            -0.06219208240509033,
            0.03519218787550926,
            0.04171261936426163,
            0.0458051860332489,
            -0.07672970741987228,
            -0.21753042936325073,
            -0.00116929120849818,
            0.07507211714982986,
            0.1360720694065094,
            0.11727277934551239,
            0.1015760600566864,
            0.13484498858451843,
            -0.06349868327379227,
            0.004340772051364183,
            0.003782323095947504,
            -0.07059524953365326,
            0.14565303921699524,
            0.0060480451211333275,
            -0.00532578257843852
        ],
        [
            0.012417702004313469,
            0.05932029336690903,
            -0.014095282182097435,
            -0.09881842881441116,
            -0.11352263391017914,
            -0.0016852974658831954,
            -0.0025075909215956926,
            -0.038357872515916824,
            -0.00937594473361969,
            -0.07559683918952942,
            -0.07554664462804794,
            -0.01595086231827736,
            -0.03696916624903679,
            -0.03161310404539108,
            -0.0028003978077322245,
            0.4955725371837616,
            0.007506674621254206,
            0.006251615937799215,
            0.1529119610786438,
            0.4637486934661865,
            0.23470346629619598,
            -0.04791084676980972,
            0.04911385849118233,
            0.014487635344266891,
            0.0673622414469719,
            -0.1204838678240776,
            0.10603873431682587,
            -0.03786224126815796,
            0.01658298261463642,
            0.32164138555526733,
            -0.045654550194740295,
            0.3135106861591339,
            -0.016291242092847824,
            -0.08886189758777618,
            -0.09205000102519989,
            -0.0015961957396939397,
            -0.019144657999277115,
            0.13430951535701752,
            -0.00371106481179595,
            0.010576226748526096,
            0.004524289630353451,
            -0.08608200401067734,
            0.00734106358140707,
            0.041384257376194,
            -0.0004226230666972697,
            0.01554136723279953,
            0.07606194168329239,
            -0.0510038323700428,
            0.14374832808971405,
            -0.03130887821316719,
            -0.25988900661468506,
            -0.051520392298698425,
            -0.003347165184095502,
            -0.009547844529151917,
            0.023784954100847244,
            -0.020393017679452896,
            -0.09088601917028427,
            0.03410928323864937,
            0.10763078182935715,
            0.031491968780756,
            -0.07947180420160294,
            -0.05149044841527939,
            -0.1187535747885704,
            -0.18312214314937592,
            -0.08732268214225769,
            0.1608460247516632,
            -0.027065938338637352,
            -0.01448456384241581,
            0.010800736024975777,
            0.04577432572841644,
            -0.0976153165102005,
            -0.03469833731651306,
            -0.12328145653009415,
            0.07260268181562424,
            -0.06310340762138367,
            -0.19197909533977509,
            0.11990324407815933,
            0.1467544585466385,
            0.008564594201743603,
            0.03455960750579834,
            -0.09083850681781769,
            -0.028400106355547905,
            0.0009312962647527456,
            0.10861776769161224,
            -0.00800379365682602,
            0.017962994053959846,
            -0.006202540826052427,
            -0.07489325851202011,
            -0.02163582295179367,
            -0.17262333631515503,
            0.05066455900669098,
            0.04490475356578827,
            0.012956621125340462,
            -0.07250599563121796,
            0.09423581510782242,
            -0.03692447766661644,
            -0.07414783537387848,
            0.05771816149353981,
            0.06813269108533859,
            0.015949076041579247,
            0.0059863063506782055,
            0.11120117455720901,
            0.20766420662403107,
            0.3147742748260498,
            -0.0277414470911026,
            -0.26706087589263916,
            -0.19647802412509918,
            0.06292688846588135,
            0.024046815931797028,
            0.01729900762438774,
            -0.10449797660112381,
            -0.040961507707834244,
            0.03375164419412613,
            0.0051560234278440475,
            0.13209816813468933,
            0.019095508381724358,
            -0.07759662717580795,
            -0.04258700832724571,
            0.14028465747833252,
            -0.05925704911351204,
            -0.26475632190704346,
            -0.064559705555439,
            0.11275315284729004,
            0.04944470524787903,
            0.0004898199695162475,
            -0.09103726595640182,
            -0.16365644335746765,
            -0.05199401080608368
        ],
        [
            0.036932770162820816,
            0.04800931736826897,
            0.07267088443040848,
            0.0037399567663669586,
            -0.01454575639218092,
            -0.02648129127919674,
            -0.023111160844564438,
            0.006933449301868677,
            -0.006097033619880676,
            -0.057751089334487915,
            -0.06376104056835175,
            -0.10588540136814117,
            -0.043800439685583115,
            0.02164829894900322,
            -0.013369756750762463,
            -0.0026713514234870672,
            -0.014010533690452576,
            0.02618175372481346,
            0.010856696404516697,
            0.037080634385347366,
            -0.03069022297859192,
            -0.10467305034399033,
            -0.1390468180179596,
            -0.029773354530334473,
            0.03988606855273247,
            0.05524750053882599,
            0.03490130230784416,
            0.0409369058907032,
            0.025798415765166283,
            -0.0185594093054533,
            0.011006374843418598,
            -0.07296580076217651,
            -0.04991912469267845,
            -0.06609012186527252,
            -0.026382258161902428,
            0.042303286492824554,
            0.10504984110593796,
            0.07824613898992538,
            -0.07279719412326813,
            0.025865187868475914,
            -0.04855472967028618,
            -0.02430219203233719,
            0.0032250864896923304,
            0.02510296367108822,
            -0.0454498790204525,
            0.08287312835454941,
            -0.07487495243549347,
            -0.03010125644505024,
            -0.02576397731900215,
            0.031132815405726433,
            -0.16189001500606537,
            -0.10613714903593063,
            0.03732535243034363,
            0.03961450979113579,
            0.023887142539024353,
            -0.01629123091697693,
            0.05536277964711189,
            0.046971071511507034,
            -0.03857779875397682,
            -0.005868444684892893,
            0.009628853760659695,
            -0.009892519563436508,
            -0.033015184104442596,
            -0.11147396266460419,
            -0.0038710450753569603,
            0.055837035179138184,
            -0.029111912474036217,
            -0.060604434460401535,
            0.02211572416126728,
            -0.06910183280706406,
            0.031746987253427505,
            0.0037345816381275654,
            -0.0025427485816180706,
            0.005030641797930002,
            0.029414767399430275,
            0.027985112741589546,
            0.042929768562316895,
            -0.2513713240623474,
            -0.021799560636281967,
            -0.025980498641729355,
            0.027821609750390053,
            0.06645041704177856,
            0.0012235718313604593,
            0.037794601172208786,
            -0.005570231005549431,
            0.006233580410480499,
            0.004967847838997841,
            -0.07442934066057205,
            -0.007049101404845715,
            -0.05467008799314499,
            -0.10181435197591782,
            -0.07015322148799896,
            0.007106261793524027,
            -0.07926610857248306,
            0.019357912242412567,
            0.027019735425710678,
            0.020396575331687927,
            0.036776475608348846,
            -0.08840707689523697,
            -0.018326614052057266,
            0.055241312831640244,
            0.060203276574611664,
            -0.012560024857521057,
            0.06480205059051514,
            0.10602346062660217,
            0.0014049956807866693,
            -0.18880797922611237,
            0.04569237306714058,
            0.006254115607589483,
            0.0001552349131088704,
            -0.1368313580751419,
            0.09103769063949585,
            0.10396043956279755,
            -0.1377178430557251,
            0.08734920620918274,
            0.004708769731223583,
            -0.10198701918125153,
            0.0508633628487587,
            -0.015536508522927761,
            0.01727660372853279,
            0.07961327582597733,
            0.02309408225119114,
            0.09221691638231277,
            0.03716406598687172,
            -0.05991097539663315,
            -0.16242648661136627,
            0.00270327040925622,
            0.03548075631260872
        ],
        [
            -0.007957343943417072,
            -0.03201555088162422,
            -0.01197674497961998,
            -0.05626537650823593,
            0.0033661869820207357,
            -0.04642161354422569,
            -0.016673894599080086,
            0.012779707089066505,
            0.0746246948838234,
            -0.29717162251472473,
            0.08586502820253372,
            0.07260870188474655,
            0.052737608551979065,
            0.005782588385045528,
            0.03168710693717003,
            0.07294239848852158,
            -0.00614790478721261,
            -0.013963529840111732,
            -0.44452300667762756,
            -0.040698327124118805,
            0.052778299897909164,
            0.08673764765262604,
            0.003546115243807435,
            -0.008018285036087036,
            -0.12794296443462372,
            -0.10284144431352615,
            0.0386359803378582,
            -0.19457007944583893,
            0.12123256921768188,
            -0.025377307087183,
            0.009420347400009632,
            -0.07033540308475494,
            0.008853649720549583,
            0.021692074835300446,
            0.0039041531272232533,
            0.030969316139817238,
            -0.017128029838204384,
            -0.07406917214393616,
            -0.013360759243369102,
            0.010116818360984325,
            0.02680964581668377,
            0.07104290276765823,
            -0.08615473657846451,
            -0.08077425509691238,
            0.04822418838739395,
            0.04225822165608406,
            0.02636861987411976,
            -0.007181433029472828,
            -0.006790024694055319,
            0.031179213896393776,
            0.26041755080223083,
            0.040713001042604446,
            0.013895121403038502,
            0.023162957280874252,
            -0.007823685184121132,
            0.0023383372463285923,
            -0.01094284188002348,
            0.013246887363493443,
            -0.12833881378173828,
            -0.002042858162894845,
            -0.008527275174856186,
            0.07297123223543167,
            -0.05769075080752373,
            0.03773842751979828,
            -0.04499278962612152,
            -0.07488834112882614,
            0.07025168836116791,
            0.10721596330404282,
            0.07726877927780151,
            0.05118172615766525,
            0.01781776361167431,
            0.11294515430927277,
            -0.09975959360599518,
            -0.0062445686198771,
            0.061875421553850174,
            0.0551285482943058,
            -0.09601512551307678,
            -0.18619847297668457,
            -0.06256792694330215,
            0.02184780314564705,
            0.06723642349243164,
            0.032680824398994446,
            0.02018166147172451,
            0.09036126732826233,
            0.11141092330217361,
            0.09568452090024948,
            -0.0006720225792378187,
            0.08527351915836334,
            -0.028232330456376076,
            0.04367777705192566,
            0.016436463221907616,
            0.038699425756931305,
            -0.012968113645911217,
            0.019949140027165413,
            0.06254559755325317,
            -0.02959785982966423,
            -0.07751975208520889,
            -0.0373150072991848,
            0.09838759154081345,
            -0.1030789166688919,
            -0.016519203782081604,
            -0.025569817051291466,
            0.05088457092642784,
            0.03324603661894798,
            -0.03946715593338013,
            0.018450308591127396,
            0.09522341191768646,
            -0.013063709251582623,
            0.006601352710276842,
            -0.008436575531959534,
            0.04477819800376892,
            -0.015464714728295803,
            -0.12883643805980682,
            0.010815690271556377,
            -0.08770408481359482,
            -0.007267822977155447,
            0.07701434195041656,
            -0.02157280594110489,
            -0.0732048824429512,
            -0.10603532940149307,
            -0.004115643445402384,
            -0.018459750339388847,
            -0.10333720594644547,
            0.06876099854707718,
            -0.012891086749732494,
            0.10822925716638565,
            -0.021663641557097435,
            0.0663754940032959
        ],
        [
            -0.016102535650134087,
            -0.0908176526427269,
            -0.06120598688721657,
            -0.1077171117067337,
            0.020532626658678055,
            -0.09174121916294098,
            0.06794306635856628,
            -0.09990116208791733,
            0.1328127384185791,
            0.04809786006808281,
            0.1350516527891159,
            0.0046030208468437195,
            0.04846007376909256,
            -0.010189392603933811,
            0.2269042432308197,
            -0.18365101516246796,
            -0.022962961345911026,
            0.08543181419372559,
            -0.21625210344791412,
            -0.036159057170152664,
            0.2939249873161316,
            -0.08694551885128021,
            0.06903265416622162,
            0.0949234887957573,
            -0.04647119343280792,
            -0.10739824175834656,
            0.1315487027168274,
            0.0037644105032086372,
            -0.015439377166330814,
            -0.04682551696896553,
            0.06341183185577393,
            0.039821427315473557,
            0.15871338546276093,
            0.015496566891670227,
            -0.19983983039855957,
            -0.00729769840836525,
            -0.0581708587706089,
            -0.01695835031569004,
            -0.3360234200954437,
            -0.2148488312959671,
            -0.01040728110820055,
            0.10654758661985397,
            -0.02882499247789383,
            -0.12240869551897049,
            -0.10850696265697479,
            -0.035876113921403885,
            -0.036153730005025864,
            0.09181326627731323,
            0.10705054551362991,
            0.11942733824253082,
            -0.1759621649980545,
            0.05245545879006386,
            -0.16340506076812744,
            0.020701173692941666,
            -0.045274291187524796,
            0.019190466031432152,
            0.10539425164461136,
            -0.058118365705013275,
            -0.022525465115904808,
            0.1518789529800415,
            0.011577737517654896,
            0.11010444164276123,
            0.05939597636461258,
            0.06065809726715088,
            0.06178945302963257,
            0.23751506209373474,
            -0.048822686076164246,
            0.11202646046876907,
            0.0482817180454731,
            0.09821925312280655,
            0.1304866075515747,
            0.027143485844135284,
            -0.06037110462784767,
            0.13697591423988342,
            0.14878104627132416,
            0.03803608566522598,
            0.0051741041243076324,
            -0.019447270780801773,
            -0.02535967156291008,
            -0.08158235251903534,
            0.0038417933974415064,
            -0.0006612658617086709,
            0.024854348972439766,
            0.11944390833377838,
            -0.03216591849923134,
            0.016093119978904724,
            -0.03986923769116402,
            -9.895650146063417e-05,
            -0.021576737985014915,
            -0.08211646229028702,
            -0.01699470728635788,
            0.04613804444670677,
            0.023769276216626167,
            0.03477789834141731,
            0.2692389488220215,
            -0.10806647688150406,
            0.05455555021762848,
            -0.06325878202915192,
            -0.1594332605600357,
            0.00529515789821744,
            -0.03177347406744957,
            0.058017853647470474,
            -0.0014422404346987605,
            0.11225099116563797,
            0.11648625135421753,
            -0.24407388269901276,
            0.13220134377479553,
            -0.1550629884004593,
            -0.027567176148295403,
            -0.11914438754320145,
            -0.09743807464838028,
            0.06474626809358597,
            -0.03421299159526825,
            -0.03092818893492222,
            -0.019208529964089394,
            -0.10707545280456543,
            0.07185926288366318,
            0.02815432846546173,
            0.15841832756996155,
            0.11493518203496933,
            -0.0765724703669548,
            -0.17638199031352997,
            -0.11468562483787537,
            0.03587337210774422,
            0.04499008134007454,
            0.015401034615933895,
            0.09391066431999207,
            0.045936886221170425
        ],
        [
            0.016525302082300186,
            -0.023432426154613495,
            -0.061684079468250275,
            0.010570135898888111,
            0.029204392805695534,
            0.008947980590164661,
            0.019128309562802315,
            -0.003471232019364834,
            0.0551944300532341,
            0.04002168029546738,
            -0.005825516767799854,
            -0.015944095328450203,
            0.32090893387794495,
            -0.056390248239040375,
            0.05078304931521416,
            0.08008351176977158,
            0.01047137938439846,
            0.025751108303666115,
            0.05174245685338974,
            -0.08370610326528549,
            -0.051249049603939056,
            0.08387783169746399,
            -0.0034727323800325394,
            0.05266227945685387,
            0.03125230222940445,
            -0.0514085590839386,
            -0.23172849416732788,
            0.458097368478775,
            0.0029409872367978096,
            -0.023921579122543335,
            -0.030113641172647476,
            0.19318461418151855,
            -0.039534468203783035,
            -0.0566033199429512,
            0.058813270181417465,
            -0.029037214815616608,
            -0.020835785195231438,
            -0.015747809782624245,
            -0.01210094802081585,
            0.023061711341142654,
            0.04749544337391853,
            0.019598787650465965,
            -0.03194234520196915,
            0.028413182124495506,
            -0.0333300456404686,
            -0.001571017550304532,
            0.06879796087741852,
            0.01188745815306902,
            0.10673066228628159,
            -0.02023082785308361,
            0.0364953950047493,
            0.021252332255244255,
            -0.00908452458679676,
            0.043847136199474335,
            0.006042471621185541,
            -0.06319878250360489,
            -0.053286802023649216,
            0.0663892924785614,
            -0.03742325305938721,
            -0.002556383376941085,
            -0.008601243607699871,
            0.038888439536094666,
            0.028189951553940773,
            0.050786085426807404,
            -0.05212840437889099,
            0.07476895302534103,
            -0.03439446911215782,
            0.020932523533701897,
            0.0540602020919323,
            0.0265494417399168,
            0.013926773332059383,
            0.007380049675703049,
            -0.030572934076189995,
            0.013664626516401768,
            -0.028697004541754723,
            -0.05564792826771736,
            -0.053012169897556305,
            0.28244757652282715,
            0.01780083030462265,
            0.014034919440746307,
            -0.07184284925460815,
            -0.020200679078698158,
            -0.11485037207603455,
            -0.02216407284140587,
            -0.1060691773891449,
            0.1281554102897644,
            0.046298157423734665,
            0.027013054117560387,
            -0.040201518684625626,
            0.0011997825931757689,
            0.037363201379776,
            0.017441365867853165,
            -0.016436545178294182,
            0.05901459977030754,
            0.07513239234685898,
            0.0066764988005161285,
            -0.0510077066719532,
            -0.030491651967167854,
            -0.17045478522777557,
            -0.007280753925442696,
            -0.005252022761851549,
            -0.030438369140028954,
            0.006770852487534285,
            -0.18488538265228271,
            -0.03577515110373497,
            -0.06999717652797699,
            0.01896304078400135,
            0.111334890127182,
            -0.00790412537753582,
            0.0037455668207257986,
            -0.09388454258441925,
            -0.008881772868335247,
            0.060896262526512146,
            0.04388629272580147,
            0.017246272414922714,
            -0.04213031753897667,
            0.062462206929922104,
            -0.12076186388731003,
            0.046788252890110016,
            0.05295124277472496,
            -0.014278562739491463,
            -0.06678838282823563,
            -0.01941307820379734,
            0.11069081723690033,
            0.017177803441882133,
            0.11072763800621033,
            -0.023992197588086128,
            0.03362999111413956
        ],
        [
            -0.030549505725502968,
            -0.02019313909113407,
            -0.1072247177362442,
            -0.01721869222819805,
            0.0022699718829244375,
            0.01317696925252676,
            0.060637496411800385,
            -0.09209326654672623,
            0.03290668502449989,
            -0.16847026348114014,
            -0.07887107878923416,
            0.05072722211480141,
            0.0996008887887001,
            -0.054256729781627655,
            0.028576316311955452,
            0.06954016536474228,
            -0.0067396932281553745,
            0.06241340935230255,
            0.11775081604719162,
            0.1512240320444107,
            -0.10640794783830643,
            0.07075341790914536,
            -0.018546247854828835,
            0.1574689745903015,
            0.008076727390289307,
            -0.057441018521785736,
            -0.11061252653598785,
            0.1277710199356079,
            -0.013737918809056282,
            -0.01342395506799221,
            -0.0049019199796020985,
            0.11768866330385208,
            -0.052614618092775345,
            -0.06224687024950981,
            -0.059356145560741425,
            0.05675913393497467,
            0.021699028089642525,
            0.05252979323267937,
            0.11419104784727097,
            -0.06499326974153519,
            -0.03052564337849617,
            -0.09767286479473114,
            0.04957195371389389,
            0.14877435564994812,
            0.006906263064593077,
            -0.05663282424211502,
            0.08601373434066772,
            0.019602643325924873,
            0.06935728341341019,
            -0.03296887129545212,
            -0.13746380805969238,
            -0.04731367155909538,
            -0.02278958633542061,
            -0.006819339003413916,
            -0.04536033049225807,
            0.005550513509660959,
            0.04463236778974533,
            0.043689433485269547,
            -0.05649570748209953,
            0.06826982647180557,
            0.019487181678414345,
            0.015663977712392807,
            -0.07017124444246292,
            -0.07847423106431961,
            -0.06996708363294601,
            -0.1181354969739914,
            -0.019022667780518532,
            -0.0363936610519886,
            -0.03217814117670059,
            -0.04797547310590744,
            0.022029532119631767,
            0.006515309680253267,
            -0.058718789368867874,
            0.0793193131685257,
            0.5971288681030273,
            -0.05329633504152298,
            0.05247296020388603,
            0.13609400391578674,
            -0.012441786006093025,
            0.04603911191225052,
            -0.08901447057723999,
            0.03863982483744621,
            0.027236424386501312,
            0.012817377224564552,
            -0.06096479669213295,
            -0.05434943363070488,
            -0.04651961848139763,
            -0.047651927918195724,
            -0.09998956322669983,
            -0.09763453155755997,
            0.026879388839006424,
            -0.02561861090362072,
            -0.05510459467768669,
            0.023539584130048752,
            0.13948512077331543,
            -0.007173527963459492,
            -0.023935245350003242,
            0.02437497489154339,
            0.07535149157047272,
            0.08539272844791412,
            -0.029732439666986465,
            0.11409749835729599,
            -0.03439703583717346,
            -0.0173785500228405,
            0.02896544523537159,
            0.08693442493677139,
            -0.07718751579523087,
            0.04372655227780342,
            0.030965888872742653,
            0.043182022869586945,
            0.23114632070064545,
            0.026905376464128494,
            0.07727554440498352,
            0.13778884708881378,
            0.05162610486149788,
            -0.0007269504712894559,
            0.04445759207010269,
            -0.11576765030622482,
            0.1410091370344162,
            -0.00948739517480135,
            0.023244235664606094,
            -0.05641480162739754,
            0.07633741945028305,
            0.0958777368068695,
            -0.011503579095005989,
            0.07960351556539536,
            -0.21322022378444672,
            -0.02075374871492386
        ],
        [
            0.01567695662379265,
            -0.08625471591949463,
            0.08123312890529633,
            0.039715323597192764,
            -0.03268813714385033,
            0.01064400002360344,
            0.0614740252494812,
            0.001989034004509449,
            0.004331669304519892,
            -0.040974367409944534,
            0.04036242142319679,
            -0.10011255741119385,
            -0.07863304764032364,
            -0.10465233027935028,
            -0.013170945458114147,
            0.006693682633340359,
            0.062271423637866974,
            0.08996155858039856,
            -0.11173747479915619,
            -0.1013120636343956,
            0.13668714463710785,
            0.053085338324308395,
            -0.024728411808609962,
            0.012917831540107727,
            0.007940193638205528,
            -0.03963366150856018,
            0.033817876130342484,
            -0.008712615817785263,
            -0.007150315213948488,
            -0.023111052811145782,
            0.04186398535966873,
            -0.06516467779874802,
            0.06989255547523499,
            -0.05482664704322815,
            0.06026566028594971,
            0.029810892418026924,
            -0.001203675288707018,
            -0.09612899273633957,
            0.05962936580181122,
            -0.054233938455581665,
            -0.016376284882426262,
            -0.0025690116453915834,
            0.10201819241046906,
            -0.1754419505596161,
            -0.062366507947444916,
            -0.014029211364686489,
            -0.12736457586288452,
            -0.005479301791638136,
            -0.03653948754072189,
            0.03481950983405113,
            -0.03202870115637779,
            0.04373190551996231,
            -0.04810512065887451,
            0.04441624879837036,
            0.04746467247605324,
            -0.008063551969826221,
            -0.0038289416115731,
            0.01762440800666809,
            -0.018542107194662094,
            0.044374629855155945,
            0.07532591372728348,
            0.05166841298341751,
            0.0257773045450449,
            0.0011487045558169484,
            -0.024818241596221924,
            -0.11477333307266235,
            -0.05919487029314041,
            0.04654882103204727,
            0.04504849389195442,
            -0.16146248579025269,
            0.042583003640174866,
            -0.007580406963825226,
            -0.10944471508264542,
            0.02181052602827549,
            -0.3278200626373291,
            0.08655527979135513,
            -0.04634750261902809,
            -0.21635745465755463,
            -0.015495948493480682,
            -0.08469849079847336,
            0.07492892444133759,
            -0.003071824088692665,
            -0.03443145751953125,
            -0.04591831937432289,
            -0.06614324450492859,
            0.033035412430763245,
            0.07369841635227203,
            -0.010918013751506805,
            0.04692613705992699,
            -0.012292740866541862,
            0.007843397557735443,
            -0.0218508280813694,
            -0.0705895647406578,
            0.0016036913730204105,
            -0.04249610751867294,
            0.028561512008309364,
            0.044286537915468216,
            -0.016988707706332207,
            -0.022786468267440796,
            -0.03368730470538139,
            0.03512837365269661,
            -0.09595480561256409,
            0.3134536147117615,
            -0.028042102232575417,
            0.014664236456155777,
            -0.17363078892230988,
            0.06766309589147568,
            -0.17631784081459045,
            -0.10584189742803574,
            0.0057950508780777454,
            -0.20330071449279785,
            -0.057578977197408676,
            -0.003135880921036005,
            -0.022837912663817406,
            0.07995004951953888,
            -0.05224660038948059,
            0.05604879930615425,
            -0.0013958406634628773,
            -0.028547434136271477,
            0.11114265769720078,
            0.05277181789278984,
            -0.07202896475791931,
            -0.026205066591501236,
            -0.042293060570955276,
            -0.02725139446556568,
            -0.10342710465192795,
            0.057873401790857315,
            -0.05191686749458313
        ],
        [
            0.03284510597586632,
            0.037363022565841675,
            0.0216428954154253,
            0.031912729144096375,
            -0.050313714891672134,
            -0.023080918937921524,
            -0.018298152834177017,
            0.06660249084234238,
            -0.0810711607336998,
            0.06787971407175064,
            -0.08219238370656967,
            0.039539046585559845,
            0.2411227822303772,
            0.04807884991168976,
            -0.10160479694604874,
            0.07699987292289734,
            0.0020988471806049347,
            -0.0894550308585167,
            -0.03261347487568855,
            -0.05298430472612381,
            -0.18551437556743622,
            0.02040068432688713,
            0.04795701801776886,
            -0.062040217220783234,
            -0.04199164733290672,
            0.07598644495010376,
            0.07242637872695923,
            -0.02445356920361519,
            0.09917887300252914,
            0.08087225258350372,
            0.04190827161073685,
            -0.02401776798069477,
            -0.04582420736551285,
            0.011307766661047935,
            -0.006138754077255726,
            0.0004306683549657464,
            -0.17077398300170898,
            0.05502106621861458,
            0.016988178715109825,
            0.06261743605136871,
            0.03691605105996132,
            -0.023630334064364433,
            0.07680533826351166,
            -0.033391546458005905,
            0.022378602996468544,
            0.01878577284514904,
            -0.03179550915956497,
            -0.05701947212219238,
            -0.06252194941043854,
            -0.03945557773113251,
            -0.16543133556842804,
            -0.03377578780055046,
            0.0643952339887619,
            0.007350027561187744,
            -0.05399441719055176,
            -0.0016443270724266768,
            -0.018405141308903694,
            -0.08021574467420578,
            0.06548652052879333,
            -0.0661979392170906,
            0.051481008529663086,
            -0.05695302039384842,
            0.04900301992893219,
            0.02381064184010029,
            0.05605243891477585,
            -0.036072734743356705,
            0.005147144664078951,
            -0.012617061845958233,
            -0.08901563286781311,
            0.03663083538413048,
            -0.10489186644554138,
            -0.10449153184890747,
            0.04712820053100586,
            -0.0656672865152359,
            -0.028500696644186974,
            0.03125546872615814,
            -0.009521028026938438,
            -0.25722986459732056,
            0.02573377825319767,
            0.026432286947965622,
            -0.014450453221797943,
            0.031106146052479744,
            0.021223729476332664,
            -0.08438587933778763,
            0.08167248964309692,
            -0.023986507207155228,
            -0.022198759019374847,
            -0.05033329874277115,
            0.04423829913139343,
            -0.026108046993613243,
            0.017690202221274376,
            0.0219374168664217,
            0.05859747529029846,
            -0.03400261700153351,
            -0.10627905279397964,
            0.06399758905172348,
            0.043403659015893936,
            0.04300793632864952,
            -0.04254043847322464,
            0.0007267110049724579,
            -0.06761355698108673,
            -0.044845595955848694,
            0.005070188082754612,
            0.07787082344293594,
            -0.016865190118551254,
            -0.027086319401860237,
            0.020218119025230408,
            -0.08963681012392044,
            -0.06102244555950165,
            0.03214729204773903,
            -0.00810910202562809,
            -0.01868884451687336,
            -0.056514889001846313,
            0.049562398344278336,
            -0.041766293346881866,
            -0.021225232630968094,
            -0.04955466836690903,
            0.018302764743566513,
            -0.06920366734266281,
            -0.04710271209478378,
            0.05168168991804123,
            0.032652221620082855,
            0.09264437109231949,
            0.02012750133872032,
            0.02202855423092842,
            0.07624010741710663,
            0.04640675708651543,
            0.022692404687404633
        ],
        [
            -0.02251788042485714,
            0.0012989264214411378,
            0.027081573382019997,
            0.11852329969406128,
            -0.0012766317231580615,
            0.049611274152994156,
            0.02224663831293583,
            0.11268766224384308,
            -0.06100061535835266,
            -0.03401683270931244,
            -0.04990573227405548,
            0.1006203293800354,
            -0.03758249059319496,
            -0.0318199060857296,
            -0.09321973472833633,
            -0.16984157264232635,
            0.04334641247987747,
            -0.08420585095882416,
            -0.09086929261684418,
            -0.003408357035368681,
            0.1392461359500885,
            -0.2196856439113617,
            0.05079565569758415,
            -0.05930289998650551,
            0.06016919016838074,
            -0.08196060359477997,
            -0.03177935630083084,
            0.06284433603286743,
            -0.05715280398726463,
            0.015369094908237457,
            0.07263801991939545,
            -0.1308402568101883,
            -0.008742408826947212,
            0.09321780502796173,
            0.07822103798389435,
            -0.034403152763843536,
            0.035097941756248474,
            -0.08394615352153778,
            -0.11889973282814026,
            -0.0748463049530983,
            0.014636624604463577,
            0.09171560406684875,
            -0.06847596913576126,
            -0.1190066933631897,
            0.006270707584917545,
            -0.061828963458538055,
            0.08772274106740952,
            0.013995103538036346,
            0.030926823616027832,
            -0.010445043444633484,
            0.21731041371822357,
            0.05252227187156677,
            -0.003862702753394842,
            0.011289906688034534,
            0.012592317536473274,
            -0.007374287582933903,
            0.008806472644209862,
            -0.005211949814110994,
            -0.05539073050022125,
            -0.0516386404633522,
            -0.07393496483564377,
            0.04238848388195038,
            0.13502085208892822,
            0.07456422597169876,
            0.07229871302843094,
            -0.02554074302315712,
            0.01437763124704361,
            0.07370899617671967,
            0.019405415281653404,
            0.024586902931332588,
            -0.04705601930618286,
            -0.0838494673371315,
            -0.021123796701431274,
            -0.09710539877414703,
            -0.17143680155277252,
            0.08915060013532639,
            -0.12881015241146088,
            -0.13457651436328888,
            0.009208466857671738,
            0.0611092634499073,
            0.07449355721473694,
            0.00020599480194505304,
            -0.06806740909814835,
            -0.08261515945196152,
            0.08260670304298401,
            -0.13781790435314178,
            0.003207114990800619,
            0.09921282529830933,
            -0.017083557322621346,
            0.15778906643390656,
            0.02241542376577854,
            0.012553522363305092,
            0.05489028990268707,
            0.07053403556346893,
            -0.1261947602033615,
            -0.07194490730762482,
            -0.0018914054380729795,
            -0.053503260016441345,
            0.09725586324930191,
            -0.05365801602602005,
            -0.07461380213499069,
            -0.1756155639886856,
            -0.13251179456710815,
            0.05316274240612984,
            -0.01735125668346882,
            0.06864140927791595,
            0.15207329392433167,
            -0.23289470374584198,
            0.006665680091828108,
            0.07544813305139542,
            0.16348803043365479,
            -0.01856081187725067,
            -0.11229468882083893,
            0.06181177496910095,
            -0.29190829396247864,
            -0.026479661464691162,
            0.07864060252904892,
            -0.04279790818691254,
            -0.10496275126934052,
            -0.13206501305103302,
            -0.15973709523677826,
            -0.007695651613175869,
            -0.033174194395542145,
            -0.015530298464000225,
            0.004958090838044882,
            0.15280528366565704,
            0.01984001323580742,
            0.018579358235001564
        ],
        [
            -0.004108791705220938,
            -0.12198401242494583,
            0.0007287880289368331,
            -0.04813650995492935,
            0.025262121111154556,
            -0.060950566083192825,
            0.08800296485424042,
            -0.06486351042985916,
            0.18615368008613586,
            0.5588369369506836,
            0.04761315509676933,
            -0.06662150472402573,
            -0.11480401456356049,
            -0.048611078411340714,
            0.3033921420574188,
            -0.021678876131772995,
            -0.013403854332864285,
            0.04604870453476906,
            0.09763846546411514,
