{
    "_metadata": {
        "best_epoch": 1427,
        "epoch": 1427,
        "loss_validation": 0.05700000002980232,
        "rms_validation": 0.21789999306201935,
        "rms_validation_descaled": 0.024000000208616257
    },
    "feature_max": {
        "An": 5.999999758330324,
        "Ate": 14.000000199863592,
        "Ati": 13.99999926747252,
        "Ti_Te": 2.5,
        "Zeff": 3.0000000865450716,
        "logNustar": -0.0002939697362449557,
        "q": 15.00000049369039,
        "smag": 4.999999911877099,
        "x": 0.9899999953872086
    },
    "feature_min": {
        "An": -5.000000120834838,
        "Ate": 1.999999800136407,
        "Ati": 2.000000146505496,
        "Ti_Te": 0.24999996255724435,
        "Zeff": 1.0,
        "logNustar": -5.000293560877084,
        "q": 0.6600001184856936,
        "smag": -1.0000000881229012,
        "x": 0.09000000856661262
    },
    "feature_names": [
        "Zeff",
        "Ati",
        "Ate",
        "An",
        "q",
        "smag",
        "x",
        "Ti_Te",
        "logNustar"
    ],
    "hidden_activation": [
        "tanh",
        "tanh",
        "tanh"
    ],
    "layer1/biases/Variable:0": [
        -1.0900243520736694,
        0.8278124928474426,
        1.0819447040557861,
        -0.6813091039657593,
        -2.0400772094726562,
        -1.238456130027771,
        -0.6057111024856567,
        -0.9244415760040283,
        1.695366621017456,
        -0.08156099170446396,
        -0.16484372317790985,
        0.1106254905462265,
        0.8872922658920288,
        1.5462758541107178,
        0.4537389874458313,
        -1.127814531326294,
        1.7346876859664917,
        0.43872949481010437,
        0.22255857288837433,
        0.3946191072463989,
        1.0313482284545898,
        -0.7320218682289124,
        0.8078826665878296,
        1.8543692827224731,
        -0.6221749186515808,
        -0.4142509400844574,
        0.8687434792518616,
        0.3397955596446991,
        0.6464536786079407,
        -0.7603438496589661,
        0.08542366325855255,
        1.1136503219604492,
        -1.4791401624679565,
        -0.0050993673503398895,
        -0.37577030062675476,
        0.34107643365859985,
        0.872761607170105,
        -1.175649881362915,
        -0.8126389980316162,
        0.7176066637039185,
        -0.3434908986091614,
        -1.5696882009506226,
        0.5979486107826233,
        0.39961856603622437,
        1.1412172317504883,
        -1.1409156322479248,
        0.7440738081932068,
        1.0949318408966064,
        0.5072475075721741,
        -0.3655007481575012,
        1.4058128595352173,
        0.8853846788406372,
        -0.0811915323138237,
        -0.46753308176994324,
        -1.3815312385559082,
        1.3100303411483765,
        1.2071857452392578,
        0.8846845626831055,
        0.08315563201904297,
        0.018107879906892776,
        -0.702335000038147,
        -0.559388279914856,
        -0.13317006826400757,
        -0.6725309491157532,
        -0.1600220799446106,
        -0.13655529916286469,
        -0.14064018428325653,
        0.40203967690467834,
        -0.2601328492164612,
        -1.9881069660186768,
        -0.28320810198783875,
        -0.1085137352347374,
        0.7693222761154175,
        -0.36746060848236084,
        -0.8651148676872253,
        -0.9704694151878357,
        -0.8697328567504883,
        0.3907608389854431,
        -0.06297750771045685,
        0.6246239542961121,
        0.7515121102333069,
        -0.7897858023643494,
        -0.9687977433204651,
        -0.3045283555984497,
        0.018106229603290558,
        0.3894512355327606,
        0.4023073613643646,
        2.103494167327881,
        0.8409852981567383,
        -1.1793080568313599,
        0.20341278612613678,
        0.34229835867881775,
        1.029351830482483,
        0.45186448097229004,
        -0.3034284710884094,
        1.3467161655426025,
        0.9619398713111877,
        1.5877586603164673,
        3.2890400886535645,
        -0.21910841763019562,
        3.1049180030822754,
        0.27539920806884766,
        1.328170657157898,
        -0.3211466073989868,
        -0.20319214463233948,
        0.7155866026878357,
        -1.0765963792800903,
        0.466498464345932,
        0.49920347332954407,
        -0.771494448184967,
        -1.410529613494873,
        -0.5389742851257324,
        -0.0007604673155583441,
        0.7090449333190918,
        0.553347110748291,
        0.017776332795619965,
        0.45438939332962036,
        -1.4813258647918701,
        0.7010657787322998,
        -0.32234227657318115,
        -1.2493515014648438,
        -0.7961907982826233,
        0.5511401891708374,
        1.4335814714431763,
        0.06672252714633942,
        1.1175549030303955,
        -1.1992028951644897,
        0.9271480441093445
    ],
    "layer1/weights/Variable:0": [
        [
            -0.4109480679035187,
            -0.13724800944328308,
            -0.05746060237288475,
            0.1616763472557068,
            0.000574003963265568,
            0.056711725890636444,
            0.3014924228191376,
            -0.04514886811375618,
            0.2646251320838928,
            -0.29402297735214233,
            -0.16672906279563904,
            -0.019298318773508072,
            0.1894317865371704,
            0.08238842338323593,
            -0.0004889671690762043,
            0.07748784869909286,
            0.10366415977478027,
            0.006007954943925142,
            -0.2909102141857147,
            0.006037136074155569,
            0.21478497982025146,
            0.09986939281225204,
            0.05257733166217804,
            0.1664910763502121,
            -0.09374511986970901,
            -0.024002186954021454,
            0.4311210513114929,
            0.12385744601488113,
            -0.021977486088871956,
            0.07128191739320755,
            0.043652333319187164,
            0.06502404063940048,
            -0.12411963939666748,
            0.06645698845386505,
            0.08050413429737091,
            0.09148234874010086,
            0.5381147861480713,
            0.18582817912101746,
            0.08845660090446472,
            0.06385792791843414,
            -0.18313360214233398,
            -0.3301061689853668,
            0.17427146434783936,
            0.07406678050756454,
            -0.0025328800547868013,
            -0.01667739264667034,
            -0.23503686487674713,
            -0.1329111009836197,
            -0.13102389872074127,
            0.1453055590391159,
            0.17847184836864471,
            0.019186073914170265,
            -0.14827823638916016,
            0.23658640682697296,
            0.005147125106304884,
            0.20758727192878723,
            0.00400964030995965,
            -0.03704432025551796,
            0.07317901402711868,
            -0.0771341323852539,
            0.00017867106362245977,
            0.05488797649741173,
            -0.06254357099533081,
            -0.31359541416168213,
            -0.29886627197265625,
            0.028288723900914192,
            -0.05876815691590309,
            0.05283799394965172,
            0.43172410130500793,
            0.0004717450065072626,
            -0.3116723597049713,
            0.17596006393432617,
            0.002573821460828185,
            -0.2109115570783615,
            0.3566800653934479,
            0.07508648931980133,
            0.0317990705370903,
            0.13210126757621765,
            -0.13419951498508453,
            0.05821576341986656,
            0.12040393799543381,
            0.03048263117671013,
            -0.032755449414253235,
            0.03495517373085022,
            -0.11048109829425812,
            0.12783151865005493,
            -0.0755750834941864,
            -0.001591986045241356,
            0.38940495252609253,
            -0.042664360255002975,
            0.08382963389158249,
            0.10099059343338013,
            -0.15281005203723907,
            -0.11230222880840302,
            -0.22085687518119812,
            0.2997817397117615,
            -0.09675829112529755,
            0.07697273790836334,
            0.00039799552178010345,
            -0.24524421989917755,
            -0.0009286372805945575,
            -0.05880530923604965,
            0.028706228360533714,
            -0.03172169625759125,
            -0.08079167455434799,
            0.03898795321583748,
            0.33349111676216125,
            0.07743309438228607,
            0.08465839177370071,
            0.054478663951158524,
            -0.003345837816596031,
            0.2530089020729065,
            -0.31115639209747314,
            0.05111832544207573,
            -0.1201925128698349,
            0.16344060003757477,
            -0.08064720779657364,
            -0.027879783883690834,
            -0.022741880267858505,
            0.03517169505357742,
            0.056689877063035965,
            0.085881806910038,
            0.12817344069480896,
            0.025059623643755913,
            0.001693607191555202,
            0.006843043491244316,
            0.03372098505496979,
            -0.08198067545890808
        ],
        [
            0.31205111742019653,
            -0.020704109221696854,
            -0.044403076171875,
            0.10026343166828156,
            0.0017922206316143274,
            -0.23773325979709625,
            -0.12071215361356735,
            0.024508928880095482,
            -0.02866937220096588,
            -0.1878533512353897,
            -0.06098219007253647,
            0.4201720952987671,
            0.07280062139034271,
            -0.21210187673568726,
            -0.33553194999694824,
            0.19810475409030914,
            0.3582817614078522,
            -0.13944175839424133,
            0.06942779570817947,
            -0.05245525762438774,
            -0.25757545232772827,
            0.1942017525434494,
            -0.19880713522434235,
            -0.10997723042964935,
            -0.06454899162054062,
            0.021626319736242294,
            -0.25777482986450195,
            -0.0710703656077385,
            0.02161753736436367,
            0.07431254535913467,
            0.08541838079690933,
            -0.11006243526935577,
            -0.031172800809144974,
            -0.06066766008734703,
            -0.10764337331056595,
            0.01643121987581253,
            -0.34803518652915955,
            -0.2748523950576782,
            0.08144376426935196,
            -0.4301407039165497,
            -0.025297636166214943,
            0.14701801538467407,
            -0.14751584827899933,
            0.3349958062171936,
            -0.13376717269420624,
            0.1733749806880951,
            0.11695916950702667,
            0.10676964372396469,
            0.14640487730503082,
            0.0036917412653565407,
            -0.08426973223686218,
            0.08720384538173676,
            -0.3581448197364807,
            -0.1261490136384964,
            0.037036918103694916,
            -0.6204906105995178,
            -0.12258949130773544,
            -0.04699297621846199,
            0.13778918981552124,
            -0.2543047070503235,
            0.01978881098330021,
            -0.025257395580410957,
            -0.018391741439700127,
            -0.05504854768514633,
            -0.057452257722616196,
            0.06397272646427155,
            0.11238889396190643,
            -0.05133162438869476,
            -0.35687196254730225,
            -0.004755680914968252,
            -0.0546049140393734,
            0.15951226651668549,
            0.030217904597520828,
            -0.18298523128032684,
            0.12520505487918854,
            -0.01987832970917225,
            -0.02484668605029583,
            -0.27105000615119934,
            -0.08668003231287003,
            -0.34283336997032166,
            0.5471480488777161,
            -0.03377927839756012,
            -0.5334142446517944,
            -0.28710082173347473,
            0.17656272649765015,
            -0.08877544850111008,
            -0.005061487201601267,
            -0.08606443554162979,
            -0.22719158232212067,
            -0.09978539496660233,
            -0.2205531746149063,
            0.09589186310768127,
            0.12925879657268524,
            -0.09790204465389252,
            0.7530955076217651,
            -0.08282091468572617,
            0.18398965895175934,
            0.22640599310398102,
            0.00040580885251984,
            0.1830756813287735,
            0.0026667157653719187,
            0.14070135354995728,
            0.28283992409706116,
            0.37637796998023987,
            0.09822746366262436,
            0.019340891391038895,
            0.04962286353111267,
            0.305332750082016,
            -0.27561885118484497,
            -0.12144841253757477,
            0.02487809956073761,
            -0.02245221473276615,
            0.21750445663928986,
            0.27881520986557007,
            0.030082697048783302,
            -0.0841100811958313,
            0.10259386897087097,
            0.07856132835149765,
            0.6044552326202393,
            -0.1693294495344162,
            0.18939736485481262,
            0.004366184119135141,
            -0.1190597414970398,
            -0.223905548453331,
            0.091551274061203,
            0.11327728629112244,
            0.19635789096355438,
            -0.04693114012479782
        ],
        [
            -0.23938287794589996,
            0.03852912038564682,
            0.128906711935997,
            -0.044964175671339035,
            0.004684392362833023,
            -0.42349910736083984,
            0.03478249907493591,
            -0.025886984542012215,
            1.0103583335876465,
            0.01058608666062355,
            -0.2748604416847229,
            -0.20739534497261047,
            -0.06848644465208054,
            0.06713815033435822,
            0.12242971360683441,
            0.06336158514022827,
            0.025463568046689034,
            0.35522300004959106,
            -0.4993358254432678,
            0.19830547273159027,
            -0.18509410321712494,
            0.1609726995229721,
            0.02551211416721344,
            0.03171661123633385,
            -0.07209363579750061,
            0.22093132138252258,
            -0.030703121796250343,
            -0.00535447895526886,
            0.009835280478000641,
            -0.39087530970573425,
            0.4490818977355957,
            0.46513065695762634,
            0.10233963280916214,
            0.1748882383108139,
            0.18636615574359894,
            -0.2816295623779297,
            0.1567286252975464,
            0.08747786283493042,
            -0.07771621644496918,
            0.3471290171146393,
            0.06756874173879623,
            0.3242286443710327,
            0.07016617804765701,
            0.5961582064628601,
            0.21926936507225037,
            0.0595724955201149,
            0.25621116161346436,
            0.0797744020819664,
            0.4840798079967499,
            -0.021885918453335762,
            -0.13495133817195892,
            0.9333662390708923,
            -0.2393682897090912,
            0.15290218591690063,
            0.09059760719537735,
            0.7089941501617432,
            0.29894888401031494,
            0.2280765026807785,
            -0.832308828830719,
            0.09885908663272858,
            0.24485264718532562,
            -0.46470004320144653,
            -0.1349443942308426,
            -0.19803816080093384,
            -0.4428521692752838,
            -0.9339451789855957,
            -0.18652749061584473,
            0.2924433648586273,
            -0.07263492792844772,
            0.004276160150766373,
            0.09196238964796066,
            0.061756864190101624,
            0.10214611887931824,
            -0.25431209802627563,
            -0.005189124029129744,
            -0.03473775088787079,
            0.3941802680492401,
            0.560088574886322,
            0.14278946816921234,
            0.02237749844789505,
            -0.3094908893108368,
            -0.060682512819767,
            -0.11577390879392624,
            -0.07928343117237091,
            -0.18851310014724731,
            0.05376787856221199,
            0.3264031708240509,
            1.4124476909637451,
            0.23269721865653992,
            0.1928039789199829,
            0.04190000891685486,
            -0.20033995807170868,
            0.3994973301887512,
            0.053071338683366776,
            -0.31260356307029724,
            0.016027694568037987,
            0.08148176968097687,
            0.02393159456551075,
            -0.0009406459867022932,
            -0.14366267621517181,
            -0.0011114570079371333,
            0.10061260312795639,
            0.24933840334415436,
            -0.3696228265762329,
            -0.0709928348660469,
            -0.2176387757062912,
            -0.0034047826193273067,
            -0.02108207903802395,
            -0.19327609241008759,
            0.2925092875957489,
            -0.519890308380127,
            -0.10170482844114304,
            0.12665881216526031,
            -0.09495009481906891,
            -0.1959851235151291,
            -0.10940813273191452,
            0.3974471390247345,
            -0.06262239813804626,
            0.3302643597126007,
            0.23913519084453583,
            0.08341190963983536,
            -0.4645516872406006,
            -0.176481232047081,
            0.6908906698226929,
            0.21264924108982086,
            -0.10147608071565628,
            -0.09569799900054932,
            -0.12847091257572174
        ],
        [
            -0.2359807938337326,
            0.04898678511381149,
            -0.0035448933485895395,
            0.030222004279494286,
            -0.003569185035303235,
            -0.285204142332077,
            -0.14305785298347473,
            -0.4848680794239044,
            0.1659182608127594,
            0.02139734849333763,
            -0.030744576826691628,
            0.2957313358783722,
            0.04783162474632263,
            0.02665296569466591,
            0.19796091318130493,
            0.23793663084506989,
            0.5871871113777161,
            0.25632500648498535,
            -0.22223727405071259,
            0.20347096025943756,
            0.7910188436508179,
            -0.11266753822565079,
            0.2643516957759857,
            0.3808212876319885,
            -0.33706286549568176,
            -0.1821257323026657,
            0.06296844035387039,
            -0.17823919653892517,
            -0.2225227653980255,
            -0.6806983947753906,
            0.15259887278079987,
            -0.04177936911582947,
            -0.3324609398841858,
            -0.08222790062427521,
            -0.030465757474303246,
            0.07528106123209,
            0.03047461062669754,
            -0.4139406979084015,
            -0.015319851227104664,
            -0.8076573610305786,
            -0.015168980695307255,
            -0.3516305387020111,
            -0.43139782547950745,
            -0.25842809677124023,
            0.38627058267593384,
            -0.055338677018880844,
            0.001535560004413128,
            0.4737224280834198,
            -0.043677374720573425,
            0.3047168254852295,
            -0.17125888168811798,
            -0.8811790347099304,
            0.10078597813844681,
            -0.25626400113105774,
            0.009860541671514511,
            0.0022910982370376587,
            0.9768947958946228,
            -0.008387214504182339,
            0.18387874960899353,
            -0.3421739637851715,
            -0.24827855825424194,
            0.47240519523620605,
            -0.07828067243099213,
            0.04180378466844559,
            0.3273138105869293,
            0.13286113739013672,
            0.30130597949028015,
            0.006570831406861544,
            0.2495298683643341,
            -0.0027518547140061855,
            0.12974923849105835,
            -0.04081357643008232,
            -0.25503480434417725,
            0.028669679537415504,
            0.17405134439468384,
            0.06779646873474121,
            -0.12681634724140167,
            -0.23691698908805847,
            -0.11289148032665253,
            0.04157814756035805,
            -0.008319869637489319,
            0.15230506658554077,
            -0.19150438904762268,
            -0.03614317625761032,
            -0.19429568946361542,
            0.39491498470306396,
            0.11532515287399292,
            0.8361013531684875,
            0.015257339924573898,
            -0.621148407459259,
            -0.044277556240558624,
            0.5197044014930725,
            0.48829683661460876,
            -0.2055252343416214,
            -0.13191965222358704,
            0.5454625487327576,
            0.2570563554763794,
            -0.04852147027850151,
            0.0015427219914272428,
            -0.14417076110839844,
            0.0001664743758738041,
            -0.20391911268234253,
            0.28649988770484924,
            -0.6628478169441223,
            0.004881403408944607,
            0.3518209159374237,
            -0.00852370448410511,
            0.2835807502269745,
            0.7559010982513428,
            0.022169703617691994,
            -0.34670937061309814,
            0.16299377381801605,
            -0.35686054825782776,
            0.045494161546230316,
            0.15059170126914978,
            -0.3498618006706238,
            0.4334148168563843,
            0.03620731830596924,
            -0.49561408162117004,
            -0.38437125086784363,
            -0.12718689441680908,
            -0.250805139541626,
            -0.048853471875190735,
            0.09346109628677368,
            -0.2549796402454376,
            -0.05754685774445534,
            0.05346177518367767,
            -0.18524616956710815
        ],
        [
            0.08591286838054657,
            -0.1909610629081726,
            -0.02874002791941166,
            0.0383286289870739,
            -0.001397440442815423,
            -0.10035111010074615,
            0.13730713725090027,
            0.009361667558550835,
            0.03874315321445465,
            -0.06908712536096573,
            -0.053424984216690063,
            0.018200648948550224,
            -0.00960181187838316,
            -0.14030583202838898,
            0.046105675399303436,
            0.1859789937734604,
            -0.06528691202402115,
            0.17515507340431213,
            -0.05129518359899521,
            1.212530255317688,
            -0.04337990656495094,
            0.012818554416298866,
            -0.3424352705478668,
            -0.09232423454523087,
            0.1312376856803894,
            -0.030741114169359207,
            -0.03796803578734398,
            0.6047821044921875,
            0.12141764163970947,
            0.03459234908223152,
            -0.3527596592903137,
            0.09080411493778229,
            -0.04334556683897972,
            0.1275516152381897,
            -1.3192323446273804,
            -0.11981874704360962,
            0.09218069911003113,
            0.11708594858646393,
            -0.34828293323516846,
            -0.10767873376607895,
            0.20487737655639648,
            -0.07114629447460175,
            -0.018216177821159363,
            -0.006087072193622589,
            -0.07530920952558517,
            0.03191300481557846,
            -0.025667697191238403,
            0.06765483319759369,
            0.03282344341278076,
            0.12579846382141113,
            -0.0012293901527300477,
            -0.010245446115732193,
            -0.06606044620275497,
            0.11416573077440262,
            -1.849914789199829,
            -0.05699259042739868,
            0.04255774989724159,
            1.3737280368804932,
            0.028238119557499886,
            0.3116563558578491,
            0.09878499805927277,
            0.13282908499240875,
            -0.10136648267507553,
            -0.04432082921266556,
            -0.013257191516458988,
            -0.0710546001791954,
            0.0688915103673935,
            0.22578777372837067,
            0.018508074805140495,
            0.004576527513563633,
            0.0794428139925003,
            0.008273961953818798,
            0.3291296362876892,
            -0.21400421857833862,
            0.01335299015045166,
            0.03567565605044365,
            -0.017765318974852562,
            0.046738363802433014,
            0.04127246141433716,
            -0.08656919747591019,
            -0.0022697511594742537,
            -0.17280878126621246,
            -0.04177626594901085,
            0.1063011884689331,
            0.12716437876224518,
            -0.13068155944347382,
            0.02233574539422989,
            -0.005509253591299057,
            0.02385764569044113,
            0.0330573245882988,
            -0.01914067193865776,
            0.4582849442958832,
            0.0997798964381218,
            -0.3942417502403259,
            -0.030645286664366722,
            -0.004745467100292444,
            -0.14773991703987122,
            0.05678289756178856,
            0.00041114346822723746,
            0.01693430170416832,
            -4.779045411851257e-05,
            -0.2155020385980606,
            0.06172243878245354,
            0.15033461153507233,
            -0.08007077127695084,
            0.12752360105514526,
            0.14856457710266113,
            0.009415945969522,
            -0.057967107743024826,
            -0.06969553977251053,
            -0.07438583672046661,
            0.013468032702803612,
            0.03776159882545471,
            -0.07427173852920532,
            0.03504899889230728,
            0.04517076909542084,
            0.0058851903304457664,
            0.023140251636505127,
            -0.02230716310441494,
            0.011651311069726944,
            -0.024905916303396225,
            -0.02496528811752796,
            -0.014047648757696152,
            -0.1433744877576828,
            -0.01786903478205204,
            0.09204021096229553,
            -0.014219311997294426,
            -0.006275254301726818
        ],
        [
            0.24169529974460602,
            -0.18136684596538544,
            -0.022368036210536957,
            0.2075873464345932,
            6.034145917510614e-05,
            0.3841571807861328,
            -0.04659663885831833,
            -1.0929185152053833,
            -0.01905537024140358,
            -0.11275917291641235,
            0.10130107402801514,
            0.16451309621334076,
            0.1073569804430008,
            -0.28226715326309204,
            0.7869540452957153,
            -0.20137976109981537,
            -0.06881152838468552,
            -0.9143807291984558,
            0.3246917426586151,
            0.24716748297214508,
            0.017033273354172707,
            0.2879352867603302,
            0.32478559017181396,
            0.11480551213026047,
            0.06205974519252777,
            0.05921758711338043,
            0.07133878767490387,
            0.0406898632645607,
            0.3970165550708771,
            -0.17994798719882965,
            -0.08912211656570435,
            1.4656989574432373,
            -0.047510966658592224,
            -0.1890988051891327,
            -0.6520772576332092,
            0.5036283135414124,
            0.0951216071844101,
            0.13030382990837097,
            0.20412184298038483,
            0.19364392757415771,
            0.05251981317996979,
            -0.2201046198606491,
            0.3442417085170746,
            -0.19344735145568848,
            0.22435814142227173,
            0.008778336457908154,
            -0.09639032185077667,
            0.15270790457725525,
            -0.16164784133434296,
            0.44565436244010925,
            0.2817630469799042,
            0.35001277923583984,
            -0.04191345348954201,
            -0.45430299639701843,
            0.0057458351366221905,
            0.5886167287826538,
            -0.7164418697357178,
            -0.20911958813667297,
            -0.026619862765073776,
            0.3253308832645416,
            0.09458518028259277,
            -0.008806135505437851,
            -0.1445542573928833,
            -0.11555749922990799,
            0.18775391578674316,
            0.23367939889431,
            -0.76218181848526,
            -0.14765511453151703,
            0.10354863852262497,
            0.0001409025862812996,
            0.23270101845264435,
            0.29956355690956116,
            0.010888840071856976,
            -0.14305514097213745,
            0.01754196546971798,
            0.37833040952682495,
            -0.2204878330230713,
            0.2421541064977646,
            0.07674402743577957,
            -0.4233035445213318,
            0.11696872115135193,
            -0.01650131866335869,
            0.10517340898513794,
            0.3785737156867981,
            -0.114590123295784,
            -0.2676072418689728,
            -0.5613336563110352,
            -0.7469323873519897,
            -0.2805437445640564,
            -0.08305703103542328,
            0.002445103833451867,
            -0.1226286068558693,
            0.364267498254776,
            -0.5597645044326782,
            -0.44007232785224915,
            -0.22367268800735474,
            0.16618598997592926,
            0.09211583435535431,
            -0.0005194955738261342,
            -0.7567601203918457,
            -0.00012943790352437645,
            0.2425098419189453,
            0.4559553861618042,
            0.3599848747253418,
            0.04005997255444527,
            -0.20422528684139252,
            -0.17215372622013092,
            -0.23045377433300018,
            -0.28762659430503845,
            -0.0856533944606781,
            0.813427746295929,
            0.2515794336795807,
            0.23496080935001373,
            0.26525941491127014,
            0.16166754066944122,
            -0.1844625174999237,
            -0.14363273978233337,
            0.08545203506946564,
            0.11981523036956787,
            0.09528417885303497,
            0.5791859030723572,
            0.5070606470108032,
            0.22194522619247437,
            -0.1958187073469162,
            0.6615461707115173,
            -0.037178266793489456,
            0.2535554766654968,
            0.25092005729675293
        ],
        [
            -0.3778042197227478,
            -0.04091186821460724,
            -0.07023723423480988,
            -0.3665508031845093,
            -0.0008536477689631283,
            -0.017291728407144547,
            0.17836172878742218,
            0.0693415105342865,
            -0.15380118787288666,
            -0.08658739179372787,
            -0.11967111378908157,
            -0.05971348658204079,
            0.0962996855378151,
            -0.10908103734254837,
            0.053295332938432693,
            0.06662499904632568,
            -0.39200738072395325,
            0.3046010136604309,
            0.11016233265399933,
            0.13035470247268677,
            -0.20527131855487823,
            -0.33600345253944397,
            0.1709461808204651,
            0.047306738793849945,
            0.1264381855726242,
            0.015236828476190567,
            -0.15464110672473907,
            -0.10563907027244568,
            0.1535748988389969,
            -0.001909459475427866,
            0.17722921073436737,
            0.09317563474178314,
            0.06502892822027206,
            0.009498857893049717,
            -0.2188320904970169,
            0.21608605980873108,
            -0.10212430357933044,
            0.1857406198978424,
            -0.07361973822116852,
            -0.2517302632331848,
            0.4049638509750366,
            0.3815672695636749,
            -0.12278661131858826,
            -0.03922254219651222,
            -0.4351717531681061,
            0.016431568190455437,
            -0.13790486752986908,
            -0.006109777372330427,
            -0.12645047903060913,
            -0.22156089544296265,
            -0.14208368957042694,
            -0.05088314041495323,
            0.24557814002037048,
            -0.44876962900161743,
            0.08015270531177521,
            -0.3054789900779724,
            -0.11411889642477036,
            0.34336304664611816,
            -0.17770901322364807,
            0.13175366818904877,
            0.3596176505088806,
            0.1306014060974121,
            0.49092039465904236,
            0.183118999004364,
            -0.07540478557348251,
            -0.3180938959121704,
            -0.024958711117506027,
            -0.06508342921733856,
            0.04675422981381416,
            0.0005784980021417141,
            -0.09974902868270874,
            -0.16608276963233948,
            -0.1935230940580368,
            -0.22180667519569397,
            0.00549989752471447,
            -0.8062377572059631,
            0.0790107399225235,
            -0.34554216265678406,
            -0.2836970090866089,
            -0.005389949306845665,
            -0.10592914372682571,
            0.058788467198610306,
            -0.02152394689619541,
            -0.11137374490499496,
            -0.5072899460792542,
            0.10367181152105331,
            -0.13430415093898773,
            0.07309945672750473,
            0.15893496572971344,
            0.2864605486392975,
            -0.07318329066038132,
            -0.024983499199151993,
            0.23198437690734863,
            0.02509935572743416,
            0.1556403785943985,
            0.017871137708425522,
            0.14842256903648376,
            0.02035190537571907,
            0.001293384120799601,
            0.22271482646465302,
            -0.0002092825889121741,
            -0.39343181252479553,
            0.0938621312379837,
            -0.04502594843506813,
            -0.2589673399925232,
            -0.1647765040397644,
            0.03418748080730438,
            -0.20667095482349396,
            -0.08348850905895233,
            0.04172471538186073,
            0.1409778594970703,
            -0.3885704278945923,
            -0.011576996184885502,
            0.05754663422703743,
            0.019151458516716957,
            0.21429111063480377,
            0.15749841928482056,
            0.11080831289291382,
            0.0017291627591475844,
            0.0958775207400322,
            -0.21901904046535492,
            -0.5892905592918396,
            -0.2041318118572235,
            0.051673468202352524,
            0.1544591784477234,
            -0.18977707624435425,
            0.09320475161075592,
            0.4147731065750122
        ],
        [
            -0.1445266157388687,
            0.16311241686344147,
            0.024686364457011223,
            0.03891278803348541,
            0.0017316269222646952,
            -0.36998921632766724,
            -0.7093501091003418,
            0.0922970175743103,
            0.1178557500243187,
            -0.5497317314147949,
            -0.14830264449119568,
            0.10108140110969543,
            -0.07999119907617569,
            0.49837905168533325,
            0.16966111958026886,
            -0.44278234243392944,
            -0.061058614403009415,
            -0.07557885348796844,
            0.2266046106815338,
            -0.005262344144284725,
            -0.6484649777412415,
            -0.7600135803222656,
            -0.2634084224700928,
            -0.18240182101726532,
            0.06775328516960144,
            0.16744618117809296,
            -0.4555758833885193,
            0.011843451298773289,
            0.07466282695531845,
            -0.14579401910305023,
            0.008184453472495079,
            -0.034277621656656265,
            0.1632334142923355,
            0.08955235034227371,
            -0.11944341659545898,
            -0.015192502178251743,
            -0.18234695494174957,
            -0.39956972002983093,
            0.07971498370170593,
            0.38314196467399597,
            -0.01644318364560604,
            0.2463131994009018,
            0.7126544117927551,
            -0.15974830090999603,
            -0.07490646839141846,
            0.11973938345909119,
            0.006199254188686609,
            0.06949686259031296,
            -0.0800337865948677,
            0.10658421367406845,
            1.0319243669509888,
            -0.05429328233003616,
            -0.22385016083717346,
            -0.10634182393550873,
            -0.14158453047275543,
            -0.17700889706611633,
            0.06361805647611618,
            0.0735766738653183,
            0.10494324564933777,
            0.38417696952819824,
            -0.02832229621708393,
            -0.09812922775745392,
            -0.02300656959414482,
            0.39383530616760254,
            -0.30786681175231934,
            0.05863337591290474,
            -0.12494707852602005,
            -0.06618601083755493,
            0.2777429521083832,
            -0.002243535127490759,
            0.3206090033054352,
            -0.16031119227409363,
            -0.1972316950559616,
            0.4695821702480316,
            0.1851319968700409,
            0.06316132098436356,
            0.14113639295101166,
            -0.17861199378967285,
            0.38386011123657227,
            -0.26838061213493347,
            -0.3395913243293762,
            0.014681785367429256,
            -0.18072901666164398,
            -0.3060973584651947,
            -0.17711541056632996,
            -0.14137579500675201,
            0.34971103072166443,
            -0.026871412992477417,
            -0.37911662459373474,
            0.10226813703775406,
            -0.08484114706516266,
            -0.042166583240032196,
            0.2071775197982788,
            0.2235841006040573,
            -0.2760058045387268,
            0.3657151460647583,
            0.18490102887153625,
            -0.058329615741968155,
            -3.558647586032748e-05,
            0.2654436528682709,
            -0.0005349487182684243,
            0.17400451004505157,
            0.382241815328598,
            0.015633471310138702,
            0.0344570092856884,
            -0.08201944082975388,
            -0.1456720381975174,
            0.7332358360290527,
            0.07465361058712006,
            -0.14893527328968048,
            0.14742408692836761,
            -0.47154608368873596,
            -0.3802269399166107,
            -0.16135841608047485,
            0.0991864949464798,
            -0.3679111897945404,
            -0.023603081703186035,
            -0.11348143219947815,
            -0.30397555232048035,
            -0.04901568219065666,
            0.026083586737513542,
            -0.08776440471410751,
            -0.14185132086277008,
            -0.08794227987527847,
            -0.009492174722254276,
            -0.008586875163018703,
            -0.04676441103219986,
            0.0873100757598877
        ],
        [
            -0.14710457623004913,
            -0.15364673733711243,
            -0.18995751440525055,
            -0.18412692844867706,
            -0.0034492656122893095,
            0.09701698273420334,
            -0.3191111981868744,
            0.17301584780216217,
            0.05123252794146538,
            -0.06932468712329865,
            -0.3122140169143677,
            -0.3093831539154053,
            0.11004579812288284,
            0.12294497340917587,
            0.07969184964895248,
            0.19657854735851288,
            0.25452297925949097,
            -0.22755491733551025,
            0.23628666996955872,
            -0.1523149162530899,
            -0.0009509160881862044,
            -0.06020224839448929,
            0.16502240300178528,
            0.27144956588745117,
            0.3224088251590729,
            0.005371483042836189,
            -0.22763916850090027,
            -0.07131718099117279,
            -0.8420853018760681,
            -0.19305989146232605,
            -0.10615813732147217,
            0.08376207202672958,
            -0.12002944946289062,
            -0.022191843017935753,
            -0.07994765043258667,
            0.013293294236063957,
            -0.05459490790963173,
            0.2659139335155487,
            -0.14221908152103424,
            0.11349206417798996,
            -0.17912918329238892,
            -0.07138872146606445,
            -0.042377013713121414,
            0.02267848141491413,
            0.036998994648456573,
            -0.02144186943769455,
            -0.16535989940166473,
            0.13813990354537964,
            -0.12892714142799377,
            -0.04171103611588478,
            -0.03443141654133797,
            -0.08433973044157028,
            0.025246823206543922,
            -0.07825491577386856,
            0.06518357992172241,
            0.13790802657604218,
            -0.22459883987903595,
            -0.013268103823065758,
            0.3697650730609894,
            0.21993088722229004,
            -0.24805966019630432,
            0.034951306879520416,
            -0.3741869330406189,
            -0.20714877545833588,
            0.18430006504058838,
            0.1185949295759201,
            -0.05391737446188927,
            -0.502583920955658,
            0.17872756719589233,
            -0.0036418186500668526,
            -0.023296192288398743,
            0.3713400661945343,
            -0.048483848571777344,
            0.1874488741159439,
            -0.04467480629682541,
            -0.1563127338886261,
            -0.27082082629203796,
            -0.3309735357761383,
            -0.3194272816181183,
            -0.19334642589092255,
            0.21249417960643768,
            0.957561194896698,
            -0.24454520642757416,
            0.22882601618766785,
            0.09054922312498093,
            0.24651895463466644,
            0.21989141404628754,
            -0.04855253919959068,
            0.2809631824493408,
            -0.16811497509479523,
            -0.50018709897995,
            0.0428948774933815,
            -0.022125445306301117,
            0.16846825182437897,
            0.13254781067371368,
            -0.06504597514867783,
            0.24006089568138123,
            -0.0008798401104286313,
            0.0013173167826607823,
            -0.23364029824733734,
            0.00027760397642850876,
            0.14662110805511475,
            -0.022784441709518433,
            -0.0898565873503685,
            0.5885650515556335,
            -0.3867519497871399,
            -0.2509489357471466,
            -0.05933982878923416,
            0.09336114674806595,
            0.8045614957809448,
            -0.2979184687137604,
            0.08354145288467407,
            -0.0004908247501589358,
            0.07954432815313339,
            -0.8522365093231201,
            0.05251993238925934,
            -0.04337206855416298,
            -0.023176969960331917,
            -0.14298538863658905,
            -0.3735627233982086,
            0.07201992720365524,
            -0.31022003293037415,
            -0.3999693691730499,
            1.0000226497650146,
            0.04058476537466049,
            -1.1495919227600098,
            0.06772737205028534,
            0.3626995086669922
        ]
    ],
    "layer2/biases/Variable:0": [
        -1.6210429668426514,
        1.4477143287658691,
        -1.5626405477523804,
        0.903709888458252,
        0.6766712069511414,
        -0.5825397372245789,
        -0.6577423810958862,
        1.4851653575897217,
        0.8724563717842102,
        1.569517731666565,
        0.08828527480363846,
        0.8591020107269287,
        -3.328291893005371,
        0.07347127795219421,
        0.3126954734325409,
        1.1210715770721436,
        -0.038481272757053375,
        -0.09897279739379883,
        0.002536785788834095,
        -1.191603660583496,
        -0.3835756778717041,
        -0.04368433728814125,
        0.9910708665847778,
        1.2190141677856445,
        0.210683211684227,
        -0.00403239531442523,
        0.262122243642807,
        -0.8620734810829163,
        -2.006004571914673,
        -1.0823742151260376,
        1.3594448566436768,
        -0.6063388586044312,
        -0.0013690968044102192,
        0.8583939075469971,
        0.3427383005619049,
        0.07097391039133072,
        1.1485975980758667,
        0.9112356901168823,
        0.25266996026039124,
        -1.3029776811599731,
        0.28168705105781555,
        0.8993121385574341,
        -0.02327684871852398,
        -1.0803468227386475,
        0.9876683950424194,
        -1.6111658811569214,
        0.46843570470809937,
        -0.23257361352443695,
        -0.46173280477523804,
        0.8269577026367188,
        0.8959295153617859,
        -0.305351197719574,
        0.7728415727615356,
        0.46519529819488525,
        0.4532066285610199,
        -1.8172435760498047,
        -0.2983223795890808,
        1.0899916887283325,
        -0.2963438928127289,
        -0.006841602269560099,
        -0.6075474619865417,
        1.1602784395217896,
        -0.245860755443573,
        -1.4966028928756714,
        0.4394382834434509,
        0.45990487933158875,
        -1.6874445676803589,
        1.4602941274642944,
        -1.23726224899292,
        -0.536237359046936,
        0.4192151129245758,
        0.7130047082901001,
        0.027441708371043205,
        -0.5408259034156799,
        -0.4880276322364807,
        0.9692658185958862,
        1.2943487167358398,
        0.13769201934337616,
        0.06107926368713379,
        0.47136199474334717,
        -0.7093638181686401,
        0.32268378138542175,
        1.565926194190979,
        0.45468685030937195,
        0.22964508831501007,
        -0.7143093347549438,
        -0.6620698571205139,
        -0.15206362307071686,
        -0.9769443869590759,
        0.8280589580535889,
        1.3128708600997925,
        -1.1852834224700928,
        -0.539937436580658,
        0.10684604197740555,
        -0.3830883502960205,
        1.360021948814392,
        2.629667282104492,
        -0.8057205677032471,
        0.9577999114990234,
        0.47955894470214844,
        0.4528478682041168,
        0.0038138586096465588,
        0.3743820786476135,
        0.4207074046134949,
        -1.8196061849594116,
        0.28575435280799866,
        -0.30353865027427673,
        0.5973469614982605,
        0.37931740283966064,
        -0.22565747797489166,
        0.08366475254297256,
        -0.31095176935195923,
        0.14123958349227905,
        -0.30992597341537476,
        1.4038125276565552,
        -0.6582207083702087,
        0.49715784192085266,
        -0.3340977728366852,
        -0.6571559309959412,
        0.26932287216186523,
        -0.8387967944145203,
        -1.0552524328231812,
        -0.329643189907074,
        0.10567159205675125,
        -1.5052779912948608,
        1.2508472204208374,
        -0.4335775375366211,
        -2.2145862579345703
    ],
    "layer2/weights/Variable:0": [
        [
            0.012546008452773094,
            0.09530770033597946,
            0.011816221289336681,
            0.035389482975006104,
            0.11173910647630692,
            0.011431328020989895,
            0.05783385783433914,
            0.020556503906846046,
            0.02687479928135872,
            0.03200758248567581,
            -0.10431907325983047,
            0.023928308859467506,
            0.0007039878983050585,
            -0.017495116218924522,
            -0.12569183111190796,
            -0.0006302482215687633,
            0.022759616374969482,
            0.00316971680149436,
            -0.00019980783690698445,
            0.10107705742120743,
            -0.007705393247306347,
            0.02516157180070877,
            -0.029013698920607567,
            -0.03154091164469719,
            -0.002127548912540078,
            -0.008400510996580124,
            0.03518224507570267,
            0.00027961976593360305,
            0.021248580887913704,
            -0.024631917476654053,
            0.05681757256388664,
            -0.0760464146733284,
            0.028199808672070503,
            0.0339670367538929,
            -0.019485481083393097,
            0.04555154964327812,
            0.03245094045996666,
            -0.058995869010686874,
            -0.05789942666888237,
            0.12386856973171234,
            0.0008505888399668038,
            -0.1440657526254654,
            0.09663944691419601,
            0.006800157018005848,
            0.05387924611568451,
            -0.025765059515833855,
            -0.01833435334265232,
            0.08049006015062332,
            -0.08297232538461685,
            -0.0854702964425087,
            -0.02956746704876423,
            -0.04197537899017334,
            0.042672835290431976,
            -0.09539758414030075,
            0.040645986795425415,
            -0.04005701094865799,
            0.009244644083082676,
            0.014109104871749878,
            -0.009225369431078434,
            0.06531865894794464,
            0.002063874853774905,
            -0.04309706389904022,
            -0.0048126280307769775,
            -0.0639410987496376,
            0.08717242628335953,
            0.014439991675317287,
            -0.038839977234601974,
            0.03976022079586983,
            -0.026333514600992203,
            0.01703428290784359,
            0.10835297405719757,
            -0.011227372102439404,
            0.05002840235829353,
            -0.10218676924705505,
            -0.03200506418943405,
            -0.06898873299360275,
            -0.05164327472448349,
            -0.00969159509986639,
            0.05738949030637741,
            0.09953146427869797,
            -0.02092897519469261,
            0.16023889183998108,
            0.02099607326090336,
            -0.005343433935195208,
            -0.12099174410104752,
            0.07058387994766235,
            0.0809764415025711,
            -0.017933659255504608,
            -0.002300277817994356,
            -0.03054186701774597,
            0.16416142880916595,
            -0.028019549325108528,
            -0.03791419044137001,
            -0.009195515885949135,
            -0.036962609738111496,
            0.00907408632338047,
            -0.008982502855360508,
            0.032394446432590485,
            0.1363278031349182,
            -0.02890385128557682,
            0.015593046322464943,
            0.0668845921754837,
            -0.016500385478138924,
            0.0557820126414299,
            0.08691786229610443,
            -0.011440965346992016,
            -0.011973640881478786,
            -0.051632922142744064,
            0.029022863134741783,
            0.02692928910255432,
            0.0010250507621094584,
            0.00602350989356637,
            -0.11206761747598648,
            0.043734271079301834,
            -0.0286698080599308,
            -0.05562298744916916,
            0.11703521758317947,
            0.001194577431306243,
            -0.05379446595907211,
            0.07990945875644684,
            -0.023864859715104103,
            0.008810224942862988,
            0.00274243438616395,
            0.04639112204313278,
            -0.04539322853088379,
            -0.03202405944466591,
            0.03011832945048809,
            -0.040015291422605515
        ],
        [
            0.033787406980991364,
            -0.11702124774456024,
            -0.01707174815237522,
            0.050156526267528534,
            -0.007563383784145117,
            0.003036152571439743,
            -0.036784734576940536,
            -0.008015488274395466,
            -0.05354607477784157,
            -0.04543398320674896,
            0.03157466650009155,
            -0.01638852432370186,
            -0.0003736864309757948,
            0.008971705101430416,
            -0.046858154237270355,
            -0.014171955175697803,
            -0.009867900051176548,
            0.007366932928562164,
            0.010834223590791225,
            0.016919299960136414,
            0.023222314193844795,
            0.02027980610728264,
            0.014069720171391964,
            -0.03192443028092384,
            -0.014477982185781002,
            0.08591589331626892,
            0.009358532726764679,
            0.0045108487829566,
            0.022687330842018127,
            0.020245056599378586,
            -0.009350472129881382,
            0.02804083563387394,
            0.002607838250696659,
            0.06473562121391296,
            0.009061145596206188,
            0.0520002581179142,
            -0.019755303859710693,
            -0.05634433403611183,
            -0.05255621671676636,
            0.003074218286201358,
            -0.005675734020769596,
            0.05179572105407715,
            0.04755953326821327,
            0.01724429801106453,
            0.06438520550727844,
            -0.001203192863613367,
            0.004011793527752161,
            0.02876010537147522,
            -0.04597197473049164,
            0.12281984090805054,
            -0.03470597416162491,
            0.0002830428129527718,
            -0.047780003398656845,
            -0.019579503685235977,
            -0.00024429510813206434,
            0.02666948176920414,
            -0.006182156503200531,
            -0.02761690877377987,
            0.022417565807700157,
            -0.04327308014035225,
            0.007375720888376236,
            -0.06046493723988533,
            -0.017997168004512787,
            0.027866026386618614,
            -0.006243106443434954,
            -0.013314769603312016,
            0.027485335245728493,
            -0.022538892924785614,
            0.02708219364285469,
            0.008434226736426353,
            0.017258521169424057,
            0.0021877512335777283,
            0.05171021446585655,
            -0.06801306456327438,
            0.021568885073065758,
            0.004105726256966591,
            -0.020204853266477585,
            0.03645762801170349,
            -0.006663940846920013,
            0.008050313219428062,
            0.007143460214138031,
            0.011219019070267677,
            0.03664495423436165,
            0.06836181879043579,
            0.032856449484825134,
            0.06992748379707336,
            0.010182563215494156,
            0.01517437119036913,
            0.018529953435063362,
            -0.003980538342148066,
            -0.12302844226360321,
            0.02943139337003231,
            0.009134739637374878,
            -0.023096170276403427,
            -0.001235467498190701,
            0.027398191392421722,
            -0.04099506884813309,
            -0.04165257513523102,
            -0.020397435873746872,
            0.003049155930057168,
            -0.04146939516067505,
            -0.045395754277706146,
            -0.06385757774114609,
            0.006433829665184021,
            0.005858574993908405,
            -0.011262784712016582,
            0.06555464118719101,
            -0.038727156817913055,
            0.04347694665193558,
            0.016863811761140823,
            -0.04405827447772026,
            -0.00543899554759264,
            -0.06226189807057381,
            0.07111503928899765,
            -0.09976325929164886,
            -0.0004235112573951483,
            -0.04424627497792244,
            -0.02174094133079052,
            0.003379275556653738,
            -0.0025539540220052004,
            0.011120274662971497,
            0.07808354496955872,
            0.00359328743070364,
            0.002148302039131522,
            0.024472622200846672,
            0.03174399212002754,
            -0.005411624442785978,
            0.011258208192884922
        ],
        [
            0.020772043615579605,
            -0.024032777175307274,
            0.014143272303044796,
            0.023637648671865463,
            -0.10567179322242737,
            -0.019403180107474327,
            0.16437609493732452,
            -0.036534275859594345,
            -0.009566187858581543,
            -0.030890217050909996,
            -0.006572234909981489,
            0.035434771329164505,
            -0.0005989443161524832,
            -0.0012401817366480827,
            0.04260630160570145,
            0.017658399417996407,
            -0.0030865666922181845,
            0.009188908152282238,
            -0.004328268114477396,
            0.06377964466810226,
            0.002994181588292122,
            -0.001963880844414234,
            0.03633289411664009,
            -0.04725544527173042,
            -0.04869825392961502,
            -0.021316105499863625,
            -0.002132902154698968,
            0.03892022371292114,
            0.01914006844162941,
            0.02481338568031788,
            -0.00978387426584959,
            0.00018303620163351297,
            -0.024324677884578705,
            0.05665499344468117,
            -0.14136679470539093,
            -0.014846744015812874,
            0.10679870843887329,
            -0.07204778492450714,
            -0.02859121933579445,
            0.013359465636312962,
            -0.004372640047222376,
            -0.03745679557323456,
            -0.003691277001053095,
            0.02363479882478714,
            -0.020380709320306778,
            0.024026459082961082,
            0.042539022862911224,
            -0.00814951490610838,
            -0.05918426811695099,
            0.08514036983251572,
            0.039136894047260284,
            -0.0026007676497101784,
            -0.03532763198018074,
            0.011583731509745121,
            0.019221264868974686,
            0.03139297664165497,
            0.008095662109553814,
            -0.034577175974845886,
            -0.0037113772705197334,
            -0.003400325309485197,
            0.01528974249958992,
            -0.02973226271569729,
            -0.00997436698526144,
            0.025745350867509842,
            -0.011654083617031574,
            -0.0075246673077344894,
            0.027799786999821663,
            -0.025236504152417183,
            0.022397292777895927,
            0.014228258281946182,
            -0.021235182881355286,
            -0.010845103301107883,
            0.06657157093286514,
            -0.013306726701557636,
            0.012107097543776035,
            -0.01562943123281002,
            -0.0263101514428854,
            0.02555464580655098,
            0.016584698110818863,
            0.0630863681435585,
            0.021947432309389114,
            0.027562996372580528,
            0.01758457161486149,
            0.03981846943497658,
            -0.06227589771151543,
            0.04861444979906082,
            0.013121499679982662,
            0.009501337073743343,
            0.029993193224072456,
            -0.0034289273899048567,
            0.06184042990207672,
            0.030737528577446938,
            0.0002096493699355051,
            -0.036573078483343124,
            -0.005570690613240004,
            -0.005783034488558769,
            -0.07769521325826645,
            0.006745071150362492,
            -0.01881740242242813,
            -0.0002827105054166168,
            -0.00021200629998929799,
            -0.02861691266298294,
            -0.006389251444488764,
            0.011418845504522324,
            0.02653755433857441,
            -0.009314912371337414,
            0.00168128521181643,
            0.09645241498947144,
            0.033792153000831604,
            -0.0612938217818737,
            -0.024117833003401756,
            -0.016557706519961357,
            -0.0002414260379737243,
            0.030444687232375145,
            -0.03392818197607994,
            0.01897754892706871,
            0.13008441030979156,
            0.08522676676511765,
            0.07220269739627838,
            0.11372657865285873,
            0.0057318066246807575,
            -0.08169921487569809,
            0.0050694881938397884,
            0.005284844432026148,
            0.0227060429751873,
            -0.022479435428977013,
            -0.006290900520980358,
            -0.04476780444383621
        ],
        [
            0.024353044107556343,
            -0.032985471189022064,
            0.07083439081907272,
            0.04911347106099129,
            0.03745829313993454,
            -0.08947443217039108,
            0.02892884984612465,
            3.834362723864615e-05,
            0.015038669109344482,
            0.021923301741480827,
            -0.05270920321345329,
            0.02178545854985714,
            0.000662720063701272,
            0.0030991840176284313,
            -0.018245605751872063,
            -0.03555892035365105,
            0.02482454478740692,
            0.034676384180784225,
            -0.07236967235803604,
            -0.007187742739915848,
            0.014866979792714119,
            0.026708178222179413,
            0.04789043590426445,
            0.021631963551044464,
            0.016383254900574684,
            -0.026128515601158142,
            0.06418929249048233,
            -0.04862681031227112,
            0.03104996122419834,
            -0.024142183363437653,
            0.09004770219326019,
            0.08250157535076141,
            0.011713861487805843,
            -0.034622810781002045,
            -0.025326047092676163,
            0.08835697174072266,
            0.042144790291786194,
            0.0841650664806366,
            0.02087480202317238,
            0.04502801597118378,
            0.0031354010570794344,
            0.04175266996026039,
            0.023090355098247528,
            0.04043879732489586,
            0.0006601061904802918,
            0.027397610247135162,
            -0.10647589713335037,
            0.02331196889281273,
            0.0017399764619767666,
            0.11018664389848709,
            0.03350621089339256,
            -0.015532947145402431,
            -0.00984080508351326,
            -0.020312311127781868,
            0.048125579953193665,
            -0.03435571491718292,
            0.027190562337636948,
            0.07224091142416,
            0.06122317537665367,
            -0.017264515161514282,
            0.040801141411066055,
            -0.05531657859683037,
            0.013745767995715141,
            -0.03708012402057648,
            0.010999588295817375,
            0.006252598948776722,
            -0.05146066099405289,
            0.06579536944627762,
            -0.03293244168162346,
            0.003908291459083557,
            0.011220227926969528,
            0.022283807396888733,
            0.10265590995550156,
            0.042194914072752,
            -0.019538069143891335,
            -0.046669092029333115,
            -0.02858252264559269,
            0.014561128802597523,
            0.002259603701531887,
            0.010006741620600224,
            -0.0068242596462368965,
            0.008858435787260532,
            0.04418333247303963,
            0.08404191583395004,
            -0.05796493589878082,
            0.06810000538825989,
            -0.039147522300481796,
            -0.073552705347538,
            0.016684439033269882,
            -0.06024160608649254,
            0.08569435775279999,
            -0.013968962244689465,
            -0.03646441549062729,
            0.025844717398285866,
            -0.0049575986340641975,
            0.06852639466524124,
            0.06214847415685654,
            -0.00374852167442441,
            0.05778386816382408,
            0.0008836483466438949,
            0.00928562693297863,
            0.03415418788790703,
            0.07884393632411957,
            -0.010534577071666718,
            -0.0166819728910923,
            -0.017008479684591293,
            0.050952594727277756,
            0.013573559932410717,
            0.05329275131225586,
            -0.021935801953077316,
            -0.013710523024201393,
            0.007782771252095699,
            0.044079653918743134,
            -0.036751896142959595,
            0.04734593629837036,
            -0.01796039752662182,
            0.07710063457489014,
            -0.0024458563420921564,
            0.03543059900403023,
            0.007600131910294294,
            -0.025805694982409477,
            0.041989635676145554,
            -0.0014361545909196138,
            0.026940321549773216,
            -0.020063970237970352,
            -0.010752641595900059,
            0.02132267691195011,
            -0.046443115919828415
        ],
        [
            -0.02673817239701748,
            0.0010546825360506773,
            -0.013919041492044926,
            -0.08263098448514938,
            0.10882256925106049,
            0.0027299372013658285,
            0.21986132860183716,
            0.006209109909832478,
            0.06990765780210495,
            0.01882983185350895,
            0.0762254148721695,
            0.0034815126564353704,
            0.0008131508366204798,
            0.0008428152650594711,
            0.05509432405233383,
            -0.020846350118517876,
            -0.0007087348494678736,
            -0.008608788251876831,
            -0.018699748441576958,
            0.10398957133293152,
            -0.004046816378831863,
            0.0005236809956841171,
            0.004381909966468811,
            0.04254249110817909,
            0.008227861486375332,
            0.005183493252843618,
            -0.03463920205831528,
            -0.05431663244962692,
            -0.017522741109132767,
            -0.023346489295363426,
            0.034197840839624405,
            -0.06306123733520508,
            -0.0073561896570026875,
            -0.03181099146604538,
            -0.0038293011020869017,
            -0.30842530727386475,
            -0.09971148520708084,
            -0.023401863873004913,
            -0.012717227451503277,
            -0.009258539415895939,
            0.005017372313886881,
            -0.007206964306533337,
            0.023844145238399506,
            -0.013664151541888714,
            -0.054903171956539154,
            -0.027062660083174706,
            -0.040044043213129044,
            -0.25415685772895813,
            0.01937977969646454,
            -0.012695012614130974,
            0.07982775568962097,
            -0.004395239055156708,
            0.025350378826260567,
            -0.00395013066008687,
            0.09418331831693649,
            -0.03999786823987961,
            -0.012420729734003544,
            0.0340992696583271,
            0.038021598011255264,
            0.022630492225289345,
            -0.013249918818473816,
            -0.021185237914323807,
            0.0005920084659010172,
            -0.025401946157217026,
            -0.0042747133411467075,
            -0.01870492473244667,
            -0.030655331909656525,
            0.037157561630010605,
            -0.0292791947722435,
            -0.0013788534561172128,
            0.004822390154004097,
            0.02231556922197342,
            -0.06142323464155197,
            -0.0014622975140810013,
            -0.011924944818019867,
            0.01587868668138981,
            0.04164644330739975,
            -0.014610537327826023,
            -0.006593259051442146,
            0.05693288892507553,
            -0.02130482718348503,
            0.03810219466686249,
            0.025573289021849632,
            0.03487557917833328,
            0.0515003502368927,
            -0.054190486669540405,
            -0.020293982699513435,
            -0.019818130880594254,
            -0.028170041739940643,
            0.017293112352490425,
            -0.046974483877420425,
            -0.029220886528491974,
            -0.010707526467740536,
            0.07893864810466766,
            -0.005091774743050337,
            0.0017649679211899638,
            -0.012578480876982212,
            -0.029798217117786407,
            0.019414259120821953,
            0.048163771629333496,
            -0.0038418422918766737,
            0.0011036680079996586,
            -0.01660872995853424,
            0.01071186363697052,
            -0.169702410697937,
            0.007180917542427778,
            0.06546220928430557,
            0.08977586030960083,
            0.011743373237550259,
            -0.12914133071899414,
            0.0100869694724679,
            0.0027585288044065237,
            0.015472779050469398,
            0.013177203014492989,
            0.04191581532359123,
            -0.046136852353811264,
            0.15189635753631592,
            0.05796701833605766,
            -0.006528368219733238,
            0.2037583440542221,
            -0.00529858935624361,
            -0.005695807747542858,
            -0.003814735682681203,
            -0.0005591202061623335,
            -0.018952397629618645,
            0.014006556943058968,
            -0.011034433729946613,
            0.017837505787611008
        ],
        [
            -0.036513082683086395,
            0.06994824856519699,
            0.020516371354460716,
            -0.0069673312827944756,
            0.03840098902583122,
            0.0738813728094101,
            -0.3440796732902527,
            -0.012325691059231758,
            0.04049534723162651,
            0.04511597752571106,
            -0.1289929747581482,
            -0.04939008504152298,
            0.0003820281126536429,
            0.0074654435738921165,
            -0.07505781948566437,
            -0.06359733641147614,
            -0.03006945550441742,
            0.022813480347394943,
            0.004860687535256147,
            0.028719838708639145,
            0.005008548963814974,
            0.05854644626379013,
            -0.020686015486717224,
            -0.028659436851739883,
            -0.03639638051390648,
            0.01794528029859066,
            0.08928437530994415,
            0.011952431872487068,
            -0.0645090863108635,
            -0.028843803331255913,
            0.09301493316888809,
            0.19684895873069763,
            -0.018830345943570137,
            -0.10007933527231216,
            -0.0831255093216896,
            0.2144264131784439,
            -0.15363667905330658,
            0.06996127963066101,
            0.00701633607968688,
            0.03854698687791824,
            0.005238508805632591,
            -0.12340672314167023,
            0.014130710624158382,
            -0.03589334338903427,
            -0.041195571422576904,
            -0.04652827978134155,
            -0.017803307622671127,
            -0.02104763872921467,
            0.007478057872503996,
            -0.0829949676990509,
            0.05199502781033516,
            0.010965255089104176,
            0.03589070960879326,
            0.04358388110995293,
            -0.04240043833851814,
            -0.04111563041806221,
            -0.0383077897131443,
            0.03220662474632263,
            -0.017333073541522026,
            0.03562944382429123,
            -0.005751265678554773,
            0.11418730765581131,
            0.024833321571350098,
            -0.04358315467834473,
            0.02511933632194996,
            -0.04747570678591728,
            -0.026578715071082115,
            0.021411217749118805,
            -0.02935345470905304,
            -0.033018387854099274,
            0.038284048438072205,
            0.036384012550115585,
            -0.04676583409309387,
            0.014106649905443192,
            -0.0008921521948650479,
            0.014753391966223717,
            0.029284540563821793,
            -0.1007063090801239,
            -0.014695091173052788,
            0.20030322670936584,
            -0.011784308589994907,
            -0.014694614335894585,
            -0.025180531665682793,
            -0.09918688982725143,
            -0.1942310780286789,
            0.04161609709262848,
            -0.036027051508426666,
            0.02489684894680977,
            -0.03430577740073204,
            -0.06247881054878235,
            0.07898488640785217,
            -0.025738388299942017,
            -0.03933553397655487,
            0.05926785245537758,
            -0.027476085349917412,
            -0.03609555959701538,
            0.03579628840088844,
            0.13687622547149658,
            0.01443686243146658,
            -0.04442804679274559,
            0.07625050097703934,
            0.02784079685807228,
            -0.049225617200136185,
            0.020857522264122963,
            0.09872028231620789,
            0.009958644397556782,
            0.14479665458202362,
            0.16698165237903595,
            -0.06766942143440247,
            0.035773809999227524,
            0.05468929558992386,
            -0.04377499967813492,
            0.051493022590875626,
            -0.11795628070831299,
            0.002139088697731495,
            -0.03705146163702011,
            0.05491603910923004,
            -0.020055634900927544,
            -0.12420288473367691,
            -0.03284900635480881,
            -0.0005387473502196372,
            0.12606902420520782,
            -0.006630449555814266,
            -0.0070336973294615746,
            -0.019436698406934738,
            -0.06048857793211937,
            -0.02194945327937603,
            -0.0244503915309906
        ],
        [
            -0.03035898506641388,
            0.03870777040719986,
            0.08109460026025772,
            -0.07301096618175507,
            0.02107805199921131,
            0.10066700726747513,
            0.1570412516593933,
            0.018171900883316994,
            0.08305926620960236,
            0.044321876019239426,
            -0.10753016918897629,
            -0.038465991616249084,
            0.0001540568337077275,
            0.00416503706946969,
            -0.06985367834568024,
            0.06038966774940491,
            -0.023873066529631615,
            0.05989143252372742,
            0.0026596724055707455,
            -0.004617109429091215,
            -0.0017249316442757845,
            0.0073366896249353886,
            -0.07578738033771515,
            0.006073837634176016,
            -0.04079706221818924,
            -0.05915997177362442,
            0.0033381914254277945,
            0.08850184082984924,
            0.02692384272813797,
            -0.03570159524679184,
            -0.07553336024284363,
            -0.019370727241039276,
            0.029800746589899063,
            0.037632476538419724,
            0.08334816992282867,
            0.11163753271102905,
            -0.03525019809603691,
            0.05897081270813942,
            -0.010284305550158024,
            0.0999000146985054,
            0.0028251842595636845,
            -0.01929134503006935,
            0.014189150184392929,
            -0.03244272246956825,
            -0.033281002193689346,
            -0.03958255052566528,
            0.10149955749511719,
            0.1270264983177185,
            -0.0962335541844368,
            0.02366906963288784,
            -0.04377312585711479,
            0.005806256551295519,
            -0.029356610029935837,
            0.01914033852517605,
            -0.045962363481521606,
            -0.018275437876582146,
            0.05559924989938736,
            -0.09966323524713516,
            0.09473247826099396,
            0.020268108695745468,
            -0.017952699214220047,
            -0.15424859523773193,
            -0.02111073024570942,
            0.025674033910036087,
            -0.054471250623464584,
            -0.08407483994960785,
            0.006293190643191338,
            -0.12829844653606415,
            -0.0224604569375515,
            -0.03550000861287117,
            -0.041698209941387177,
            0.0015704362886026502,
            0.11630038172006607,
            0.006644034758210182,
            -0.00734746502712369,
            0.13199380040168762,
            -0.015533237718045712,
            -0.026361973956227303,
            -0.07766285538673401,
            0.03850897029042244,
            0.03893082216382027,
            -0.058236632496118546,
            -0.004673931282013655,
            0.0459965355694294,
            -0.008088243193924427,
            -0.3069038689136505,
            0.05772128328680992,
            -0.008528187870979309,
            0.06619299203157425,
            0.06698331981897354,
            0.018794385716319084,
            -0.009872689843177795,
            0.07672925293445587,
            -0.013876570388674736,
            0.01518369559198618,
            0.06175345182418823,
            0.06161177158355713,
            0.03763549029827118,
            -0.03639083728194237,
            -0.13035665452480316,
            0.10449355095624924,
            -0.016246303915977478,
            -0.14111587405204773,
            0.026976048946380615,
            -0.059783440083265305,
            0.007486284244805574,
            -0.025720497593283653,
            -0.08051446825265884,
            0.06345885992050171,
            -0.04698677361011505,
            -0.03565394878387451,
            -0.04308076575398445,
            -0.07486407458782196,
            -0.018459377810359,
            0.013259735889732838,
            -0.12293333560228348,
            -0.026629723608493805,
            0.12132177501916885,
            -0.043455589562654495,
            0.023584537208080292,
            0.08785931020975113,
            -0.024305840954184532,
            -0.0033563675824552774,
            -0.013868957757949829,
            -0.10046640038490295,
            0.026933107525110245,
            -0.05358246713876724,
            -0.0371314138174057
        ],
        [
            -0.0013461264315992594,
            0.05088922381401062,
            -0.12689080834388733,
            0.07914306223392487,
            -0.01031714677810669,
            0.044964272528886795,
            -0.1855139434337616,
            0.17016811668872833,
            0.08152846246957779,
            0.05560364946722984,
            0.017103593796491623,
            0.0019982168450951576,
            -0.0002150543441530317,
            0.02197429910302162,
            -0.055959552526474,
            0.03510737419128418,
            -0.0034869941882789135,
            -0.03559485822916031,
            -0.05330410227179527,
            0.13044628500938416,
            0.002707456238567829,
            -0.06402462720870972,
            0.06468719244003296,
            0.1752663254737854,
            0.126872256398201,
            0.03534691408276558,
            -0.08799630403518677,
            0.0360107459127903,
            0.0492217056453228,
            -0.03616207465529442,
            -0.2378237545490265,
            -0.0035583314020186663,
            -0.07405631989240646,
            -0.07435447722673416,
            0.03384914994239807,
            0.052349742501974106,
            -0.021970806643366814,
            0.17395977675914764,
            -0.03980013355612755,
            -0.14677004516124725,
            0.00652239890769124,
            -0.04250705614686012,
            0.04358373209834099,
            -0.013453757390379906,
            0.12337616086006165,
            -0.07701841741800308,
            0.04368320107460022,
            0.10052473843097687,
            0.01911202259361744,
            0.41782844066619873,
            -0.2108030468225479,
            -0.0395863838493824,
            0.07503863424062729,
            -0.02890218049287796,
            -0.07985160499811172,
            -0.036620236933231354,
            0.004934973083436489,
            -0.00943789817392826,
            -0.07985304296016693,
            -0.21220363676548004,
            -0.048645004630088806,
            -0.07398754358291626,
            0.0001498353376518935,
            -0.01366395503282547,
            -0.0764472484588623,
            -0.07761988788843155,
            -0.0050141881220042706,
            0.06277349591255188,
            -0.030894026160240173,
            -0.05468504875898361,
            -0.14406996965408325,
            0.032694268971681595,
            -0.017157599329948425,
            0.09284421801567078,
            -0.007084216456860304,
            -0.03668173775076866,
            -0.0978735163807869,
            -0.00048509129555895925,
            0.014877524226903915,
            -0.07438523322343826,
            -0.00011306988744763657,
            -0.02602383680641651,
            -0.06031004711985588,
            -0.1857917457818985,
            0.19159190356731415,
            0.11803919821977615,
            0.10206987708806992,
            -0.04711322858929634,
            0.0546397790312767,
            0.04528648406267166,
            -0.16443321108818054,
            -0.015029089525341988,
            0.007310721091926098,
            0.05143364891409874,
            0.031328070908784866,
            0.07350190728902817,
            0.011692117899656296,
            0.015861330553889275,
            -0.04184680059552193,
            0.11738765239715576,
            0.20630522072315216,
            -0.10338536649942398,
            -0.4602522850036621,
            -0.024334639310836792,
            0.024343077093362808,
            0.028256239369511604,
            0.0215749628841877,
            0.2885769009590149,
            -0.07816502451896667,
            -0.040670521557331085,
            0.11801043897867203,
            0.023930784314870834,
            -0.16864247620105743,
            -0.037110768258571625,
            0.1886485517024994,
            -0.05109478160738945,
            -0.15441420674324036,
            -0.133027583360672,
            -0.010223722085356712,
            0.16343563795089722,
            0.10888024419546127,
            -0.23359131813049316,
            -0.003963128663599491,
            -0.05470623821020126,
            -0.02147352695465088,
            0.07057009637355804,
            0.01815486140549183,
            -0.02236761339008808
        ],
        [
            -0.03321437910199165,
            -0.03980157524347305,
            0.04601708799600601,
            0.042870331555604935,
            -0.14885705709457397,
            0.06660028547048569,
            -0.025220492854714394,
            -0.05620986595749855,
            0.09018219262361526,
            -0.009053726680576801,
            0.015492122620344162,
            -0.008987204171717167,
            -1.6984002286335453e-05,
            0.0023000985383987427,
            0.31372830271720886,
            0.06914821267127991,
            0.04572848975658417,
            0.02265838347375393,
            0.11393257230520248,
            -0.07203588634729385,
            -0.015507742762565613,
            -0.03846943378448486,
            0.0820545107126236,
            -0.003295562695711851,
            0.10016680508852005,
            -0.08785539120435715,
            0.010356107726693153,
            -0.0354723259806633,
            -0.004322697874158621,
            0.028567271307110786,
            -0.0261179618537426,
            0.27187564969062805,
            0.011544784530997276,
            0.08689688891172409,
            0.0008167042396962643,
            0.03781354799866676,
            0.022326400503516197,
            0.017556574195623398,
            -0.062592513859272,
            0.03221018239855766,
            -0.00242347689345479,
            0.023791268467903137,
            -0.09041555970907211,
            0.11926297098398209,
            -0.021673399955034256,
            0.044625647366046906,
            0.09772934764623642,
            -0.18006838858127594,
            -0.14935505390167236,
            -0.10817880928516388,
            0.10718827694654465,
            -0.010621686466038227,
            -0.008752157911658287,
            -0.001446342095732689,
            -0.15099000930786133,
            0.02167569287121296,
            -0.0051837339997291565,
            0.01706504262983799,
            0.023554999381303787,
            0.0927644595503807,
            -0.041925929486751556,
            -0.07026182860136032,
            -0.06830526888370514,
            -0.006299033761024475,
            -0.016556354239583015,
            0.0019389588851481676,
            -0.013112896122038364,
            -0.1012495830655098,
            0.02829008176922798,
            0.05872052162885666,
            -0.0698394700884819,
            -0.06054302304983139,
            -0.013937771320343018,
            0.049768753349781036,
            -0.0039813704788684845,
            -0.004661356098949909,
            0.034614820033311844,
            0.013649862259626389,
            0.07464437186717987,
            0.13508500158786774,
            0.03866425156593323,
            0.012002573348581791,
            -0.027714649215340614,
            -0.0639946311712265,
            0.1705150455236435,
            -0.08873269706964493,
            -0.1153167262673378,
            -0.005438581574708223,
            0.040059879422187805,
            0.05727558955550194,
            0.0026318219024688005,
            0.02388683147728443,
            0.06477635353803635,
            -0.042262885719537735,
            0.10643824189901352,
            -0.09490097314119339,
            -0.038077738136053085,
            -0.10694102197885513,
            0.022746020928025246,
            0.04810632765293121,
            -0.016495592892169952,
            -0.013184592127799988,
            0.0628967210650444,
            0.031905751675367355,
            -0.05805392563343048,
            -0.0027805748395621777,
            0.24026350677013397,
            0.33680111169815063,
            -0.055768728256225586,
            -0.1641690880060196,
            -0.015622329898178577,
            0.0457584485411644,
            0.0742701068520546,
            -0.05790718272328377,
            -0.17670254409313202,
            -0.03614131733775139,
            -0.05356377735733986,
            0.005201352294534445,
            -0.03771170601248741,
            0.06687235832214355,
            -0.001998194959014654,
            -0.13117586076259613,
            0.005731696728616953,
            0.012243231758475304,
            0.021570704877376556,
            -0.05364936590194702,
            0.027275847271084785,
            -0.14289969205856323
        ],
        [
            -0.029623480513691902,
            -0.09226907044649124,
            0.046480484306812286,
            -0.0017711756518110633,
            -0.043770093470811844,
            -0.06605394184589386,
            0.04753560572862625,
            -0.022987931966781616,
            -0.04770512878894806,
            0.024767233058810234,
            -0.00576988747343421,
            -0.05044705420732498,
            -0.0003199860220775008,
            -0.0034512546844780445,
            0.05605073273181915,
            0.029040366411209106,
            0.004586908966302872,
            0.08572561293840408,
            0.0255252867937088,
            -0.021655064076185226,
            0.010690465569496155,
            -0.021338116377592087,
            0.02901609241962433,
            -0.04750530421733856,
            -0.0027811408508569,
            -0.09309202432632446,
            -0.028803221881389618,
            -0.028751131147146225,
            -0.013479886576533318,
            0.003213021205738187,
            -0.042097367346286774,
            -0.16920705139636993,
            -0.07292531430721283,
            -0.028583167120814323,
            -0.1430397480726242,
            -0.03308555856347084,
            -0.0012847628677263856,
            -0.015299404039978981,
            -0.008827440440654755,
            -0.010240275412797928,
            -0.0044685532338917255,
            0.013539684936404228,
            0.06382277607917786,
            -0.0941276103258133,
            -0.02511758543550968,
            -0.002579999854788184,
            0.023575637489557266,
            0.07392161339521408,
            -0.09283491224050522,
            -0.015314535237848759,
            0.006464426871389151,
            -0.03522157669067383,
            0.004822851158678532,
            -0.0013365279883146286,
            -0.02635815367102623,
            -0.02210787869989872,
            0.008250011131167412,
            -0.04007339850068092,
            -0.04994475468993187,
            -0.07167696207761765,
            0.0902237519621849,
            0.02133144438266754,
            -0.060704220086336136,
            -0.0037445416674017906,
            -0.018535470589995384,
            -0.015673955902457237,
            -0.044423967599868774,
            -0.01523524709045887,
            -0.02290140651166439,
            -0.025942357257008553,
            0.010383467189967632,
            -0.006115799304097891,
            0.04209133982658386,
            -0.06323496252298355,
            -0.013655136339366436,
            0.043224308639764786,
            -0.01595427468419075,
            0.027352793142199516,
            0.08735894411802292,
            0.016839735209941864,
            0.013544646091759205,
            0.06567015498876572,
            -0.050411611795425415,
            0.0517829991877079,
            0.02336900122463703,
            0.10002110153436661,
            0.15298165380954742,
            -0.02237526886165142,
            -0.02820730209350586,
            0.009153194725513458,
            0.06942565739154816,
            0.012059277854859829,
            0.001054715015925467,
            0.034367844462394714,
            -0.0060373153537511826,
            0.020588908344507217,
            0.019140642136335373,
            -0.02223258465528488,
            0.0007906222017481923,
            -0.017556672915816307,
            0.007353506982326508,
            0.04257012531161308,
            0.021698739379644394,
            0.039344672113657,
            -0.04404980689287186,
            -0.0067552728578448296,
            -0.14341965317726135,
            -0.1805626004934311,
            -0.017194148153066635,
            -0.05507654696702957,
            -0.007167402654886246,
            -0.035101573914289474,
            0.041518643498420715,
            0.016286926344037056,
            -0.006725074257701635,
            0.015620963647961617,
            0.043080173432826996,
            0.04217386245727539,
            0.08852288126945496,
            0.06258698552846909,
            -0.00825311616063118,
            -0.012893907725811005,
            0.015710502862930298,
            0.008338846266269684,
            0.03752348944544792,
            0.013237706385552883,
            -0.01793581433594227,
            -0.008660254068672657
        ],
        [
            -0.012603837996721268,
            0.012556200847029686,
            0.024548880755901337,
            -0.020646411925554276,
            -0.036568090319633484,
            0.0225919671356678,
            0.03769649192690849,
            -0.07282385975122452,
            -0.04988892376422882,
            -0.005191784352064133,
            -0.08828436583280563,
            -0.06211639940738678,
            0.00010895822924794629,
            0.007320584263652563,
            -0.04085755720734596,
            -0.04665343835949898,
            -0.011815997771918774,
            0.05856623128056526,
            0.021571768447756767,
            0.10721565783023834,
            7.487211405532435e-06,
            0.03909897804260254,
            -0.0379650816321373,
            -0.058265652507543564,
            -0.059100184589624405,
            -0.02372073195874691,
            0.053800951689481735,
            -0.009346812963485718,
            0.025406012311577797,
            -0.025602100417017937,
            0.043784961104393005,
            0.005794722121208906,
            0.0071329581551253796,
            -0.07907400280237198,
            -0.08375183492898941,
            0.08667565882205963,
            -0.07022219151258469,
            -0.028558550402522087,
            -0.007251304108649492,
            0.02953207492828369,
            0.0002822929236572236,
            -0.04061354324221611,
            0.04758213832974434,
            0.013184993527829647,
            -0.08875289559364319,
            -0.015378556214272976,
            -0.019655175507068634,
            0.02612445317208767,
            0.002756890607997775,
            -0.06874143332242966,
            0.03883126750588417,
            -0.0117387929931283,
            -0.04778061434626579,
            -0.02253693901002407,
            0.07028459757566452,
            -0.0168900303542614,
            0.014708537608385086,
            -0.023036208003759384,
            0.017912868410348892,
            -0.060094643384218216,
            0.07941562682390213,
            -0.06176980212330818,
            -0.03176797926425934,
            -0.005771147087216377,
            -0.022602757439017296,
            -0.03213803470134735,
            0.01756802760064602,
            -0.013757683336734772,
            -0.012717519886791706,
            0.025383036583662033,
            0.07283174991607666,
            0.040185101330280304,
            0.06446900218725204,
            -0.009488491341471672,
            -0.0011234574485570192,
            -0.026811517775058746,
            0.023874009028077126,
            0.007452679332345724,
            0.0014467932051047683,
            0.07669553905725479,
            0.00731218047440052,
            0.08565403521060944,
            0.04275865480303764,
            0.03282918408513069,
            -0.09746646881103516,
            0.03424760699272156,
            0.041560910642147064,
            0.050005801022052765,
            0.025722935795783997,
            -0.02764889970421791,
            0.07903791218996048,
            0.016730619594454765,
            -0.06401646882295609,
            0.012359924614429474,
            -0.06642504781484604,
            -0.01632000133395195,
            -0.0579255186021328,
            0.07143836468458176,
            -0.011029175482690334,
            -0.04654694348573685,
            0.012936949729919434,
            -0.003030239837244153,
            0.09981080144643784,
            0.042009178549051285,
            0.015320086851716042,
            -0.014295084401965141,
            0.03446212410926819,
            -0.04903968423604965,
            0.07394786179065704,
            -0.0016688837204128504,
            -0.07533439993858337,
            -0.07127037644386292,
            0.016993600875139236,
            0.01966097019612789,
            0.013130172155797482,
            -0.06841259449720383,
            0.08554301410913467,
            -0.04365633800625801,
            0.03032289259135723,
            -0.022199152037501335,
            0.026951661333441734,
            0.014958253130316734,
            0.00011711959086824208,
            0.016470707952976227,
            -0.00460814731195569,
            0.03418753296136856,
            -0.010093250311911106,
            0.07377342134714127
        ],
        [
            0.03819592297077179,
            0.02892712503671646,
            0.053497619926929474,
            -0.007806076668202877,
            0.034640293568372726,
            -0.047014493495225906,
            0.04459058865904808,
            0.005815299693495035,
            -0.1108568012714386,
            -0.06560177356004715,
            0.03249151259660721,
            0.06537220627069473,
            -0.00021019746782258153,
            -0.007675403729081154,
            -0.008012956939637661,
            -0.04784702509641647,
            -0.015069237910211086,
            0.02618512138724327,
            -0.0807434469461441,
            0.0709206759929657,
            0.0008759390912018716,
            0.04018566012382507,
            -0.06483672559261322,
            0.003448999021202326,
            -0.00925663486123085,
            -0.01659884676337242,
            -0.010886759497225285,
            0.00838836282491684,
            0.05578421801328659,
            -0.01711255870759487,
            0.003201771527528763,
            -0.2011347860097885,
            0.06447922438383102,
            0.14733877778053284,
            0.024082081392407417,
            0.030550358816981316,
            -0.010593291372060776,
            0.0526934377849102,
            -0.0046476516872644424,
            0.030487176030874252,
            0.0010121053783223033,
            0.11221720278263092,
            -0.004643897991627455,
            0.06043890491127968,
            -0.09001316130161285,
            0.011235424317419529,
            -0.05319126322865486,
            0.04138808697462082,
            0.06949814409017563,
            0.049091070890426636,
            -0.019947431981563568,
            -0.00709492526948452,
            -0.06651225686073303,
            -0.003288510488346219,
            0.09918577969074249,
            0.004812132101505995,
            0.06359606981277466,
            -0.012210637331008911,
            0.046524930745363235,
            -0.036723844707012177,
            0.05333822965621948,
            -0.011587272398173809,
            -0.00653486093506217,
            0.030541233718395233,
            0.005849167238920927,
            0.0008210200467146933,
            0.03701096028089523,
            0.10434421896934509,
            -0.000459361239336431,
            0.04783696308732033,
            0.06468243151903152,
            -0.004489093087613583,
            0.08012346178293228,
            -0.004464176017791033,
            0.005202068481594324,
            -0.02008354663848877,
            -0.014990868046879768,
            0.10042977333068848,
            -0.11381839215755463,
            0.0010724264429882169,
            -0.012352485209703445,
            0.008191261440515518,
            0.04917185381054878,
            0.09105411171913147,
            -0.014836289919912815,
            -0.07146081328392029,
            0.00853126309812069,
            0.021815164014697075,
            -0.022228796035051346,
            -0.05665375292301178,
            0.0007573362090624869,
            0.017222905531525612,
            -0.04441339522600174,
            0.010548966005444527,
            -0.08023736625909805,
            0.07189010083675385,
            -0.04284956306219101,
            -0.04948993772268295,
            0.010499569587409496,
            -0.039962057024240494,
            -0.08603110909461975,
            -0.04183695837855339,
            0.030594034120440483,
            -0.07922860980033875,
            0.012370005249977112,
            -0.022007539868354797,
            -0.11823531985282898,
            -0.18525011837482452,
            0.09385611861944199,
            -0.004168108105659485,
            -0.011042634956538677,
            -0.006590582430362701,
            0.02759215421974659,
            -0.025870025157928467,
            -0.12458367645740509,
            -0.07981199771165848,
            0.07707154005765915,
            0.009332171641290188,
            0.053432878106832504,
            -0.014393648132681847,
            -0.003198576858267188,
            0.045423705130815506,
            -0.014510137028992176,
            0.02783205918967724,
            0.002671667141839862,
            -0.005983038805425167,
            0.022640163078904152,
            0.09182566404342651
        ],
        [
            0.03302253037691116,
            -0.02188800647854805,
            0.018699659034609795,
            -0.04111171141266823,
            0.11510102450847626,
            -0.0901845395565033,
