{
    "_metadata": {
        "best_epoch": 1102,
        "epoch": 1102,
        "loss_validation": 0.28459998965263367,
        "rms_validation": 0.49709999561309814,
        "rms_validation_descaled": 0.05079999938607216
    },
    "feature_max": {
        "An": 5.99999961823294,
        "Ate": 14.0,
        "Ati": 14.000000187341678,
        "Ti_Te": 2.5000000688327697,
        "Zeff": 3.000000166457014,
        "logNustar": -0.00029381758671697,
        "q": 15.000000659398774,
        "smag": 4.999999726238876,
        "x": 0.9900000178558847
    },
    "feature_min": {
        "An": -5.000000254511373,
        "Ate": 2.0,
        "Ati": 1.9999998126583214,
        "Ti_Te": 0.25,
        "Zeff": 1.0,
        "logNustar": -5.000293817586717,
        "q": 0.659999905286358,
        "smag": -1.0000000547522248,
        "x": 0.09000001098823668
    },
    "feature_names": [
        "Zeff",
        "Ati",
        "Ate",
        "An",
        "q",
        "smag",
        "x",
        "Ti_Te",
        "logNustar"
    ],
    "hidden_activation": [
        "tanh",
        "tanh",
        "tanh"
    ],
    "layer1/biases/Variable:0": [
        0.00014973054931033403,
        -0.30261117219924927,
        -0.9121924042701721,
        -0.2743828594684601,
        -1.4216372966766357,
        -0.676226019859314,
        -2.303165912628174,
        1.5149670839309692,
        2.0117080211639404,
        -0.9525769352912903,
        2.300760269165039,
        -0.6329041123390198,
        0.8908130526542664,
        -0.7929220199584961,
        -0.3126182556152344,
        -1.784553050994873,
        -0.43439781665802,
        -0.05494050681591034,
        1.4330604076385498,
        -0.6162039041519165,
        -1.1090161800384521,
        -2.968559741973877,
        -0.5102664828300476,
        0.942607581615448,
        1.2287871837615967,
        0.2281491905450821,
        -1.2485555410385132,
        0.38856881856918335,
        0.10479707270860672,
        0.4797022342681885,
        0.01880175992846489,
        2.8116440773010254,
        0.43889957666397095,
        -1.8560938835144043,
        1.2993007898330688,
        -0.4364889860153198,
        2.016794204711914,
        -0.24495747685432434,
        0.9080894589424133,
        -1.3426117897033691,
        1.0713094472885132,
        -0.5359233617782593,
        -0.3072125017642975,
        -0.5048345923423767,
        0.04582531005144119,
        1.1994307041168213,
        0.8079601526260376,
        -1.6539076566696167,
        -1.1089394092559814,
        -1.2086955308914185,
        -0.40414538979530334,
        0.35884755849838257,
        1.3406840562820435,
        -2.084865093231201,
        -1.6067180633544922,
        0.3753756284713745,
        0.18448996543884277,
        0.7820512652397156,
        0.8353871703147888,
        1.9865972995758057,
        -1.1141207218170166,
        -2.0975046157836914,
        1.8116278648376465,
        0.10213113576173782,
        0.13289986550807953,
        -1.7565131187438965,
        -0.7091268301010132,
        -1.8437451124191284,
        -0.07828963547945023,
        -1.4767266511917114,
        -0.6102055907249451,
        1.801024079322815,
        0.4370180070400238,
        -2.4006223678588867,
        1.7794013023376465,
        -0.47873127460479736,
        -0.3257080912590027,
        0.9280738830566406,
        1.2005622386932373,
        0.6018639802932739,
        0.2323693484067917,
        -0.42068278789520264,
        -0.2537781596183777,
        0.5346261262893677,
        -2.90932035446167,
        3.1417529582977295,
        0.6272080540657043,
        -0.9405282139778137,
        -1.5383764505386353,
        -0.049537114799022675,
        -0.11579017341136932,
        0.4755118787288666,
        1.863596796989441,
        -0.10536216199398041,
        -1.8095821142196655,
        -0.6761074662208557,
        -0.40571320056915283,
        -0.8381116986274719,
        -0.012529243715107441,
        -2.684391736984253,
        -1.188264012336731,
        0.7395272254943848,
        0.7330785393714905,
        0.9133563041687012,
        -0.027539167553186417,
        0.06116676703095436,
        -0.5331851243972778,
        -1.2535427808761597,
        1.0595449209213257,
        0.6974087357521057,
        0.3920702338218689,
        0.2866070568561554,
        2.4380533695220947,
        0.7994036078453064,
        1.0209646224975586,
        1.5750489234924316,
        0.9823774099349976,
        -0.5973607897758484,
        -0.7227157354354858,
        -0.8136409521102905,
        -0.7693107724189758,
        -0.3036241829395294,
        -1.8515279293060303,
        -1.5469259023666382,
        0.06033890321850777,
        -0.09119769930839539,
        0.2715383470058441,
        0.28224048018455505
    ],
    "layer1/weights/Variable:0": [
        [
            0.14808575809001923,
            0.5267840623855591,
            0.015879202634096146,
            -0.4039328992366791,
            -0.1175844669342041,
            -0.08133846521377563,
            0.07338052988052368,
            -0.053432006388902664,
            -0.08172418177127838,
            -0.17979899048805237,
            -0.15256048738956451,
            0.009180204942822456,
            -0.0795520469546318,
            -0.3755273222923279,
            -0.19422443211078644,
            -0.02072603441774845,
            0.0456763431429863,
            -0.02457241341471672,
            -0.16183540225028992,
            0.25346606969833374,
            0.2216750979423523,
            0.42931097745895386,
            0.003283887170255184,
            0.04098774492740631,
            0.007982011884450912,
            0.05237133428454399,
            0.08387784659862518,
            0.07552333921194077,
            0.017464570701122284,
            -0.09359113872051239,
            0.0023948524612933397,
            0.05947932228446007,
            -0.02262936346232891,
            0.23350857198238373,
            0.20028577744960785,
            0.4068416655063629,
            -0.019389541819691658,
            0.5975251793861389,
            -0.3028099238872528,
            -0.0017659042496234179,
            0.1260007619857788,
            0.07627984881401062,
            -0.05009473115205765,
            0.41638311743736267,
            0.08906961977481842,
            0.0780663937330246,
            -0.11225716769695282,
            0.08826655149459839,
            0.23747792840003967,
            -0.08516144007444382,
            -0.06852204352617264,
            -0.09180168062448502,
            0.07797471433877945,
            0.08886860311031342,
            -0.16534388065338135,
            -0.07009480893611908,
            -0.13618995249271393,
            0.41641765832901,
            -0.7565659880638123,
            -0.038685835897922516,
            0.16744615137577057,
            -0.04558664187788963,
            0.4211139678955078,
            -0.2608157694339752,
            0.07951702922582626,
            0.018863026052713394,
            -0.04533381387591362,
            0.04030769318342209,
            -0.014813152141869068,
            0.20222976803779602,
            -0.19242185354232788,
            0.03172275424003601,
            0.06256894022226334,
            0.4678877890110016,
            0.43520766496658325,
            0.16187413036823273,
            -0.017814477905631065,
            -0.1646955907344818,
            -0.731149435043335,
            0.5532079339027405,
            -0.2481294870376587,
            -0.2696940004825592,
            0.05209548398852348,
            0.355833500623703,
            0.06653809547424316,
            0.002476292662322521,
            0.02318190596997738,
            0.4662630558013916,
            0.018396295607089996,
            0.2447250783443451,
            0.6184385418891907,
            -0.39172646403312683,
            -0.031044602394104004,
            0.25710752606391907,
            0.18106213212013245,
            0.10599023848772049,
            0.03713011369109154,
            0.019087808206677437,
            -0.4157739579677582,
            0.03548680618405342,
            0.9545793533325195,
            -0.12091182172298431,
            0.2521556615829468,
            0.027924250811338425,
            0.028955401852726936,
            -0.5428257584571838,
            -0.011044234968721867,
            0.023636655882000923,
            -0.08280050754547119,
            -0.009626221843063831,
            -0.2888437807559967,
            -0.06680196523666382,
            -0.009165639989078045,
            -0.07802940905094147,
            0.005100056994706392,
            0.04854675382375717,
            0.12413637340068817,
            -0.004112208727747202,
            -0.01348157599568367,
            0.15772020816802979,
            0.4948788583278656,
            0.18040502071380615,
            0.043307650834321976,
            1.1171984672546387,
            -0.47372594475746155,
            -0.10036297142505646,
            0.07821984589099884,
            0.41312265396118164
        ],
        [
            -0.10850197076797485,
            -0.2439483106136322,
            0.4192182123661041,
            0.40579408407211304,
            0.3248444199562073,
            0.36929547786712646,
            -0.8167535662651062,
            -0.011318393982946873,
            0.17366157472133636,
            -0.275129109621048,
            -0.32509952783584595,
            -0.045840755105018616,
            -0.4298091530799866,
            0.5777497291564941,
            0.17015297710895538,
            -0.8027738928794861,
            0.674204409122467,
            -0.025651434436440468,
            0.426609605550766,
            0.1758415251970291,
            0.7120165824890137,
            -0.23678047955036163,
            0.6866852641105652,
            -0.3330368399620056,
            -0.5271169543266296,
            -0.880833089351654,
            -0.5854337811470032,
            -0.05384936183691025,
            -0.7437499761581421,
            0.34237560629844666,
            -0.25003641843795776,
            1.4832688570022583,
            -0.18189819157123566,
            -0.15346932411193848,
            0.5868121981620789,
            0.6952570080757141,
            -0.21498514711856842,
            0.19446390867233276,
            0.24886579811573029,
            -1.4497990608215332,
            0.2902222275733948,
            0.05987604707479477,
            -0.3046776354312897,
            0.2577976584434509,
            -0.03593473881483078,
            -0.48454952239990234,
            0.7123590707778931,
            -0.0178177859634161,
            -0.35673943161964417,
            0.7114812731742859,
            0.03012883849442005,
            0.5996042490005493,
            -0.1837998479604721,
            -0.4050305485725403,
            0.19398078322410583,
            0.17769372463226318,
            -0.6056961417198181,
            -0.29613232612609863,
            0.2525024116039276,
            0.9426326751708984,
            0.40219587087631226,
            -1.653975009918213,
            0.2829630970954895,
            0.2734907567501068,
            0.037195105105638504,
            0.03460412845015526,
            -0.07156858593225479,
            -0.44874307513237,
            0.37983202934265137,
            -0.26038360595703125,
            0.15698949992656708,
            -0.12190304696559906,
            0.6529510021209717,
            -0.8340950608253479,
            0.3633684515953064,
            -0.31853780150413513,
            -0.20054100453853607,
            -0.6662623882293701,
            -0.4035777747631073,
            -0.570986807346344,
            -0.08044015616178513,
            0.060616299510002136,
            -0.6107568740844727,
            0.5648409724235535,
            -0.9538544416427612,
            0.0032994626089930534,
            -0.14057666063308716,
            0.3719097077846527,
            -0.09776172786951065,
            0.3000052273273468,
            0.13271406292915344,
            -0.5177950859069824,
            0.3198561370372772,
            -0.11917030066251755,
            0.22783732414245605,
            -0.9989915490150452,
            0.3768252730369568,
            -0.23837700486183167,
            -0.2921179234981537,
            -1.0580168962478638,
            0.1700167953968048,
            -0.13359209895133972,
            0.08489547669887543,
            -0.7422950267791748,
            0.4217795431613922,
            0.07499457150697708,
            0.08715784549713135,
            -0.6271517872810364,
            0.47160881757736206,
            0.7997896671295166,
            -0.07723189890384674,
            -0.07196130603551865,
            1.1458247900009155,
            0.8608701825141907,
            0.9100639224052429,
            -0.022767646238207817,
            0.03550055995583534,
            0.03056851401925087,
            -0.5548351407051086,
            0.4195484519004822,
            0.48262420296669006,
            -0.2900441884994507,
            -0.696760356426239,
            0.005930284969508648,
            -0.6234367489814758,
            0.4049528241157532,
            0.19976824522018433,
            0.5518162250518799
        ],
        [
            -0.03263572230935097,
            0.19496797025203705,
            0.6362930536270142,
            0.15690457820892334,
            0.10566546022891998,
            0.035182926803827286,
            0.019849766045808792,
            -0.08583781868219376,
            -0.4010855555534363,
            -0.2844300866127014,
            -0.24556085467338562,
            0.04497988894581795,
            -0.16204006969928741,
            -0.030465787276625633,
            -0.27802520990371704,
            0.1669585406780243,
            -0.3616805672645569,
            0.03121318109333515,
            0.27104148268699646,
            0.2458774298429489,
            0.11225425451993942,
            0.3047983646392822,
            0.15440361201763153,
            -0.7367389798164368,
            0.39354056119918823,
            0.5398992300033569,
            0.4973881244659424,
            0.23441697657108307,
            -0.38773536682128906,
            0.09541863203048706,
            -0.09951633214950562,
            -0.1312374621629715,
            0.09683968126773834,
            0.02279183454811573,
            0.10517965257167816,
            -0.40312689542770386,
            0.3451630771160126,
            -0.06825318932533264,
            -0.15253838896751404,
            -0.24149112403392792,
            0.5585750937461853,
            0.2872730493545532,
            -0.15779772400856018,
            -0.2720332741737366,
            0.046767834573984146,
            1.7663363218307495,
            -0.31198275089263916,
            0.7007299661636353,
            0.007250761613249779,
            0.04463875666260719,
            0.09965918213129044,
            0.0688321590423584,
            -0.2930113971233368,
            -0.021798154339194298,
            -0.26416683197021484,
            0.16444197297096252,
            0.2707993686199188,
            0.017727088183164597,
            -0.15251867473125458,
            -0.06080648675560951,
            -0.06053924933075905,
            0.46949946880340576,
            -0.6103811264038086,
            0.19301651418209076,
            -0.06684461236000061,
            -0.025504905730485916,
            -0.11682876944541931,
            0.21097220480442047,
            -0.22100713849067688,
            -0.20130838453769684,
            0.2145627737045288,
            0.13178545236587524,
            -0.22121039032936096,
            -0.19105976819992065,
            -0.14373625814914703,
            -0.2973915934562683,
            0.33130499720573425,
            -0.17588315904140472,
            0.03908577561378479,
            0.1879575401544571,
            -0.8179671764373779,
            -0.2182474285364151,
            -0.016368037089705467,
            -0.060437873005867004,
            -0.07456352561712265,
            0.006932420656085014,
            0.05150122940540314,
            0.43662533164024353,
            0.10201903432607651,
            -0.14431782066822052,
            0.15446731448173523,
            -0.07350493967533112,
            0.21165995299816132,
            0.054228492081165314,
            -0.05338352918624878,
            0.7607818245887756,
            0.10786045342683792,
            -0.11250418424606323,
            0.5746316909790039,
            0.3262268006801605,
            -0.16670575737953186,
            0.21882326900959015,
            -0.04964229092001915,
            0.38097530603408813,
            0.3969687223434448,
            -0.40331709384918213,
            0.06712238490581512,
            -0.6181288957595825,
            -0.8524225354194641,
            0.10475261509418488,
            -0.14796759188175201,
            0.005457010120153427,
            -0.10424056649208069,
            0.27420493960380554,
            -1.123412013053894,
            -0.006375337950885296,
            -0.30963221192359924,
            -0.31509217619895935,
            0.13152046501636505,
            0.1796189546585083,
            0.009024322964251041,
            -0.08297652006149292,
            -0.11458563804626465,
            -0.022018274292349815,
            -0.06488475948572159,
            -0.2127848118543625,
            -0.15566889941692352,
            0.2343302220106125
        ],
        [
            0.34189313650131226,
            -0.469894140958786,
            0.015598281286656857,
            -0.5052221417427063,
            0.1368504911661148,
            0.13358522951602936,
            -1.1566344499588013,
            -0.009109356440603733,
            0.11376082897186279,
            -0.6790717840194702,
            -0.037180349230766296,
            0.2147468477487564,
            -0.247866690158844,
            0.14230000972747803,
            -0.08517257869243622,
            0.9629051089286804,
            -0.3930635452270508,
            0.1866937279701233,
            0.9929651021957397,
            -0.39287614822387695,
            -0.1421092450618744,
            -0.36125653982162476,
            0.3404107391834259,
            0.2363908290863037,
            0.38314759731292725,
            -0.50934237241745,
            -0.5096685886383057,
            -0.5209461450576782,
            0.08830192685127258,
            -0.09442881494760513,
            0.8835318088531494,
            0.03390595316886902,
            -0.6347980499267578,
            -0.08110643923282623,
            0.4391559660434723,
            0.2428206503391266,
            0.23081287741661072,
            0.04790155962109566,
            0.4686988890171051,
            -0.21942728757858276,
            -0.2255684733390808,
            0.033354252576828,
            -0.04915060102939606,
            -0.24782344698905945,
            0.053801581263542175,
            1.55031418800354,
            0.3012370467185974,
            0.0396420955657959,
            0.7121175527572632,
            -0.4125392436981201,
            -0.010336891748011112,
            0.2861182391643524,
            0.5121923089027405,
            0.5796913504600525,
            0.035560112446546555,
            0.9975271224975586,
            0.35375192761421204,
            -0.39268967509269714,
            0.12094075232744217,
            -0.014621279202401638,
            -0.41327282786369324,
            0.7368490695953369,
            0.40239205956459045,
            0.06539461761713028,
            -0.17792566120624542,
            0.04583216831088066,
            -0.06280852109193802,
            -0.5677140355110168,
            0.2581656575202942,
            1.0182960033416748,
            -0.052153170108795166,
            0.11968419700860977,
            -0.6500728130340576,
            1.55107581615448,
            0.6239632368087769,
            0.32781779766082764,
            -0.31089210510253906,
            0.31825345754623413,
            -0.024839183315634727,
            -0.2410924732685089,
            -0.12006721645593643,
            -0.1061067208647728,
            -0.17243731021881104,
            0.58222496509552,
            -1.3565287590026855,
            0.00028357573319226503,
            -0.8126956224441528,
            -0.2146928906440735,
            0.42623960971832275,
            0.4137408137321472,
            0.22443018853664398,
            -0.1525174379348755,
            0.08497924357652664,
            0.18987736105918884,
            0.017910564318299294,
            -0.19435220956802368,
            -0.2521424889564514,
            -0.236710786819458,
            0.4499130845069885,
            -0.2669975757598877,
            0.26181015372276306,
            -0.36598628759384155,
            -1.3057388067245483,
            0.8510786890983582,
            0.1660025715827942,
            0.2532297670841217,
            -0.23841248452663422,
            -0.7312783598899841,
            -0.5721659064292908,
            0.2529754340648651,
            0.7693811655044556,
            0.06782573461532593,
            0.6141868233680725,
            -0.4669055640697479,
            -1.0332975387573242,
            0.8372346758842468,
            -0.0737324059009552,
            -0.19444647431373596,
            0.6413692235946655,
            -0.08882898092269897,
            0.30533087253570557,
            0.7429494857788086,
            -0.15414364635944366,
            0.25096678733825684,
            -0.5964915156364441,
            -0.019666682928800583,
            -0.3905838429927826,
            -0.16001877188682556
        ],
        [
            0.7993674874305725,
            0.02255544252693653,
            -0.0435006208717823,
            0.0980365201830864,
            0.11294888705015182,
            -0.013566458597779274,
            -0.08624941110610962,
            0.025625934824347496,
            -0.11459240317344666,
            0.0565948449075222,
            -0.4160650670528412,
            -0.08662663400173187,
            -0.3618026673793793,
            -0.23054586350917816,
            -0.5026668906211853,
            0.11780939251184464,
            0.27619725465774536,
            -1.3424113988876343,
            0.11487816274166107,
            0.27906736731529236,
            -0.06591080874204636,
            0.06203187629580498,
            0.10977016389369965,
            -0.024528292939066887,
            -0.0426940880715847,
            0.01434999518096447,
            -0.07099243253469467,
            -0.015559867024421692,
            0.010318923741579056,
            -0.09753120690584183,
            -0.21007458865642548,
            -0.009160803630948067,
            0.1438186913728714,
            0.05407072976231575,
            0.03645157814025879,
            0.030573837459087372,
            -0.1273127645254135,
            0.11529330164194107,
            -0.04641904681921005,
            -0.009506934322416782,
            -0.27389538288116455,
            -0.0003489533846732229,
            0.041553642600774765,
            -0.16816593706607819,
            -1.0212024450302124,
            -0.02503415383398533,
            0.1261579543352127,
            -0.22733885049819946,
            0.1286012977361679,
            -0.007226687390357256,
            0.9912312030792236,
            0.4356330931186676,
            -0.2643868923187256,
            -0.12708452343940735,
            0.04988209158182144,
            -0.4381171762943268,
            0.1699402630329132,
            0.027523409575223923,
            -0.000424999714596197,
            0.25987306237220764,
            0.03581777215003967,
            0.03063325770199299,
            0.0992821753025055,
            -0.021627405658364296,
            -0.37399619817733765,
            -3.2425143718719482,
            -0.17225900292396545,
            -0.006549370940774679,
            0.03258659690618515,
            0.04925362765789032,
            -0.07979407161474228,
            -0.09117504209280014,
            -0.07494411617517471,
            -0.12441201508045197,
            -0.21240723133087158,
            0.2683693766593933,
            0.21902555227279663,
            -0.04095263406634331,
            0.027379358187317848,
            -0.02906583994626999,
            0.14569105207920074,
            0.05630192160606384,
            0.10874573886394501,
            0.06620379537343979,
            0.11997882276773453,
            0.0034641411621123552,
            0.14102131128311157,
            0.013223381713032722,
            -0.2128843367099762,
            -0.26475632190704346,
            0.03829101100564003,
            0.2450440227985382,
            -0.44615137577056885,
            0.021361522376537323,
            -0.15124304592609406,
            0.02004733867943287,
            0.39821144938468933,
            0.05176948755979538,
            -0.018256844952702522,
            0.022051436826586723,
            -0.012722517363727093,
            0.049168188124895096,
            -0.08823444694280624,
            0.11832891404628754,
            0.454154908657074,
            0.1604290008544922,
            -0.3284139931201935,
            0.29572340846061707,
            0.04347813129425049,
            0.09875603765249252,
            0.2873450517654419,
            -0.013528279028832912,
            -0.12726666033267975,
            0.1611807644367218,
            -0.015973471105098724,
            0.3576991558074951,
            -0.12606559693813324,
            0.16895687580108643,
            0.06849316507577896,
            -0.008509896695613861,
            0.01804678700864315,
            -0.2390149086713791,
            -0.13924771547317505,
            -0.014650776982307434,
            -0.04635956138372421,
            0.27120980620384216,
            -0.17072737216949463,
            0.13817821443080902
        ],
        [
            0.7391911149024963,
            -0.1537790596485138,
            -0.1824866384267807,
            0.3446364998817444,
            -0.4969213902950287,
            0.4844752848148346,
            0.2722969651222229,
            -0.5006932020187378,
            0.46765685081481934,
            0.42878028750419617,
            0.4045531749725342,
            -2.7243740558624268,
            -0.2467310130596161,
            0.2944626212120056,
            0.30616629123687744,
            0.5139027237892151,
            -1.428998589515686,
            -0.36733391880989075,
            -0.1538175344467163,
            -0.6439398527145386,
            0.3538956642150879,
            -0.14903174340724945,
            -0.04333418607711792,
            -0.23116718232631683,
            -0.28709569573402405,
            -0.012136559933423996,
            0.0565665103495121,
            -0.44715702533721924,
            -0.9113599061965942,
            -0.4817393124103546,
            -0.03302407264709473,
            -0.6386599540710449,
            0.10055769979953766,
            0.08432826399803162,
            0.39502182602882385,
            -0.13750456273555756,
            0.8928345441818237,
            0.51774001121521,
            -0.024435708299279213,
            -0.4505985975265503,
            0.4984472393989563,
            -1.1371498107910156,
            -1.4838006496429443,
            -0.02935362607240677,
            -0.058254241943359375,
            -0.3957439064979553,
            -0.22558565437793732,
            0.14503614604473114,
            -0.7352955937385559,
            -1.5653491020202637,
            0.8626631498336792,
            0.5276528596878052,
            -0.2918618321418762,
            -0.022429130971431732,
            0.07207638025283813,
            -0.3025282025337219,
            0.36286649107933044,
            -0.04167928174138069,
            0.015168668702244759,
            -0.8627561330795288,
            0.18005017936229706,
            -0.32548320293426514,
            0.4031350016593933,
            0.8815637230873108,
            -0.12226460874080658,
            -0.14103178679943085,
            -0.10495232790708542,
            -0.5661423206329346,
            -0.9150499105453491,
            0.19840054214000702,
            0.487941175699234,
            1.43917977809906,
            0.47747987508773804,
            -0.12883669137954712,
            -0.179848313331604,
            -0.33760350942611694,
            0.09937875717878342,
            -0.36651352047920227,
            0.351470023393631,
            0.7973024249076843,
            0.4743735194206238,
            -0.5509728789329529,
            -0.015318953432142735,
            -0.7713040113449097,
            -0.08742784708738327,
            0.0006706272251904011,
            1.953505039215088,
            -0.015250046737492085,
            -0.5495579242706299,
            0.10614530742168427,
            0.057007864117622375,
            -0.2535756528377533,
            0.3253617286682129,
            1.2076945304870605,
            0.15235427021980286,
            0.6404423117637634,
            -0.6693921685218811,
            0.8565303087234497,
            0.1117476299405098,
            -0.2782037556171417,
            0.243514284491539,
            0.23804400861263275,
            0.051000602543354034,
            0.5780287981033325,
            0.42503708600997925,
            0.20823724567890167,
            0.09223886579275131,
            0.38160014152526855,
            0.5892865657806396,
            0.21037133038043976,
            -0.08097930997610092,
            -0.7674230933189392,
            -0.020056510344147682,
            0.4557861387729645,
            0.21243898570537567,
            -0.1642972230911255,
            1.2505749464035034,
            0.3390955328941345,
            0.6276368498802185,
            0.23170824348926544,
            -0.4695844352245331,
            -0.21764996647834778,
            0.8407495021820068,
            0.2701095938682556,
            -0.7029987573623657,
            0.27629825472831726,
            -0.6059927344322205,
            -0.24525295197963715
        ],
        [
            0.10631227493286133,
            0.20808279514312744,
            0.04466353729367256,
            -0.14324480295181274,
            -0.3741529881954193,
            -1.120633602142334,
            0.16824135184288025,
            -0.019478047266602516,
            0.34368613362312317,
            -0.781816840171814,
            -0.21510298550128937,
            0.09752000868320465,
            0.13382643461227417,
            0.3383312523365021,
            0.06892890483140945,
            0.004146815277636051,
            -0.19321513175964355,
            0.08502955734729767,
            -0.31262415647506714,
            0.48720744252204895,
            -0.2086760252714157,
            0.1417090743780136,
            -0.1460820883512497,
            0.4316159188747406,
            0.19976137578487396,
            -0.02744085155427456,
            0.5911718010902405,
            -0.24357491731643677,
            -0.4070981442928314,
            0.032257746905088425,
            0.08311107009649277,
            0.0916866809129715,
            -0.1748369038105011,
            -1.2098973989486694,
            -0.26782485842704773,
            0.05542147904634476,
            -0.11379177123308182,
            0.04210475832223892,
            0.28583237528800964,
            -0.10524338483810425,
            0.7925947904586792,
            0.0659637376666069,
            -0.24316991865634918,
            -0.21453812718391418,
            0.024563081562519073,
            0.011248469352722168,
            0.5115828514099121,
            0.04337354376912117,
            0.3176124095916748,
            0.27120712399482727,
            0.161199152469635,
            -0.2066359668970108,
            0.19516544044017792,
            -0.10855863988399506,
            -1.2615787982940674,
            0.322022408246994,
            -0.3209091126918793,
            0.07946974784135818,
            0.165107861161232,
            -0.2949913740158081,
            -0.19132259488105774,
            -0.06528786569833755,
            -0.10998586565256119,
            -0.21927571296691895,
            -0.2621268332004547,
            -0.03141114488244057,
            -0.2824290692806244,
            -0.15668852627277374,
            0.4729924499988556,
            -0.09171395748853683,
            -0.006322900764644146,
            0.5071521401405334,
            0.1113797053694725,
            -0.059051886200904846,
            -0.26617398858070374,
            -0.10815995931625366,
            -0.040074728429317474,
            0.3325895071029663,
            -0.0723242312669754,
            -0.048370733857154846,
            0.15921317040920258,
            0.3802013397216797,
            0.3786171078681946,
            0.03511777147650719,
            0.14509351551532745,
            0.002623992506414652,
            -0.013656815513968468,
            0.5465282201766968,
            0.19379295408725739,
            -0.05294274538755417,
            -0.05404534190893173,
            -0.5173978805541992,
            -0.4984036982059479,
            0.42578861117362976,
            0.02611650712788105,
            0.24838756024837494,
            0.389758437871933,
            -0.5297530889511108,
            0.3845039904117584,
            0.016040701419115067,
            -0.16585581004619598,
            -0.2975417673587799,
            -0.1405535638332367,
            -0.012235223315656185,
            0.1611868441104889,
            -0.07903482764959335,
            0.41384604573249817,
            -0.2291785627603531,
            -0.05236201360821724,
            -0.05845373123884201,
            -0.05881758779287338,
            0.5536778569221497,
            0.2245885282754898,
            0.25199103355407715,
            -0.26290348172187805,
            -0.12695571780204773,
            0.19410666823387146,
            -0.4911435544490814,
            0.5050849318504333,
            -0.4507213532924652,
            0.2447158247232437,
            0.17293742299079895,
            0.41720521450042725,
            -0.028415115550160408,
            0.2890746593475342,
            -0.33952996134757996,
            0.654266357421875,
            -0.1176428347826004
        ],
        [
            0.08268708735704422,
            -0.6368628144264221,
            -1.1325888633728027,
            -0.2359972447156906,
            0.2581496238708496,
            0.08438656479120255,
            -0.15969230234622955,
            1.8478065729141235,
            -0.33314183354377747,
            0.26182419061660767,
            -0.25781726837158203,
            -0.19954225420951843,
            -0.09849963337182999,
            0.20336219668388367,
            0.14334358274936676,
            -0.41640135645866394,
            0.06190399080514908,
            -0.35033637285232544,
            0.15465646982192993,
            0.10604201257228851,
            0.005568841937929392,
            0.2981165945529938,
            -0.3411228060722351,
            -0.540666937828064,
            2.3009705543518066,
            -0.7068610191345215,
            -0.09384644031524658,
            0.44714826345443726,
            -0.09607962518930435,
            -0.1678919941186905,
            -0.38385114073753357,
            0.645622193813324,
            -0.44230377674102783,
            0.05558222532272339,
            -0.38382768630981445,
            0.6983605027198792,
            -0.4847571849822998,
            -0.26128891110420227,
            -0.8834360837936401,
            1.5038806200027466,
            0.05062097683548927,
            0.16922223567962646,
            0.6980058550834656,
            -0.33725616335868835,
            0.7585893869400024,
            -1.095713496208191,
            -0.21959003806114197,
            -0.6253098249435425,
            0.07627011835575104,
            -1.7869484424591064,
            -0.4725406765937805,
            -0.7499091029167175,
            -0.7236176133155823,
            0.2806415855884552,
            -0.14300523698329926,
            0.21992440521717072,
            -0.45916473865509033,
            -0.28003638982772827,
            -0.007258379831910133,
            -0.19796055555343628,
            0.24822530150413513,
            -0.13754159212112427,
            0.05357957258820534,
            -0.44473204016685486,
            -1.0748910903930664,
            0.026332179084420204,
            -0.06411980092525482,
            -0.09146972745656967,
            -0.06119473651051521,
            0.46338680386543274,
            0.9899763464927673,
            -0.33198678493499756,
            1.1879767179489136,
            0.2485240399837494,
            0.11733829230070114,
            -0.3931446671485901,
            0.28174281120300293,
            0.25565868616104126,
            0.3729372024536133,
            -0.14558371901512146,
            0.3947388231754303,
            0.20242173969745636,
            0.1900983601808548,
            0.29393836855888367,
            -0.8951351046562195,
            0.005719947628676891,
            0.17962856590747833,
            -0.07846038788557053,
            -0.06501760333776474,
            0.060441549867391586,
            0.33014917373657227,
            -0.15619437396526337,
            -0.19917386770248413,
            -0.06005292758345604,
            0.5745839476585388,
            -0.10638889670372009,
            -0.74810791015625,
            0.4907519817352295,
            -0.24287128448486328,
            -0.11599929630756378,
            0.17367100715637207,
            0.24670356512069702,
            -0.10300922393798828,
            0.22596123814582825,
            -0.3059348165988922,
            -0.0527087077498436,
            -0.1385456770658493,
            0.19938760995864868,
            0.5832088589668274,
            0.5035598278045654,
            -0.2189396619796753,
            0.07955074310302734,
            0.5173729062080383,
            -0.37360361218452454,
            0.14610353112220764,
            -0.4995526671409607,
            0.2069692611694336,
            0.4450840950012207,
            0.1783093363046646,
            0.3281392455101013,
            0.7200043797492981,
            0.4645846486091614,
            0.6119845509529114,
            0.08286023139953613,
            -0.07741931080818176,
            -0.03653667867183685,
            0.3412521481513977,
            0.13111260533332825
        ],
        [
            0.11564380675554276,
            0.2956773042678833,
            -0.07877731323242188,
            0.5504544377326965,
            -0.5559365749359131,
            -0.2608170509338379,
            0.2684713304042816,
            -0.06589746475219727,
            0.6554637551307678,
            -0.026587391272187233,
            -0.1012611836194992,
            0.07268573343753815,
            0.23734045028686523,
            1.2907816171646118,
            0.6022154688835144,
            0.416255921125412,
            0.0877881646156311,
            0.16405560076236725,
            0.3064439594745636,
            0.39004963636398315,
            0.048808369785547256,
            0.17742834985256195,
            -0.23352856934070587,
            -0.4678180515766144,
            0.18381449580192566,
            -0.24240531027317047,
            -0.14073273539543152,
            -0.2896575629711151,
            -0.17982999980449677,
            0.09917808324098587,
            -0.5334466099739075,
            0.07205527275800705,
            -1.1796272993087769,
            0.030667006969451904,
            -0.4346337616443634,
            -0.07135757803916931,
            0.5030190348625183,
            0.08437851071357727,
            -0.23378723859786987,
            -0.12354785203933716,
            0.20456093549728394,
            0.0319143645465374,
            -0.04087456688284874,
            -0.2447737157344818,
            -0.3241303563117981,
            -0.0029766687657684088,
            -0.5069783926010132,
            0.1328558474779129,
            -0.054678600281476974,
            0.2729838192462921,
            0.2461920529603958,
            -0.3150043487548828,
            0.6666856408119202,
            0.12202132493257523,
            0.01885197125375271,
            -0.10300380736589432,
            -0.5995555520057678,
            0.14565463364124298,
            -0.09193800389766693,
            -1.4141696691513062,
            -0.4826884865760803,
            0.1363288164138794,
            0.02221496030688286,
            -0.042037367820739746,
            0.24291449785232544,
            -0.055980417877435684,
            1.5104492902755737,
            0.3419205844402313,
            -0.02963174693286419,
            -0.0871017649769783,
            0.08698458969593048,
            0.05287064239382744,
            0.17243650555610657,
            0.2473006546497345,
            0.15418975055217743,
            0.12923596799373627,
            -1.4943023920059204,
            0.35363349318504333,
            -0.17149461805820465,
            -0.13373836874961853,
            0.28040507435798645,
            -0.544455349445343,
            -0.6086101531982422,
            0.06459442526102066,
            -0.07817190885543823,
            0.0010144028346985579,
            -0.15462830662727356,
            0.543745219707489,
            1.3977158069610596,
            -0.11613038182258606,
            -0.11202394962310791,
            -0.020065343007445335,
            -0.08355249464511871,
            -0.19057141244411469,
            0.14212696254253387,
            -0.152489572763443,
            -0.10123420506715775,
            0.02053767442703247,
            -0.013151789084076881,
            -0.1738513559103012,
            0.15993958711624146,
            0.2817334830760956,
            0.12622857093811035,
            0.20122069120407104,
            -0.862465500831604,
            -0.10977403074502945,
            1.4720796346664429,
            0.0940772145986557,
            -0.7832489609718323,
            0.6035786867141724,
            -0.18253566324710846,
            0.25880590081214905,
            0.41873252391815186,
            0.053518667817115784,
            0.2285541146993637,
            0.06163590028882027,
            0.9749548435211182,
            -0.626909077167511,
            -0.04502025246620178,
            -0.2964564263820648,
            -0.20164088904857635,
            -0.13163286447525024,
            0.0687296912074089,
            0.049517594277858734,
            -0.1601824164390564,
            -1.3614790439605713,
            -0.39100369811058044,
            -0.4726828634738922
        ]
    ],
    "layer2/biases/Variable:0": [
        0.706947922706604,
        1.1830825805664062,
        0.6150365471839905,
        1.498705267906189,
        -0.5538226366043091,
        1.7879408597946167,
        -2.563539743423462,
        1.514888048171997,
        -0.5953906774520874,
        -0.22582408785820007,
        0.40456143021583557,
        0.5835626721382141,
        -0.9691252112388611,
        -1.0638151168823242,
        -0.9689810872077942,
        -0.10981179028749466,
        -0.47585177421569824,
        -0.7204105854034424,
        -0.22431868314743042,
        -0.05089648813009262,
        0.9384008049964905,
        1.2674651145935059,
        -0.9468322396278381,
        0.5880276560783386,
        0.7702903747558594,
        1.5491890907287598,
        0.06345350295305252,
        0.28636783361434937,
        1.9711439609527588,
        0.7362741231918335,
        0.6088226437568665,
        -0.7064838409423828,
        -0.1880165934562683,
        -0.6459726691246033,
        -0.39879781007766724,
        0.04238829016685486,
        -0.25381186604499817,
        -0.9449337720870972,
        0.9256769418716431,
        -1.2789257764816284,
        0.17084771394729614,
        -0.381963849067688,
        -0.25970256328582764,
        0.19227591156959534,
        -0.6294114589691162,
        -1.1423765420913696,
        0.08105874806642532,
        0.5901525616645813,
        1.3570462465286255,
        0.49008065462112427,
        2.889302968978882,
        -0.9973993897438049,
        1.4164843559265137,
        -0.7670240998268127,
        -0.7921966910362244,
        -0.36201202869415283,
        1.54909086227417,
        0.5155255794525146,
        0.3467927575111389,
        -3.0381698608398438,
        -0.5970118641853333,
        0.38794568181037903,
        0.7415888905525208,
        -1.1660046577453613,
        0.2987307906150818,
        0.05909235030412674,
        1.6440188884735107,
        -0.6109874844551086,
        -0.10823705792427063,
        -0.2366485744714737,
        -0.3658266067504883,
        1.0596674680709839,
        -0.47744232416152954,
        0.45989203453063965,
        0.20021025836467743,
        0.4261739253997803,
        -0.27027276158332825,
        -0.8501684665679932,
        1.0693349838256836,
        0.31735390424728394,
        0.02637428045272827,
        0.10986793041229248,
        -1.0401464700698853,
        -0.9380524158477783,
        1.2905794382095337,
        -0.3753908574581146,
        -1.8590075969696045,
        -2.3846447467803955,
        0.07805606722831726,
        -0.44700002670288086,
        -1.8615190982818604,
        0.7875924110412598,
        2.6295225620269775,
        -0.582547128200531,
        1.1919342279434204,
        -0.32457593083381653,
        1.1282204389572144,
        0.5516377687454224,
        -0.4360199570655823,
        1.0833632946014404,
        0.6522355675697327,
        -1.0459601879119873,
        -0.8761798739433289,
        -0.10970262438058853,
        -0.2600409984588623,
        0.3011920154094696,
        -1.3488078117370605,
        1.275203824043274,
        1.4653584957122803,
        1.7519937753677368,
        0.5471288561820984,
        -0.9710777997970581,
        -1.1966705322265625,
        0.13258109986782074,
        1.0064268112182617,
        -0.6805434226989746,
        -0.30221083760261536,
        2.9418187141418457,
        -0.9561443328857422,
        -0.7241703271865845,
        0.10063430666923523,
        -0.2226993441581726,
        -0.053081441670656204,
        -0.9480541348457336,
        0.6373035311698914,
        2.381312370300293,
        0.5038474798202515,
        0.031418327242136
    ],
    "layer2/weights/Variable:0": [
        [
            -0.10865626484155655,
            0.07182636111974716,
            -0.00024021217541303486,
            0.0726386308670044,
            0.19541195034980774,
            -0.05922964960336685,
            0.10607380419969559,
            -0.08537817746400833,
            0.0007129471632651985,
            -0.17156900465488434,
            0.06129750609397888,
            0.004082076717168093,
            -0.09782707691192627,
            0.056942351162433624,
            -0.07931649684906006,
            0.05220029875636101,
            0.0024815916549414396,
            -0.04455680400133133,
            -0.10214301198720932,
            -0.10187919437885284,
            0.11221085488796234,
            -0.03116249293088913,
            0.03589177131652832,
            -0.1059051901102066,
            -0.05468127876520157,
            0.07651270180940628,
            0.021854285150766373,
            -0.04497305676341057,
            0.08808309584856033,
            -0.03357887640595436,
            -0.0978647768497467,
            0.06248488649725914,
            -0.06239869445562363,
            0.12016436457633972,
            -0.031031062826514244,
            0.271902471780777,
            -0.050142064690589905,
            0.09644398838281631,
            0.08184903860092163,
            -0.11305014044046402,
            -0.11715878546237946,
            -0.006571146659553051,
            -0.14151130616664886,
            0.011894578114151955,
            -0.009467105381190777,
            0.06967899203300476,
            -0.062750905752182,
            -0.021918505430221558,
            0.08891621232032776,
            -0.07731659710407257,
            0.041341595351696014,
            -0.037816185504198074,
            0.1527048498392105,
            -0.036337368190288544,
            0.12935829162597656,
            -0.2685686945915222,
            0.02501562424004078,
            0.045945025980472565,
            -0.009608779102563858,
            -0.0015219190390780568,
            -0.08163513988256454,
            0.038649316877126694,
            -0.11782052367925644,
            0.13600225746631622,
            0.14508908987045288,
            0.034201983362436295,
            0.18845582008361816,
            0.1102452278137207,
            0.05414813384413719,
            -0.06216948479413986,
            -0.07900746166706085,
            0.074855737388134,
            0.061161477118730545,
            0.036013733595609665,
            -0.016329260542988777,
            0.08936432749032974,
            0.12664994597434998,
            0.0830845907330513,
            -0.052138712257146835,
            0.02490261010825634,
            -0.04549533128738403,
            0.07050855457782745,
            0.20552973449230194,
            -0.029589639976620674,
            -0.0552392452955246,
            0.04189058765769005,
            0.19599653780460358,
            0.11129952222108841,
            -0.0025077739264816046,
            0.03590874746441841,
            -0.01932106725871563,
            -0.017643803730607033,
            0.07324067503213882,
            0.052708663046360016,
            0.21719421446323395,
            -0.07899744808673859,
            0.1422073245048523,
            -0.06773641705513,
            -0.005665230564773083,
            -0.13591590523719788,
            -0.07875768095254898,
            0.055231332778930664,
            -0.03917556256055832,
            -0.05642559751868248,
            0.4189666509628296,
            -0.022677939385175705,
            0.00654148543253541,
            0.06261085718870163,
            0.05511505901813507,
            -0.06390771269798279,
            -0.11193454265594482,
            0.10974165797233582,
            0.0005341210053302348,
            -0.033595677465200424,
            0.09804016351699829,
            0.36416998505592346,
            0.006322013679891825,
            0.015032912604510784,
            -0.0251816064119339,
            0.10882692784070969,
            0.03668585419654846,
            -0.22035926580429077,
            0.0096803680062294,
            -0.06094515323638916,
            0.03401133790612221,
            -0.18432572484016418,
            0.1751677691936493,
            0.06509863585233688
        ],
        [
            0.12474463880062103,
            -0.24651236832141876,
            0.2999318838119507,
            -0.04783400893211365,
            -0.01920553669333458,
            0.07269287109375,
            0.167607381939888,
            -0.19191104173660278,
            -0.0006037057028152049,
            -0.07792555540800095,
            -0.12046034634113312,
            -0.07271728664636612,
            0.011005346663296223,
            -0.01537230983376503,
            0.1854781061410904,
            -0.31856420636177063,
            -0.02339935302734375,
            0.00931919552385807,
            -0.004076654091477394,
            0.3295297920703888,
            -0.0667651891708374,
            -0.06529048830270767,
            -0.07589259743690491,
            0.06192609295248985,
            0.020710414275527,
            -0.012883786112070084,
            -0.04223627969622612,
            -0.11037363111972809,
            0.009499117732048035,
            -0.05936836451292038,
            -0.1157500222325325,
            0.03695700317621231,
            0.017800433561205864,
            0.06533512473106384,
            0.01521340012550354,
            0.3849671483039856,
            0.05773452669382095,
            -0.013236803002655506,
            0.08250277489423752,
            0.028358614072203636,
            0.056865498423576355,
            0.12406507134437561,
            -0.02813497558236122,
            -0.0629872977733612,
            -0.0603058822453022,
            0.07234010100364685,
            -0.39327579736709595,
            0.006952258292585611,
            -0.19765257835388184,
            0.04357406869530678,
            -0.08577603846788406,
            0.15948398411273956,
            -0.1039300486445427,
            0.01495225727558136,
            0.15267980098724365,
            0.06776837259531021,
            0.13615451753139496,
            0.016946040093898773,
            -0.10210214555263519,
            -0.0012472060043364763,
            0.13849039375782013,
            0.07431163638830185,
            0.02829599939286709,
            0.030217459425330162,
            0.250906765460968,
            0.0051408251747488976,
            0.026858216151595116,
            0.08719827979803085,
            0.09891305863857269,
            0.1484317034482956,
            -0.01607002131640911,
            0.06183328106999397,
            -0.1573299765586853,
            -0.04392663761973381,
            -0.3202209770679474,
            0.008815518580377102,
            -0.21665354073047638,
            0.014953860081732273,
            -0.05616995319724083,
            -0.04662856459617615,
            0.05774497985839844,
            -0.047196973115205765,
            0.16483373939990997,
            -0.06597619503736496,
            0.008105308748781681,
            0.13782250881195068,
            0.12158709019422531,
            0.1778613179922104,
            -0.3146267831325531,
            -0.3232461214065552,
            -0.01499135047197342,
            0.03464890643954277,
            -0.038034405559301376,
            0.31614717841148376,
            -0.0353839248418808,
            0.0813385620713234,
            -0.3544672727584839,
            0.09017886966466904,
            0.036340922117233276,
            0.0918990820646286,
            -0.07708224654197693,
            -0.016495058313012123,
            -0.04153496026992798,
            -0.161085844039917,
            0.30949118733406067,
            -0.02821083553135395,
            0.049578193575143814,
            0.04273040220141411,
            -0.2747838497161865,
            0.008331463672220707,
            -0.06787463277578354,
            -0.0542440265417099,
            -0.06721619516611099,
            -0.012670512311160564,
            -0.02628738060593605,
            -0.07673966139554977,
            0.0362323597073555,
            -0.046539340168237686,
            0.13778461515903473,
            0.04424290731549263,
            0.057225748896598816,
            0.047499313950538635,
            -0.035149142146110535,
            0.055038437247276306,
            0.003549107350409031,
            -0.11209545284509659,
            -0.024534618481993675,
            0.1369302123785019
        ],
        [
            0.12007340788841248,
            0.49391698837280273,
            0.18081672489643097,
            0.07717646658420563,
            0.005966825410723686,
            -0.03038586489856243,
            -0.07272928953170776,
            0.07169677317142487,
            -0.04392222315073013,
            -0.024370668455958366,
            -0.1640511453151703,
            0.21333138644695282,
            -0.02982657589018345,
            0.13628177344799042,
            0.0006733769550919533,
            -0.26656779646873474,
            0.04266752302646637,
            -0.07462558895349503,
            0.13771072030067444,
            -0.1212603896856308,
            0.05084232613444328,
            -0.05260796472430229,
            0.06268872320652008,
            -0.116261787712574,
            0.02778218500316143,
            -0.2476862072944641,
            -0.07976577430963516,
            0.003916784655302763,
            0.061644431203603745,
            -0.07254224270582199,
            0.23764090240001678,
            -0.232273668050766,
            0.21972310543060303,
            -0.5099483132362366,
            -0.00025155593175441027,
            0.19254307448863983,
            -0.003102848306298256,
            -0.17420054972171783,
            -0.03356559947133064,
            -0.09122898429632187,
            -0.11215141415596008,
            0.10977289825677872,
            0.07184179127216339,
            0.015651587396860123,
            0.13626757264137268,
            0.0835118293762207,
            0.1633996069431305,
            -0.020707186311483383,
            -0.06450911611318588,
            0.01708151027560234,
            0.08510319143533707,
            -0.025029955431818962,
            0.35253727436065674,
            -0.014930162578821182,
            -0.1318691521883011,
            0.1042238250374794,
            0.08459790050983429,
            0.10700246691703796,
            -0.1169547513127327,
            -0.0019279802218079567,
            -0.015864504501223564,
            -0.004865693394094706,
            -0.0285243671387434,
            0.12699487805366516,
            0.4704227149486542,
            0.05785556882619858,
            -0.035337455570697784,
            0.03939696028828621,
            -0.0501011498272419,
            -0.11444787681102753,
            -0.08445248752832413,
            0.023883553221821785,
            -0.04535294324159622,
            0.20022614300251007,
            -0.30737370252609253,
            0.0032282571773976088,
            -0.06952567398548126,
            -0.048008132725954056,
            0.013803123496472836,
            0.1592746526002884,
            -0.055470045655965805,
            -0.014166772365570068,
            0.0917489230632782,
            0.04159199446439743,
            -0.06086331978440285,
            -0.11546743661165237,
            0.479525089263916,
            0.056226182729005814,
            -0.16310086846351624,
            0.0920005813241005,
            -0.1911730319261551,
            0.08262785524129868,
            -0.04342244192957878,
            -0.07026313990354538,
            -0.12011999636888504,
            -0.2554247975349426,
            0.09896223247051239,
            0.07247436046600342,
            0.2655137777328491,
            -0.10474449396133423,
            -0.3242717683315277,
            0.1369878649711609,
            -0.08779257535934448,
            0.030832631513476372,
            0.15549369156360626,
            0.1521204710006714,
            -0.09524919092655182,
            0.20514273643493652,
            0.07529817521572113,
            0.08378419280052185,
            0.001087673008441925,
            -0.3990716338157654,
            0.049367159605026245,
            -0.16952434182167053,
            0.2699250876903534,
            0.33808276057243347,
            -0.07215805351734161,
            0.06093190237879753,
            -0.05233654007315636,
            0.06492526084184647,
            -0.03911812603473663,
            -0.5816889405250549,
            0.22735722362995148,
            -0.09997912496328354,
            -0.503526508808136,
            -0.10263800621032715,
            0.016314689069986343,
            -0.09686842560768127
        ],
        [
            0.03794575110077858,
            0.04690851643681526,
            -0.05627050623297691,
            -0.07349561154842377,
            -0.12091763317584991,
            -0.1148596927523613,
            0.007672551553696394,
            -0.039092082530260086,
            0.01411118358373642,
            0.0483175553381443,
            0.06977184861898422,
            0.11116572469472885,
            0.019605349749326706,
            -0.10127291083335876,
            0.09423138201236725,
            0.042653318494558334,
            0.03045671433210373,
            -0.09873422235250473,
            0.03200569748878479,
            -0.01732468418776989,
            0.030845243483781815,
            -0.11196757853031158,
            -0.10655263811349869,
            -0.04208359494805336,
            -0.043982863426208496,
            -0.0967598408460617,
            -0.04237004369497299,
            0.0528736338019371,
            -0.013399469666182995,
            -0.029986923560500145,
            0.05671241879463196,
            -0.10726621001958847,
            0.09851562231779099,
            0.039086151868104935,
            0.008974527940154076,
            -0.2071310430765152,
            -0.14077147841453552,
            -0.028255300596356392,
            -0.02887965925037861,
            -0.0626625269651413,
            0.04405513405799866,
            -0.1370060294866562,
            -0.12095366418361664,
            -0.018217183649539948,
            0.09885800629854202,
            0.27573782205581665,
            0.2389405518770218,
            0.0825696587562561,
            0.08632228523492813,
            -0.07226401567459106,
            -0.040076933801174164,
            -0.0394323505461216,
            0.16131001710891724,
            -0.130985289812088,
            -0.10336848348379135,
            0.21062526106834412,
            -0.019032282754778862,
            -0.15684235095977783,
            0.1653279960155487,
            -0.000539566099178046,
            -0.08236285299062729,
            0.07980672270059586,
            0.02778681367635727,
            0.051101204007864,
            -0.10356421023607254,
            -0.22592860460281372,
            0.16970394551753998,
            0.09147569537162781,
            0.12892687320709229,
            0.05400766432285309,
            0.07675115764141083,
            0.10388299077749252,
            0.0562312975525856,
            -0.04434652999043465,
            -0.1681569516658783,
            0.11730187386274338,
            0.1728593111038208,
            -0.041979726403951645,
            0.014182573184370995,
            0.16091006994247437,
            0.06311571598052979,
            -0.0370681956410408,
            -0.2149191051721573,
            0.044050972908735275,
            -0.013322669081389904,
            0.18774454295635223,
            -0.0770239606499672,
            -0.06899045407772064,
            0.006646014750003815,
            0.0441853329539299,
            -0.22085131704807281,
            0.037521447986364365,
            0.04344111308455467,
            0.1088486984372139,
            -0.010056516155600548,
            0.014977938495576382,
            0.05131564661860466,
            -0.11326475441455841,
            0.07065455615520477,
            -0.042084816843271255,
            0.21571491658687592,
            -0.09470256417989731,
            -0.024703914299607277,
            -0.06113557144999504,
            -0.32106417417526245,
            -0.18688546121120453,
            -0.07151952385902405,
            0.06817104667425156,
            0.1615884155035019,
            -0.12818235158920288,
            0.024036193266510963,
            -0.04063696041703224,
            0.12184596061706543,
            -0.20604747533798218,
            0.13185010850429535,
            -0.0739598423242569,
            -0.12401337176561356,
            0.13496710360050201,
            -0.012955241836607456,
            0.04978952929377556,
            0.00484422268345952,
            0.08379852026700974,
            0.12419211864471436,
            0.018772033974528313,
            0.18930885195732117,
            -0.2349759340286255,
            -0.12544821202754974,
            -0.05640871822834015
        ],
        [
            0.0024613398127257824,
            -0.2676667273044586,
            -0.18533819913864136,
            0.07008066773414612,
            -0.15942153334617615,
            -0.06545284390449524,
            -0.04835687205195427,
            -0.12739048898220062,
            0.270082026720047,
            -0.04973531886935234,
            0.4611830711364746,
            -0.11753880977630615,
            -0.048233628273010254,
            0.04752011597156525,
            -0.10980571061372757,
            0.18965670466423035,
            -0.029091110453009605,
            0.1406743824481964,
            -0.15305596590042114,
            0.09539412707090378,
            -0.12424750626087189,
            0.027134312316775322,
            -0.01934524066746235,
            -0.1187744066119194,
            0.0645265206694603,
            -0.01754843257367611,
            -0.10361828655004501,
            0.05189051479101181,
            -0.15280649065971375,
            -0.10361475497484207,
            -0.020618846639990807,
            -0.06939822435379028,
            -0.004413251299411058,
            -0.41546812653541565,
            0.03953872248530388,
            -0.012882236391305923,
            0.022081833332777023,
            -0.03087102249264717,
            -0.023394593968987465,
            -0.03399579972028732,
            0.05093523487448692,
            -0.17582584917545319,
            0.144728422164917,
            0.08046042174100876,
            0.01567370630800724,
            -0.37837785482406616,
            -0.05973052978515625,
            0.00492516253143549,
            0.07041732221841812,
            -0.08225174248218536,
            0.04540414363145828,
            0.03257181495428085,
            -0.3382055461406708,
            -0.016844477504491806,
            0.024239065125584602,
            0.029794801026582718,
            -0.0005077422829344869,
            -0.08578424155712128,
            0.04759041965007782,
            0.00027168093947693706,
            0.0315045490860939,
            -0.26699185371398926,
            0.09819890558719635,
            -0.04107890650629997,
            -0.2559335231781006,
            -0.16009162366390228,
            -0.021452901884913445,
            0.024665087461471558,
            0.21642571687698364,
            -0.12622351944446564,
            -0.06109359860420227,
            -0.10699295252561569,
            -0.05369541794061661,
            -0.07732900232076645,
            0.11223416775465012,
            -0.02699952758848667,
            -0.4107767939567566,
            -0.037176698446273804,
            0.12250038981437683,
            0.13180533051490784,
            -0.009861787781119347,
            0.0071805547922849655,
            -0.11930035799741745,
            0.06142532825469971,
            0.11512503027915955,
            -0.13686218857765198,
            0.16455720365047455,
            -0.07497818768024445,
            -0.06825532764196396,
            -0.12492358684539795,
            -0.016672179102897644,
            0.07576160877943039,
            0.025094330310821533,
            -0.11207129806280136,
            -0.013632805086672306,
            0.07017678022384644,
            -0.1845000684261322,
            0.08523411303758621,
            0.006749720312654972,
            0.18304845690727234,
            0.05998874083161354,
            0.046684958040714264,
            0.10723916441202164,
            -0.05289236828684807,
            0.2749289572238922,
            -0.09886357933282852,
            -0.016570299863815308,
            -0.07228107750415802,
            -0.0449054017663002,
            0.033868346363306046,
            0.05376412719488144,
            0.0008170436485670507,
            0.09179554134607315,
            0.12046338617801666,
            0.12573151290416718,
            -0.15315955877304077,
            0.028195716440677643,
            -0.054422471672296524,
            -0.10202419012784958,
            -0.05281781405210495,
            0.0025525717064738274,
            0.4898401200771332,
            0.12841422855854034,
            0.06499364227056503,
            -0.07921262830495834,
            0.11285895109176636,
            0.3096795976161957,
            0.002910131588578224
        ],
        [
            0.0005914820358157158,
            -0.02371467463672161,
            -0.20923177897930145,
            0.0482531413435936,
            0.10661603510379791,
            0.08543191850185394,
            0.03855769336223602,
            0.008561339229345322,
            0.15353968739509583,
            -0.11054497957229614,
            -0.18362601101398468,
            0.14637577533721924,
            0.010382518172264099,
            -0.02302754856646061,
            0.11567719280719757,
            0.25495287775993347,
            0.058080170303583145,
            -0.15046042203903198,
            0.004575173370540142,
            0.031958404928445816,
            -0.212717667222023,
            0.08061584830284119,
            0.006732116919010878,
            0.13977128267288208,
            -0.06432919204235077,
            0.013915704563260078,
            -0.03988101705908775,
            0.07061558216810226,
            -0.006381767801940441,
            -0.10823038965463638,
            0.13957497477531433,
            0.18297110497951508,
            0.16458207368850708,
            0.0407998226583004,
            -0.0713903158903122,
            -0.15472882986068726,
            -0.020606057718396187,
            0.001272925641387701,
            -0.07817760854959488,
            0.05058056861162186,
            0.19865770637989044,
            -0.01854090392589569,
            0.05688142403960228,
            0.11169587075710297,
            -0.0014389747520908713,
            -0.19119268655776978,
            -0.0065747513435781,
            0.1645478904247284,
            0.1899336278438568,
            -0.12465546280145645,
            0.060798075050115585,
            0.023676462471485138,
            0.026256754994392395,
            -0.06481872498989105,
            -0.20360036194324493,
            0.11133655905723572,
            0.012902162969112396,
            -0.0813823714852333,
            0.017798244953155518,
            -7.34975328668952e-05,
            0.07263275980949402,
            -0.07109659165143967,
            -0.07666712254285812,
            0.032476458698511124,
            -0.1082904115319252,
            0.1348755806684494,
            -0.23349431157112122,
            0.015454386360943317,
            -0.019803786650300026,
            0.16283801198005676,
            0.15265962481498718,
            -0.022290097549557686,
            0.0898972898721695,
            0.09742961823940277,
            -0.04040353745222092,
            0.08610772341489792,
            -0.435661643743515,
            -0.1510305553674698,
            0.2630523145198822,
            0.08269766718149185,
            -0.038659147918224335,
            0.012183666229248047,
            -0.08577955514192581,
            -0.005468571558594704,
            0.053444311022758484,
            0.007857183925807476,
            0.11212075501680374,
            -0.15434882044792175,
            -0.06382358819246292,
            -0.0503813810646534,
            0.16518685221672058,
            -0.11385141313076019,
            0.011172816157341003,
            -0.08867985755205154,
            -0.0551045760512352,
            -0.033268798142671585,
            0.1588848978281021,
            -0.04700012505054474,
            0.04395859315991402,
            -0.22838570177555084,
            0.10173020511865616,
            0.22115856409072876,
            0.07063713669776917,
            0.24123595654964447,
            -0.0340527705848217,
            0.12486445903778076,
            -0.08314826339483261,
            0.08353713899850845,
            0.04278242215514183,
            0.06041804701089859,
            0.09285705536603928,
            0.17352581024169922,
            0.062423620373010635,
            0.12593835592269897,
            0.022807810455560684,
            -0.10881554335355759,
            0.028909746557474136,
            0.04687819257378578,
            0.0754527673125267,
            -0.011713206768035889,
            -0.025810813531279564,
            -0.04204375669360161,
            0.0752994567155838,
            -0.04923490062355995,
            -0.38353124260902405,
            -0.2542029023170471,
            0.10926046967506409,
            -0.04441433027386665
        ],
        [
            0.0205597672611475,
            -0.1407608538866043,
            0.23264452815055847,
            -0.21522562205791473,
            -0.10301055014133453,
            0.04041623696684837,
            -0.023512350395321846,
            -0.2405930757522583,
            0.14411193132400513,
            0.058276716619729996,
            0.10927984863519669,
            0.04944935441017151,
            0.1056177094578743,
            -0.16285701096057892,
            -0.25288018584251404,
            0.08748587965965271,
            0.037438418716192245,
            -0.5483770966529846,
            -0.027997232973575592,
            0.06362790614366531,
            -0.0608009435236454,
            0.05607222393155098,
            -0.015757311135530472,
            0.1325257122516632,
            0.10659421980381012,
            -0.033046722412109375,
            -0.09661319106817245,
            -0.08214130252599716,
            -0.2132348120212555,
            -0.042008284479379654,
            -0.10450330376625061,
            -0.3016331195831299,
            -0.05666214972734451,
            0.2074834406375885,
            -0.04320131987333298,
            0.09443623572587967,
            -0.1551772803068161,
            0.05597124993801117,
            -0.10862718522548676,
            0.01445044670253992,
            -0.012761209160089493,
            0.10735736787319183,
            -0.031927235424518585,
            -0.032081786543130875,
            -0.08741652965545654,
            0.0641636922955513,
            0.08637043833732605,
            -0.1797938048839569,
            -0.20240680873394012,
            0.07771168649196625,
            -0.08026031404733658,
            0.22745496034622192,
            -0.005346789490431547,
            -0.03227996081113815,
            -0.06968311965465546,
            0.31097856163978577,
            0.01843133009970188,
            0.17536233365535736,
            0.16116930544376373,
            0.001408867770805955,
            0.008021162822842598,
            0.21469777822494507,
            -0.0668499767780304,
            0.14082074165344238,
            0.1220712885260582,
            -0.08552093058824539,
            -0.15520331263542175,
            -0.05724108964204788,
            0.05881335958838463,
            -0.2874161899089813,
            -0.015133119188249111,
            -0.02605699934065342,
            0.05616270378232002,
            0.05049459636211395,
            -0.005388797726482153,
            -0.05487976595759392,
            0.3288058340549469,
            -0.3522626459598541,
            0.15340697765350342,
            0.016592904925346375,
            0.15304534137248993,
            -0.07550062984228134,
            0.05288117751479149,
            0.1200774759054184,
            -0.08537381142377853,
            -0.16800735890865326,
            0.27346423268318176,
            0.05784470960497856,
            -0.034334756433963776,
            -0.1862419992685318,
            -0.14651533961296082,
            -0.009373372420668602,
            0.09259665757417679,
            0.10129110515117645,
            -0.19166691601276398,
            0.1640569120645523,
            0.20672792196273804,
            -0.023409008979797363,
            -0.04484042525291443,
            -0.09307005256414413,
            0.3226931691169739,
            0.03218258544802666,
            -0.052095893770456314,
            0.19619031250476837,
            0.15245375037193298,
            -0.017829377204179764,
            -0.017287151888012886,
            -0.06719658523797989,
            0.34262096881866455,
            -0.23078659176826477,
            -0.04471098259091377,
            -0.19281232357025146,
            -0.09990295022726059,
            -0.11182788014411926,
            0.20019541680812836,
            -0.6746167540550232,
            0.014489552937448025,
            -0.0539826937019825,
            0.05093219876289368,
            0.09401556104421616,
            -0.029634522274136543,
            0.46290645003318787,
            0.14303556084632874,
            0.08429241180419922,
            -0.21781866252422333,
            0.12661834061145782,
            0.019803009927272797,
            -0.0003111814148724079
        ],
        [
            0.06500735878944397,
            0.0033643734641373158,
            0.16783501207828522,
            0.06400489062070847,
            -0.3081807792186737,
            -0.11881094425916672,
            0.28152623772621155,
            -0.1125560775399208,
            -0.26218271255493164,
            0.03352212905883789,
            -0.2155703455209732,
            0.2602103352546692,
            -0.1433734893798828,
            -0.10634748637676239,
            -0.13614262640476227,
            0.11369059234857559,
            0.10947131365537643,
            0.18269236385822296,
            -0.12427593767642975,
            0.46769848465919495,
            -0.04701663926243782,
            0.09990857541561127,
            -0.043912239372730255,
            -0.01740618608891964,
            0.04862863942980766,
            -0.0665118619799614,
            0.03268071636557579,
            -0.19564169645309448,
            -0.11814892292022705,
            -0.019975213333964348,
            -0.2212652862071991,
            0.013109205290675163,
            -0.09742157906293869,
            0.5812812447547913,
            -0.07598521560430527,
            0.18187673389911652,
            0.14047367870807648,
            0.3601108193397522,
            -0.006256244145333767,
            0.016782213002443314,
            0.0344359315931797,
            0.10776425153017044,
            -0.01570913940668106,
            -0.09201482683420181,
            -0.13912466168403625,
            -0.4420027732849121,
            -0.0519048273563385,
            -0.1671646684408188,
            -0.21076655387878418,
            0.09293918311595917,
            -0.0945580005645752,
            0.02943345531821251,
            -0.01021497417241335,
            -0.032152626663446426,
            0.09772083908319473,
            -0.3622288107872009,
            -0.11459113657474518,
            -0.26081356406211853,
            0.05279058590531349,
            -0.0031190377194434404,
            0.07684477418661118,
            0.2842913269996643,
            0.5093412399291992,
            0.03258311375975609,
            -0.38721784949302673,
            0.25913557410240173,
            -0.0298820398747921,
            -0.08128742128610611,
            0.15817344188690186,
            -0.20240254700183868,
            -0.06692483276128769,
            -0.028438854962587357,
            0.2665180265903473,
            -0.04243180900812149,
            -0.9850274920463562,
            -0.018189938738942146,
            -0.33635175228118896,
            0.19514970481395721,
            -0.22878021001815796,
            0.08961206674575806,
            -0.13112743198871613,
            0.05996270105242729,
            0.16175301373004913,
            -0.00914035364985466,
            -0.19701452553272247,
            0.08385281264781952,
            -0.029855303466320038,
            0.07059896737337112,
            0.12609513103961945,
            0.07256339490413666,
            -0.02808012254536152,
            -0.15655186772346497,
            -0.07269927859306335,
            0.005499463528394699,
            0.29747122526168823,
            0.001742944703437388,
            0.9382470846176147,
            -0.22364895045757294,
            -0.555099606513977,
            -0.03256974369287491,
            -0.027068806812167168,
            0.1003485843539238,
            0.09664978832006454,
            0.2074185460805893,
            -0.19339923560619354,
            0.020198523998260498,
            0.17608563601970673,
            -0.06707549840211868,
            0.13625964522361755,
            -0.1415875256061554,
            0.08918363600969315,
            0.17381806671619415,
            0.27721893787384033,
            0.06357447803020477,
            -0.10750170797109604,
            0.09571539610624313,
            0.04912211373448372,
            -0.1896917074918747,
            0.07879488170146942,
            -0.285754531621933,
            0.029566798359155655,
            0.07333570718765259,
            -0.32815736532211304,
            -0.09347180277109146,
            0.21793240308761597,
            -0.23307308554649353,
            0.1262817531824112,
            -0.1169264167547226
        ],
        [
            -0.1479218304157257,
            -0.5809153318405151,
            0.05615393817424774,
            -0.09109051525592804,
            0.10360447317361832,
            0.09554065018892288,
            0.07127763330936432,
            -0.20054695010185242,
            -0.17681530117988586,
            -0.11182337254285812,
            -0.1998448520898819,
            0.10104528069496155,
            -0.03945177420973778,
            0.05020856112241745,
            0.029741773381829262,
            0.08295665681362152,
            0.05212806910276413,
            0.03413772210478783,
            0.09278517961502075,
            0.15513622760772705,
            0.020334940403699875,
            0.07229400426149368,
            -0.05391744524240494,
            0.0719657689332962,
            0.0828143060207367,
            -0.01944231614470482,
            0.007566558662801981,
            -0.0046435692347586155,
            -0.017291121184825897,
            -0.012421660125255585,
            0.1268215924501419,
            -0.19316083192825317,
            0.04555260390043259,
            -0.02723965421319008,
            0.03177420422434807,
            -0.016667481511831284,
            -0.1567854881286621,
            -0.043958235532045364,
            -0.050635017454624176,
            0.05171038582921028,
            0.060018397867679596,
            0.21697014570236206,
            -0.13614590466022491,
            0.005117187742143869,
            -0.009629443287849426,
            -0.673602283000946,
            0.15873654186725616,
            -0.043942891061306,
            0.0792279914021492,
            0.08711902052164078,
            -0.014312591403722763,
            -0.3022628724575043,
            0.29445210099220276,
            0.05110073462128639,
            -0.02826143056154251,
            0.022192882373929024,
            -0.1549162119626999,
            0.23720504343509674,
            0.10898154228925705,
            -0.0006070930394344032,
            -0.055396921932697296,
            0.2973247766494751,
            -0.004641392268240452,
            -0.13640396296977997,
            -0.055667463690042496,
            0.1039784774184227,
            0.054796453565359116,
            0.0005382009549066424,
            -0.2520930767059326,
            -0.037305448204278946,
            0.03123215027153492,
            0.15812909603118896,
            0.01727265864610672,
            -0.03316973149776459,
            -0.5030373930931091,
            0.11478611081838608,
            -0.13468854129314423,
            0.06243395432829857,
            -0.2297617793083191,
            -0.24112528562545776,
            0.0870935320854187,
            -0.003667640034109354,
            -0.25969186425209045,
            -0.0452125109732151,
            -0.08455655723810196,
            -0.05036046355962753,
            -0.20035740733146667,
            0.04934024065732956,
            -0.04786252602934837,
            0.055544499307870865,
            -0.2787095606327057,
            -0.07097560912370682,
            0.14323708415031433,
            -0.10175107419490814,
            0.05281883478164673,
            -0.1218341663479805,
            0.13830681145191193,
            0.0256503839045763,
            0.08597533404827118,
            -0.10358286648988724,
            0.17597027122974396,
            -0.04282558336853981,
            -0.14376352727413177,
            -0.05748726427555084,
            0.04334640875458717,
            -0.1419617086648941,
            -0.06231182813644409,
            0.09768589586019516,
            0.17496664822101593,
            -0.11696424335241318,
            -0.03689552843570709,
            -0.2919262647628784,
            -0.04486988112330437,
            -0.032662324607372284,
            -0.14144864678382874,
            0.004635652527213097,
            0.04158831760287285,
            -0.057021625339984894,
            0.10224612057209015,
            -0.026829207316040993,
            -0.03659334406256676,
            -0.31055450439453125,
            -0.2152925282716751,
            0.02391289733350277,
            0.11201998591423035,
            -0.21906520426273346,
            -0.4866980016231537,
            -0.11971553415060043
        ],
        [
            0.24107620120048523,
            -0.07950159162282944,
            -0.21080398559570312,
            -0.013629310764372349,
            0.1884947121143341,
            0.28113237023353577,
            -0.239892840385437,
            -0.10714509338140488,
            0.061288729310035706,
            -0.034760259091854095,
            -0.2654728293418884,
            0.08687769621610641,
            0.1390802413225174,
            -0.15375718474388123,
            -0.0695515051484108,
            -0.06653591990470886,
            -0.03342808783054352,
            -0.13935764133930206,
            -0.19802023470401764,
            0.11969102174043655,
            0.21425214409828186,
            -0.041188597679138184,
            -0.17777787148952484,
            0.02234550751745701,
            0.02181621640920639,
            -0.024642888456583023,
            -0.052218761295080185,
            0.09652004390954971,
            -0.14272257685661316,
            -0.08998560905456543,
            0.013419088907539845,
            -0.07611434161663055,
            0.005134717095643282,
            0.2079104483127594,
            -0.07103004306554794,
            0.20227979123592377,
            -0.0912729874253273,
            0.14291279017925262,
            -0.014639698900282383,
            -0.0254007950425148,
            -0.07345393300056458,
            0.007960532791912556,
            0.1872277557849884,
            -0.1255754828453064,
            -0.07482881844043732,
            0.1304246485233307,
            0.15664345026016235,
            -0.053665097802877426,
            0.09572358429431915,
            -0.06282051652669907,
            0.00915079191327095,
            -0.04410026594996452,
            -0.21797876060009003,
            -0.029084762558341026,
            0.04822849854826927,
            -0.03046240285038948,
            0.05743003264069557,
            -0.01225588284432888,
            0.147748202085495,
            0.0029752464033663273,
            -0.0033308544661849737,
            -0.16234543919563293,
            0.0649915412068367,
            0.10571543872356415,
            0.01215270534157753,
            -0.054603781551122665,
            -0.09517208486795425,
            -0.04086161404848099,
            -0.13833585381507874,
            0.10001235455274582,
            -0.13953417539596558,
            0.09948400408029556,
            0.008020883426070213,
            0.018969718366861343,
            -0.18394164741039276,
            -0.07503464072942734,
            0.11539894342422485,
            -0.033058762550354004,
            0.35071858763694763,
            0.02060076966881752,
            -0.07302561402320862,
            0.09720923751592636,
            0.10108622163534164,
            0.08861061185598373,
            -0.08333119750022888,
            0.12471635639667511,
            0.15387408435344696,
            0.10923464596271515,
            -0.1010415181517601,
            -0.13047605752944946,
            -0.007777698338031769,
            0.04954128339886665,
            0.11838389188051224,
            0.13011619448661804,
            0.0018252142472192645,
            0.03174389898777008,
            0.14894264936447144,
            -0.05197758227586746,
            -0.05475831776857376,
            -0.04247259348630905,
            0.11685331910848618,
            0.09362190216779709,
            0.0436793677508831,
            0.1173965334892273,
            0.3917841613292694,
            -0.045927293598651886,
            -0.12668567895889282,
            -0.047544147819280624,
            -0.06841156631708145,
            -0.11645091325044632,
            0.1068449467420578,
            0.2259409874677658,
            0.1315184235572815,
            0.055759795010089874,
            0.11962326616048813,
            0.21819517016410828,
            -0.1556628942489624,
            0.09830953925848007,
            0.03347593545913696,
            -0.014665042981505394,
            -0.08243148773908615,
            -0.3934854567050934,
            0.08044841885566711,
            -0.07809119671583176,
            0.18698851764202118,
            -0.14900465309619904,
            -0.0024587493389844894,
            0.06368041038513184
        ],
        [
            0.2922140657901764,
            0.06761981546878815,
            -0.2703387439250946,
            -0.1383107304573059,
            -0.03865623474121094,
            0.014342333190143108,
            -0.014773392118513584,
            -0.024767335504293442,
            0.09796293079853058,
            0.10407492518424988,
            -0.17379707098007202,
            -0.03192964568734169,
            -0.10136779397726059,
            0.14979739487171173,
            -0.01786087453365326,
            0.027410948649048805,
            -0.09340852499008179,
            -0.0595443919301033,
            0.1170542985200882,
            0.22356463968753815,
            -0.02175801806151867,
            0.023524170741438866,
            0.012097993865609169,
            0.13168054819107056,
            -0.1146923303604126,
            0.024331791326403618,
            0.01803300715982914,
            -0.0404818132519722,
            -0.01135214138776064,
            -0.10655825585126877,
            -0.06399541348218918,
            -0.16024455428123474,
            0.0876847431063652,
            -0.12922297418117523,
            0.0210273414850235,
            0.06727520376443863,
            -0.033785395324230194,
            -0.02631862834095955,
            0.05420368164777756,
            0.011351647786796093,
            0.019495617598295212,
            -0.10671723634004593,
            -0.004055969417095184,
            0.008726843632757664,
            0.16183654963970184,
            0.01340972539037466,
            -0.05594860389828682,
            0.17993158102035522,
            -0.06515438854694366,
            -0.00398211507126689,
            0.09494985640048981,
            -0.10871430486440659,
            0.08012380450963974,
            0.0013731837971135974,
            0.1310318410396576,
            -0.19306042790412903,
            -0.06869751960039139,
            -0.009508942253887653,
            -0.28424400091171265,
            -0.0038856782484799623,
            0.05163509026169777,
            -0.05983913689851761,
            0.16924914717674255,
            0.014534814283251762,
            0.2225649505853653,
            -0.0866049975156784,
            -0.10096652805805206,
            0.09945832937955856,
            0.04910764843225479,
            0.01535387896001339,
            0.09992316365242004,
            -0.030085483565926552,
            0.009034757502377033,
            -0.08608441054821014,
            -0.056084904819726944,
            -0.023258352652192116,
            -0.0840713232755661,
            -0.15285128355026245,
            -0.15046507120132446,
            0.005021668504923582,
            0.017379658296704292,
            -0.020143946632742882,
            0.021594416350126266,
            0.06387569010257721,
            -0.06691648066043854,
            0.23761358857154846,
            0.0951300784945488,
            0.11000007390975952,
            0.010013584978878498,
            0.1291019320487976,
            -0.03375454246997833,
            0.007129658479243517,
            0.0257729385048151,
            0.033414531499147415,
            0.040998369455337524,
            -0.017532916739583015,
            -0.19067631661891937,
            0.0073149800300598145,
            0.030953463166952133,
            -0.055350691080093384,
            -0.1770341545343399,
            -0.14949288964271545,
            -0.04647701233625412,
            -0.0010302131995558739,
            0.03047352097928524,
            0.02262289635837078,
            -0.01723479852080345,
            -0.029646769165992737,
            0.0028779434505850077,
            -0.18921706080436707,
            -0.06455229222774506,
            -0.06748072803020477,
            0.10130176693201065,
            -0.09042051434516907,
            -0.1495118886232376,
            0.27444013953208923,
            0.01212360616773367,
            -0.07886838167905807,
            0.15588180720806122,
            -0.19810304045677185,
            0.028958620503544807,
            -0.37142640352249146,
            -0.07304348051548004,
            -0.09052332490682602,
            0.11553545296192169,
            -0.09172352403402328,
            -0.032083384692668915,
            -0.011182446032762527
        ],
        [
            0.0006872722879052162,
            0.5167378187179565,
            0.19607363641262054,
            0.20393961668014526,
            -0.9777780175209045,
            0.07924587279558182,
            -0.3397557735443115,
            0.2005351334810257,
            0.41293129324913025,
            0.27487924695014954,
            0.8492814302444458,
            -0.6234365701675415,
            -0.3337823748588562,
            -0.2305697351694107,
            -0.15758533775806427,
            0.012470067478716373,
            -0.10542570054531097,
            -0.12513422966003418,
            0.18275205790996552,
            0.07680945098400116,
            -0.07333512604236603,
            0.25372248888015747,
            -0.06301885098218918,
            -0.36281999945640564,
            0.1278744488954544,
            0.2087896317243576,
            -0.0988106057047844,
            -0.15871435403823853,
            -0.3259260058403015,
            -0.08836109191179276,
            0.17675533890724182,
            0.30804145336151123,
            -0.035694435238838196,
            -0.01739184930920601,
            0.027283456176519394,
            -0.9834408164024353,
            -0.009518775157630444,
            0.20825383067131042,
            0.040771834552288055,
            -0.18759676814079285,
            0.032473981380462646,
            -0.2979441285133362,
            -0.2095082700252533,
            -0.02334143966436386,
            0.015299482271075249,
            -0.09126922488212585,
            0.0052258167415857315,
            0.009843445383012295,
            -0.1086762398481369,
            -0.16806147992610931,
            0.04049055650830269,
            -0.10651096701622009,
            -0.21281860768795013,
            -0.02667059563100338,
            -0.06275153160095215,
            0.1600014567375183,
            -0.013669151812791824,
            -0.22767412662506104,
            -0.21111342310905457,
            0.0017442586831748486,
            -0.07848314195871353,
            -0.12680889666080475,
            -0.07722397148609161,
            0.06518958508968353,
            0.4310206472873688,
            0.380245566368103,
            -0.6371027827262878,
            -0.6097067594528198,
            0.13830198347568512,
            -0.15006835758686066,
            0.022067539393901825,
            -0.23058666288852692,
            -0.08723802119493484,
            -0.14205612242221832,
            -0.36986562609672546,
            0.12990400195121765,
            0.2741071879863739,
            -0.02309332974255085,
            -0.0362677238881588,
            0.1781408041715622,
            0.27025309205055237,
            -0.023834528401494026,
            -0.12446466833353043,
            0.14602892100811005,
            0.07704881578683853,
            -0.12391117215156555,
            0.6229678988456726,
            0.4422081410884857,
            0.0254659540951252,
            -0.08810906112194061,
            0.1369391530752182,
            0.04087386652827263,
            -0.028957825154066086,
            0.08813769370317459,
            0.13815553486347198,
            -0.1796688735485077,
            -0.6327060461044312,
            0.24175210297107697,
            -0.4890615940093994,
            0.04556906968355179,
            -0.2246628999710083,
            0.06653178483247757,
            0.04714306443929672,
            0.15493175387382507,
            -1.0377382040023804,
            0.2759341597557068,
            0.0016973544843494892,
            -0.13873910903930664,
            -0.08819259703159332,
            0.006285086739808321,
            0.09430579841136932,
            -0.08121182024478912,
            -0.062229182571172714,
            -0.2532978951931,
            0.2817225754261017,
            0.307377427816391,
            -0.08408121764659882,
            0.09789673984050751,
            -0.03403713181614876,
            -0.011702959425747395,
            0.011307318694889545,
            -0.09999209642410278,
            0.16727107763290405,
            0.04877282306551933,
            -0.45541444420814514,
            -0.07740809768438339,
            -0.1875106394290924,
            -0.16539406776428223
        ],
        [
            0.12115168571472168,
            0.021651677787303925,
            -0.22512240707874298,
            -0.0791316032409668,
            -0.0315215177834034,
            -0.00013511430006474257,
            0.06554117798805237,
            -0.025813201442360878,
            0.014345301315188408,
            -0.04925375059247017,
            -0.13517791032791138,
            -0.09736501425504684,
            0.028149910271167755,
            -0.002486314158886671,
            0.07819399237632751,
            -0.11937811970710754,
            0.03182978183031082,
            0.005614823196083307,
            -0.012899055145680904,
            0.05453318729996681,
            0.014911161735653877,
            -0.02875734120607376,
            -0.0670490562915802,
            0.42226529121398926,
            -0.030901633203029633,
            -0.03210867568850517,
            0.02739606611430645,
            -0.0016510443529114127,
            0.1239662915468216,
            0.07171403616666794,
            -0.030295172706246376,
            -0.14605727791786194,
            -0.0011525345034897327,
            0.2595595717430115,
            0.02949497103691101,
            0.28047436475753784,
            -0.06662876904010773,
