{
    "_metadata": {
        "best_epoch": 1427,
        "epoch": 1427,
        "loss_validation": 0.10980000346899033,
        "rms_validation": 0.2849999964237213,
        "rms_validation_descaled": 0.1331000030040741
    },
    "feature_max": {
        "An": 5.999999758308128,
        "Ate": 13.999999399573277,
        "Ati": 14.000000146024295,
        "Ti_Te": 2.4999999250889307,
        "Zeff": 2.999999913468154,
        "logNustar": -0.0002938833134056059,
        "q": 15.00000037030367,
        "smag": 5.000000175999727,
        "x": 0.9899999822054358
    },
    "feature_min": {
        "An": -4.999999637462192,
        "Ate": 1.999999799857759,
        "Ati": 1.999999853975705,
        "Ti_Te": 0.24999996254446533,
        "Zeff": 1.0,
        "logNustar": -5.000293781128665,
        "q": 0.66000013084063,
        "smag": -1.0,
        "x": 0.08999999538659448
    },
    "feature_names": [
        "Zeff",
        "Ati",
        "Ate",
        "An",
        "q",
        "smag",
        "x",
        "Ti_Te",
        "logNustar"
    ],
    "hidden_activation": [
        "tanh",
        "tanh",
        "tanh"
    ],
    "layer1/biases/Variable:0": [
        1.4349831342697144,
        -0.164971724152565,
        0.9637855887413025,
        1.263063669204712,
        -2.7247302532196045,
        -1.7876752614974976,
        0.3989981710910797,
        0.6603936553001404,
        1.3511844873428345,
        0.7390733361244202,
        0.46357133984565735,
        1.615065574645996,
        -0.10745390504598618,
        -2.707597255706787,
        0.09728440642356873,
        1.6395407915115356,
        -1.0483545064926147,
        0.695912778377533,
        -1.5533968210220337,
        -1.5111043453216553,
        -0.2553235590457916,
        -0.3721524178981781,
        0.08480916917324066,
        -0.8483237624168396,
        -0.8205013871192932,
        0.7296892404556274,
        0.173036128282547,
        -1.3322465419769287,
        0.08323825150728226,
        0.6074820160865784,
        1.0879448652267456,
        1.3738622665405273,
        -1.938882827758789,
        0.02509317360818386,
        -1.913290023803711,
        -1.8270639181137085,
        -0.4118022620677948,
        -2.4597666263580322,
        -0.20978620648384094,
        -0.8451968431472778,
        0.8270335793495178,
        0.6141896843910217,
        -1.7016065120697021,
        0.039630357176065445,
        -0.4400656521320343,
        2.190744638442993,
        0.8505005240440369,
        0.21571701765060425,
        0.7899250984191895,
        0.10405103862285614,
        1.0242925882339478,
        0.6601080298423767,
        -1.4516767263412476,
        0.9650430679321289,
        2.1345505714416504,
        -0.18237391114234924,
        -0.706351637840271,
        0.9797225594520569,
        0.9635555744171143,
        -1.8924634456634521,
        -0.7050104737281799,
        1.2852697372436523,
        1.0683870315551758,
        0.36091452836990356,
        1.8148702383041382,
        -0.0337727889418602,
        -0.5082893967628479,
        -1.624498724937439,
        -0.98115074634552,
        0.24692319333553314,
        -0.11601600050926208,
        -0.38554418087005615,
        1.460331916809082,
        2.0852513313293457,
        0.13046908378601074,
        1.9850672483444214,
        0.05093322694301605,
        1.2955305576324463,
        0.5685268640518188,
        -1.4383008480072021,
        1.3995879888534546,
        -0.8573817610740662,
        -0.18552997708320618,
        1.5396405458450317,
        1.9851977825164795,
        1.2872896194458008,
        -0.9310746788978577,
        -2.5556843280792236,
        1.1749396324157715,
        -1.4336954355239868,
        0.49798673391342163,
        -1.2231531143188477,
        -0.773775577545166,
        0.7246890068054199,
        1.50283682346344,
        -0.5589311718940735,
        1.1843544244766235,
        -1.039896845817566,
        1.191070318222046,
        0.3148372769355774,
        -1.233418345451355,
        1.7030709981918335,
        -0.309673935174942,
        0.5300487875938416,
        -1.8356907367706299,
        0.4459078013896942,
        -1.2048143148422241,
        0.31535467505455017,
        1.9007623195648193,
        -0.21599189937114716,
        0.6985124349594116,
        1.4605605602264404,
        0.4796311855316162,
        -0.9054036140441895,
        -0.6503534913063049,
        0.30521297454833984,
        -1.7633850574493408,
        1.3490339517593384,
        -0.4845443069934845,
        1.9241646528244019,
        1.3808456659317017,
        -0.02798708900809288,
        0.6355307102203369,
        1.5304197072982788,
        -0.5014727115631104,
        -0.8784559369087219,
        1.0463225841522217,
        -1.293092966079712
    ],
    "layer1/weights/Variable:0": [
        [
            0.6447730660438538,
            -0.006049329414963722,
            -0.2937106788158417,
            -0.3315601944923401,
            -0.17729419469833374,
            0.2838193476200104,
            -0.006125662475824356,
            -1.0182344913482666,
            0.3178148865699768,
            -0.2201394885778427,
            0.09659354388713837,
            0.3219241499900818,
            -0.01518999319523573,
            0.05009663105010986,
            -0.06948913633823395,
            0.021472522988915443,
            -0.08171624690294266,
            0.09274746477603912,
            0.08609741181135178,
            -0.20278300344944,
            -0.3010371923446655,
            -0.039777420461177826,
            0.5702658295631409,
            -0.24724870920181274,
            0.34427428245544434,
            0.9702757596969604,
            0.2075970470905304,
            -0.020572684705257416,
            -0.21290642023086548,
            -0.39480268955230713,
            0.0643683597445488,
            -0.039117518812417984,
            0.0024036364629864693,
            0.2715756893157959,
            -0.13534624874591827,
            0.060940250754356384,
            0.3124547302722931,
            -0.16690397262573242,
            -0.008635766804218292,
            0.010407289490103722,
            0.0316571481525898,
            -0.05745397508144379,
            0.22677698731422424,
            0.10663104057312012,
            -0.20137004554271698,
            0.6427592039108276,
            0.18638944625854492,
            0.01589883491396904,
            0.13935387134552002,
            -0.059101033955812454,
            0.3153059780597687,
            -0.1096811294555664,
            -0.36362674832344055,
            0.11006021499633789,
            -0.41145870089530945,
            -0.11279075592756271,
            0.17895226180553436,
            -0.21474967896938324,
            -0.014967120252549648,
            -0.08050951361656189,
            0.649285078048706,
            0.06268659979104996,
            0.07228510081768036,
            0.24468174576759338,
            -0.004892251454293728,
            -0.2766733765602112,
            -0.17890284955501556,
            -0.10133210569620132,
            -0.17075364291667938,
            0.15273728966712952,
            -0.08083432912826538,
            -0.223251610994339,
            -0.02863561548292637,
            -0.0007360331946983933,
            -0.018110495060682297,
            0.06527585536241531,
            0.5750604867935181,
            -0.21822026371955872,
            -0.42228037118911743,
            -0.14618107676506042,
            0.17951670289039612,
            0.001264746650122106,
            -0.8401037454605103,
            0.034956853836774826,
            0.12342057377099991,
            0.18354517221450806,
            -0.18960772454738617,
            -0.0722947046160698,
            0.6370839476585388,
            0.17244969308376312,
            -0.182901069521904,
            -0.18669214844703674,
            0.11540482938289642,
            -0.046839114278554916,
            0.6570518612861633,
            -0.2688005268573761,
            0.07963977754116058,
            0.09122466295957565,
            -0.4141921103000641,
            -0.08158457279205322,
            -0.02551601082086563,
            -0.23401659727096558,
            -0.36447465419769287,
            0.1268245428800583,
            0.16851258277893066,
            0.031910523772239685,
            -0.25855565071105957,
            -0.3264043629169464,
            0.31171926856040955,
            0.044720906764268875,
            -0.45009756088256836,
            0.06368366628885269,
            0.07360385358333588,
            0.1763673573732376,
            0.09206623584032059,
            -0.6274240612983704,
            -0.08301234990358353,
            0.1313716024160385,
            -0.0058636912144720554,
            0.006930359173566103,
            -0.06962159276008606,
            -0.028536668047308922,
            0.33085694909095764,
            -0.3090887665748596,
            -0.11149900406599045,
            0.17473728954792023,
            -0.30505630373954773,
            -0.14042571187019348
        ],
        [
            0.015657784417271614,
            -0.3067367672920227,
            0.44203925132751465,
            0.2974497079849243,
            0.058868467807769775,
            0.5749571919441223,
            0.026602277532219887,
            0.18312601745128632,
            0.48142004013061523,
            0.41440948843955994,
            0.3686022460460663,
            -0.24256569147109985,
            -0.18302100896835327,
            0.012537052854895592,
            0.03515644371509552,
            0.16135230660438538,
            1.0576056241989136,
            0.22010384500026703,
            -0.05956452339887619,
            -0.038845568895339966,
            -0.5056459307670593,
            -0.03751496598124504,
            -0.602524995803833,
            0.03171945735812187,
            -0.049602996557950974,
            -0.48568016290664673,
            -0.057305898517370224,
            -0.22549015283584595,
            1.2588510513305664,
            0.05698245391249657,
            -0.21942874789237976,
            -0.07615496963262558,
            0.13603588938713074,
            -0.453570693731308,
            0.16357414424419403,
            0.15302929282188416,
            -0.173538476228714,
            -0.02461015060544014,
            -0.2991367280483246,
            -0.5672457814216614,
            0.0052153561264276505,
            0.10999580472707748,
            0.04171031713485718,
            -0.3131050169467926,
            0.19690187275409698,
            -0.013728621415793896,
            0.24715980887413025,
            0.842009425163269,
            -0.05852745100855827,
            0.5002696514129639,
            -0.016476402059197426,
            -0.03239414840936661,
            0.6128604412078857,
            0.2370736002922058,
            -0.15111495554447174,
            -0.1923668086528778,
            -0.14984682202339172,
            0.023332232609391212,
            0.9261294007301331,
            0.2934938073158264,
            0.05634225159883499,
            -0.0896046906709671,
            -0.05859077721834183,
            -0.21293838322162628,
            0.039754487574100494,
            0.3577283024787903,
            0.128881573677063,
            0.03113013692200184,
            0.025694800540804863,
            -0.009821295738220215,
            0.6062413454055786,
            0.5928032398223877,
            -0.031696442514657974,
            0.004404248204082251,
            0.3454958498477936,
            0.08329368382692337,
            -0.4800757169723511,
            0.25708410143852234,
            -0.0529751181602478,
            0.23021991550922394,
            0.06732208281755447,
            -0.26261019706726074,
            0.5156675577163696,
            0.7803685665130615,
            0.0028641715180128813,
            0.17005713284015656,
            0.011276899836957455,
            -0.08762630820274353,
            -0.7961551547050476,
            -0.08142809569835663,
            0.06967572867870331,
            0.00022404051560442895,
            0.7693169713020325,
            -0.1856805831193924,
            -0.22176097333431244,
            -0.002223418327048421,
            -0.12044399976730347,
            0.05346665903925896,
            -0.03330292925238609,
            -0.20859506726264954,
            0.09620818495750427,
            -0.0629272535443306,
            0.29938170313835144,
            -0.8728580474853516,
            -0.1850719004869461,
            -0.2670365869998932,
            0.1958729475736618,
            -0.1799982637166977,
            -0.21487703919410706,
            -0.07547219842672348,
            0.35330289602279663,
            0.1561570018529892,
            -0.302948534488678,
            0.1960214376449585,
            0.045075688511133194,
            0.49989017844200134,
            -0.2587028741836548,
            -0.002644113963469863,
            -0.06763742864131927,
            -0.022768400609493256,
            -0.04810439422726631,
            0.1448749601840973,
            -0.5854165554046631,
            0.14106039702892303,
            0.1594330221414566,
            -0.1401834487915039,
            0.31226417422294617,
            0.0254922267049551
        ],
        [
            0.03491118922829628,
            -0.038716092705726624,
            0.19116567075252533,
            0.22891217470169067,
            0.1433999389410019,
            -0.46312573552131653,
            0.5132975578308105,
            -0.16475774347782135,
            0.3616682291030884,
            -0.14681291580200195,
            -0.16955071687698364,
            -0.3470708429813385,
            0.4554423987865448,
            0.12235618382692337,
            0.5132118463516235,
            0.05342273786664009,
            -0.1587393581867218,
            0.4360045790672302,
            0.016760440543293953,
            -0.2874022126197815,
            0.07717243582010269,
            0.08120523393154144,
            -0.10790733993053436,
            -0.46654021739959717,
            -0.25541216135025024,
            0.038489703088998795,
            0.2534305155277252,
            0.0378526970744133,
            0.034863755106925964,
            0.22654713690280914,
            -0.24049490690231323,
            -0.2722069323062897,
            -0.6109282970428467,
            -0.21512994170188904,
            -0.16423299908638,
            0.17449341714382172,
            -0.27682486176490784,
            -0.14535433053970337,
            -0.37184959650039673,
            0.06571174412965775,
            0.1521613597869873,
            -0.18067023158073425,
            -0.3325802981853485,
            -0.0770273357629776,
            0.06767871975898743,
            0.09869568049907684,
            -0.04707309976220131,
            -0.44518107175827026,
            -0.07632697373628616,
            0.07385016232728958,
            -0.20353256165981293,
            -0.11580205708742142,
            -0.6401516199111938,
            0.2740746736526489,
            0.40033745765686035,
            -0.10676562786102295,
            0.13007482886314392,
            0.12785735726356506,
            0.15786346793174744,
            -0.38637903332710266,
            0.1806630790233612,
            -0.054263241589069366,
            -0.31509584188461304,
            -0.493410587310791,
            -0.3097517788410187,
            0.10295053571462631,
            -0.04729628190398216,
            -0.10622000694274902,
            -0.07067011296749115,
            -0.025790873914957047,
            -0.3516809046268463,
            -0.06377044320106506,
            0.20859330892562866,
            -0.04524601250886917,
            0.5112441182136536,
            -0.061011917889118195,
            0.12767039239406586,
            -0.41391363739967346,
            -0.01070046704262495,
            -0.13830359280109406,
            -0.08353644609451294,
            0.08404435962438583,
            0.11865804344415665,
            0.48159149289131165,
            -0.034061189740896225,
            0.8335468173027039,
            -0.2749607563018799,
            0.13368108868598938,
            0.2048259973526001,
            0.01910785771906376,
            -0.16375137865543365,
            -0.010986650362610817,
            0.17117367684841156,
            0.5782950520515442,
            0.012120358645915985,
            -0.09185883402824402,
            0.7807645797729492,
            0.18895313143730164,
            0.16729094088077545,
            -0.048256225883960724,
            0.23624064028263092,
            0.0451931357383728,
            -0.14818930625915527,
            0.2341761291027069,
            0.049961287528276443,
            0.8731476664543152,
            -0.256014347076416,
            0.15569891035556793,
            -0.1996108889579773,
            0.006556259468197823,
            0.07037205249071121,
            -0.12388822436332703,
            -0.21489599347114563,
            0.032514724880456924,
            0.027164287865161896,
            -0.15920309722423553,
            -0.1050727590918541,
            0.0020195397082716227,
            0.296772837638855,
            0.0012219039490446448,
            0.6096144318580627,
            0.020163042470812798,
            0.2648887038230896,
            0.23007173836231232,
            0.2742112874984741,
            -0.3628380298614502,
            -0.07376403361558914,
            0.1688147336244583
        ],
        [
            -0.15118995308876038,
            1.3544789552688599,
            0.7732205986976624,
            0.2579577565193176,
            -0.0932685062289238,
            0.07765604555606842,
            -0.42823144793510437,
            -0.09270029515028,
            0.20726299285888672,
            0.8188467025756836,
            0.2725584805011749,
            0.08266250789165497,
            0.785270094871521,
            0.21398501098155975,
            -0.3808012306690216,
            -0.3813990354537964,
            -0.24641944468021393,
            0.6630207300186157,
            -0.35723477602005005,
            -0.09699615091085434,
            -0.12810000777244568,
            0.07516799122095108,
            0.48692619800567627,
            -0.13203737139701843,
            -0.24378977715969086,
            -0.1288774013519287,
            -0.08146770298480988,
            0.47724321484565735,
            -0.8791395425796509,
            -0.6017144918441772,
            0.611488401889801,
            0.085984967648983,
            -0.19076663255691528,
            -0.32912054657936096,
            -0.04348277673125267,
            0.17609797418117523,
            0.014184128493070602,
            0.4364304542541504,
            0.2870296835899353,
            -0.273876816034317,
            -0.9159390926361084,
            0.24246814846992493,
            0.4921844005584717,
            -0.3747956156730652,
            0.5222976207733154,
            -0.26044970750808716,
            0.644913375377655,
            -0.1552765667438507,
            0.08888684958219528,
            -1.2030539512634277,
            -0.04698515310883522,
            -0.9809303283691406,
            -0.2997152805328369,
            0.6980387568473816,
            0.048639535903930664,
            0.24572984874248505,
            0.56119704246521,
            0.02408381924033165,
            -1.4008245468139648,
            -0.4603283703327179,
            0.09629511833190918,
            -0.23522548377513885,
            0.09529127925634384,
            -0.07423859089612961,
            0.008657203055918217,
            0.009854819625616074,
            0.0059073325246572495,
            0.528124988079071,
            -0.160065695643425,
            -0.0084804343059659,
            -0.0947028174996376,
            0.15357688069343567,
            -0.2135009765625,
            -0.010077649727463722,
            -1.2688966989517212,
            0.5403650999069214,
            1.5460189580917358,
            -0.10385514795780182,
            -0.38212043046951294,
            0.07876171171665192,
            0.25339213013648987,
            -0.6868194937705994,
            -0.582483172416687,
            -0.07717426121234894,
            0.25975486636161804,
            -0.2999429702758789,
            0.36432451009750366,
            -0.28493532538414,
            0.48205024003982544,
            -0.6672678589820862,
            0.3307359218597412,
            -0.07985465228557587,
            -0.3543594777584076,
            0.4033685326576233,
            -0.4233545660972595,
            -0.02168956771492958,
            0.26280033588409424,
            0.32369565963745117,
            0.20649699866771698,
            -0.2587850093841553,
            -0.29951950907707214,
            -0.19890685379505157,
            0.8034533858299255,
            0.6166791915893555,
            0.26581642031669617,
            -0.24088503420352936,
            0.2678583562374115,
            -0.6079755425453186,
            0.054620373994112015,
            -1.0816400051116943,
            0.02400236763060093,
            0.3591369688510895,
            0.17744414508342743,
            0.2141348421573639,
            -1.780005931854248,
            -0.5575059056282043,
            -0.2002635896205902,
            0.18165366351604462,
            -0.5224117636680603,
            0.019084207713603973,
            0.18148593604564667,
            -0.5816360712051392,
            -0.3802124559879303,
            -0.5708258152008057,
            -0.7769402265548706,
            0.481303870677948,
            -0.6868449449539185,
            -0.04415992647409439
        ],
        [
            0.6570408940315247,
            0.01884879730641842,
            -0.03482905402779579,
            0.026569616049528122,
            -0.14013949036598206,
            -0.30998823046684265,
            0.2801436185836792,
            0.12263473123311996,
            -0.018551215529441833,
            -0.1398186832666397,
            0.02376912534236908,
            0.050342824310064316,
            0.05280494689941406,
            0.0398566760122776,
            0.11424026638269424,
            0.27340808510780334,
            0.7089539766311646,
            0.008835160173475742,
            -0.18501773476600647,
            0.03461645916104317,
            -0.055483873933553696,
            -0.17077480256557465,
            0.07144980877637863,
            0.1394346058368683,
            -0.1805059015750885,
            -0.09872372448444366,
            0.2460198700428009,
            -1.8214308023452759,
            -0.04947614669799805,
            0.08338478952646255,
            -0.3124665319919586,
            -0.009235605597496033,
            0.11301086843013763,
            -0.1236710175871849,
            -1.8156417608261108,
            0.004369982052594423,
            0.2956322729587555,
            0.06421521306037903,
            -0.05586928129196167,
            0.06708892434835434,
            -0.32185858488082886,
            -0.0304882675409317,
            0.04802378639578819,
            0.7211931347846985,
            -0.4562433958053589,
            -0.2266158163547516,
            -0.1445058137178421,
            -0.07995021343231201,
            0.18048129975795746,
            0.13459700345993042,
            0.22251486778259277,
            -0.82755047082901,
            -0.1891712099313736,
            0.16666556894779205,
            -0.19768907129764557,
            0.04710574075579643,
            0.050565581768751144,
            -0.3566948473453522,
            0.04622434079647064,
            -1.1907538175582886,
            0.0847412496805191,
            -0.09545374661684036,
            0.14033453166484833,
            -0.015650693327188492,
            -0.17084504663944244,
            0.3311843276023865,
            -0.20565468072891235,
            0.17857138812541962,
            0.409431517124176,
            -0.22896647453308105,
            -0.055087022483348846,
            0.002825652016326785,
            -0.19850169122219086,
            -0.010589413344860077,
            -0.013950441032648087,
            0.03838631510734558,
            0.12778431177139282,
            0.054130349308252335,
            -0.23323720693588257,
            -0.10489588975906372,
            -0.06442083418369293,
            0.004709126427769661,
            0.25789788365364075,
            -0.01778143085539341,
            0.08203588426113129,
            0.00425307173281908,
            0.18268899619579315,
            -0.23582351207733154,
            0.13935334980487823,
            -0.33192798495292664,
            0.050603099167346954,
            -0.1989060640335083,
            0.020918427035212517,
            -0.01317407377064228,
            -0.12168070673942566,
            -0.2507964074611664,
            -0.22129665315151215,
            -0.228295236825943,
            0.8188630938529968,
            0.3254309594631195,
            0.19425086677074432,
            0.3359173536300659,
            -0.0032030832953751087,
            -0.1013970673084259,
            -2.44372820854187,
            0.04355341196060181,
            -0.09297952055931091,
            0.11058499664068222,
            0.4906526207923889,
            0.06611604988574982,
            0.127568319439888,
            0.13634838163852692,
            -0.09308043122291565,
            0.8324888348579407,
            0.06530369073152542,
            -0.10836149007081985,
            -0.03677680343389511,
            -0.397190123796463,
            0.1157296895980835,
            0.018531832844018936,
            0.004543978720903397,
            -0.08779776841402054,
            -0.20628124475479126,
            -0.00789346732199192,
            -0.06347756087779999,
            0.10600634664297104,
            -0.0767083391547203,
            0.1228199154138565
        ],
        [
            -0.7018360495567322,
            -0.49398136138916016,
            -0.12735162675380707,
            -0.200175479054451,
            -0.08093700557947159,
            0.14553317427635193,
            -0.25898846983909607,
            -0.07985267043113708,
            0.1984158754348755,
            -0.20240755379199982,
            -0.010808387771248817,
            0.2932013273239136,
            -0.6984931826591492,
            0.27035659551620483,
            0.08988121151924133,
            0.2076762467622757,
            -0.17166541516780853,
            -0.32574519515037537,
            1.5435062646865845,
            0.16883224248886108,
            -0.5906146168708801,
            -0.05758901312947273,
            -0.41719862818717957,
            -0.06776491552591324,
            0.23365241289138794,
            -0.12545345723628998,
            -1.3281022310256958,
            0.3997595012187958,
            -0.511425793170929,
            0.05545952916145325,
            0.4992184042930603,
            -0.5580213665962219,
            0.22388410568237305,
            0.07434409111738205,
            -0.4406901001930237,
            -0.19766879081726074,
            -0.36303189396858215,
            -0.24693535268306732,
            0.7092296481132507,
            -0.48379644751548767,
            1.056254267692566,
            -0.5702537298202515,
            0.15966932475566864,
            -0.10828907787799835,
            -0.5957220196723938,
            -0.0763150230050087,
            -0.13307726383209229,
            0.025304824113845825,
            0.7802261710166931,
            0.9098107218742371,
            -0.05439296364784241,
            -0.19208958745002747,
            -0.231100931763649,
            0.8984051942825317,
            0.4149992763996124,
            -0.24943003058433533,
            -0.13170687854290009,
            -0.45351511240005493,
            1.1413787603378296,
            0.028856001794338226,
            -0.38288217782974243,
            -0.10136760771274567,
            -0.20153048634529114,
            -0.1578342467546463,
            0.6469667553901672,
            -0.2383265495300293,
            -2.5034425258636475,
            -0.5185993313789368,
            -0.08690088987350464,
            -0.9126136302947998,
            -0.3187800645828247,
            -1.3212521076202393,
            -0.48910167813301086,
            -0.01068276446312666,
            0.33087608218193054,
            0.8014140725135803,
            0.5289181470870972,
            0.4683561325073242,
            -0.12101133912801743,
            0.620276927947998,
            -0.4107747972011566,
            0.1639634072780609,
            0.12428095191717148,
            -0.23458030819892883,
            0.10889357328414917,
            0.10535635054111481,
            0.44029033184051514,
            -0.09776259958744049,
            0.12466616183519363,
            -0.6870715618133545,
            0.4263562858104706,
            -1.1577239036560059,
            0.09479965269565582,
            -0.17047438025474548,
            -0.013760508969426155,
            -0.3530368208885193,
            0.21331892907619476,
            -0.10238407552242279,
            0.059939686208963394,
            -0.31137046217918396,
            -0.22268463671207428,
            0.7808347940444946,
            0.13477233052253723,
            0.08928240090608597,
            0.14037953317165375,
            0.6154528856277466,
            0.43646928668022156,
            -0.3954063057899475,
            -0.14850521087646484,
            1.4496387243270874,
            -0.7525128722190857,
            -0.0630241259932518,
            -0.26870113611221313,
            0.08610141277313232,
            1.1529536247253418,
            -0.4111212193965912,
            0.09709617495536804,
            0.011951406486332417,
            -0.3792801797389984,
            0.034536849707365036,
            -0.4722610414028168,
            0.619800865650177,
            0.03774268552660942,
            -0.0023377491161227226,
            0.008235689252614975,
            0.12145128101110458,
            2.0233068466186523,
            -0.7256611585617065
        ],
        [
            -0.4083143472671509,
            -0.016229400411248207,
            0.3212832808494568,
            -0.2431982159614563,
            0.21515436470508575,
            0.07442696392536163,
            -0.3609429895877838,
            0.12820935249328613,
            0.1635313779115677,
            -0.214616060256958,
            -0.05444340035319328,
            -0.0422816276550293,
            0.16077065467834473,
            -1.6506837606430054,
            -0.08071468770503998,
            0.0857321098446846,
            0.20193839073181152,
            -0.06942768394947052,
            -0.06037040427327156,
            -0.09490839391946793,
            0.1836273968219757,
            -0.5462391972541809,
            -0.24010036885738373,
            -0.4888014495372772,
            -0.2229793816804886,
            -0.17006683349609375,
            -0.5493793487548828,
            -0.20912793278694153,
            0.2938497066497803,
            0.4361506402492523,
            0.12873347103595734,
            0.2268519401550293,
            0.1660049557685852,
            -0.3273583948612213,
            -0.028548402711749077,
            0.14651784300804138,
            -0.7278173565864563,
            0.02424701489508152,
            -0.3236790895462036,
            -0.0016472558490931988,
            -0.3919721841812134,
            0.5563777685165405,
            -0.30376818776130676,
            -0.4894354045391083,
            0.07248483598232269,
            0.08115556091070175,
            -0.3080741763114929,
            -0.17700891196727753,
            -0.3428846299648285,
            -0.1671512871980667,
            9.83694480964914e-05,
            -0.21443484723567963,
            -0.5791380405426025,
            0.06733756512403488,
            -0.15021060407161713,
            -0.13400793075561523,
            -0.957585871219635,
            0.6430386304855347,
            -0.2148537039756775,
            0.09074512124061584,
            0.2445116490125656,
            0.11573857069015503,
            -0.033112019300460815,
            -0.5618072152137756,
            -0.0978802889585495,
            -0.07004477828741074,
            0.11685771495103836,
            -0.05251530557870865,
            0.25467783212661743,
            -0.4590699374675751,
            0.07499733567237854,
            0.36456701159477234,
            0.7339995503425598,
            0.003171160351485014,
            -0.08737916499376297,
            -0.12664420902729034,
            -0.09533349424600601,
            -0.2228798270225525,
            -0.4662090539932251,
            -0.17678143084049225,
            -0.3451892137527466,
            0.1639328896999359,
            0.13101698458194733,
            -0.2004236876964569,
            -0.0039957487024366856,
            -0.11360187828540802,
            -0.2737919092178345,
            0.10275604575872421,
            -0.3331593871116638,
            0.48114606738090515,
            0.430630087852478,
            -0.117916040122509,
            -0.020141255110502243,
            0.19251862168312073,
            0.2821919918060303,
            -0.1346931755542755,
            -0.07591284811496735,
            0.038163382560014725,
            0.18318887054920197,
            0.4995114505290985,
            -0.7884290814399719,
            -0.25982755422592163,
            -0.01956510916352272,
            0.14141952991485596,
            -0.046748086810112,
            0.061739232391119,
            0.2521337866783142,
            -0.14714384078979492,
            -0.377567321062088,
            -0.5879496932029724,
            0.12400411814451218,
            0.10089118033647537,
            0.3484427034854889,
            -0.3281812071800232,
            -0.31342554092407227,
            -0.016419455409049988,
            0.0191928930580616,
            0.06380053609609604,
            -0.06739827245473862,
            0.02372490055859089,
            -0.07241105288267136,
            0.9367538690567017,
            0.07110507786273956,
            0.7813497185707092,
            0.1370406597852707,
            0.3413916230201721,
            -0.04065334424376488,
            -0.5537588596343994
        ],
        [
            0.33511659502983093,
            -0.8071643710136414,
            0.3383755087852478,
            0.3570338189601898,
            0.8666979670524597,
            -0.11928167939186096,
            -0.0011481342371553183,
            -0.7253952622413635,
            -0.16722913086414337,
            0.1211467906832695,
            -0.26838746666908264,
            0.826873242855072,
            -0.9797601699829102,
            0.045873064547777176,
            0.00024335298803634942,
            1.6716715097427368,
            -0.559708833694458,
            -0.018936898559331894,
            0.01374672818928957,
            0.09956435859203339,
            0.8810758590698242,
            0.24221061170101166,
            0.2788810133934021,
            -0.2078031748533249,
            -0.5420293807983398,
            -0.02276131883263588,
            0.2164827138185501,
            -0.13265880942344666,
            0.2705545723438263,
            0.07060689479112625,
            -0.33989015221595764,
            1.1404850482940674,
            0.23227350413799286,
            -0.27522167563438416,
            0.04305542632937431,
            -1.7686842679977417,
            0.24112042784690857,
            -1.7658535242080688,
            -0.2719900906085968,
            -0.3615509569644928,
            0.4430995583534241,
            0.08211619406938553,
            -1.0818743705749512,
            0.10291747003793716,
            0.650961697101593,
            0.19274583458900452,
            0.7959510087966919,
            -0.14865003526210785,
            -0.06271673738956451,
            0.5312521457672119,
            -0.3264710605144501,
            0.3547497093677521,
            -0.010163871571421623,
            -0.6110921502113342,
            0.2923916280269623,
            -0.17631308734416962,
            0.3414119482040405,
            0.1952609419822693,
            0.2412719428539276,
            0.2086864411830902,
            0.15213876962661743,
            -0.013846720568835735,
            0.22088991105556488,
            -0.6475679278373718,
            -0.23328502476215363,
            -0.1638723909854889,
            -0.043683648109436035,
            0.06358408182859421,
            0.3931206464767456,
            -0.11495894193649292,
            -0.39752334356307983,
            0.04335595667362213,
            -0.6206904649734497,
            0.007106350734829903,
            0.062391187995672226,
            -0.5821795463562012,
            -0.431348592042923,
            0.3503425419330597,
            -0.40342867374420166,
            -0.7748103737831116,
            -0.04961350932717323,
            -0.3462713062763214,
            -0.5916803479194641,
            0.12364711612462997,
            -0.4232389032840729,
            -0.46163681149482727,
            -0.016023607924580574,
            0.5935332179069519,
            -0.2263430953025818,
            -0.28794610500335693,
            0.3361116647720337,
            0.29220810532569885,
            0.42162221670150757,
            -0.347987562417984,
            -0.14170627295970917,
            -0.6487575173377991,
            -0.2078564167022705,
            0.5167537927627563,
            -0.3227445185184479,
            -0.7664729356765747,
            0.22776460647583008,
            -0.7602102756500244,
            0.08128297328948975,
            0.6586406230926514,
            -0.3669213652610779,
            -0.32734501361846924,
            0.4408838748931885,
            0.3439289927482605,
            -0.3719548285007477,
            0.36027947068214417,
            -0.6384367346763611,
            -0.3168257176876068,
            -0.6751256585121155,
            -0.595145583152771,
            0.2079402655363083,
            -0.21449348330497742,
            0.8473003506660461,
            -0.5461992025375366,
            0.2112673968076706,
            0.009829049929976463,
            -0.01748361997306347,
            -0.08056790381669998,
            0.5670732259750366,
            -0.42820870876312256,
            0.3971259593963623,
            0.2548319399356842,
            0.2937965393066406,
            0.18040509521961212
        ],
        [
            -0.1938660442829132,
            -0.0179660152643919,
            0.05540449917316437,
            0.04015522077679634,
            -0.14397813379764557,
            0.12725301086902618,
            -0.8944575786590576,
            -0.09171613305807114,
            -0.07344501465559006,
            0.1556231677532196,
            0.050917308777570724,
            -0.8504371643066406,
            -0.36028948426246643,
            -0.19585973024368286,
            -1.0113017559051514,
            -0.11014128476381302,
            0.2096894085407257,
            -0.46322616934776306,
            1.1866036653518677,
            -0.3182992935180664,
            0.7768167853355408,
            -0.7773187160491943,
            -0.23677565157413483,
            -0.4677462875843048,
            0.5773968696594238,
            0.35591012239456177,
            -0.35327115654945374,
            -0.0023436909541487694,
            0.06367921084165573,
            -0.4489118754863739,
            -0.28237199783325195,
            0.07890909910202026,
            -0.4895891845226288,
            -0.6301296949386597,
            0.1643155962228775,
            -0.07018231600522995,
            -0.3960641026496887,
            0.181634783744812,
            0.42568516731262207,
            -0.33955803513526917,
            0.28240764141082764,
            0.37714484333992004,
            0.2096392959356308,
            0.22073954343795776,
            -0.04853716865181923,
            -0.06279340386390686,
            -0.23087522387504578,
            0.03634709119796753,
            -1.2334275245666504,
            0.177923783659935,
            0.17005689442157745,
            0.011538606137037277,
            0.3267674744129181,
            -0.028820736333727837,
            -0.1047833040356636,
            -0.9992898106575012,
            0.02832658775150776,
            0.10763969272375107,
            -0.12508520483970642,
            -0.03128204867243767,
            -0.12264376878738403,
            0.3748050630092621,
            0.3202367126941681,
            -0.5437114834785461,
            0.7263014316558838,
            -0.8253427147865295,
            0.019823798909783363,
            0.8953376412391663,
            0.004644397646188736,
            0.4185446798801422,
            0.22017529606819153,
            0.12249399721622467,
            -0.34243541955947876,
            0.004583959933370352,
            -0.3598634600639343,
            -0.9167865514755249,
            -0.13977688550949097,
            -1.0112955570220947,
            -0.4100469648838043,
            0.9684649705886841,
            -0.8957234621047974,
            -0.42422181367874146,
            -0.2584618330001831,
            -0.34102901816368103,
            0.13270287215709686,
            0.3213692009449005,
            -0.2830578088760376,
            0.0031941726338118315,
            -0.2724989652633667,
            0.5461315512657166,
            0.20164854824543,
            0.4765058755874634,
            -0.45607811212539673,
            0.726597011089325,
            -0.18183894455432892,
            0.801001250743866,
            0.23107361793518066,
            -0.005187044385820627,
            -0.34718385338783264,
            -0.2582691013813019,
            -0.1660045087337494,
            -0.9436392188072205,
            0.5031430721282959,
            -0.0636376291513443,
            -0.1778174638748169,
            -0.15837791562080383,
            -0.0034010973758995533,
            -0.1531534045934677,
            -0.10007976740598679,
            0.15464134514331818,
            -1.322247862815857,
            -0.056837745010852814,
            -0.4304496943950653,
            0.07729817181825638,
            -0.16263146698474884,
            -0.05775541067123413,
            0.079145647585392,
            0.05280718952417374,
            0.033197756856679916,
            0.026929225772619247,
            0.47220802307128906,
            0.13175630569458008,
            0.6153321266174316,
            0.03104596957564354,
            -0.4655086100101471,
            -0.3205926716327667,
            0.011542381718754768,
            -0.23862868547439575
        ]
    ],
    "layer2/biases/Variable:0": [
        1.2129223346710205,
        0.38632291555404663,
        -2.061384677886963,
        0.7545953392982483,
        0.0006431874353438616,
        -1.3618807792663574,
        -1.545356035232544,
        1.8834002017974854,
        0.8644665479660034,
        -2.2015838623046875,
        1.1301190853118896,
        0.7760520577430725,
        -0.3838811218738556,
        -1.549030065536499,
        -1.681559681892395,
        0.07224465161561966,
        0.2977020740509033,
        -0.3681337535381317,
        0.3862123191356659,
        2.119178056716919,
        -0.9871912598609924,
        -2.0141067504882812,
        -0.14017274975776672,
        -0.863707423210144,
        -0.1250740885734558,
        -0.6092689633369446,
        0.47876134514808655,
        -0.16273397207260132,
        0.18706989288330078,
        -2.358001947402954,
        -0.27176526188850403,
        2.3433995246887207,
        0.5089379549026489,
        0.7261549234390259,
        -1.1294728517532349,
        0.6130809783935547,
        0.3628970980644226,
        0.06428644061088562,
        2.150031805038452,
        -0.8928887248039246,
        -2.0788722038269043,
        0.5274872779846191,
        -0.6483169198036194,
        1.6910653114318848,
        0.28516075015068054,
        -0.5448920726776123,
        -1.965354561805725,
        -0.5097590684890747,
        0.6248751878738403,
        0.11647121608257294,
        0.7395082116127014,
        -0.37936678528785706,
        -0.4012628197669983,
        -0.041444096714258194,
        0.7836964726448059,
        0.822379469871521,
        -0.17071351408958435,
        0.3806649446487427,
        -1.066364049911499,
        0.7303795218467712,
        1.1394808292388916,
        0.6916952133178711,
        -1.803444266319275,
        0.6525083184242249,
        0.8626573085784912,
        -1.4152463674545288,
        1.0975265502929688,
        0.1738307625055313,
        0.4778139293193817,
        -0.09870561212301254,
        0.3056514263153076,
        0.7431808114051819,
        0.3886658251285553,
        -0.8853776454925537,
        0.576466977596283,
        -1.1241533756256104,
        0.9908720254898071,
        0.821834146976471,
        -0.11482398957014084,
        -0.1604251265525818,
        1.6818017959594727,
        0.015016818419098854,
        1.8684487342834473,
        -0.97379070520401,
        0.9487448334693909,
        0.014391819015145302,
        -1.0765750408172607,
        -1.4143692255020142,
        1.0077955722808838,
        -0.8453340530395508,
        0.46262413263320923,
        0.3692607879638672,
        0.2438776046037674,
        -0.34795013070106506,
        0.11738096922636032,
        -0.12600086629390717,
        0.45214131474494934,
        1.4172084331512451,
        1.2843213081359863,
        -0.8861771821975708,
        -0.45022013783454895,
        -1.1146214008331299,
        -1.6312845945358276,
        -0.7188501358032227,
        0.9226152300834656,
        -0.649808943271637,
        -0.6259118914604187,
        -0.3310442864894867,
        0.45282217860221863,
        -0.565883457660675,
        0.033750712871551514,
        0.7299317121505737,
        0.762681782245636,
        -0.07165706157684326,
        -2.108151912689209,
        -0.5836645364761353,
        -2.668660879135132,
        0.8192484974861145,
        0.0687737688422203,
        0.38568928837776184,
        -0.5068562626838684,
        0.006486969534307718,
        1.1472113132476807,
        0.6638609766960144,
        0.18607576191425323,
        -0.5899037718772888,
        -0.6422927379608154,
        1.85080885887146
    ],
    "layer2/weights/Variable:0": [
        [
            0.061806682497262955,
            -0.02148996852338314,
            0.041949331760406494,
            -0.029096677899360657,
            0.04186313599348068,
            -0.06263665854930878,
            -0.022847715765237808,
            -0.061444155871868134,
            -0.036908071488142014,
            0.24954909086227417,
            -0.002144451253116131,
            -0.0657711774110794,
            -0.0563967302441597,
            0.1001168042421341,
            -0.0650382936000824,
            0.20986507833003998,
            -0.09993205964565277,
            0.01499667763710022,
            0.058098386973142624,
            -0.08419114351272583,
            -0.024200620129704475,
            0.03972442075610161,
            -0.039625704288482666,
            -0.017669107764959335,
            -0.0446726530790329,
            -0.06322323530912399,
            -0.014308649115264416,
            -0.200948104262352,
            -0.05772377550601959,
            -0.016710255295038223,
            0.10452316701412201,
            0.009273643605411053,
            -0.029889684170484543,
            -0.0010604792041704059,
            -0.047970645129680634,
            -0.17266027629375458,
            -0.016663437709212303,
            -0.013032237999141216,
            -0.3053676187992096,
            -0.12470918148756027,
            0.09419208765029907,
            -0.045242857187986374,
            -0.05141347274184227,
            -0.06715399771928787,
            -0.10401041805744171,
            -0.03794706240296364,
            0.0810234397649765,
            -0.02468222938477993,
            0.011385596357285976,
            0.006440069992095232,
            0.08043982088565826,
            -0.05939348414540291,
            -0.013922023586928844,
            0.006047048140317202,
            -0.04681072756648064,
            -0.015084856189787388,
            0.007012562360614538,
            0.012921428307890892,
            -0.06985854357481003,
            0.3592807352542877,
            0.12419570237398148,
            -0.03195543959736824,
            -0.006491934414952993,
            -0.054132215678691864,
            -0.16066387295722961,
            -0.09065376222133636,
            -0.022989552468061447,
            -0.07113485783338547,
            0.0354476273059845,
            0.15325012803077698,
            0.023258069530129433,
            0.13200509548187256,
            -0.017191207036376,
            0.07755780220031738,
            0.001840610639192164,
            -0.06598484516143799,
            -0.014858024194836617,
            -0.029118729755282402,
            0.08272857218980789,
            0.07327522337436676,
            -0.11302754282951355,
            -0.06369879841804504,
            0.021865516901016235,
            -0.02046188898384571,
            0.08770639449357986,
            -0.04066348075866699,
            0.23733313381671906,
            -0.0009817900136113167,
            -0.05031809210777283,
            -0.002240397734567523,
            -0.024852292612195015,
            -0.08995429426431656,
            0.11030352115631104,
            0.08849143981933594,
            -0.056031402200460434,
            -0.049859076738357544,
            0.11055774241685867,
            0.04689144715666771,
            0.11574714630842209,
            -0.009894931688904762,
            0.0819309651851654,
            -0.18587294220924377,
            0.0009976504370570183,
            -0.19942180812358856,
            0.03626928851008415,
            0.04016580432653427,
            0.1316038817167282,
            0.0275711826980114,
            -0.06495826691389084,
            0.00834602490067482,
            0.28150996565818787,
            0.024586858227849007,
            -0.09887535870075226,
            0.13419486582279205,
            0.06387248635292053,
            -0.23658636212348938,
            0.05737500637769699,
            0.09488070756196976,
            0.04365240037441254,
            -0.14671288430690765,
            0.08072753250598907,
            -0.010016021318733692,
            0.058073028922080994,
            -0.26062992215156555,
            -0.11643919348716736,
            0.05211608111858368,
            -0.22704389691352844,
            -0.0020740318577736616
        ],
        [
            -0.09686696529388428,
            0.15954597294330597,
            -0.08013942837715149,
            0.04872599616646767,
            0.09870976954698563,
            0.1946268081665039,
            -0.020968670025467873,
            -0.12086900323629379,
            0.22147923707962036,
            0.20403213798999786,
            0.0029834373854100704,
            -0.011803369969129562,
            -0.022488784044981003,
            0.16484889388084412,
            0.5758322477340698,
            0.11514594405889511,
            0.01999056339263916,
            -0.022817011922597885,
            0.03332352638244629,
            -0.024263672530651093,
            -0.013215254060924053,
            -0.06071631982922554,
            0.0163946021348238,
            -0.016120607033371925,
            0.1064736619591713,
            0.018412157893180847,
            0.03684072569012642,
            -0.20506389439105988,
            0.2245248258113861,
            -0.06312272697687149,
            -0.2447863519191742,
            0.285578191280365,
            -0.14114785194396973,
            0.02188231237232685,
            -0.11332115530967712,
            -0.06062887981534004,
            0.06707290560007095,
            0.015270809642970562,
            -0.15509872138500214,
            0.07187998294830322,
            0.06617730110883713,
            0.006243125069886446,
            0.06257233768701553,
            -0.014411951415240765,
            -0.03500756248831749,
            -0.013251937925815582,
            0.17458659410476685,
            -0.2550867199897766,
            -0.01029123179614544,
            -0.04612154886126518,
            -0.06488101929426193,
            0.06075837463140488,
            0.06995370984077454,
            0.046108316630125046,
            -0.1408696472644806,
            0.020526669919490814,
            -0.0727393701672554,
            -0.0391947403550148,
            0.015844931825995445,
            0.7888592481613159,
            0.21583271026611328,
            0.018543260172009468,
            -0.014658153057098389,
            0.008436249569058418,
            -0.05849641561508179,
            -0.01126244105398655,
            0.04183599725365639,
            0.13652010262012482,
            0.3054251968860626,
            -0.04699873924255371,
            -0.09605857729911804,
            -0.00045687303645536304,
            0.015879282727837563,
            0.1129407286643982,
            0.07784541696310043,
            0.07925958931446075,
            0.039141733199357986,
            0.06064083054661751,
            -0.1440664678812027,
            0.05882064625620842,
            0.12543213367462158,
            0.019886167719960213,
            -0.019253330305218697,
            0.15268154442310333,
            -0.06001710891723633,
            -0.055269621312618256,
            0.3677135407924652,
            -0.01191901508718729,
            -0.0616665743291378,
            0.0031145261600613594,
            -0.11223933845758438,
            0.12796947360038757,
            -0.03231944888830185,
            -0.14489373564720154,
            0.06298623234033585,
            0.0814247578382492,
            -0.012629048898816109,
            0.0076775685884058475,
            0.2967509925365448,
            0.020813697949051857,
            0.01973072998225689,
            0.10629004240036011,
            0.19827482104301453,
            -0.04357372224330902,
            -0.053679972887039185,
            0.09866833686828613,
            -0.05885854735970497,
            -0.04385575279593468,
            0.055995408445596695,
            0.04743599891662598,
            0.1459326446056366,
            -0.16104327142238617,
            -0.11697499454021454,
            0.013024276122450829,
            0.023426223546266556,
            -0.7679452896118164,
            -0.019468046724796295,
            0.10410214960575104,
            -0.3315528631210327,
            -0.47087574005126953,
            0.0071380664594471455,
            0.11486639082431793,
            -0.22997257113456726,
            -0.322884202003479,
            -0.059574343264102936,
            -0.08384350687265396,
            0.20945920050144196,
            0.02129978872835636
        ],
        [
            -0.033504556864500046,
            -0.032441653311252594,
            0.017019154503941536,
            -0.03201331943273544,
            0.047244392335414886,
            0.22546206414699554,
            0.06152114272117615,
            0.4606064558029175,
            0.19589900970458984,
            -0.16733987629413605,
            -0.038675859570503235,
            0.00493514072149992,
            0.01847841776907444,
            -0.09226734191179276,
            -0.09574393928050995,
            0.2771216928958893,
            0.08620118349790573,
            -0.008104899898171425,
            -0.004293122794479132,
            -0.03060491755604744,
            0.06182492524385452,
            -0.002486221492290497,
            0.14089232683181763,
            -0.054482582956552505,
            0.09058722853660583,
            0.09476017206907272,
            0.05089668184518814,
            -0.12104284018278122,
            0.15025611221790314,
            0.022595619782805443,
            -0.1543918251991272,
            0.0724111795425415,
            -0.003966956865042448,
            -0.00943596102297306,
            0.0458701029419899,
            -0.09638141840696335,
            -0.024293920025229454,
            0.004152993205934763,
            -0.1650722622871399,
            0.0910453125834465,
            0.06096065044403076,
            0.1257406622171402,
            0.09653891623020172,
            -0.015955479815602303,
            0.0945972353219986,
            -0.06802602857351303,
            0.07247031480073929,
            -0.2919919490814209,
            0.0866929441690445,
            -0.005493970587849617,
            -0.16868746280670166,
            0.6590489149093628,
            0.03525416925549507,
            -0.09104051440954208,
            -0.08925963193178177,
            0.004483888391405344,
            -0.04591616615653038,
            0.015440685674548149,
            -0.02464626543223858,
            0.7792274951934814,
            -0.0645088478922844,
            0.020601222291588783,
            0.0029439013451337814,
            -0.04502188414335251,
            0.1029558777809143,
            0.023072505369782448,
            0.01828956976532936,
            -0.028110157698392868,
            -0.043084874749183655,
            -0.16546836495399475,
            0.009311395697295666,
            -0.15995872020721436,
            0.017411742359399796,
            0.09051026403903961,
            -0.004386959131807089,
            -0.003240853315219283,
            0.01995968446135521,
            0.09043757617473602,
            -0.017828669399023056,
            -0.03139372542500496,
            0.36173316836357117,
            0.0355977825820446,
            -0.03449464589357376,
            0.028599591925740242,
            -0.02584587037563324,
            0.023618575185537338,
            0.06664583086967468,
            0.007475399877876043,
            0.1063309833407402,
            7.354756235145032e-07,
            0.10339515656232834,
            0.1538223922252655,
            -0.009732658974826336,
            -0.136087104678154,
            0.1010136604309082,
            -0.07577741146087646,
            0.02982560731470585,
            -0.012701240368187428,
            -0.02060391567647457,
            0.06203562393784523,
            0.03923774138092995,
            0.10139715671539307,
            0.09053681790828705,
            -0.0002743996446952224,
            -0.0051861912943422794,
            0.13021516799926758,
            -0.1753825545310974,
            -0.04580635577440262,
            -0.020578540861606598,
            0.0360935777425766,
            0.059231676161289215,
            0.036694128066301346,
            0.1229700818657875,
            0.0371507965028286,
            0.06298670917749405,
            -0.5499272346496582,
            0.04567398130893707,
            -0.04980993643403053,
            -0.15140831470489502,
            -0.22950191795825958,
            -0.10052550584077835,
            -0.002899632789194584,
            -0.12164716422557831,
            -0.007611981127411127,
            -0.005252177361398935,
            -0.03855150565505028,
            0.03709041699767113,
            -0.038504403084516525
        ],
        [
            -0.06063302233815193,
            0.003169094445183873,
            0.07535611093044281,
            -0.03778713941574097,
            0.028259361162781715,
            0.08292951434850693,
            -0.010677114129066467,
            -0.012638704851269722,
            0.2630821168422699,
            0.07898356765508652,
            0.013179322704672813,
            0.007431018631905317,
            -0.011343820951879025,
            0.11971548944711685,
            -0.023930631577968597,
            -0.11640121787786484,
            0.10786706954240799,
            -0.04615713655948639,
            -0.13729463517665863,
            -0.027892978861927986,
            0.06097235158085823,
            0.002483079908415675,
            -0.21181567013263702,
            -0.08538132160902023,
            0.014536145143210888,
            0.00246047112159431,
            0.02454393170773983,
            0.21555551886558533,
            -0.06616634130477905,
            -0.1285887211561203,
            -0.05531371012330055,
            0.006772138644009829,
            -0.041657909750938416,
            0.012240047566592693,
            -0.021272368729114532,
            0.0209614597260952,
            -0.18898718059062958,
            0.0334651805460453,
            0.0950671136379242,
            -0.0988076776266098,
            0.11042606085538864,
            0.10200808942317963,
            -0.04625829681754112,
            -0.04847579821944237,
            -0.01447601430118084,
            -0.0708870217204094,
            0.03704172372817993,
            0.12365138530731201,
            0.11483603715896606,
            0.0343681164085865,
            0.021386973559856415,
            0.03844815120100975,
            0.03362205997109413,
            -0.053879424929618835,
            -0.07628146559000015,
            0.14010879397392273,
            -0.11380332708358765,
            -0.03458398953080177,
            -0.004849245771765709,
            0.23533318936824799,
            0.41874998807907104,
            0.08816844969987869,
            0.009012340568006039,
            0.007866321131587029,
            0.0024420376867055893,
            0.03706388175487518,
            -0.016396449878811836,
            0.006764932535588741,
            -0.09239029139280319,
            0.03485552966594696,
            -0.03128834813833237,
            -0.105178102850914,
            0.02493727207183838,
            0.069538414478302,
            0.001519697136245668,
            0.0808800756931305,
            -0.004671347327530384,
            0.01278102770447731,
            0.06715717911720276,
            -0.020360592752695084,
            -0.08739184588193893,
            -0.10780049115419388,
            0.004234016872942448,
            0.04496927931904793,
            -0.024065282195806503,
            -0.07878342270851135,
            -0.24650675058364868,
            0.06994672864675522,
            0.3206605315208435,
            -0.03102598339319229,
            0.01489322166889906,
            -0.07024484872817993,
            0.0013733525993302464,
            0.054077308624982834,
            0.12645086646080017,
            -0.04564642533659935,
            -0.012596474029123783,
            -0.022492684423923492,
            -0.05467322841286659,
            0.015275508165359497,
            -0.007975168526172638,
            -0.08347661793231964,
            0.10395439714193344,
            -0.18575690686702728,
            -0.050057459622621536,
            0.0023858409840613604,
            -0.10607761144638062,
            -0.08047506958246231,
            -0.034211982041597366,
            -0.003385992720723152,
            -0.41407841444015503,
            -0.006082034204155207,
            -0.10866161435842514,
            -0.06468541920185089,
            0.06486398726701736,
            -0.3241477310657501,
            0.0368930846452713,
            0.03747355937957764,
            -0.27897024154663086,
            -0.14075252413749695,
            -0.02848999947309494,
            0.04257003962993622,
            -0.4803755283355713,
            0.01636502705514431,
            0.013724223710596561,
            0.011008286848664284,
            -0.08726949989795685,
            -0.006968657486140728
        ],
        [
            -0.04105338826775551,
            0.18101899325847626,
            0.05756007134914398,
            -0.01601884514093399,
            -0.004351939540356398,
            -0.24305810034275055,
            0.036812473088502884,
            0.09496920555830002,
            0.10593800246715546,
            0.2177509367465973,
            -0.1475645899772644,
            0.04929353669285774,
            -0.022069793194532394,
            0.14766459167003632,
            0.16947582364082336,
            -0.07248181849718094,
            0.01788921095430851,
            0.1005323976278305,
            0.04708551988005638,
            -0.007571988273411989,
            -0.04603809863328934,
            0.019145052880048752,
            0.01571563258767128,
            -0.02744222991168499,
            -0.0018856101669371128,
            -0.29297178983688354,
            0.021030409261584282,
            -0.019874529913067818,
            -0.08335598558187485,
            -0.034153930842876434,
            0.06642117351293564,
            0.01426560990512371,
            0.03963092714548111,
            -0.006117226555943489,
            -0.012298090383410454,
            0.15894882380962372,
            -0.018707681447267532,
            -0.0047193486243486404,
            0.16817152500152588,
            0.09526988863945007,
            -0.08201906830072403,
            0.020214227959513664,
            0.008098090067505836,
            0.003789977403357625,
            -0.11472035944461823,
            -0.19214719533920288,
            0.10580074042081833,
            0.14904950559139252,
            0.06868042051792145,
            -0.10311735421419144,
            0.015026403591036797,
            0.5664730668067932,
            -0.08208883553743362,
            -0.027875849977135658,
            -0.2795919179916382,
            -0.021403545513749123,
            0.0222912784665823,
            0.11322157084941864,
            -0.039131246507167816,
            -0.37087875604629517,
            -0.16661445796489716,
            -0.06201581284403801,
            0.08422206342220306,
            -0.14082594215869904,
            -0.064935103058815,
            -0.01875467784702778,
            -0.006240581627935171,
            0.007784942630678415,
            0.07806020230054855,
            -0.32690033316612244,
            0.09986298531293869,
            -0.11377733200788498,
            -0.1017269566655159,
            -0.11865174025297165,
            -0.0317646861076355,
            0.0260190237313509,
            -0.07441598922014236,
            -0.20909392833709717,
            0.12019812315702438,
            0.017283393070101738,
            0.7507027983665466,
            -0.1461021900177002,
            0.2548007667064667,
            -0.019728826358914375,
            -0.002387290820479393,
            0.06872861087322235,
            -0.09917857497930527,
            0.01817459985613823,
            0.25272002816200256,
            -0.001828898093663156,
            -0.014196361415088177,
            -0.03806988522410393,
            0.07129113376140594,
            0.05488526448607445,
            0.08705995231866837,
            0.09044402092695236,
            -0.08194158226251602,
            -0.01781143620610237,
            -0.006940915714949369,
            0.12472100555896759,
            0.07487912476062775,
            0.17276549339294434,
            -0.17012061178684235,
            -0.13086628913879395,
            0.0681762546300888,
            0.04930544272065163,
            -0.19121114909648895,
            0.08395978808403015,
            0.08225229382514954,
            0.03770668804645538,
            -0.3423924446105957,
            -0.0036717504262924194,
            -0.5421158671379089,
            0.012229756452143192,
            -0.022564956918358803,
            0.4172295331954956,
            0.022547774016857147,
            -0.23823392391204834,
            0.2552335262298584,
            -0.12780189514160156,
            -0.020141873508691788,
            0.0805269405245781,
            0.26096460223197937,
            -0.4185905456542969,
            -0.08027124404907227,
            0.14019599556922913,
            0.18398310244083405,
            -0.19938921928405762
        ],
        [
            0.012388563714921474,
            0.04269520565867424,
            0.15785472095012665,
            0.0012257733615115285,
            -0.04020669683814049,
            0.02357815019786358,
            0.07062496989965439,
            -0.0027060317806899548,
            0.08224845677614212,
            -0.060578830540180206,
            -0.0029960230458527803,
            -0.0034208064898848534,
            0.02688879519701004,
            -0.009086712263524532,
            0.04027782380580902,
            -0.02680177614092827,
            0.015211056917905807,
            0.05039921775460243,
            0.10642552375793457,
            0.06517446041107178,
            0.05056178942322731,
            -0.09957940876483917,
            -0.029443662613630295,
            0.04214024171233177,
            -0.03906134516000748,
            0.020668957382440567,
            -0.0653676986694336,
            0.007207241840660572,
            -0.045223966240882874,
            0.09240175038576126,
            0.14676865935325623,
            -0.03442534804344177,
            0.016110524535179138,
            0.06381808966398239,
            0.18671071529388428,
            0.04419946298003197,
            0.17365582287311554,
            -0.17190302908420563,
            -0.10753847658634186,
            -0.17457135021686554,
            -0.2011277824640274,
            -0.1169533059000969,
            -0.03001885861158371,
            0.04800935834646225,
            -0.06940670311450958,
            0.02680550515651703,
            -0.007506419438868761,
            0.1392851024866104,
            0.0035069570876657963,
            0.0189859326928854,
            -0.05581003427505493,
            -0.1199142336845398,
            0.0032145276200026274,
            -0.0011695692082867026,
            0.032864589244127274,
            -0.0524594709277153,
            -0.05814996734261513,
            0.10592786967754364,
            0.0019064666703343391,
            0.1413918286561966,
            0.10867531597614288,
            0.051098987460136414,
            -0.011045734398066998,
            0.02039300464093685,
            -0.02828296273946762,
            -0.09456715732812881,
            -0.06944600492715836,
            -0.011393055319786072,
            0.07316464930772781,
            0.1186676174402237,
            -0.0640752986073494,
            0.1017540991306305,
            -0.05211286619305611,
            -0.06493649631738663,
            0.02251754328608513,
            -0.07888879626989365,
            0.012503237463533878,
            0.03844563663005829,
            -0.08669727295637131,
            0.07693598419427872,
            0.2732365131378174,
            0.026567555963993073,
            0.030210644006729126,
            -0.04160081222653389,
            -0.06747943162918091,
            -0.11659882962703705,
            0.18583057820796967,
            -0.059537794440984726,
            0.0889149159193039,
            -0.044805172830820084,
            -0.08045480400323868,
            -0.055034805089235306,
            0.12003868818283081,
            0.038407959043979645,
            -0.0404435396194458,
            0.0180058591067791,
            -0.019009072333574295,
            -0.0754021480679512,
            -0.07417342811822891,
            -0.018450994044542313,
            0.037380512803792953,
            0.25466349720954895,
            -0.013557625003159046,
            0.005948797333985567,
            -0.004454114940017462,
            -0.09151292592287064,
            -0.17778319120407104,
            0.009357590228319168,
            0.02196771651506424,
            -0.07036519050598145,
            -0.07262052595615387,
            0.08510533720254898,
            -0.1797621250152588,
            0.06848201900720596,
            0.03919993340969086,
            -0.023155201226472855,
            -0.059332963079214096,
            -0.0342312753200531,
            0.08573415875434875,
            0.0868624895811081,
            0.016130538657307625,
            -0.07642478495836258,
            0.040141668170690536,
            -0.06712687015533447,
            0.04574019834399223,
            -0.030097542330622673,
            -0.012446957640349865,
            -0.005661336705088615
        ],
        [
            0.06607765704393387,
            0.05212822183966637,
            -0.025568341836333275,
            0.06470629572868347,
            0.07236975431442261,
            0.10413513332605362,
            0.09654500335454941,
            -0.4379783272743225,
            0.18544349074363708,
            -0.3657863438129425,
            -0.05058801919221878,
            0.0171259306371212,
            -0.025211812928318977,
            -0.12520340085029602,
            0.2344757467508316,
            -0.06343759596347809,
            0.004414983559399843,
            0.055777210742235184,
            -0.10460487753152847,
            -0.0324251614511013,
            -0.04232925921678543,
            0.08041924238204956,
            -0.022471053525805473,
            -0.13143272697925568,
            -0.015759848058223724,
            -0.014991840347647667,
            -0.004488974343985319,
            0.053153470158576965,
            -0.13752298057079315,
            -0.07923176884651184,
            -0.21202529966831207,
            -0.10598067939281464,
            -0.025278637185692787,
            -0.03461655229330063,
            -0.04216296598315239,
            -0.0743451938033104,
            -0.19217310845851898,
            0.01366661861538887,
            0.2240453064441681,
            -0.12074550241231918,
            -0.004219262860715389,
            0.09993056952953339,
            -0.11243035644292831,
            0.06028173118829727,
            -3.0448845791397616e-05,
            -0.0720253512263298,
            -0.07073960453271866,
            -0.1752048283815384,
            0.20048534870147705,
            0.028515804558992386,
            -0.024833135306835175,
            0.029136626049876213,
            0.037533555179834366,
            -0.03161204233765602,
            -0.04731806740164757,
            0.06008012965321541,
            0.05588700249791145,
            -0.045137710869312286,
            0.0005984529852867126,
            0.14709563553333282,
            -0.21697993576526642,
            0.03772899508476257,
            0.053762853145599365,
            -0.05305975675582886,
            -0.07489822059869766,
            -0.03139301761984825,
            -0.07895024865865707,
            0.035538334399461746,
            -0.0745658278465271,
            0.03693048283457756,
            0.05488377436995506,
            -0.02281852252781391,
            0.010374599136412144,
            -0.03368232026696205,
            -0.012236337177455425,
            -0.012745714746415615,
            -0.012048044241964817,
            0.025522151961922646,
            0.19620688259601593,
            -0.10860555619001389,
            0.03864225372672081,
            -0.13022834062576294,
            -0.025578001514077187,
            -0.08428532630205154,
            -0.11045129597187042,
            -0.00389119959436357,
            -0.06691130250692368,
            -0.0024451534263789654,
            0.11716309934854507,
            -0.05090010538697243,
            0.10006441175937653,
            -0.02391926944255829,
            -0.07715821266174316,
            -0.4075767397880554,
            0.025418097153306007,
            -0.024283746257424355,
            0.0599917396903038,
            -0.019604912027716637,
            -0.20813800394535065,
            0.06360592693090439,
            0.049941398203372955,
            -0.06230903044342995,
            -0.06766761839389801,
            -0.1772596836090088,
            0.022199230268597603,
            -0.12927065789699554,
            0.26255977153778076,
            -0.11172280460596085,
            0.01473555713891983,
            0.10753777623176575,
            0.16742287576198578,
            0.05131324380636215,
            0.3040598928928375,
            -0.08763192594051361,
            -0.03599594160914421,
            0.12055646628141403,
            0.043891023844480515,
            0.06231369823217392,
            0.007985442876815796,
            -0.06923594325780869,
            -0.05476592108607292,
            0.1381164938211441,
            0.11201450973749161,
            0.027029506862163544,
            0.026587000116705894,
            -0.04374893754720688,
            0.02903963066637516,
            -0.05199234187602997
        ],
        [
            0.14205436408519745,
            -0.045207008719444275,
            -0.049964066594839096,
            -0.09604064375162125,
            0.07716155797243118,
            -0.021038208156824112,
            0.0402982234954834,
            -0.20365361869335175,
            -0.1248689591884613,
            0.01905607059597969,
            0.020901624113321304,
            -0.0795217901468277,
            -0.03595626354217529,
            -0.1269020140171051,
            0.17014570534229279,
            0.01540716364979744,
            0.0008371457224711776,
            6.792310159653425e-06,
            0.004554076585918665,
            0.03112787753343582,
            -0.010548186488449574,
            0.05575055256485939,
            0.008683950640261173,
            0.06431782245635986,
            0.039200715720653534,
            -0.09692639112472534,
            -0.025056196376681328,
            0.1910400241613388,
            -0.2751636207103729,
            0.0676395371556282,
            0.018057534471154213,
            0.10062872618436813,
            -0.035097185522317886,
            -0.011783674359321594,
            0.03132002055644989,
            -0.07243721932172775,
            -0.02696734108030796,
            0.04087289422750473,
            -0.23586393892765045,
            -0.05626550689339638,
            -0.018282247707247734,
            -0.02268175035715103,
            -0.0764823704957962,
            0.05301598086953163,
            -0.06356893479824066,
            0.005377276334911585,
            -0.07671168446540833,
            0.11279090493917465,
            -0.020633738487958908,
            -0.008787564933300018,
            0.12721143662929535,
            -0.040830545127391815,
            -0.01345414575189352,
            -0.05606769397854805,
            0.15842373669147491,
            -0.011011920869350433,
            -0.08550076186656952,
            -0.04806547239422798,
            0.08779562264680862,
            0.5925595164299011,
            -0.12485433369874954,
            -0.028670569881796837,
            -0.04010876640677452,
            0.08324235677719116,
            -0.1262131780385971,
            0.0388510525226593,
            -0.0988958403468132,
            -0.03268151357769966,
            -0.5053937435150146,
            0.001657499116845429,
            -0.029493898153305054,
            -0.1308060586452484,
            -0.05722270905971527,
            0.022273141890764236,
            0.08127843588590622,
            0.17888163030147552,
            0.025675490498542786,
            -0.06633034348487854,
            0.04377947747707367,
            0.05250922217965126,
            -0.05184505879878998,
            -0.019666802138090134,
            -0.21441684663295746,
            0.10863705724477768,
            -0.13408713042736053,
            -0.11001460254192352,
            -0.14047890901565552,
            0.05809029936790466,
            -0.1837637573480606,
            0.06365667283535004,
            -0.07615043222904205,
            -0.031125444918870926,
            0.03750711306929588,
            0.10296143591403961,
            -0.061663802713155746,
            0.07796581834554672,
            0.03204910457134247,
            0.02944519929587841,
            0.04210422560572624,
            -0.02590166963636875,
            -0.01442632358521223,
            -0.06647354364395142,
            0.04459895193576813,
            0.24121183156967163,
            -0.024283256381750107,
            -0.024427074939012527,
            0.11232615262269974,
            0.010622524656355381,
            -0.13296741247177124,
            -0.14649109542369843,
            0.1448650360107422,
            0.013728195801377296,
            0.0877503827214241,
            -0.030708974227309227,
            -0.027554988861083984,
            0.5884829163551331,
            -0.09238503873348236,
            0.03098113089799881,
            0.05013463646173477,
            -0.0035115834325551987,
            0.0005729964468628168,
            -0.04720586538314819,
            0.08104651421308517,
            -0.30881500244140625,
            0.09675254672765732,
            0.0250311940908432,
            -0.017186442390084267,
            0.06819555908441544
        ],
        [
            0.062221232801675797,
            0.02416323870420456,
            -0.03170417249202728,
            0.045490462332963943,
            0.025389350950717926,
            -0.2018784135580063,
            -0.041939642280340195,
            0.25311002135276794,
            0.21390320360660553,
            -0.16292382776737213,
            0.028930554166436195,
            -0.016181379556655884,
            -0.03114395961165428,
            0.05342148244380951,
            -0.20527856051921844,
            0.12092091888189316,
            0.013305483385920525,
            -0.04809547960758209,
            -0.08867976069450378,
            -0.03042733669281006,
            0.04311910271644592,
            -0.002685770858079195,
            0.04314689710736275,
            0.02386968769133091,
            0.045908521860837936,
            -0.07299420982599258,
            -0.012681301683187485,
            -0.11970098316669464,
            0.01276810746639967,
            0.0623474046587944,
            0.09242931753396988,
            -0.09337875247001648,
            0.018054241314530373,
            0.017828067764639854,
            0.05546589195728302,
            -0.03918972983956337,
            -0.040469784289598465,
            0.023905450478196144,
            -0.186272993683815,
            0.1838262975215912,
            -0.04862822964787483,
            0.02135046385228634,
            -0.15287040174007416,
            -0.006567254662513733,
            0.001784169697202742,
            0.11036525666713715,
            -0.046449221670627594,
            -0.01383347250521183,
            -0.05734981968998909,
            0.0017908598529174924,
            -0.013229165226221085,
            -0.03212213143706322,
            -0.002286005299538374,
            0.015446892008185387,
            0.2917332053184509,
            0.004962094593793154,
            0.03434405103325844,
            0.007290469948202372,
            -0.00438282173126936,
            -0.4021802842617035,
            0.2462221086025238,
            -0.021720582619309425,
            -0.012502999976277351,
            0.009014008566737175,
            -0.0527791753411293,
            -0.011388441547751427,
            0.03892828896641731,
            -0.026528922840952873,
            -0.009791453368961811,
            0.11391999572515488,
            -0.054948143661022186,
            -0.024453720077872276,
            0.016690928488969803,
            0.014448292553424835,
            0.0014880683738738298,
            -0.013709377497434616,
            0.07048714905977249,
            0.007474103011190891,
            -0.08253009617328644,
            0.045050159096717834,
            0.02260357327759266,
            0.07432915270328522,
            0.00014913748600520194,
            -0.014038963243365288,
            -0.2242780476808548,
            -0.14659176766872406,
            -0.44706135988235474,
            -0.05803024396300316,
            -0.06597613543272018,
            -0.04823625460267067,
            0.060130953788757324,
            0.017103539779782295,
            -0.022596877068281174,
            -0.06369412690401077,
            -0.1690225750207901,
            -0.009197453036904335,
            0.011838532984256744,
            -0.05146987363696098,
            -0.07117228955030441,
            -0.004305020906031132,
            0.04950011521577835,
            -0.07988286018371582,
            0.093764528632164,
            -0.016887882724404335,
            -0.020419904962182045,
            0.005318275187164545,
            -0.06442070752382278,
            -0.010999944061040878,
            -0.016144121065735817,
            0.030908655375242233,
            0.26114925742149353,
            0.03256310895085335,
            0.05515056475996971,
            -0.0672852098941803,
            -0.07179930806159973,
            0.15431511402130127,
            0.06578153371810913,
            0.011994639411568642,
            0.17318014800548553,
            0.141890749335289,
            0.023466186597943306,
            0.11139664798974991,
            0.1513596624135971,
            0.41457459330558777,
            -0.0989530012011528,
            0.12420550733804703,
            0.07540815323591232,
            0.03216143697500229
        ],
        [
            -0.09154155105352402,
            -0.061874162405729294,
            -0.03209499269723892,
            0.024007832631468773,
            0.008868662640452385,
            0.11108130216598511,
            0.07972507923841476,
            -0.24978530406951904,
            -0.004413724411278963,
            -0.10479115694761276,
            -0.028712496161460876,
            -0.026425499469041824,
            -0.06529582291841507,
            0.006093719508498907,
            0.23043841123580933,
            0.06913814693689346,
            -0.027235887944698334,
            -0.019015010446310043,
            -0.05383367836475372,
            0.0011805952526628971,
            0.05688288062810898,
            0.07309819757938385,
            0.026539025828242302,
            -0.07255711406469345,
            0.027353527024388313,
            0.09156693518161774,
            -0.020530059933662415,
            -0.18530043959617615,
            0.17025384306907654,
            0.02436302788555622,
            0.017729949206113815,
            0.012889747507870197,
            0.046412937343120575,
            0.07219287008047104,
            0.07174583524465561,
            -0.03298075497150421,
            0.09657559543848038,
            0.0006707704742439091,
            0.053500697016716,
            0.026487594470381737,
            0.07016286253929138,
            0.049469027668237686,
            -0.059369321912527084,
            0.05480809509754181,
            0.024487093091011047,
            0.0027748539578169584,
            0.09795885533094406,
            0.028751617297530174,
            -0.09250233322381973,
            0.0038399668410420418,
            -0.0034100781194865704,
            0.11868014186620712,
            -0.025471894070506096,
            -0.028596194460988045,
            0.14824165403842926,
            0.12043397128582001,
            -0.1306043565273285,
            -0.01396587397903204,
            0.025029229000210762,
            0.1323622763156891,
            0.3960458040237427,
            0.00945583451539278,
            -0.10763530433177948,
            0.0012197594624012709,
            -0.06577179580926895,
            0.0916622206568718,
            -0.032473932951688766,
            -0.054555751383304596,
            0.2298252284526825,
            0.12403347343206406,
            0.008531122468411922,
            -0.1003003716468811,
            -0.02303502708673477,
            -0.03404175117611885,
            -0.056945640593767166,
            -0.030333204194903374,
            0.06246441230177879,
            -0.02324887551367283,
            -0.08052315562963486,
            0.0019124902319163084,
            0.11262202262878418,
            -0.04856608435511589,
            0.12269562482833862,
            0.06897880882024765,
            -0.07086978107690811,
            0.12159333378076553,
            -0.01010094489902258,
            -0.010103401727974415,
            0.018172629177570343,
            -0.06385285407304764,
            -0.04302195459604263,
            -0.004302820190787315,
            -0.08504636585712433,
            -0.022375673055648804,
            -0.003488573245704174,
            -0.06628575176000595,
            -0.08658076077699661,
            -0.046892307698726654,
            0.05876197665929794,
            0.009815061464905739,
            0.004299623891711235,
            -0.09568079560995102,
            0.05149329826235771,
            0.07852188497781754,
            0.020769063383340836,
            -0.02900606021285057,
            -0.06883411854505539,
            -0.04522038996219635,
            0.006704284343868494,
            0.03099251165986061,
            0.06751642376184464,
            -0.016039147973060608,
            -0.06764775514602661,
            -0.0009409345220774412,
            0.010419884696602821,
            -0.4651952385902405,
            0.00923710037022829,
            0.02359709143638611,
            -0.10519859939813614,
            -0.15599162876605988,
            0.008938346989452839,
            0.01915987953543663,
            -0.22903455793857574,
            -0.2559221386909485,
            -0.07495687156915665,
            0.003876421367749572,
            0.0655989944934845,
            0.026028305292129517
        ],
        [
            -0.11156763881444931,
            -0.04681164771318436,
            -0.015756813809275627,
            -0.005533549934625626,
            -0.03393005579710007,
            0.14865919947624207,
            -0.024948829784989357,
            0.17275801301002502,
            0.006342853419482708,
            0.42107582092285156,
            0.046490248292684555,
            -0.04486647620797157,
            0.011659983545541763,
            0.03371337801218033,
            0.05641346424818039,
            -0.1782340556383133,
            -0.19019871950149536,
            -0.008032224141061306,
            -0.09077335149049759,
            -0.0005819003563374281,
            0.0590660534799099,
            -0.042614951729774475,
            -0.03059508465230465,
            0.06421244144439697,
            0.07232972979545593,
            0.1898348033428192,
            -0.06262069195508957,
            -0.0009256383054889739,
            0.11562366038560867,
            0.10029970109462738,
            0.05503564327955246,
            -0.0692073330283165,
            0.02310716174542904,
            0.06778278201818466,
            0.07161499559879303,
            -0.047424063086509705,
            0.06514913588762283,
            -0.01474800519645214,
            -0.03521999344229698,
            0.06344013661146164,
            0.006309639662504196,
            -0.04566872864961624,
            0.2987377941608429,
            0.009590843692421913,
            0.04754702374339104,
            0.015110533684492111,
            -0.013347560539841652,
            0.29130569100379944,
            -0.161558598279953,
            0.013405119068920612,
            -0.027666298672556877,
            0.3805892765522003,
            -0.019721193239092827,
            0.02548818290233612,
            -0.06895287334918976,
            -0.04097963869571686,
            -0.02790910378098488,
            -0.042962174862623215,
            -0.05353953316807747,
            -0.39766305685043335,
            0.4357437789440155,
            -0.08500639349222183,
            -0.03288118168711662,
            0.050200626254081726,
            -0.1067093089222908,
            0.04812514781951904,
            0.045249804854393005,
            0.022634688764810562,
            0.12584787607192993,
            0.06707838922739029,
            -0.06233486533164978,
            -0.06873239576816559,
            0.029634805396199226,
            -0.1094697043299675,
            0.011546401306986809,
            -0.07972339540719986,
            0.04222418740391731,
            -0.06620115041732788,
            -0.06726662069559097,
            0.06672325730323792,
            0.22663871943950653,
            0.07996005564928055,
            -0.07046667486429214,
            -0.024312859401106834,
            -0.033326901495456696,
            -0.07909982651472092,
            0.12165899574756622,
            -0.04721607267856598,
            0.0008626811322756112,
            -0.11247508227825165,
            -0.002061000093817711,
            -0.028153643012046814,
            -0.062267471104860306,
            0.19209980964660645,
            -0.06146380677819252,
            -0.0031158297788351774,
            0.006352326832711697,
            -0.051635995507240295,
            0.02347628027200699,
            -0.010171505622565746,
            0.13792353868484497,
            -0.1154116541147232,
            0.02012619748711586,
            0.08438882976770401,
            -0.058127645403146744,
            -0.21966560184955597,
            0.6143141388893127,
            -0.016599828377366066,
            -0.00010552861203905195,
            0.07273552566766739,
            0.16003824770450592,
            -0.04868835583329201,
            -0.287200391292572,
            -0.04712061583995819,
            -0.09160208702087402,
            -0.13813477754592896,
            0.012767190113663673,
            -0.04146701470017433,
            0.20058676600456238,
            -0.17542532086372375,
            0.014459915459156036,
            -0.015598591417074203,
            -0.4840945601463318,
            0.20316000282764435,
            -0.07568139582872391,
            -0.0005074639921076596,
            -0.043694499880075455,
            0.07405029982328415
        ],
        [
            0.061880480498075485,
            0.07210353016853333,
            0.08940423280000687,
            0.04831380024552345,
            0.09159696847200394,
            -0.06259991228580475,
            0.07947943359613419,
            0.08332230895757675,
            -0.16265949606895447,
            -0.02615322731435299,
            -0.011500047519803047,
            -0.08488424122333527,
            0.017734073102474213,
            0.043402571231126785,
            -0.10582134872674942,
            0.16698594391345978,
            0.008391756564378738,
            -0.005017799325287342,
            0.027451684698462486,
            0.08106658607721329,
            0.13447484374046326,
            0.04291072115302086,
            0.021817324683070183,
            0.05925796553492546,
            -0.09157226234674454,
            -0.040018655359745026,
            0.04549102857708931,
            -0.2060064673423767,
            -0.29234105348587036,
            0.031162183731794357,
            -0.06250578910112381,
            -0.0772179439663887,
            -0.012250284664332867,
            -0.032779041677713394,
            -0.032041288912296295,
            0.031732942909002304,
            -0.09384706616401672,
            0.0748848095536232,
            0.07474853843450546,
            -0.08270690590143204,
            -0.00010774258407764137,
            -0.04710987210273743,
            -0.07105345278978348,
            -0.07027126103639603,
            0.1344805657863617,
            -0.020698288455605507,
            0.1297651082277298,
            0.11207085102796555,
            0.15526221692562103,
            0.055354200303554535,
            0.15370114147663116,
            -0.36824387311935425,
            -0.016412297263741493,
            0.03461692854762077,
            0.07127202302217484,
            -0.014292187057435513,
            0.01623913086950779,
            0.09257370233535767,
            -0.01375362928956747,
            0.28994759917259216,
            -0.09057344496250153,
            -0.1015857383608818,
            0.013378338888287544,
            -0.020429113879799843,
            -0.030249927192926407,
            -0.004074535332620144,
            -0.058928221464157104,
            -0.06683362275362015,
            -0.15764321386814117,
            0.06215820834040642,
            -0.039417464286088943,
            0.07544354349374771,
            -0.07201181352138519,
            -0.048298999667167664,
            0.05223622918128967,
            -0.06253176182508469,
            -0.012567957863211632,
            -0.10690025985240936,
            0.14868919551372528,
            0.07541266083717346,
            -0.11545190960168839,
            -0.005445005837827921,
            -0.010443922132253647,
            -0.095091313123703,
            -0.15654148161411285,
            0.19076737761497498,
            0.09982883185148239,
            0.024762626737356186,
            0.15423506498336792,
            -0.029900245368480682,
            0.1119612529873848,
            -0.10879167914390564,
            0.05313379690051079,
            0.21148833632469177,
            0.08657336980104446,
            -0.052964966744184494,
            0.026256315410137177,
            -0.005309670232236385,
            0.2249327152967453,
            -0.03239264711737633,
            -0.05405960977077484,
            -0.2744150161743164,
            0.1124117448925972,
            0.037811629474163055,
            -0.06383825838565826,
            0.11989594250917435,
            0.03358279913663864,
            -0.05271422117948532,
            -0.0031107901595532894,
            -0.07671451568603516,
            0.1411214917898178,
            0.014324182644486427,
            0.12438639253377914,
            -0.10653704404830933,
            0.08557333052158356,
            0.4153965711593628,
            0.045680150389671326,
            0.1137876957654953,
            0.14326544106006622,
            -0.06722895801067352,
            -0.07373097538948059,
            0.011785541661083698,
            0.0645022839307785,
            0.08405445516109467,
            0.06943593174219131,
            0.1277914196252823,
            -0.2147047519683838,
            0.008618946187198162
        ],
        [
            -0.057982541620731354,
            0.15132790803909302,
            -0.12038666009902954,
            -0.09482844918966293,
            0.04835003986954689,
            0.17192502319812775,
            0.0914858728647232,
            -0.0663992315530777,
            0.1631871461868286,
            0.20284947752952576,
            0.012277789413928986,
            0.05536504462361336,
            0.011755572631955147,
            0.17474591732025146,
            0.1647215038537979,
            -0.07230005413293839,
            -0.047223057597875595,
            -0.007116561755537987,
            0.041929591447114944,
            -0.0075086429715156555,
            -0.03993881121277809,
            -0.04831258952617645,
            0.05061089247465134,
            -0.1276950091123581,
            -0.0026866889093071222,
            0.1805407851934433,
            0.16047804057598114,
            0.04119572788476944,
