{
    "_metadata": {
        "best_epoch": 2725,
        "epoch": 2725,
        "loss_validation": 0.09179999679327011,
        "rms_validation": 0.2766000032424927,
        "rms_validation_descaled": 0.06769999861717224
    },
    "feature_max": {
        "An": 6.0,
        "Ate": 13.99999963188793,
        "Ati": 13.999999637438599,
        "Ti_Te": 2.5,
        "Zeff": 3.0000001648451007,
        "logNustar": -0.00029389063678381713,
        "q": 15.000000474495286,
        "smag": 4.99999994550926,
        "x": 0.990000016500375
    },
    "feature_min": {
        "An": -5.000000060222371,
        "Ate": 2.0,
        "Ati": 2.0,
        "Ti_Te": 0.25,
        "Zeff": 1.0,
        "logNustar": -5.000293611626685,
        "q": 0.6599999288257072,
        "smag": -1.00000005449074,
        "x": 0.08999998899975002
    },
    "feature_names": [
        "Zeff",
        "Ati",
        "Ate",
        "An",
        "q",
        "smag",
        "x",
        "Ti_Te",
        "logNustar"
    ],
    "hidden_activation": [
        "tanh",
        "tanh",
        "tanh"
    ],
    "layer1/biases/Variable:0": [
        -1.5173050165176392,
        -1.0931347608566284,
        -1.0108778476715088,
        0.04041406139731407,
        1.2007535696029663,
        0.7640098333358765,
        0.5972654223442078,
        2.7840166091918945,
        -0.2419186532497406,
        -1.9093585014343262,
        -0.7945302128791809,
        -0.3240126967430115,
        -0.431212842464447,
        0.3680344521999359,
        -2.7258012294769287,
        -0.7372984290122986,
        -0.4949946105480194,
        -0.5246016383171082,
        0.6519612669944763,
        -1.2945189476013184,
        2.3591678142547607,
        0.04262900352478027,
        0.5323783755302429,
        -0.588333010673523,
        -0.7733159065246582,
        0.820633053779602,
        1.3550326824188232,
        -0.5947967767715454,
        -1.1652981042861938,
        -1.27739417552948,
        -1.2323145866394043,
        1.332266092300415,
        1.5323548316955566,
        -0.0598013699054718,
        -0.6995721459388733,
        0.9856269955635071,
        0.9123174548149109,
        -0.14790576696395874,
        0.6202864050865173,
        -0.5496262907981873,
        -2.632774591445923,
        1.239298939704895,
        -0.7620081305503845,
        -0.5099622011184692,
        -0.5100767612457275,
        1.5237547159194946,
        -0.12080354243516922,
        -0.3488219976425171,
        -0.9196258187294006,
        0.21278300881385803,
        -1.3599841594696045,
        -0.3741525709629059,
        -0.12845373153686523,
        -1.4733080863952637,
        -1.1951072216033936,
        -0.7947936654090881,
        -2.0179836750030518,
        -0.02552034705877304,
        0.5248292684555054,
        -0.9986726641654968,
        0.12365995347499847,
        2.0507285594940186,
        -0.465425580739975,
        0.325430303812027,
        -1.1709972620010376,
        2.3330795764923096,
        0.7495570778846741,
        -1.9159765243530273,
        1.0124669075012207,
        0.14038127660751343,
        -1.6322035789489746,
        1.1425867080688477,
        -0.20222170650959015,
        1.7727152109146118,
        -1.2332053184509277,
        -0.7197264432907104,
        0.6433351039886475,
        1.391290545463562,
        1.296382188796997,
        0.29351067543029785,
        0.38143157958984375,
        -0.15997017920017242,
        2.287518262863159,
        -0.11014410108327866,
        -0.02259744144976139,
        -0.5979354977607727,
        -0.8935002684593201,
        -1.0953058004379272,
        -1.5918405055999756,
        -0.379246324300766,
        0.3132533133029938,
        -0.8385559916496277,
        0.6139153242111206,
        1.4526649713516235,
        -0.6549980640411377,
        0.2128170281648636,
        -0.3953016698360443,
        -1.0729042291641235,
        -1.8260257244110107,
        0.7293943166732788,
        1.6783249378204346,
        1.009068250656128,
        -0.5596877932548523,
        0.005158858839422464,
        -0.5034032464027405,
        0.2096506655216217,
        1.616387128829956,
        -0.3010050058364868,
        -0.3287237286567688,
        -1.5336681604385376,
        -0.09722676128149033,
        -0.6703009009361267,
        0.510166347026825,
        -0.04093826934695244,
        0.8755029439926147,
        -0.4525620937347412,
        -1.0886281728744507,
        0.9454512596130371,
        -1.8147034645080566,
        -0.03128902614116669,
        -0.5341586470603943,
        -0.9016338586807251,
        -0.6248024702072144,
        -0.5409017205238342,
        -0.8296810984611511,
        -1.2931519746780396,
        0.31005024909973145,
        -1.1080642938613892
    ],
    "layer1/weights/Variable:0": [
        [
            0.08776771277189255,
            0.044970013201236725,
            0.006189481355249882,
            0.1456974893808365,
            -0.9230901002883911,
            -0.14477956295013428,
            0.07420288771390915,
            0.044269006699323654,
            -0.08455608785152435,
            0.08548320829868317,
            0.5401601195335388,
            0.29825279116630554,
            0.3263700306415558,
            -0.03804145008325577,
            0.05597982555627823,
            -0.4091252088546753,
            -0.3018244504928589,
            -0.021367566660046577,
            0.19621306657791138,
            -0.0630616843700409,
            -0.5080249905586243,
            0.05416807159781456,
            -0.026619818061590195,
            -0.12243922799825668,
            -0.22926828265190125,
            0.2817939817905426,
            0.12097632139921188,
            0.26824143528938293,
            -0.4192705452442169,
            -0.058738600462675095,
            -0.7368557453155518,
            -0.08953724801540375,
            0.08133731782436371,
            -0.15499567985534668,
            0.6362172961235046,
            -0.03164014592766762,
            0.013313003815710545,
            0.16269709169864655,
            -0.6988776326179504,
            0.2062862366437912,
            0.02814762480556965,
            0.10801874101161957,
            0.1801869422197342,
            -0.11604798585176468,
            0.25238949060440063,
            0.009172093123197556,
            0.024246184155344963,
            -0.07065730541944504,
            0.2696395814418793,
            -0.024574920535087585,
            -0.05234722048044205,
            0.4514444172382355,
            0.009616211988031864,
            0.020682787522673607,
            0.028828013688325882,
            -0.21776776015758514,
            0.15840138494968414,
            0.03786894306540489,
            -0.05272964388132095,
            0.6049782633781433,
            -0.6148896217346191,
            0.0885043516755104,
            -0.04837719351053238,
            -0.20084097981452942,
            -0.05871237814426422,
            0.02122177742421627,
            -0.7720253467559814,
            -0.2706260681152344,
            0.2534436285495758,
            0.35573962330818176,
            0.9607321619987488,
            -0.8298178911209106,
            -0.025650516152381897,
            0.14118821918964386,
            0.04468405619263649,
            -0.1172109991312027,
            -0.3157768249511719,
            -0.022129952907562256,
            0.0620790496468544,
            0.046457406133413315,
            0.1455451101064682,
            0.3546164333820343,
            0.12897968292236328,
            0.3031977713108063,
            -0.016873221844434738,
            -0.11264906823635101,
            0.5929698944091797,
            0.15107201039791107,
            -0.26721158623695374,
            0.18427999317646027,
            0.06519973278045654,
            -0.007362186908721924,
            0.10646684467792511,
            0.0037646552082151175,
            0.6173465251922607,
            -0.25321006774902344,
            0.15675179660320282,
            0.1382404863834381,
            0.009806944988667965,
            0.448148250579834,
            0.18671132624149323,
            0.0934961661696434,
            0.4453366994857788,
            0.006866063456982374,
            -0.0344216525554657,
            0.021369030699133873,
            -0.10879845917224884,
            -0.47078683972358704,
            0.4901118874549866,
            0.01569330506026745,
            -0.05937832593917847,
            -0.573857307434082,
            0.12446263432502747,
            0.07721522450447083,
            -0.20436632633209229,
            0.5427833199501038,
            -0.0642109364271164,
            -0.003455642145127058,
            0.2661093771457672,
            -0.02910873107612133,
            -0.31919658184051514,
            0.05661582946777344,
            -0.39170652627944946,
            0.17769582569599152,
            -0.0894337072968483,
            0.03934825584292412,
            -0.5242018699645996,
            0.017136167734861374
        ],
        [
            0.021951893344521523,
            -0.08694032579660416,
            -0.4064978361129761,
            -0.2230774462223053,
            0.03326093778014183,
            0.8569552898406982,
            -0.056893642991781235,
            0.08767807483673096,
            0.49104806780815125,
            -1.236870288848877,
            -0.05766645818948746,
            -0.02761976793408394,
            -0.7096609473228455,
            0.05363668128848076,
            0.1195172667503357,
            -0.20777034759521484,
            0.0009783781133592129,
            0.1368909478187561,
            -0.07606835663318634,
            -0.45342615246772766,
            0.3705522119998932,
            -0.03667319193482399,
            -0.05611104145646095,
            -0.34785160422325134,
            0.2662918269634247,
            0.3651082217693329,
            -0.13052009046077728,
            0.4542442858219147,
            0.16192825138568878,
            -0.0428040474653244,
            -0.174953430891037,
            0.033057332038879395,
            -0.019495302811264992,
            0.08812777698040009,
            -0.23335352540016174,
            0.18253499269485474,
            -0.012289759702980518,
            0.18734875321388245,
            0.1346939355134964,
            -0.20446012914180756,
            -0.4849031865596771,
            0.4676494896411896,
            0.046282391995191574,
            0.564946711063385,
            -0.23244795203208923,
            -0.5006557106971741,
            0.0084639647975564,
            0.13853006064891815,
            0.053566936403512955,
            0.1870490163564682,
            0.1552170366048813,
            0.0937798023223877,
            0.0633908063173294,
            -0.03398502618074417,
            -0.31426116824150085,
            -0.8578402400016785,
            -0.38955429196357727,
            0.3730134069919586,
            -0.033297330141067505,
            0.02645072527229786,
            0.33375805616378784,
            0.24504119157791138,
            -0.030619550496339798,
            0.31310948729515076,
            -0.7461980581283569,
            -0.06704971939325333,
            -0.12203800678253174,
            0.10752355307340622,
            0.34263625741004944,
            0.3783756494522095,
            0.2648571729660034,
            0.04927314817905426,
            0.18535248935222626,
            -0.11392409354448318,
            -0.34314605593681335,
            0.07642751932144165,
            0.058701954782009125,
            0.1855519562959671,
            0.07344095408916473,
            -0.14844058454036713,
            0.47672373056411743,
            0.2914706766605377,
            0.9368194341659546,
            -0.036284033209085464,
            -0.20585671067237854,
            0.4418315291404724,
            -0.2395928055047989,
            -0.24795128405094147,
            -0.6033036112785339,
            0.2630009353160858,
            -0.030233029276132584,
            0.16220490634441376,
            -0.28433340787887573,
            0.3191249966621399,
            -0.07808563113212585,
            0.5292336940765381,
            0.1953093260526657,
            -0.5266770124435425,
            0.04218700900673866,
            0.1210140734910965,
            -0.2663038372993469,
            0.18693773448467255,
            -0.265694797039032,
            0.6567069292068481,
            -0.08915975689888,
            -0.4344683289527893,
            0.1432916671037674,
            0.02040984109044075,
            0.30796220898628235,
            0.05931001901626587,
            -0.30965885519981384,
            0.3519423305988312,
            -0.07304275035858154,
            -0.11321887373924255,
            0.3677351772785187,
            -0.026083435863256454,
            -0.6593784689903259,
            0.2558915615081787,
            -0.89009690284729,
            0.02232496067881584,
            -0.0370047464966774,
            -0.01189835462719202,
            -0.052517764270305634,
            -0.7916970252990723,
            0.1456681787967682,
            -0.04213720187544823,
            0.24626120924949646,
            0.17103315889835358
        ],
        [
            -0.03393208235502243,
            0.19828331470489502,
            -0.07337087392807007,
            -0.3552214801311493,
            0.01921698823571205,
            -0.3223828375339508,
            -0.04577210918068886,
            0.9873882532119751,
            -0.3572419285774231,
            -0.07373803108930588,
            -0.16612958908081055,
            -0.1654731184244156,
            0.37293413281440735,
            0.029444362968206406,
            0.13335518538951874,
            0.0433780737221241,
            -0.034759845584630966,
            0.16435261070728302,
            -0.01229314599186182,
            0.3518691658973694,
            0.18612997233867645,
            -0.08957011252641678,
            0.012855044566094875,
            -0.2110406905412674,
            0.14676499366760254,
            -0.26609790325164795,
            0.10557059198617935,
            -0.1340925544500351,
            0.19799107313156128,
            0.18473005294799805,
            -0.038259319961071014,
            0.045364316552877426,
            0.11024541407823563,
            0.24896611273288727,
            0.10029327124357224,
            0.12228482216596603,
            0.7442706227302551,
            0.11940523236989975,
            0.015747036784887314,
            0.5010461807250977,
            0.17568601667881012,
            -0.29397067427635193,
            -0.2541866600513458,
            0.011166026815772057,
            -0.06771045923233032,
            0.39139893651008606,
            -0.12943579256534576,
            -0.6815333366394043,
            -0.06750955432653427,
            -0.10912904143333435,
            -0.1332719475030899,
            0.1304292529821396,
            -0.0042019798420369625,
            0.046511270105838776,
            -0.08690309524536133,
            -0.16482394933700562,
            -0.16061647236347198,
            -0.12770451605319977,
            -0.006019702181220055,
            -0.02302224561572075,
            0.038536470383405685,
            0.6373160481452942,
            0.17818959057331085,
            -0.09202193468809128,
            0.04707258194684982,
            -0.06906591355800629,
            0.00655388692393899,
            -0.2595066428184509,
            0.34489676356315613,
            0.056956347078084946,
            0.016320308670401573,
            0.04080086201429367,
            -0.24312683939933777,
            0.8979241251945496,
            -0.12380233407020569,
            0.03228490799665451,
            -0.2673008441925049,
            -0.11039842665195465,
            0.0684160515666008,
            -0.17172005772590637,
            -0.0853235125541687,
            -0.14534372091293335,
            -0.014191828668117523,
            0.020365582779049873,
            0.2397945672273636,
            -0.06878447532653809,
            0.025469206273555756,
            0.09758639335632324,
            -0.08323732018470764,
            0.5715185403823853,
            0.30144616961479187,
            0.5345717072486877,
            0.38508012890815735,
            0.05427390709519386,
            0.05014607310295105,
            -0.2678869068622589,
            0.21945346891880035,
            0.16912034153938293,
            -0.009995067492127419,
            0.08016262203454971,
            0.0030169393867254257,
            -0.13253793120384216,
            -0.19002561271190643,
            -0.4263901710510254,
            0.1600174456834793,
            0.3209688663482666,
            0.07349047064781189,
            0.32988080382347107,
            -0.15700793266296387,
            0.12182291597127914,
            0.07812287658452988,
            -0.24812474846839905,
            -0.010172820650041103,
            -0.41779083013534546,
            -0.10609935969114304,
            0.007707449607551098,
            -0.49015817046165466,
            0.41369956731796265,
            0.07775748521089554,
            -0.2587112486362457,
            -0.04679441824555397,
            0.10326214134693146,
            0.16930203139781952,
            0.04130753129720688,
            -0.6452918648719788,
            -0.06756369769573212,
            -0.04966742917895317,
            0.18508583307266235
        ],
        [
            -0.4320591688156128,
            -0.4926103353500366,
            -0.8849676251411438,
            -0.5496061444282532,
            0.02129592001438141,
            0.10894333571195602,
            -0.07155989855527878,
            1.1389261484146118,
            0.07254355400800705,
            0.426740825176239,
            0.2127915322780609,
            0.017875634133815765,
            0.4784807860851288,
            -0.2951168417930603,
            -0.029208870604634285,
            0.7168134450912476,
            0.457478404045105,
            0.06516286730766296,
            0.5444082021713257,
            -0.22447989881038666,
            -0.4626319706439972,
            -0.008025316521525383,
            0.1357467919588089,
            0.41105231642723083,
            0.5832523107528687,
            -0.09193915128707886,
            0.07009926438331604,
            0.20765474438667297,
            0.4430996775627136,
            0.10870014131069183,
            0.5561304092407227,
            0.46073290705680847,
            -0.28840214014053345,
            -1.0983017683029175,
            0.006647506728768349,
            0.40622255206108093,
            0.9776719212532043,
            0.21968704462051392,
            0.6268009543418884,
            -0.05053187161684036,
            -0.21456368267536163,
            0.43113529682159424,
            -0.07147197425365448,
            0.2848268151283264,
            -0.22200825810432434,
            0.6190674901008606,
            -0.05826219916343689,
            -0.48902690410614014,
            0.5907156467437744,
            -0.15924669802188873,
            -0.7454630732536316,
            0.271131306886673,
            -0.3758602738380432,
            -0.1292104721069336,
            1.2695364952087402,
            0.472931444644928,
            0.7707708477973938,
            -1.1026272773742676,
            0.2789545953273773,
            0.27500903606414795,
            -0.16475871205329895,
            0.6297383308410645,
            -0.15213645994663239,
            -0.09051985293626785,
            -0.44702640175819397,
            0.07162242382764816,
            -0.44809961318969727,
            0.3004912734031677,
            0.08052976429462433,
            0.18997223675251007,
            0.3315204679965973,
            -0.020263347774744034,
            -0.11884266883134842,
            0.04054410010576248,
            1.1541637182235718,
            0.4292354881763458,
            -0.1123855784535408,
            0.11716949939727783,
            0.5529127717018127,
            0.09148306399583817,
            -0.7330775260925293,
            -0.26101985573768616,
            0.4722941815853119,
            0.24887293577194214,
            -0.006044237874448299,
            0.4888588488101959,
            -0.4114714562892914,
            0.19412662088871002,
            0.7812960743904114,
            0.26924851536750793,
            -1.0146293640136719,
            0.04306250065565109,
            -0.09311100095510483,
            -0.08830583840608597,
            0.31692734360694885,
            0.2653583288192749,
            -0.031225336715579033,
            -0.20063818991184235,
            0.024982474744319916,
            0.1310095191001892,
            -0.05900415778160095,
            0.32119062542915344,
            -0.31433382630348206,
            0.6543143391609192,
            0.577998161315918,
            -0.4103899896144867,
            -1.0653325319290161,
            -0.5087634325027466,
            0.42357054352760315,
            -0.13791444897651672,
            -0.13761480152606964,
            0.11862677335739136,
            -0.027168402448296547,
            0.4086291491985321,
            -0.2923957407474518,
            0.24509400129318237,
            -0.6607315540313721,
            0.29885566234588623,
            0.033784955739974976,
            -0.469265341758728,
            -0.20287887752056122,
            0.07921067625284195,
            -0.0007345474441535771,
            -0.12915699183940887,
            -1.2747493982315063,
            0.21205972135066986,
            -0.2730676233768463,
            -0.3995512127876282
        ],
        [
            0.09218906611204147,
            0.010792410001158714,
            -0.011398650705814362,
            -0.06909800320863724,
            0.022183768451213837,
            0.04086020216345787,
            0.5407015681266785,
            -0.008309529162943363,
            0.02103361301124096,
            -0.040503375232219696,
            0.025205744430422783,
            -0.4872325658798218,
            -0.05643993243575096,
            0.044723693281412125,
            0.08150174468755722,
            0.12443859875202179,
            0.4063262641429901,
            -0.7845472097396851,
            -0.1423829346895218,
            -0.08450815081596375,
            -0.02869614213705063,
            0.02784305065870285,
            -0.039231859147548676,
            -0.06841958314180374,
            0.08396902680397034,
            0.017752304673194885,
            0.9819505214691162,
            0.07115188241004944,
            -0.09586260467767715,
            0.16139176487922668,
            0.11147893220186234,
            -0.11403995752334595,
            0.0804443210363388,
            0.041793204843997955,
            -0.20299328863620758,
            0.0506250336766243,
            -0.058732230216264725,
            0.07492765784263611,
            -0.04469657316803932,
            0.16988098621368408,
            0.02293684147298336,
            -0.05414345860481262,
            0.12202220410108566,
            0.2644381523132324,
            0.2003418207168579,
            -0.12229657173156738,
            -1.2285845279693604,
            -0.10568194091320038,
            -0.16160495579242706,
            0.7143219113349915,
            0.014795283786952496,
            0.05135725811123848,
            0.13945703208446503,
            -0.08304601162672043,
            -0.005925659090280533,
            -0.10516403615474701,
            0.1411525011062622,
            0.13292959332466125,
            -0.21381640434265137,
            0.10302283614873886,
            0.04485815763473511,
            -0.061985861510038376,
            -0.23795364797115326,
            0.24648118019104004,
            -0.012469916604459286,
            0.29668375849723816,
            0.06504946947097778,
            0.04338785260915756,
            -0.020292820408940315,
            0.03664940595626831,
            -0.04166670888662338,
            -0.10045459121465683,
            -0.17895255982875824,
            0.042822353541851044,
            -0.05228980630636215,
            0.4969809353351593,
            0.0276216808706522,
            0.040672723203897476,
            -0.20521681010723114,
            -0.07039555162191391,
            -0.07993277907371521,
            0.11137761175632477,
            0.06982973963022232,
            -0.2223367542028427,
            0.13859586417675018,
            -0.0029647478368133307,
            -0.041371334344148636,
            0.2213367223739624,
            -0.17465530335903168,
            0.1016228049993515,
            0.00937203411012888,
            0.05533537268638611,
            0.1545892208814621,
            -0.046510376036167145,
            -0.06941241025924683,
            -0.15602153539657593,
            0.014208199456334114,
            -0.008156191557645798,
            -2.800973892211914,
            0.035944145172834396,
            -0.07763276249170303,
            0.05331684276461601,
            0.03486526757478714,
            0.04698450490832329,
            0.014273076318204403,
            0.10923304408788681,
            -0.040414147078990936,
            -0.06103863567113876,
            -0.02383146807551384,
            -0.032072365283966064,
            0.19287241995334625,
            -0.028747035190463066,
            -0.3076140880584717,
            0.1274852454662323,
            -0.12308794260025024,
            0.07390012592077255,
            0.10743093490600586,
            0.018794525414705276,
            -0.054301053285598755,
            0.03326258435845375,
            0.238961324095726,
            -0.03350714594125748,
            0.037525612860918045,
            0.14372768998146057,
            0.15182694792747498,
            -0.1736288070678711,
            -0.164551243185997,
            0.24156153202056885
        ],
        [
            -1.1621464490890503,
            0.06758438050746918,
            0.22956058382987976,
            -0.12421274185180664,
            -0.02214876189827919,
            -0.2718123495578766,
            -0.3958001434803009,
            -0.1820397526025772,
            -0.10004887729883194,
            0.3691948354244232,
            0.046623196452856064,
            -0.3567717671394348,
            0.16857054829597473,
            0.09873895347118378,
            -1.984086036682129,
            0.9298850893974304,
            0.5465288758277893,
            0.07482617348432541,
            -0.17496252059936523,
            0.2755836248397827,
            -0.03514161705970764,
            0.895275890827179,
            -0.8751064538955688,
            -0.37926584482192993,
            -0.13017530739307404,
            -0.045550789684057236,
            0.3427668511867523,
            -0.07946567982435226,
            -0.49101704359054565,
            0.06075995787978172,
            -0.14828135073184967,
            -0.19607900083065033,
            0.3017536699771881,
            -0.22383368015289307,
            0.03191937133669853,
            1.6949536800384521,
            -0.28301572799682617,
            0.31013330817222595,
            0.0850163996219635,
            -0.054007384926080704,
            0.45893990993499756,
            -0.030525973066687584,
            -0.005289467517286539,
            -0.5776771306991577,
            0.6318109631538391,
            0.40618425607681274,
            -0.10905492305755615,
            0.03657865151762962,
            -0.1268901228904724,
            0.6779811978340149,
            -0.1722940355539322,
            0.5073567032814026,
            -0.07722918689250946,
            -0.300407350063324,
            0.741133451461792,
            -0.17491060495376587,
            -0.3572451174259186,
            -0.29039254784584045,
            -0.27694272994995117,
            0.191557839512825,
            -0.08858969807624817,
            0.2761189937591553,
            -0.122187040746212,
            0.1962764412164688,
            0.22953595221042633,
            0.009132826700806618,
            -0.05549035221338272,
            -0.3669516444206238,
            0.15696167945861816,
            -0.7499974370002747,
            -0.07651590555906296,
            0.061465825885534286,
            0.01566476747393608,
            -0.08994311094284058,
            -0.32796159386634827,
            -0.42361608147621155,
            -0.21009711921215057,
            0.6705308556556702,
            -0.24484772980213165,
            -1.1809269189834595,
            0.2629148066043854,
            0.15384282171726227,
            -0.1628158837556839,
            -0.21459920704364777,
            0.07139264792203903,
            0.47083577513694763,
            0.22489620745182037,
            0.22301480174064636,
            -0.2450161725282669,
            -0.045799918472766876,
            0.3143167793750763,
            -0.6338022947311401,
            0.5457833409309387,
            1.0558944940567017,
            0.056577444076538086,
            -0.3085308074951172,
            -0.7551140785217285,
            -0.10108887404203415,
            -0.07676570862531662,
            1.1397967338562012,
            0.018191523849964142,
            0.8118520975112915,
            0.2068469524383545,
            -0.9817681312561035,
            -1.7246085405349731,
            -0.13048295676708221,
            2.0221457481384277,
            -0.2947445213794708,
            -0.331281840801239,
            -0.5369347333908081,
            0.10513012856245041,
            -0.056015655398368835,
            -0.1300278902053833,
            0.05841461941599846,
            -0.36044546961784363,
            0.18011394143104553,
            -0.036363083869218826,
            -0.011999367736279964,
            0.22076407074928284,
            0.9765424132347107,
            -0.07163705676794052,
            -2.0966107845306396,
            0.388473242521286,
            -0.09708671271800995,
            0.13119497895240784,
            0.1117139384150505,
            0.10295188426971436,
            -1.1669769287109375
        ],
        [
            -0.19182021915912628,
            -0.3249945044517517,
            0.014418045990169048,
            0.24518315494060516,
            0.00366014102473855,
            0.12292400747537613,
            -0.33181560039520264,
            -0.05251404270529747,
            -0.20847301185131073,
            -0.12112285941839218,
            -0.02600579336285591,
            -0.18129798769950867,
            -0.024075442925095558,
            0.2953796982765198,
            -0.3172462582588196,
            -0.12570323050022125,
            -0.25398769974708557,
            -0.1242915466427803,
            -0.022494060918688774,
            0.17569075524806976,
            -0.0436859130859375,
            0.5374374985694885,
            0.638475239276886,
            0.033713094890117645,
            0.11802640557289124,
            -0.04852554574608803,
            -0.008896256797015667,
            0.0017086060252040625,
            0.33632394671440125,
            -0.7607119083404541,
            0.05863887071609497,
            -0.23527531325817108,
            0.7405867576599121,
            0.027079248800873756,
            -0.002869795309379697,
            -0.13854539394378662,
            -0.022388895973563194,
            -0.11333779245615005,
            -0.03490981459617615,
            0.07727883756160736,
            -0.0517987497150898,
            -0.2697755694389343,
            0.06251339614391327,
            0.15639153122901917,
            -0.18115940690040588,
            0.5586230754852295,
            -0.2779313623905182,
            0.14313922822475433,
            0.04437556490302086,
            0.03868384659290314,
            -0.040170878171920776,
            -0.06796613335609436,
            0.3960445523262024,
            -1.0272234678268433,
            0.08618469536304474,
            0.013631285168230534,
            0.23589637875556946,
            -0.14309917390346527,
            0.3125687837600708,
            0.10429684072732925,
            -0.16059383749961853,
            -0.06506860256195068,
            -0.11902220547199249,
            -0.32333067059516907,
            -0.10122986882925034,
            -0.31059038639068604,
            0.02623702399432659,
            0.03706586733460426,
            0.06969460844993591,
            0.045527420938014984,
            -0.06524908542633057,
            -0.05814279615879059,
            -0.07193545252084732,
            -0.11034397780895233,
            0.0950755849480629,
            -0.14021725952625275,
            0.3870369493961334,
            -0.008166637271642685,
            -0.16555051505565643,
            -0.011284499429166317,
            -0.261885404586792,
            -0.1154627725481987,
            -0.09090051800012589,
            0.12129552662372589,
            -0.36632052063941956,
            -0.05382108315825462,
            -0.01238536648452282,
            -0.015054553747177124,
            0.027147121727466583,
            -0.007629166357219219,
            -0.07905372232198715,
            0.3437763452529907,
            0.13623975217342377,
            -0.03503337875008583,
            -0.06945760548114777,
            0.3075413107872009,
            0.005002235993742943,
            -0.2582174241542816,
            -0.050924211740493774,
            -0.1914653480052948,
            0.831753671169281,
            0.2661118507385254,
            -0.096608467400074,
            0.08209040015935898,
            0.1470259428024292,
            -0.03722642734646797,
            -0.14142809808254242,
            -0.022959278896450996,
            0.0263387281447649,
            0.2337975651025772,
            -0.39496371150016785,
            0.27317845821380615,
            0.4681861102581024,
            -0.10957593470811844,
            0.10274575650691986,
            -0.06761853396892548,
            -0.13715098798274994,
            -0.379587322473526,
            -0.15924137830734253,
            -0.12098131328821182,
            0.1012924313545227,
            -0.11736133694648743,
            -0.3467019200325012,
            -0.00773764681071043,
            0.0333554707467556,
            0.2825569212436676,
            0.11685997247695923,
            0.12111454457044601
        ],
        [
            0.35329145193099976,
            -0.048936400562524796,
            -0.6045533418655396,
            0.41302362084388733,
            -0.06985647976398468,
            -0.41548171639442444,
            0.25579869747161865,
            0.8100300431251526,
            -1.1269983053207397,
            0.05641816556453705,
            0.00035667442716658115,
            0.22953997552394867,
            -0.6478533744812012,
            -0.6145886182785034,
            0.20403508841991425,
            0.2587430775165558,
            -0.09750106185674667,
            -0.43055930733680725,
            0.759294867515564,
            0.06489405035972595,
            -0.16658693552017212,
            -0.03260192275047302,
            -0.3238290548324585,
            -0.5804170370101929,
            0.008348921313881874,
            0.8718489408493042,
            0.8004979491233826,
            -0.1560736447572708,
            0.13801133632659912,
            -0.14731024205684662,
            0.0012362021952867508,
            0.9761934280395508,
            -0.28295740485191345,
            -0.45767393708229065,
            0.20722836256027222,
            -0.09663395583629608,
            -0.39523088932037354,
            -0.8911128044128418,
            -0.2308468222618103,
            0.032388024032115936,
            -0.9437242746353149,
            -0.12220696359872818,
            0.2001645714044571,
            0.1365385502576828,
            0.9745107293128967,
            0.222662553191185,
            0.052670981734991074,
            0.11179064214229584,
            0.610800564289093,
            0.5697237849235535,
            -0.9082277417182922,
            -0.32229721546173096,
            0.46112221479415894,
            -0.007511286996304989,
            -0.01788833551108837,
            0.0988302156329155,
            -0.07064501196146011,
            0.12076256424188614,
            0.009407024830579758,
            0.08982640504837036,
            -0.06626003235578537,
            0.3099358081817627,
            -1.0286710262298584,
            -0.24513813853263855,
            0.20681434869766235,
            -0.13551065325737,
            0.04714338108897209,
            0.3401968479156494,
            0.13080795109272003,
            -0.31131380796432495,
            0.25818488001823425,
            0.07188323885202408,
            0.01940067857503891,
            -0.2530078589916229,
            -0.056341152638196945,
            0.1738540083169937,
            -0.31539323925971985,
            0.07301441580057144,
            -0.24217094480991364,
            0.891678512096405,
            0.2911738157272339,
            0.300435870885849,
            0.3439593017101288,
            -0.38719114661216736,
            -0.09525319933891296,
            0.48566529154777527,
            -0.11722155660390854,
            -0.8514512181282043,
            -0.034823741763830185,
            -0.09990394115447998,
            0.007255383301526308,
            -0.42454850673675537,
            -0.6370791792869568,
            -0.15890797972679138,
            0.02390035055577755,
            0.22904911637306213,
            0.1494223177433014,
            -0.4237874150276184,
            0.02143152803182602,
            -0.10082817077636719,
            0.25483375787734985,
            -0.013567022047936916,
            -0.4287914037704468,
            0.04755803942680359,
            -0.025333089753985405,
            -0.2553257346153259,
            0.075821653008461,
            0.15931108593940735,
            0.5300377011299133,
            -1.3825745582580566,
            0.5825501084327698,
            0.040202103555202484,
            0.008546177297830582,
            -0.06619953364133835,
            -0.3884584307670593,
            0.5386950373649597,
            0.25606152415275574,
            0.10042494535446167,
            -0.17146176099777222,
            -0.16754910349845886,
            -0.6073666214942932,
            -0.3041154146194458,
            0.25961118936538696,
            0.8298826813697815,
            0.043038416653871536,
            -0.09143237769603729,
            -0.28699758648872375,
            -0.2244475781917572
        ],
        [
            -0.17821259796619415,
            -0.035157445818185806,
            0.15501566231250763,
            -0.10796645283699036,
            0.02321114018559456,
            -0.05896122753620148,
            0.2792951762676239,
            0.029981745406985283,
            -0.038557589054107666,
            0.2186005413532257,
            -0.018528521060943604,
            -0.08030663430690765,
            0.12652283906936646,
            -0.47475290298461914,
            -0.48119091987609863,
            -0.0875164046883583,
            -0.150478795170784,
            -0.07314517349004745,
            0.014603440649807453,
            0.6891660690307617,
            -0.23013339936733246,
            -0.02977992594242096,
            0.1712205857038498,
            -0.21517618000507355,
            -0.5271353721618652,
            0.2105945348739624,
            -0.14698350429534912,
            0.4953159987926483,
            -0.003136860439553857,
            -0.14486682415008545,
            -0.14475037157535553,
            0.036471616476774216,
            -0.02663472294807434,
            0.19723951816558838,
            -0.03460978716611862,
            -0.15864297747612,
            -0.11625254154205322,
            -0.2679829001426697,
            -0.05462326854467392,
            0.09297513961791992,
            -0.06917450577020645,
            0.3413518965244293,
            0.29575327038764954,
            -0.6696608662605286,
            -0.15959890186786652,
            0.08130858838558197,
            0.3162303566932678,
            0.7738423943519592,
            -0.3544660210609436,
            -0.019130131229758263,
            0.1689227670431137,
            0.04916990175843239,
            -0.5943275690078735,
            -0.06785678118467331,
            -0.07764746248722076,
            0.2524304687976837,
            -0.34746161103248596,
            -0.09598759561777115,
            1.3649019002914429,
            -0.11622045934200287,
            0.13445472717285156,
            0.07931126654148102,
            0.3619101345539093,
            -0.12032083421945572,
            0.10891001671552658,
            -1.6156810522079468,
            -0.22761744260787964,
            -0.2586476504802704,
            -0.2529691755771637,
            -0.1134849414229393,
            0.006264172028750181,
            0.09848982840776443,
            1.4731671810150146,
            0.24298231303691864,
            0.1032305657863617,
            0.007078184746205807,
            -0.11294687539339066,
            -0.8459124565124512,
            0.13657446205615997,
            0.007645419333130121,
            -0.3702354431152344,
            -0.27068984508514404,
            -0.13282343745231628,
            -0.11680223792791367,
            -0.9724100232124329,
            0.002971199806779623,
            0.07815094292163849,
            -0.05543249100446701,
            0.5991233587265015,
            -0.14705605804920197,
            -0.11238951981067657,
            0.20662060379981995,
            0.21713878214359283,
            -0.024957692250609398,
            0.10699982941150665,
            -0.09065602719783783,
            0.34668415784835815,
            0.3179348409175873,
            0.04692884907126427,
            -0.12126041948795319,
            0.20810681581497192,
            -0.09754826128482819,
            -0.13929860293865204,
            0.1034485250711441,
            -0.21929024159908295,
            -0.6767808794975281,
            0.20066110789775848,
            -0.29749059677124023,
            -0.04798058420419693,
            0.2724902629852295,
            -0.7503251433372498,
            -0.014415937475860119,
            -0.26756078004837036,
            -0.9927621483802795,
            -0.04530541971325874,
            -0.28207099437713623,
            -0.2694868743419647,
            -0.021382248029112816,
            -0.24743667244911194,
            -0.20272350311279297,
            -0.14806869626045227,
            -0.09301744401454926,
            0.08387294411659241,
            -0.10860204696655273,
            -0.027678899466991425,
            1.304661512374878,
            0.1266748011112213,
            -0.491375595331192
        ]
    ],
    "layer2/biases/Variable:0": [
        0.9279727935791016,
        -1.4662531614303589,
        -1.3640508651733398,
        1.4430714845657349,
        -0.6363060474395752,
        0.2823549807071686,
        -1.9611955881118774,
        -1.812765121459961,
        1.8360880613327026,
        -1.1012821197509766,
        -0.634183406829834,
        -0.009760445915162563,
        -0.32823827862739563,
        1.0944663286209106,
        0.07037447392940521,
        0.3948918581008911,
        -0.06385666877031326,
        0.6700106263160706,
        -0.1339491456747055,
        -0.9602084159851074,
        -1.903523564338684,
        -0.8571081757545471,
        0.40619921684265137,
        0.7025414705276489,
        -2.0051751136779785,
        -0.14279629290103912,
        -0.04122619330883026,
        2.1187002658843994,
        -0.10229162871837616,
        0.1942732185125351,
        -0.7469119429588318,
        0.2132602035999298,
        -0.27668941020965576,
        -0.08939703553915024,
        1.4070383310317993,
        2.4644875526428223,
        0.6610586047172546,
        -2.134002208709717,
        -0.5899938941001892,
        -0.14468629658222198,
        -1.033366322517395,
        2.1523656845092773,
        -1.0818957090377808,
        0.7312926650047302,
        0.8937193751335144,
        0.8701350092887878,
        -0.9155652523040771,
        0.19327209889888763,
        2.500322103500366,
        -0.9606981873512268,
        1.188307523727417,
        0.38666853308677673,
        0.5953986048698425,
        1.1733438968658447,
        -0.46292734146118164,
        0.7121327519416809,
        -0.07572036981582642,
        -0.016013003885746002,
        -0.7044284343719482,
        -0.019136685878038406,
        -0.9995945692062378,
        -0.3742657005786896,
        0.6515434384346008,
        0.249189093708992,
        -1.1154230833053589,
        -0.0918966680765152,
        -0.9162644147872925,
        1.4262365102767944,
        -0.12953412532806396,
        -0.507720410823822,
        -0.7862801551818848,
        -0.49867117404937744,
        0.971720814704895,
        0.06629530340433121,
        -1.1002013683319092,
        -1.0484421253204346,
        0.6141162514686584,
        -0.21852676570415497,
        -1.5965182781219482,
        -0.12531930208206177,
        0.5091530680656433,
        -0.3161278963088989,
        1.0038323402404785,
        -0.0718248188495636,
        0.9155287146568298,
        0.9374278783798218,
        0.08488066494464874,
        -0.32766568660736084,
        0.9559211730957031,
        0.8804053068161011,
        0.08512785285711288,
        1.075629472732544,
        0.15782500803470612,
        -0.9115534424781799,
        1.601582646369934,
        -0.23193703591823578,
        -0.9799903631210327,
        0.42483121156692505,
        1.2631577253341675,
        0.642458438873291,
        -0.5507301688194275,
        0.6748500466346741,
        1.6712336540222168,
        -2.260422468185425,
        0.9501614570617676,
        -0.36342325806617737,
        2.024614095687866,
        -0.8244980573654175,
        -0.2768402397632599,
        -0.20784743130207062,
        -1.1531500816345215,
        -1.5107861757278442,
        -0.3238708972930908,
        0.5207832455635071,
        -0.07831694930791855,
        1.3403855562210083,
        0.6408735513687134,
        0.7497531771659851,
        -0.602172315120697,
        -0.502109706401825,
        -1.7191739082336426,
        -0.3246239423751831,
        -0.8927220106124878,
        1.693034052848816,
        0.012736327014863491,
        -2.297736406326294,
        -0.9488237500190735,
        -0.5834555625915527
    ],
    "layer2/weights/Variable:0": [
        [
            -0.08346451073884964,
            -0.06436894088983536,
            0.057557590305805206,
            -0.05695413053035736,
            0.07708229869604111,
            0.07481991499662399,
            0.0025158876087516546,
            -0.08357411623001099,
            -0.09377811849117279,
            -0.03321199491620064,
            0.15982581675052643,
            0.11584624648094177,
            0.037075597792863846,
            0.07603621482849121,
            -0.3041195571422577,
            0.08694219589233398,
            0.20871108770370483,
            -0.04160770773887634,
            0.016154339537024498,
            -0.12287858128547668,
            -0.09274134039878845,
            -0.07505088299512863,
            -0.06906355172395706,
            -0.00815973337739706,
            -0.20196393132209778,
            -0.09468536823987961,
            0.001652113045565784,
            -0.1818903684616089,
            0.04053137078881264,
            -0.021107317879796028,
            -0.10908079892396927,
            0.013752374798059464,
            0.05223656818270683,
            -0.01426294818520546,
            0.006407003849744797,
            -0.21571916341781616,
            0.06261862069368362,
            0.10574277490377426,
            -0.08213451504707336,
            0.05761093273758888,
            0.10729140788316727,
            0.09676654636859894,
            -0.11325465887784958,
            -0.003619604278355837,
            0.01832139864563942,
            0.06570276618003845,
            0.28521353006362915,
            0.06018783897161484,
            0.1153564378619194,
            0.12013686448335648,
            -0.04046466946601868,
            -0.04096311703324318,
            0.19265225529670715,
            0.24297435581684113,
            0.022502101957798004,
            0.021501870825886726,
            -0.0453731007874012,
            0.10557423532009125,
            -0.10561741888523102,
            0.04272305965423584,
            -0.062193650752305984,
            -0.010778824798762798,
            0.01673288643360138,
            -0.043415434658527374,
            0.23068773746490479,
            0.12018562108278275,
            -0.022594276815652847,
            0.050806235522031784,
            0.1317267119884491,
            0.04030577093362808,
            0.08345130831003189,
            0.03343409299850464,
            -0.22284358739852905,
            -0.004319841042160988,
            0.0772872045636177,
            0.026567230001091957,
            -0.22712665796279907,
            0.030766785144805908,
            -0.0772329792380333,
            0.05311121046543121,
            -0.05598769709467888,
            0.09029584378004074,
            -0.002004002220928669,
            -0.07827793061733246,
            -0.0979297012090683,
            0.1826179176568985,
            0.14056706428527832,
            -0.00956318061798811,
            -0.20073944330215454,
            0.0443153902888298,
            0.057049546390771866,
            -0.14045733213424683,
            0.05571074038743973,
            -0.11699725687503815,
            -0.10308438539505005,
            -0.039988256990909576,
            0.10192711651325226,
            -0.001779954181984067,
            -0.06645039469003677,
            0.09697631746530533,
            0.009247449226677418,
            -0.16189958155155182,
            -0.19845712184906006,
            -0.07965996116399765,
            0.07068867981433868,
            -0.09557849913835526,
            -0.05499908700585365,
            -0.08484415709972382,
            -0.020766403526067734,
            -0.1359759271144867,
            0.5475118160247803,
            -0.06546560674905777,
            0.2350577414035797,
            0.1148451715707779,
            -0.0031905986834317446,
            -0.06994325667619705,
            0.10899529606103897,
            0.03976885974407196,
            0.016161378473043442,
            0.061780523508787155,
            -0.06010369211435318,
            0.1371217966079712,
            0.09848251193761826,
            0.07789083570241928,
            0.7401487827301025,
            0.11810021847486496,
            0.017109982669353485,
            0.0403573252260685
        ],
        [
            -0.09768520295619965,
            -0.006314857862889767,
            0.017331618815660477,
            0.11752016842365265,
            0.03398558497428894,
            0.045546919107437134,
            0.012709632515907288,
            -0.020934423431754112,
            0.06100903078913689,
            -0.05869479849934578,
            -0.1104990616440773,
            -0.040151555091142654,
            -0.036452822387218475,
            -0.1971513330936432,
            -0.08227171748876572,
            0.01830640621483326,
            0.10394006967544556,
            -0.005842817015945911,
            -0.00943397544324398,
            0.03071092627942562,
            0.04389375448226929,
            -0.11147381365299225,
            -0.06870881468057632,
            0.0693359300494194,
            0.09136737883090973,
            -0.03584786131978035,
            -0.03619473800063133,
            -0.09441271424293518,
            -0.09907066822052002,
            0.01698407717049122,
            -0.0653650164604187,
            -0.2406361997127533,
            -0.02467336878180504,
            0.0269749965518713,
            0.04214158654212952,
            0.0727783814072609,
            0.043585438281297684,
            -0.06291712075471878,
            -0.025535142049193382,
            0.09740205109119415,
            0.014365965500473976,
            0.007014893926680088,
            0.00875838566571474,
            0.033047471195459366,
            -0.16204161942005157,
            -0.025904139503836632,
            0.007366586942225695,
            -0.20160174369812012,
            -0.04922346770763397,
            -0.030823688954114914,
            -0.11272519081830978,
            0.06621711701154709,
            -0.022371230646967888,
            0.07634753733873367,
            -0.05400262400507927,
            0.06783562153577805,
            0.08439408242702484,
            0.18603940308094025,
            0.006065279245376587,
            -0.03544575348496437,
            -0.01779993064701557,
            0.05903352424502373,
            -0.02968583256006241,
            0.042176514863967896,
            -0.14333905279636383,
            0.031208686530590057,
            -0.0304398313164711,
            -0.10302335768938065,
            -0.06626710295677185,
            -0.1793990433216095,
            -0.055020224303007126,
            -0.054669298231601715,
            0.016520565375685692,
            0.15491238236427307,
            -0.005448464769870043,
            0.0019959101919084787,
            -0.07220150530338287,
            0.043593332171440125,
            -0.008406007662415504,
            -0.0011194981634616852,
            -0.3507780134677887,
            0.05437443032860756,
            0.061748702079057693,
            -0.16622863709926605,
            0.06320001929998398,
            0.02183021977543831,
            0.24958564341068268,
            0.017957117408514023,
            -0.1277008205652237,
            0.03760194778442383,
            -0.049656592309474945,
            0.16252632439136505,
            0.16634245216846466,
            0.014179804362356663,
            0.0565238893032074,
            0.054050788283348083,
            -0.0410725362598896,
            -0.01588742434978485,
            0.10690586268901825,
            0.013049695640802383,
            0.03331589698791504,
            -0.02187027409672737,
            -0.013561447151005268,
            -0.13565590977668762,
            0.029958855360746384,
            0.04508410394191742,
            0.07351893931627274,
            -0.01725754514336586,
            -0.14013126492500305,
            0.12509137392044067,
            0.24249941110610962,
            -0.0330834798514843,
            0.01015818864107132,
            -0.015918070450425148,
            0.05845962092280388,
            -0.02967473305761814,
            0.11423393338918686,
            0.029946552589535713,
            -0.1732780933380127,
            -0.05050552263855934,
            -0.057037726044654846,
            0.18264363706111908,
            -0.05771435424685478,
            0.044997263699769974,
            -0.24029582738876343,
            0.06550504267215729,
            -0.04738423600792885,
            0.020149752497673035
        ],
        [
            -0.04356786236166954,
            -0.05615552142262459,
            0.02013429068028927,
            0.06378092616796494,
            -0.14230142533779144,
            -0.05190693214535713,
            0.03140011802315712,
            0.03896684944629669,
            -0.009406432509422302,
            0.09237854927778244,
            -0.1883312165737152,
            0.03135693073272705,
            0.03156513720750809,
            -0.18232136964797974,
            -0.012065601535141468,
            -0.05326106771826744,
            -0.12823344767093658,
            -0.009300600737333298,
            0.0570676214993,
            -0.00197730865329504,
            -0.05944623425602913,
            0.3003934919834137,
            -0.3420783579349518,
            -0.04061572253704071,
            -0.06819862872362137,
            -0.19597701728343964,
            -0.02366945892572403,
            -0.12204800546169281,
            0.057731930166482925,
            0.12058765441179276,
            -0.11203166097402573,
            -0.10879804939031601,
            0.10662806034088135,
            0.12105540931224823,
            -0.0019979977514594793,
            0.17665265500545502,
            -0.08769460022449493,
            -0.06695721298456192,
            -0.12935201823711395,
            0.008761780336499214,
            -0.2902655005455017,
            0.619917094707489,
            0.008440347388386726,
            0.03413767367601395,
            0.07060151547193527,
            -0.013873503543436527,
            0.0677894651889801,
            -0.3500313460826874,
            -0.35050714015960693,
            -0.02904910407960415,
            -0.03510766103863716,
            -0.19122309982776642,
            -0.03311547636985779,
            -0.07638145238161087,
            -0.03894885256886482,
            -0.044651392847299576,
            -0.026367120444774628,
            -0.4780521094799042,
            0.015369437634944916,
            -0.20914560556411743,
            -0.15550443530082703,
            0.009558194316923618,
            -0.002433379413560033,
            0.0678291767835617,
            -0.017828751355409622,
            -0.21441800892353058,
            0.04988954961299896,
            -0.10608974099159241,
            -0.03966100513935089,
            0.06442101299762726,
            0.025061994791030884,
            0.015304737724363804,
            -0.3967360854148865,
            -0.12529151141643524,
            -0.06301999092102051,
            0.0032285454217344522,
            -0.043816305696964264,
            0.17421387135982513,
            -0.025345902889966965,
            -0.012868438847362995,
            0.21948981285095215,
            0.04594797641038895,
            -0.022386880591511726,
            0.17409813404083252,
            -0.1090618371963501,
            0.023779554292559624,
            0.22000323235988617,
            -0.04318781569600105,
            -0.12047266960144043,
            0.07244937866926193,
            0.10629776120185852,
            0.00046339217806234956,
            -0.1306838095188141,
            -0.05326301231980324,
            0.12973468005657196,
            0.13672251999378204,
            0.06806989759206772,
            0.01323789358139038,
            -0.175576314330101,
            -0.01056845672428608,
            -0.08276443928480148,
            -0.3124023973941803,
            0.2274792641401291,
            0.020248353481292725,
            0.04053277522325516,
            0.018977012485265732,
            0.0219707153737545,
            0.14224505424499512,
            -0.267182320356369,
            0.05348046496510506,
            -0.15799030661582947,
            -0.008549905382096767,
            0.22770017385482788,
            -0.08064398169517517,
            -0.12926925718784332,
            0.03586283698678017,
            0.02449282817542553,
            -0.0688437893986702,
            0.05183232203125954,
            -0.3864125907421112,
            0.1677122563123703,
            0.08606939017772675,
            -0.0033338472712785006,
            -0.09105765074491501,
            0.4034767746925354,
            -0.007522506173700094,
            -0.10276282578706741,
            -0.19134101271629333
        ],
        [
            -0.03566077724099159,
            0.018516721203923225,
            0.11448422074317932,
            -0.043654393404722214,
            0.04094142094254494,
            0.08033906668424606,
            -0.06688074767589569,
            0.006969810463488102,
            0.011681552976369858,
            -0.06921657174825668,
            0.010798932053148746,
            -0.061642713844776154,
            0.0068720378912985325,
            0.009134123101830482,
            -0.17702974379062653,
            0.02064158208668232,
            0.015158227644860744,
            -0.07630108296871185,
            0.012349836528301239,
            0.1606108397245407,
            0.01999015174806118,
            -0.0998959094285965,
            -0.011382115073502064,
            -0.02718258462846279,
            0.06705552339553833,
            -0.19441168010234833,
            -0.010923320427536964,
            -0.11345814913511276,
            -0.033765487372875214,
            -0.009838204830884933,
            0.017494015395641327,
            0.040981926023960114,
            -0.09176675975322723,
            -0.04911164939403534,
            0.0013824200723320246,
            0.01709497906267643,
            -0.07282110303640366,
            0.0009708859142847359,
            -0.07274215668439865,
            0.0606473870575428,
            -0.018688052892684937,
            -0.04069935902953148,
            0.09937959164381027,
            -0.012475753203034401,
            -0.11442631483078003,
            0.023691315203905106,
            0.08617148548364639,
            0.17357318103313446,
            0.12286089360713959,
            -0.007279750891029835,
            0.02245115302503109,
            0.021689223125576973,
            -0.08419281244277954,
            -0.0009296660427935421,
            -0.10312243551015854,
            0.010174447670578957,
            -0.11094420403242111,
            -0.06742982566356659,
            -0.0014694922138005495,
            0.10897859930992126,
            -0.045556239783763885,
            -0.12923577427864075,
            0.05224473029375076,
            0.136856347322464,
            0.0368807315826416,
            0.02288379892706871,
            -0.18023797869682312,
            0.1410897821187973,
            -0.12284066528081894,
            0.09753362089395523,
            -0.07522688060998917,
            0.11647841334342957,
            0.08799545466899872,
            0.04439796507358551,
            0.1208958625793457,
            0.11400093883275986,
            0.14995574951171875,
            0.06908845156431198,
            0.029790835455060005,
            0.006600462831556797,
            -0.20516268908977509,
            -0.02415345050394535,
            0.02105375938117504,
            0.04417700693011284,
            -0.11284588277339935,
            0.07671959698200226,
            0.0913676843047142,
            -0.07372235506772995,
            -0.17534534633159637,
            -0.033653732389211655,
            -0.13504360616207123,
            -0.14901724457740784,
            0.08235924690961838,
            0.08284462243318558,
            -0.03525673598051071,
            0.021507108584046364,
            0.1316540539264679,
            -0.018802685663104057,
            0.014299437403678894,
            0.012190763838589191,
            -0.07839712500572205,
            -0.10979511588811874,
            0.016014596447348595,
            0.17086635529994965,
            -0.10945004224777222,
            -0.013955499976873398,
            -0.04938775673508644,
            0.03961915522813797,
            0.20026184618473053,
            -0.06650955975055695,
            0.05512164160609245,
            -0.002773837186396122,
            -0.07008197903633118,
            -0.02365410141646862,
            0.04272521659731865,
            -0.05052833631634712,
            0.016387533396482468,
            -0.024986766278743744,
            0.01213274709880352,
            0.0877714455127716,
            -0.07061095535755157,
            0.05962587520480156,
            0.037664104253053665,
            0.05755012854933739,
            -0.2050839066505432,
            0.0889301672577858,
            0.043027982115745544,
            0.08886042982339859
        ],
        [
            -0.061027318239212036,
            -0.0419338159263134,
            -0.01883014664053917,
            0.013966071419417858,
            0.25782614946365356,
            -0.1616927832365036,
            0.11298248916864395,
            0.024902155622839928,
            0.14854632318019867,
            0.07519032061100006,
            -0.07560364902019501,
            -0.0975213348865509,
            -0.07906656712293625,
            -0.08539415895938873,
            0.10879101604223251,
            0.09800601750612259,
            -0.013129889965057373,
            -0.12734410166740417,
            0.0027557595167309046,
            0.17649462819099426,
            0.09522927552461624,
            -0.09283187240362167,
            -0.045268211513757706,
            -0.13516099750995636,
            -0.052745431661605835,
            0.0315689742565155,
            0.15822897851467133,
            0.022908149287104607,
            0.08397442102432251,
            0.10792826861143112,
            0.1115521639585495,
            0.049153681844472885,
            -0.022103268653154373,
            -0.010918404906988144,
            0.10397230088710785,
            -0.42691320180892944,
            0.17097382247447968,
            -0.040362197905778885,
            -0.042103081941604614,
            -0.259183406829834,
            -0.23643718659877777,
            -0.0024106584023684263,
            0.06232902780175209,
            -0.053153082728385925,
            0.05137212947010994,
            -0.017345353960990906,
            0.39626315236091614,
            0.020797964185476303,
            -0.2724919319152832,
            0.029852742329239845,
            0.033399634063243866,
            0.08374636620283127,
            -0.05274397134780884,
            -0.030611470341682434,
            0.031021440401673317,
            -0.006764968857169151,
            0.05611850693821907,
            0.4371967315673828,
            0.07617264240980148,
            -0.17391978204250336,
            0.03729366511106491,
            0.10501574724912643,
            0.13813169300556183,
            -0.04294159263372421,
            0.1004737988114357,
            -0.021679088473320007,
            -0.16322527825832367,
            0.03612044081091881,
            0.027616672217845917,
            -0.37381595373153687,
            -0.08647161722183228,
            -0.009945310652256012,
            -0.0544799342751503,
            0.17312490940093994,
            -0.056224673986434937,
            -0.008133969269692898,
            0.0962204784154892,
            -0.0070107365027070045,
            0.0981699526309967,
            -0.1998455673456192,
            -0.13270092010498047,
            0.16758164763450623,
            -0.018552733585238457,
            0.021599162369966507,
            0.2027973085641861,
            0.022345377132296562,
            0.1173606738448143,
            -0.025579191744327545,
            0.0351763591170311,
            -0.008009928278625011,
            0.012079757638275623,
            -0.3254307210445404,
            -0.0790739506483078,
            0.308799147605896,
            0.18271346390247345,
            0.0007867602980695665,
            -0.005923408083617687,
            -0.06160363182425499,
            0.0738595575094223,
            -0.15628083050251007,
            -0.025448210537433624,
            0.0065414696000516415,
            -0.11734585464000702,
            -0.14338847994804382,
            0.07029099017381668,
            0.059115856885910034,
            0.11297520250082016,
            -0.009990690276026726,
            0.008338105864822865,
            0.054527293890714645,
            -0.03708798810839653,
            0.20012758672237396,
            0.1351134032011032,
            -0.05864129960536957,
            0.043856751173734665,
            -0.09686043113470078,
            -0.2862717807292938,
            -0.2257642149925232,
            0.13167838752269745,
            -0.32901501655578613,
            0.08046277612447739,
            0.4061983823776245,
            -0.015886729583144188,
            0.05028361827135086,
            0.5385098457336426,
            0.15828929841518402,
            -0.04241464287042618,
            0.016294129192829132
        ],
        [
            0.006833982188254595,
            0.03078869916498661,
            -0.15366026759147644,
            0.024012140929698944,
            -0.08932607620954514,
            0.027516497299075127,
            0.13277027010917664,
            -0.11076411604881287,
            -0.11225069314241409,
            0.06922903656959534,
            -0.11558163166046143,
            0.023213109001517296,
            -0.08145375549793243,
            -0.05693081021308899,
            0.3923911154270172,
            0.07956374436616898,
            0.014386185444891453,
            -0.1396838277578354,
            -0.1461523324251175,
            -0.00869265291839838,
            -0.04897186532616615,
            0.07375358790159225,
            0.1405889093875885,
            0.09075842797756195,
            -0.055979110300540924,
            0.14961707592010498,
            -0.06294337660074234,
            0.09007904678583145,
            -0.003881205106154084,
            0.10973990708589554,
            -0.33722633123397827,
            0.04157135635614395,
            0.01281056646257639,
            -0.06762509793043137,
            0.025345049798488617,
            0.014315864071249962,
            0.1599796563386917,
            0.05753323435783386,
            -0.07542312145233154,
            0.16421014070510864,
            0.054406583309173584,
            0.15905910730361938,
            0.07270775735378265,
            -0.10039898753166199,
            -0.14725767076015472,
            0.024938136339187622,
            -0.12208899855613708,
            -0.266533762216568,
            -0.048756036907434464,
            -0.0005370451253838837,
            0.14908599853515625,
            0.09495473653078079,
            0.03532356396317482,
            0.03687971457839012,
            -0.022332720458507538,
            0.1040302962064743,
            0.0005742325447499752,
            0.0037924691569060087,
            -0.1711685061454773,
            -0.043485671281814575,
            -0.050841350108385086,
            0.05153120681643486,
            -0.14476707577705383,
            0.17684614658355713,
            -0.03679823502898216,
            0.16992801427841187,
            0.09979221224784851,
            -0.10040692239999771,
            0.033979274332523346,
            0.028208618983626366,
            -0.011401222087442875,
            0.21844156086444855,
            -0.06781397759914398,
            -0.08314722776412964,
            0.10547301173210144,
            -0.05379891395568848,
            -0.047682564705610275,
            0.08062810450792313,
            -0.048117540776729584,
            -0.08591955155134201,
            -0.3990652859210968,
            0.033640917390584946,
            0.034126847982406616,
            0.10935906320810318,
            0.018850773572921753,
            -0.013961141929030418,
            0.09136246144771576,
            0.09687651693820953,
            0.18490932881832123,
            0.03694847226142883,
            0.08390916138887405,
            -0.005314979236572981,
            0.34006571769714355,
            -0.14530375599861145,
            0.030425120145082474,
            -0.04060214385390282,
            0.08595150709152222,
            -0.01538165658712387,
            0.039189413189888,
            -0.11945086717605591,
            -0.07189664989709854,
            0.38987040519714355,
            -0.050912778824567795,
            0.023853899911046028,
            0.03867189213633537,
            0.15464673936367035,
            0.023406511172652245,
            -0.09582919627428055,
            -0.019099291414022446,
            -0.026692086830735207,
            -0.02495567873120308,
            0.045045386999845505,
            -0.09483904391527176,
            0.1498972475528717,
            -0.026433097198605537,
            -0.0500815212726593,
            0.2919923663139343,
            -0.18329927325248718,
            -0.1209830567240715,
            0.48421522974967957,
            0.1822209656238556,
            -0.36121925711631775,
            -0.006545603275299072,
            0.12143581360578537,
            0.0021351256873458624,
            0.16446836292743683,
            0.12220444530248642,
            0.14288625121116638
        ],
        [
            0.0018546811770647764,
            0.031772878021001816,
            0.07992741465568542,
            -0.1233702078461647,
            0.07890269160270691,
            -0.07671147584915161,
            0.018343711271882057,
            -0.04455133527517319,
            -0.026435818523168564,
            -0.11700242757797241,
            0.14691747725009918,
            0.0039871265180408955,
            0.10013098269701004,
            -0.06316033750772476,
            0.03210975602269173,
            -0.04929519072175026,
            0.03210023418068886,
            0.012884276919066906,
            -0.020288677886128426,
            -0.10959543287754059,
            0.05760730430483818,
            -0.01917813904583454,
            0.06344246119260788,
            0.32793718576431274,
            0.10911695659160614,
            0.01619555801153183,
            -0.07751010358333588,
            0.04905661568045616,
            -0.026929890736937523,
            -0.020422397181391716,
            0.004162331111729145,
            -0.06137198582291603,
            0.011593117378652096,
            -0.023548966273665428,
            0.03083925135433674,
            0.03912471607327461,
            -0.017919648438692093,
            0.07732141762971878,
            0.0195381511002779,
            -0.027492834255099297,
            0.06593325734138489,
            -0.18406377732753754,
            -0.060688991099596024,
            0.01593637652695179,
            -0.06513814628124237,
            0.04043474420905113,
            -0.10261949151754379,
            -0.11980021744966507,
            -0.01106344349682331,
            0.05370515212416649,
            0.07586353272199631,
            0.025748146697878838,
            0.08373650163412094,
            0.044057343155145645,
            -0.0027857429813593626,
            0.09147189557552338,
            0.12329281866550446,
            -0.08458990603685379,
            0.018361935392022133,
            0.035717885941267014,
            0.1825019270181656,
            0.029611775651574135,
            0.01782809942960739,
            -0.05972425267100334,
            -0.026123998686671257,
            0.04967578500509262,
            -0.0005092365317977965,
            0.021658649668097496,
            0.20689059793949127,
            -0.01702001690864563,
            0.010503914207220078,
            0.09925947338342667,
            -0.0698387399315834,
            -0.02907954901456833,
            -0.049716975539922714,
            -0.016487615182995796,
            0.11203258484601974,
            -0.016485555097460747,
            0.0965738594532013,
            -0.05727585405111313,
            -0.0009082632604986429,
            -0.033468689769506454,
            -0.1190619021654129,
            0.28372547030448914,
            -0.1211884543299675,
            0.05257626995444298,
            0.024904251098632812,
            -0.07099079340696335,
            0.0714092031121254,
            0.0033776103518903255,
            -0.042838819324970245,
            -0.04377056285738945,
            -0.08355826139450073,
            -0.025524605065584183,
            0.024308763444423676,
            0.006848856806755066,
            -0.042885612696409225,
            0.03297550603747368,
            0.00011727363016689196,
            0.07233633100986481,
            0.06888356059789658,
            0.13173261284828186,
            -0.02375839650630951,
            -0.04075755923986435,
            0.04720095545053482,
            -0.13144879043102264,
            0.0031327384058386087,
            0.09237879514694214,
            -0.0949649065732956,
            0.07943661510944366,
            0.034633371978998184,
            -0.10445573180913925,
            0.09469252079725266,
            -0.036983367055654526,
            0.09347895532846451,
            0.1123560443520546,
            -0.00791596993803978,
            0.02320149540901184,
            0.014987978152930737,
            0.0999169647693634,
            -0.04587043449282646,
            -0.076640784740448,
            -0.02633756771683693,
            0.04441870003938675,
            -0.06621450930833817,
            -0.047571100294589996,
            -0.030458157882094383,
            0.12384375184774399
        ],
        [
            -0.21259160339832306,
            -0.1234094426035881,
            0.12444228678941727,
            0.019622430205345154,
            0.1350494921207428,
            -0.11107222735881805,
            0.07347104698419571,
            0.08043067902326584,
            -0.08465650677680969,
            -0.03517445549368858,
            -0.20065253973007202,
            0.05300876498222351,
            0.04750193655490875,
            -0.475155234336853,
            0.0734390988945961,
            0.15115202963352203,
            0.663957417011261,
            -0.08501981198787689,
            0.05919509753584862,
            0.16485503315925598,
            0.38561999797821045,
            0.20843593776226044,
            -0.22496606409549713,
            -0.13445405662059784,
            0.14232800900936127,
            0.07008560746908188,
            0.03531257435679436,
            0.06183342635631561,
            0.0673193708062172,
            -0.010360168293118477,
            -0.3439236879348755,
            0.04231354594230652,
            0.061560243368148804,
            -0.03284202888607979,
            0.024415289983153343,
            0.032086919993162155,
            -0.03898826986551285,
            0.11888636648654938,
            -0.037332627922296524,
            0.07297976315021515,
            -0.5972833633422852,
            0.01765979826450348,
            0.1354055404663086,
            -0.14000795781612396,
            -0.045466624200344086,
            -0.16529059410095215,
            0.3752663731575012,
            0.3816961944103241,
            0.07548876851797104,
            0.06272820383310318,
            -0.17528602480888367,
            -0.041289232671260834,
            -0.131972998380661,
            -0.049756404012441635,
            0.11095761507749557,
            -0.12309367954730988,
            -0.028888612985610962,
            -0.01018303632736206,
            0.38994264602661133,
            -0.18332958221435547,
            0.09338687360286713,
            -0.2273680865764618,
            -0.02879101224243641,
            -0.005613218992948532,
            0.10320834815502167,
            0.16546539962291718,
            -0.05504467710852623,
            0.061019670218229294,
            0.057015515863895416,
            0.1674966812133789,
            0.08145636320114136,
            -0.17700697481632233,
            -1.1605201959609985,
            0.12335944175720215,
            0.0008735807496123016,
            -0.004763814155012369,
            0.15810218453407288,
            -0.1326301544904709,
            0.04744806885719299,
            0.04236987233161926,
            0.0933828353881836,
            0.014522090554237366,
            0.0937853679060936,
            0.22937491536140442,
            0.12126368284225464,
            -0.0314398817718029,
            0.05002240091562271,
            -0.04921453446149826,
            0.14918379485607147,
            0.10992525517940521,
            -0.4751189947128296,
            0.0044036065228283405,
            0.23059627413749695,
            -0.04965275526046753,
            -0.05586175248026848,
            0.038347527384757996,
            -0.03098161332309246,
            -0.04363896697759628,
            -0.018820052966475487,
            0.03503895923495293,
            0.09037690609693527,
            -0.2503643333911896,
            0.47961246967315674,
            0.13327759504318237,
            0.0803065374493599,
            -0.2558698356151581,
            0.11929014325141907,
            0.2784699499607086,
            0.12694299221038818,
            -0.12623938918113708,
            0.45291319489479065,
            0.03702496737241745,
            0.17870549857616425,
            -0.10060210525989532,
            -0.21202926337718964,
            -0.03043479099869728,
            0.14249621331691742,
            0.09023720026016235,
            0.0665023997426033,
            0.4376590847969055,
            0.4302860200405121,
            0.2744448781013489,
            -0.08512254804372787,
            -0.28882086277008057,
            0.06239843741059303,
            0.05749737471342087,
            -0.06840787082910538,
            -0.09460816532373428
        ],
        [
            -0.021062348037958145,
            0.009632173925638199,
            -0.17321179807186127,
            -0.034842733293771744,
            0.0408511757850647,
            -0.04382140561938286,
            0.012809542007744312,
            -0.039786577224731445,
            -0.026129016652703285,
            -0.07882894575595856,
            -0.1866225004196167,
            0.08148767054080963,
            -0.006675519980490208,
            -0.05993419885635376,
            -0.013630908913910389,
            -0.11123525351285934,
            -0.46194884181022644,
            0.1549612283706665,
            -0.12787552177906036,
            -0.030147315934300423,
            -0.09234553575515747,
            0.021372059360146523,
            -0.09564027935266495,
            0.1048826202750206,
            -0.03514114022254944,
            0.0400235652923584,
            0.01443951204419136,
            0.23678313195705414,
            -0.14222486317157745,
            0.010251890867948532,
            0.013141018338501453,
            -0.18784074485301971,
            0.033104125410318375,
            0.27121371030807495,
            -0.0466790609061718,
            -0.02334580197930336,
            0.05198981240391731,
            0.0075975446961820126,
            0.039287686347961426,
            0.08941396325826645,
            -0.06357554346323013,
            0.15420833230018616,
            0.12829743325710297,
            -0.12299204617738724,
            -0.010849489830434322,
            0.1513158679008484,
            0.16328147053718567,
            -0.6468268632888794,
            -0.09956353157758713,
            0.0012485123006626964,
            0.13491085171699524,
            0.242295503616333,
            0.07132162153720856,
            -0.011360002681612968,
            0.04611719027161598,
            -0.17566953599452972,
            -0.05118579417467117,
            -0.03872025012969971,
            -0.0598241463303566,
            -0.02412748709321022,
            -0.05540507659316063,
            0.15218374133110046,
            -0.07062696665525436,
            -0.24136139452457428,
            -0.005473349243402481,
            -0.020174331963062286,
            -0.16017885506153107,
            -0.03435453027486801,
            0.03413290157914162,
            -0.03610333055257797,
            0.060354601591825485,
            -0.2690235376358032,
            0.06193847954273224,
            0.08432416617870331,
            0.03709184378385544,
            -0.013104327954351902,
            -0.022647598758339882,
            -0.1066754087805748,
            0.007533847354352474,
            -0.031029725447297096,
            0.06673987954854965,
            0.03552737087011337,
            0.051788151264190674,
            0.14409635961055756,
            0.07768794894218445,
            -0.014624153263866901,
            0.042021494358778,
            -0.009926669299602509,
            0.09534180164337158,
            -0.08084244281053543,
            -0.15158864855766296,
            0.12888596951961517,
            0.0037211007438600063,
            -0.023692769929766655,
            -0.0031590121798217297,
            -0.11827452480792999,
            0.053707871586084366,
            -0.009418338537216187,
            -0.09083773195743561,
            0.0530829094350338,
            0.17191244661808014,
            -0.015444583259522915,
            -0.19525358080863953,
            0.034384943544864655,
            -0.031481001526117325,
            -0.03698804974555969,
            -0.09731131792068481,
            -0.10970061272382736,
            0.2587537467479706,
            0.016926364973187447,
            -0.004816841334104538,
            0.10109666734933853,
            0.23864036798477173,
            0.020082546398043633,
            -0.010146343149244785,
            0.023990655317902565,
            0.09333410859107971,
            -0.042694106698036194,
            -0.06784731149673462,
            -0.08247219771146774,
            -0.14555925130844116,
            -0.092429980635643,
            0.01770509034395218,
            0.12687991559505463,
            -0.17893756926059723,
            -0.014906872995197773,
            -0.014697685837745667,
            -0.19919975101947784
        ],
        [
            0.022889066487550735,
            -0.11963649839162827,
            0.02396630123257637,
            0.05469036102294922,
            -0.13358916342258453,
            -0.09463609755039215,
            -0.07014292478561401,
            0.003989303484559059,
            0.1219317615032196,
            -0.22328291833400726,
            0.28630030155181885,
            -0.054778121411800385,
            -0.03522589057683945,
            -0.027762124314904213,
            -0.12841930985450745,
            0.027094192802906036,
            -0.07156204432249069,
            -0.012699569575488567,
            0.014907547272741795,
            -0.13131819665431976,
            -0.3008022904396057,
            0.17458420991897583,
            -0.10562438517808914,
            0.1304870843887329,
            -0.027199307456612587,
            0.0024744707625359297,
            0.021529855206608772,
            -0.018396316096186638,
            0.13605397939682007,
            -0.019726227968931198,
            0.20940068364143372,
            -0.005262928083539009,
            -0.044728782027959824,
            -0.025470629334449768,
            0.1255003809928894,
            0.02123071812093258,
            -0.033469218760728836,
            -0.13762126863002777,
            -0.07282018661499023,
            -0.3266424834728241,
            0.11414087563753128,
            -0.6203508377075195,
            0.08627153187990189,
            0.005118279717862606,
            -0.013590415939688683,
            -0.16326388716697693,
            -0.05502662435173988,
            0.15157289803028107,
            0.3045736849308014,
            0.18883797526359558,
            -0.2532053589820862,
            -0.11107482016086578,
            0.015342584811151028,
            0.11850894242525101,
            0.08308611065149307,
            -0.031985390931367874,
            -0.05530771613121033,
            0.11472787708044052,
            0.25647303462028503,
            0.1157810240983963,
            0.05292297154664993,
            0.035631902515888214,
            0.0423194095492363,
            -0.17915324866771698,
            0.26588165760040283,
            0.007302728481590748,
            0.007492914795875549,
            0.044701967388391495,
            0.08560261130332947,
            -0.009311261586844921,
            -0.033679086714982986,
            -0.06628149002790451,
            -0.16263240575790405,
            0.01087474636733532,
            -0.022901391610503197,
            -0.07835106551647186,
            -0.06090089678764343,
            -0.06273755431175232,
            0.009152638725936413,
            0.10016929358243942,
            -0.5919553637504578,
            -0.08586673438549042,
            0.050677742809057236,
            0.08115186542272568,
            0.006116353906691074,
            0.03559159114956856,
            0.09531667083501816,
            0.03568367287516594,
            -0.10832180827856064,
            -0.0027831587940454483,
            0.3341057002544403,
            0.05605586990714073,
            -0.43183571100234985,
            -0.020497430115938187,
            -0.10683324933052063,
            -0.041198503226041794,
            -0.11778176575899124,
            0.1649506688117981,
            -0.060852061957120895,
            0.044565942138433456,
            -0.05619838461279869,
            -0.38067132234573364,
            0.4407242238521576,
            -0.16602714359760284,
            -0.10101642459630966,
            -0.02527548559010029,
            0.038445524871349335,
            0.1963602751493454,
            -0.04416084662079811,
            -0.04159010201692581,
            0.3822248578071594,
            -0.13508354127407074,
            0.10008438676595688,
            0.013562760315835476,
            0.005979720037430525,
            0.0835689902305603,
            0.07126423716545105,
            -0.08534260839223862,
            0.03244291618466377,
            -0.21388095617294312,
            -0.22125962376594543,
            0.05621228367090225,
            -0.07573731243610382,
            0.133244588971138,
            0.0990225076675415,
            0.12663128972053528,
            -0.05442706495523453,
            0.3242592215538025
        ],
        [
            0.08250505477190018,
            0.07675036787986755,
            0.06445478647947311,
            -0.030869627371430397,
            -0.07862156629562378,
            -0.007744567468762398,
            -0.11567956954240799,
            -0.04508240148425102,
            0.06185300275683403,
            -0.07976419478654861,
            0.17923994362354279,
            0.07406727224588394,
            0.006701973732560873,
            0.11491096019744873,
            0.23495666682720184,
            -0.049048665910959244,
            -0.01283466536551714,
            0.08001183718442917,
            0.014698625542223454,
            -0.06498077511787415,
            -0.14030389487743378,
            -0.026349641382694244,
            -0.029949046671390533,
            -0.2141985446214676,
            0.19943822920322418,
            -0.019751476123929024,
            -0.13487012684345245,
            -0.026485392823815346,
            0.204452782869339,
            -0.006147083826363087,
            0.024017322808504105,
            -0.027283623814582825,
            -0.020777113735675812,
            -0.024175072088837624,
            -0.17134492099285126,
            -0.013670926913619041,
            0.20189796388149261,
            -0.09612396359443665,
            0.04289807379245758,
            0.11720293760299683,
            0.0015516513958573341,
            -0.004160999786108732,
            -0.0027412883937358856,
            0.05239853635430336,
            -0.050668198615312576,
            0.06064547225832939,
            -0.03212987631559372,
            -0.019589439034461975,
            -0.09020921587944031,
            -0.03577348217368126,
            0.05225168168544769,
            0.014798421412706375,
            -0.04406055808067322,
            0.02021082490682602,
            -0.004155902657657862,
            -0.007749115116894245,
            0.005382418632507324,
            0.10588663071393967,
            -0.14178624749183655,
            0.09738174080848694,
            0.09153293818235397,
            0.017959481105208397,
            -0.05020623654127121,
            -0.08306603133678436,
            -0.06648804247379303,
            -0.007136224769055843,
            0.14685310423374176,
            0.011074570007622242,
            0.039147280156612396,
            -0.0006898592109791934,
            -0.012549092061817646,
            -0.06976734101772308,
            -0.14200617372989655,
            -0.07671500742435455,
            0.026718799024820328,
            -0.04271351918578148,
            -0.03155824542045593,
            -0.002574110636487603,
            -0.05101887881755829,
            0.10734926909208298,
            0.018983660265803337,
            0.1560204178094864,
            0.13446371257305145,
            -0.007470179349184036,
            -0.12726250290870667,
            -0.002498587593436241,
            0.002695986535400152,
            -0.012263637036085129,
            0.02945750579237938,
            0.03351446986198425,
            -0.05309698358178139,
            0.06891996413469315,
            -0.018669666722416878,
            -0.06804803013801575,
            -0.026831841096282005,
            0.011971859261393547,
            -0.01924537867307663,
            0.08044222742319107,
            0.01964959315955639,
            0.03169432282447815,
            0.11333272606134415,
            -0.04726671800017357,
            -0.25642848014831543,
            0.0576847605407238,
            -0.046827156096696854,
            -0.05411500856280327,
            -0.07266953587532043,
            0.07816112041473389,
            0.010393092408776283,
            -0.0809260755777359,
            0.489270955324173,
            -0.022949498146772385,
            0.05807005614042282,
            -0.010255771689116955,
            -0.06807874143123627,
            0.08169484883546829,
            0.030249744653701782,
            0.19189557433128357,
            -0.04696936160326004,
            0.15786884725093842,
            -0.11690206080675125,
            -0.17557252943515778,
            0.0026535815559327602,
            0.2582346200942993,
            0.17300498485565186,
            -0.034954264760017395,
            0.030651705339550972,
            0.04066874831914902
        ],
        [
            -0.017629750072956085,
            -0.033558640629053116,
            -0.0658387839794159,
            -0.012711144983768463,
            -0.10817346721887589,
            -0.047492463141679764,
            -0.0586707629263401,
            -0.006931977346539497,
            0.03530373051762581,
            0.04063291475176811,
            0.08625753968954086,
            -0.04758517071604729,
            -0.019684869796037674,
            -0.1781970113515854,
            0.10110916197299957,
            0.004647761583328247,
            0.06639865785837173,
            -0.010891401208937168,
            0.0031979044433683157,
            0.046641845256090164,
            -0.005347878206521273,
            -0.19344010949134827,
            -0.026804421097040176,
            -0.10407758504152298,
            0.06211850792169571,
            -0.024849750101566315,
            -0.030108574777841568,
            0.019019873812794685,
            0.022422008216381073,
            -0.05603178218007088,
            -0.14772100746631622,
            -0.04139469936490059,
            -0.0029631168581545353,
            -0.014536641538143158,
            0.0025907233357429504,
            0.056845784187316895,
            -0.12307147681713104,
            -0.04303558170795441,
            -0.014952161349356174,
            0.09812770783901215,
            0.025038041174411774,
            0.051536675542593,
            -0.19003041088581085,
            0.023866266012191772,
            0.05156123265624046,
            0.03972477838397026,
            0.20406115055084229,
            0.1986122876405716,
            -0.0820036232471466,
            0.03737649321556091,
            -0.029094846919178963,
            -0.060633011162281036,
            0.029731038957834244,
            0.09472712129354477,
            0.01680820621550083,
            0.02117413841187954,
            0.07792416960000992,
            0.02043439820408821,
            0.047396205365657806,
            0.09705357253551483,
            0.09649541229009628,
            -0.12247539311647415,
            -0.0452197901904583,
            0.02462431602180004,
            0.018552079796791077,
            0.0002039515966316685,
            -0.029145637527108192,
            0.19584913551807404,
            0.058841995894908905,
            0.16426077485084534,
            -0.03996898606419563,
            0.04161907732486725,
            -0.1509082317352295,
            0.03658955916762352,
            0.08366874605417252,
            -0.05835246294736862,
            -0.047316912561655045,
            -0.009349814616143703,
            -0.11621499061584473,
            0.05834469199180603,
            -0.08679988980293274,
            -0.09451432526111603,
            0.12028192728757858,
            -0.017835527658462524,
            -0.06100229546427727,
            -0.004414049442857504,
            0.01150207407772541,
            0.03179192915558815,
            -0.0009177846950478852,
            0.03733009099960327,
            -0.021725699305534363,
            0.02001805230975151,
            -0.030646750703454018,
            0.038080379366874695,
            -0.05978342145681381,
            -0.061875615268945694,
            0.08839794993400574,
            0.07083207368850708,
            0.0047602043487131596,
            0.02495078556239605,
            0.11852499097585678,
            0.045826755464076996,
            0.0624934621155262,
            0.10007022321224213,
            -0.04422551766037941,
            -0.036063265055418015,
            -0.04133987054228783,
            0.058695293962955475,
            -0.13183794915676117,
            -0.036649901419878006,
            -0.04743926599621773,
            0.06634553521871567,
            0.014106575399637222,
            -0.08130856603384018,
            -0.0394563302397728,
            -0.02965659461915493,
            0.07474645972251892,
            0.001997570274397731,
            0.020694304257631302,
            0.010869271121919155,
            -0.15934264659881592,
            -0.0964793860912323,
            0.07348610460758209,
            -0.003865632228553295,
            0.19866548478603363,
            0.15142978727817535,
            0.017614902928471565,
            -0.010820268653333187
        ],
        [
            0.030187947675585747,
            0.045078303664922714,
            0.06600932776927948,
            -0.07641018182039261,
            -0.18558438122272491,
            -0.29507529735565186,
            -0.08160793036222458,
            0.017252400517463684,
            -0.15302865207195282,
            -0.011223381385207176,
            0.24054200947284698,
            -0.11216215789318085,
            0.03971850872039795,
            0.03131451457738876,
            0.1149214655160904,
            -0.017541291192173958,
            -0.06406200677156448,
            0.03928231820464134,
            0.15060867369174957,
            -0.16597826778888702,
            0.06461332738399506,
            0.005053787492215633,
            -0.16913725435733795,
            -0.16206872463226318,
            -0.06227991357445717,
            -0.02773144654929638,
            0.08822412043809891,
